{"learner":{"attributes":{"best_iteration":"0","best_score":"1.0"},"feature_names":["temp_range_low","temp_range_high","range_width","range_center","target_month","target_day","first_yes_price","forecast_available","forecast_temp_max","model_count_available","temp_max_mean","temp_max_spread","temp_max_std","gfs_seamless_temp_max","icon_seamless_temp_max","temp_max_bucket_gap","temp_max_in_bucket","forecast_shift_mean","forecast_shift_max","forecast_shift_direction","forecast_consensus_shift","forecast_stability","models_changed_count","prob_shift","climatology_normal","climatology_anomaly","climatology_anomaly_abs","is_extreme_forecast","hours_to_resolution","is_same_day","is_next_day","season","day_of_week","market_price_change_1h","market_price_change_3h","market_price_velocity","market_price_vs_model","market_volume_signal","ensemble_mean","ensemble_std","ensemble_spread","ensemble_p10","ensemble_p90","ensemble_skew"],"feature_types":["float","float","float","float","int","int","float","float","float","int","float","float","float","float","float","float","float","float","float","float","float","float","float","float","int","float","float","float","float","float","float","int","int","float","float","float","float","float","float","float","float","float","float","float"],"gradient_booster":{"model":{"gbtree_model_param":{"num_parallel_tree":"1","num_trees":"61"},"iteration_indptr":[0,1,2,3,4,5,6,7,8,9,10,11,12,13,14,15,16,17,18,19,20,21,22,23,24,25,26,27,28,29,30,31,32,33,34,35,36,37,38,39,40,41,42,43,44,45,46,47,48,49,50,51,52,53,54,55,56,57,58,59,60,61],"tree_info":[0,0,0,0,0,0,0,0,0,0,0,0,0,0,0,0,0,0,0,0,0,0,0,0,0,0,0,0,0,0,0,0,0,0,0,0,0,0,0,0,0,0,0,0,0,0,0,0,0,0,0,0,0,0,0,0,0,0,0,0,0],"trees":[{"base_weights":[-7.2903834E-2,-9.885714E-2,9.877121E-2],"categories":[],"categories_nodes":[],"categories_segments":[],"categories_sizes":[],"default_left":[0,0,0],"id":0,"left_children":[1,-1,-1],"loss_changes":[6.587243E2,0E0,0E0],"parents":[2147483647,0,0],"right_children":[2,-1,-1],"split_conditions":[1E0,-9.885714E-2,9.877121E-2],"split_indices":[6,0,0],"split_type":[0,0,0],"sum_hessian":[1.6688043E2,8.65E1,8.038044E1],"tree_param":{"num_deleted":"0","num_feature":"44","num_nodes":"3","size_leaf_vector":"1"}},{"base_weights":[-3.135872E-2,-9.418286E-2,9.414973E-2],"categories":[],"categories_nodes":[],"categories_segments":[],"categories_sizes":[],"default_left":[0,0,0],"id":1,"left_children":[1,-1,-1],"loss_changes":[5.9863135E2,0E0,0E0],"parents":[2147483647,0,0],"right_children":[2,-1,-1],"split_conditions":[1E0,-9.418286E-2,9.414973E-2],"split_indices":[6,0,0],"split_type":[0,0,0],"sum_hessian":[1.6682071E2,8.479267E1,8.202804E1],"tree_param":{"num_deleted":"0","num_feature":"44","num_nodes":"3","size_leaf_vector":"1"}},{"base_weights":[2.4912179E-2,-9.014568E-2,9.017931E-2],"categories":[],"categories_nodes":[],"categories_segments":[],"categories_sizes":[],"default_left":[0,0,0],"id":2,"left_children":[1,-1,-1],"loss_changes":[5.5841833E2,0E0,0E0],"parents":[2147483647,0,0],"right_children":[2,-1,-1],"split_conditions":[1E0,-9.014568E-2,9.017931E-2],"split_indices":[6,0,0],"split_type":[0,0,0],"sum_hessian":[1.6976237E2,8.371765E1,8.604472E1],"tree_param":{"num_deleted":"0","num_feature":"44","num_nodes":"3","size_leaf_vector":"1"}},{"base_weights":[1.2030921E-2,-5.712064E-1,1.5329258E0,1.5525799E-2,-9.5618063E-1,6.4833003E-1,7.967948E-2,-7.160545E-1,1.0229347E0,-4.0531552E-1,-1.4585974E0,5.648647E-2,-2.2643618E-3,-1.4168721E0,-1.19380895E-2,1.4100944E0,-6.8207765E-1,-6.852831E-1,1.0618812E0,-8.485383E-2,-3.654218E-1,-2.9326048E-1,-8.052546E-2,8.2566124E-1,-1.0778378E0,7.188333E-1,8.080856E-2,-6.226168E-2,2.6929054E-2,2.2213097E-1,-9.2294526E-1,5.660772E-3,6.870615E-2,6.4833003E-1,-6.788254E-2,-4.827199E-2,2.6929054E-2,6.5498956E-2,-5.218014E-2,2.6929054E-2,-7.3404916E-2,6.408499E-2,-8.948909E-3,3.09701E-2,-4.827199E-2,-2.890758E-2,-7.717176E-2,5.648647E-2,-2.2643618E-3],"categories":[],"categories_nodes":[],"categories_segments":[],"categories_sizes":[],"default_left":[0,0,0,0,0,0,0,0,0,0,0,0,0,0,0,0,0,0,0,0,0,0,0,0,0,0,0,0,0,0,0,0,0,0,0,0,0,0,0,0,0,0,0,0,0,0,0,0,0],"id":3,"left_children":[1,3,5,7,9,11,-1,13,15,17,19,-1,-1,21,23,25,27,29,31,-1,33,35,-1,37,39,41,-1,-1,-1,43,45,-1,-1,47,-1,-1,-1,-1,-1,-1,-1,-1,-1,-1,-1,-1,-1,-1,-1],"loss_changes":[1.5016347E2,2.765694E1,1.484787E0,3.7190216E1,1.9864182E1,1.6195741E0,0E0,1.4414364E1,1.4971018E1,1.577803E1,9.356712E0,0E0,0E0,2.7148037E0,1.48146925E1,1.3484383E0,3.8336499E0,6.9715357E0,1.6997261E0,0E0,9.05586E0,2.4076302E0,0E0,9.7865095E0,5.393713E0,3.1845975E0,0E0,0E0,0E0,4.0506196E0,4.4685917E0,0E0,0E0,1.6195741E0,0E0,0E0,0E0,0E0,0E0,0E0,0E0,0E0,0E0,0E0,0E0,0E0,0E0,0E0,0E0],"parents":[2147483647,0,0,1,1,2,2,3,3,4,4,5,5,7,7,8,8,9,9,10,10,13,13,14,14,15,15,16,16,17,17,18,18,20,20,21,21,23,23,24,24,25,25,29,29,30,30,33,33],"right_children":[2,4,6,8,10,12,-1,14,16,18,20,-1,-1,22,24,26,28,30,32,-1,34,36,-1,38,40,42,-1,-1,-1,44,46,-1,-1,48,-1,-1,-1,-1,-1,-1,-1,-1,-1,-1,-1,-1,-1,-1,-1],"split_conditions":[1E0,4.89892E1,-1.2033333E1,6.5000005E0,8.1E0,9.4281E-2,7.967948E-2,1.69E1,7E1,6.5E0,2.3E1,5.648647E-2,-2.2643618E-3,-3.058E1,6.4E1,4.89817E1,9.74109E-1,-3.394E1,5.71548E-1,-8.485383E-2,8.799999E0,-3.1E0,-8.052546E-2,2.56E0,1.24722E-1,2.3E1,8.080856E-2,-6.226168E-2,2.6929054E-2,2.6E1,4E0,5.660772E-3,6.870615E-2,2.82843E-1,-6.788254E-2,-4.827199E-2,2.6929054E-2,6.5498956E-2,-5.218014E-2,2.6929054E-2,-7.3404916E-2,6.408499E-2,-8.948909E-3,3.09701E-2,-4.827199E-2,-2.890758E-2,-7.717176E-2,5.648647E-2,-2.2643618E-3],"split_indices":[16,28,25,25,14,12,0,8,0,8,5,0,0,25,0,28,12,25,12,0,26,8,0,25,12,0,0,0,0,5,32,0,0,12,0,0,0,0,0,0,0,0,0,0,0,0,0,0,0],"split_type":[0,0,0,0,0,0,0,0,0,0,0,0,0,0,0,0,0,0,0,0,0,0,0,0,0,0,0,0,0,0,0,0,0,0,0,0,0,0,0,0,0,0,0,0,0,0,0,0,0],"sum_hessian":[1.6729839E2,1.21376854E2,4.592153E1,4.8467735E1,7.290912E1,3.6971533E0,4.2224377E1,2.8245247E1,2.0222486E1,3.5639553E1,3.7269566E1,1.8112912E0,1.8858621E0,1.3648459E1,1.4596788E1,1.6621246E1,3.6012409E0,3.0376163E1,5.2633905E0,3.0141655E1,7.1279106E0,2.3759704E0,1.127249E1,8.2999525E0,6.296836E0,4.847853E0,1.1773393E1,2.450541E0,1.1506997E0,6.3181777E0,2.4057985E1,1.640808E0,3.6225824E0,3.6971533E0,3.4307575E0,1.2252705E0,1.1506997E0,6.8296275E0,1.4703246E0,1.1506997E0,5.1461363E0,2.7169368E0,2.130916E0,5.092907E0,1.2252705E0,1.6706364E1,7.3516235E0,1.8112912E0,1.8858621E0],"tree_param":{"num_deleted":"0","num_feature":"44","num_nodes":"49","size_leaf_vector":"1"}},{"base_weights":[6.1476383E-2,-8.443819E-2,8.470883E-2],"categories":[],"categories_nodes":[],"categories_segments":[],"categories_sizes":[],"default_left":[0,0,0],"id":4,"left_children":[1,-1,-1],"loss_changes":[4.9143817E2,0E0,0E0],"parents":[2147483647,0,0],"right_children":[2,-1,-1],"split_conditions":[1E0,-8.443819E-2,8.470883E-2],"split_indices":[6,0,0],"split_type":[0,0,0],"sum_hessian":[1.6997359E2,8.2017365E1,8.795622E1],"tree_param":{"num_deleted":"0","num_feature":"44","num_nodes":"3","size_leaf_vector":"1"}},{"base_weights":[-1.7742371E-2,-8.155697E-2,8.171976E-2],"categories":[],"categories_nodes":[],"categories_segments":[],"categories_sizes":[],"default_left":[0,0,0],"id":5,"left_children":[1,-1,-1],"loss_changes":[4.3418384E2,0E0,0E0],"parents":[2147483647,0,0],"right_children":[2,-1,-1],"split_conditions":[1E0,-8.155697E-2,8.171976E-2],"split_indices":[6,0,0],"split_type":[0,0,0],"sum_hessian":[1.6088676E2,8.140415E1,7.948261E1],"tree_param":{"num_deleted":"0","num_feature":"44","num_nodes":"3","size_leaf_vector":"1"}},{"base_weights":[-4.793345E-2,-7.914263E-2,7.917163E-2],"categories":[],"categories_nodes":[],"categories_segments":[],"categories_sizes":[],"default_left":[0,0,0],"id":6,"left_children":[1,-1,-1],"loss_changes":[3.9918835E2,0E0,0E0],"parents":[2147483647,0,0],"right_children":[2,-1,-1],"split_conditions":[1E0,-7.914263E-2,7.917163E-2],"split_indices":[6,0,0],"split_type":[0,0,0],"sum_hessian":[1.574184E2,8.112205E1,7.629635E1],"tree_param":{"num_deleted":"0","num_feature":"44","num_nodes":"3","size_leaf_vector":"1"}},{"base_weights":[1.4457042E-2,-7.6791614E-2,7.6985724E-2],"categories":[],"categories_nodes":[],"categories_segments":[],"categories_sizes":[],"default_left":[0,0,0],"id":7,"left_children":[1,-1,-1],"loss_changes":[3.7129977E2,0E0,0E0],"parents":[2147483647,0,0],"right_children":[2,-1,-1],"split_conditions":[1E0,-7.6791614E-2,7.6985724E-2],"split_indices":[6,0,0],"split_type":[0,0,0],"sum_hessian":[1.5502493E2,7.687815E1,7.814678E1],"tree_param":{"num_deleted":"0","num_feature":"44","num_nodes":"3","size_leaf_vector":"1"}},{"base_weights":[-9.973923E-3,-7.479534E-2,7.483815E-2],"categories":[],"categories_nodes":[],"categories_segments":[],"categories_sizes":[],"default_left":[0,0,0],"id":8,"left_children":[1,-1,-1],"loss_changes":[3.48511E2,0E0,0E0],"parents":[2147483647,0,0],"right_children":[2,-1,-1],"split_conditions":[1E0,-7.479534E-2,7.483815E-2],"split_indices":[6,0,0],"split_type":[0,0,0],"sum_hessian":[1.5366098E2,7.736821E1,7.629278E1],"tree_param":{"num_deleted":"0","num_feature":"44","num_nodes":"3","size_leaf_vector":"1"}},{"base_weights":[-1.647466E-2,-8.133373E-1,1.038674E0,-2.976774E-2,-1.1023543E0,-3.4769006E-2,1.1299505E0,-6.1366558E-2,3.271694E-1,2.167102E-1,-1.2004073E0,3.6568728E-1,-4.2337906E-2,3.1680226E-1,1.2206296E0,-7.5357294E-1,1.0959146E0,-7.36852E-3,2.3405192E-2,-5.853326E-2,-1.307322E0,-2.2257309E-1,4.6518844E-2,-4.6686407E-2,8.639883E-1,5.902774E-1,6.319195E-2,-6.308167E-2,3.6959376E-2,4.501898E-3,6.1377883E-2,-4.811634E-2,5.3428733E-1,-1.3494852E0,5.831341E-3,2.3120044E-2,-3.918371E-2,3.8607195E-3,5.601565E-2,4.5176838E-2,-2.6987537E-3,4.622679E-2,-2.1534867E-3,-7.196767E-2,-4.27328E-2],"categories":[],"categories_nodes":[],"categories_segments":[],"categories_sizes":[],"default_left":[0,0,0,0,0,0,0,0,0,0,0,0,0,0,0,0,0,0,0,0,0,0,0,0,0,0,0,0,0,0,0,0,0,0,0,0,0,0,0,0,0,0,0,0,0],"id":9,"left_children":[1,3,5,7,9,11,13,-1,15,17,19,21,-1,23,25,27,29,-1,-1,31,33,35,-1,-1,37,39,-1,-1,-1,-1,-1,-1,41,43,-1,-1,-1,-1,-1,-1,-1,-1,-1,-1,-1],"loss_changes":[1.2826967E2,1.9647854E1,6.4713516E0,1.0850543E1,8.467842E0,2.2979517E0,4.076645E0,0E0,1.7127565E1,5.4840004E-1,7.1533813E0,1.7994018E0,0E0,5.886456E0,7.277374E-1,7.5673423E0,1.4616728E0,0E0,0E0,3.791613E0,3.405716E0,1.5748489E0,0E0,0E0,1.059659E0,1.1279771E0,0E0,0E0,0E0,0E0,0E0,0E0,1.0170141E0,1.1101608E0,0E0,0E0,0E0,0E0,0E0,0E0,0E0,0E0,0E0,0E0,0E0],"parents":[2147483647,0,0,1,1,2,2,3,3,4,4,5,5,6,6,8,8,9,9,10,10,11,11,13,13,14,14,15,15,16,16,19,19,20,20,21,21,24,24,25,25,32,32,33,33],"right_children":[2,4,6,8,10,12,14,-1,16,18,20,22,-1,24,26,28,30,-1,-1,32,34,36,-1,-1,38,40,-1,-1,-1,-1,-1,-1,42,44,-1,-1,-1,-1,-1,-1,-1,-1,-1,-1,-1],"split_conditions":[-5.1766666E1,-6.79E1,-1.2933333E1,-9.046667E1,4.89813E1,4E0,-5.13E1,-6.1366558E-2,6.66667E-1,9.68E0,-3.394E1,9E-1,-4.2337906E-2,2.33333E-1,8.7E0,4.234E1,-8.88E1,-7.36852E-3,2.3405192E-2,-5.7E0,4.6E0,4E-1,4.6518844E-2,-4.6686407E-2,1.2E1,4.66667E-1,6.319195E-2,-6.308167E-2,3.6959376E-2,4.501898E-3,6.1377883E-2,-4.811634E-2,-5.963333E1,-5.2566666E1,5.831341E-3,2.3120044E-2,-3.918371E-2,3.8607195E-3,5.601565E-2,4.5176838E-2,-2.6987537E-3,4.622679E-2,-2.1534867E-3,-7.196767E-2,-4.27328E-2],"split_indices":[15,15,25,15,28,32,15,0,10,26,25,11,0,25,8,26,15,0,0,10,11,11,0,0,0,25,0,0,0,0,0,0,15,15,0,0,0,0,0,0,0,0,0,0,0],"split_type":[0,0,0,0,0,0,0,0,0,0,0,0,0,0,0,0,0,0,0,0,0,0,0,0,0,0,0,0,0,0,0,0,0,0,0,0,0,0,0,0,0,0,0,0,0],"sum_hessian":[1.5055042E2,8.590384E1,6.4646576E1,2.3444683E1,6.2459156E1,5.1147294E0,5.9531845E1,4.8233395E0,1.8621344E1,4.2379355E0,5.822122E1,3.7934957E0,1.3212339E0,6.42354E0,5.3108307E1,7.748222E0,1.0873121E1,1.9000201E0,2.3379157E0,5.1170793E0,5.310414E1,2.1547024E0,1.6387932E0,1.7401685E0,4.6833715E0,4.347432E0,4.876087E1,5.8962636E0,1.8519583E0,1.4532075E0,9.419914E0,1.7800205E0,3.3370585E0,5.162773E1,1.4764063E0,1.04946E0,1.1052423E0,1.4706215E0,3.2127502E0,2.6543376E0,1.6930947E0,1.6323758E0,1.7046828E0,4.2077133E1,9.550602E0],"tree_param":{"num_deleted":"0","num_feature":"44","num_nodes":"45","size_leaf_vector":"1"}},{"base_weights":[5.9337124E-2,-7.172562E-2,7.20469E-2],"categories":[],"categories_nodes":[],"categories_segments":[],"categories_sizes":[],"default_left":[0,0,0],"id":10,"left_children":[1,-1,-1],"loss_changes":[3.1376947E2,0E0,0E0],"parents":[2147483647,0,0],"right_children":[2,-1,-1],"split_conditions":[1E0,-7.172562E-2,7.20469E-2],"split_indices":[6,0,0],"split_type":[0,0,0],"sum_hessian":[1.5002567E2,7.206616E1,7.7959496E1],"tree_param":{"num_deleted":"0","num_feature":"44","num_nodes":"3","size_leaf_vector":"1"}},{"base_weights":[2.92303E-3,-7.0188075E-2,7.046493E-2],"categories":[],"categories_nodes":[],"categories_segments":[],"categories_sizes":[],"default_left":[0,0,0],"id":11,"left_children":[1,-1,-1],"loss_changes":[2.9191452E2,0E0,0E0],"parents":[2147483647,0,0],"right_children":[2,-1,-1],"split_conditions":[1E0,-7.0188075E-2,7.046493E-2],"split_indices":[6,0,0],"split_type":[0,0,0],"sum_hessian":[1.4555629E2,7.277108E1,7.278522E1],"tree_param":{"num_deleted":"0","num_feature":"44","num_nodes":"3","size_leaf_vector":"1"}},{"base_weights":[-1.6342808E-2,-6.8771504E-2,6.883969E-2],"categories":[],"categories_nodes":[],"categories_segments":[],"categories_sizes":[],"default_left":[0,0,0],"id":12,"left_children":[1,-1,-1],"loss_changes":[2.7113156E2,0E0,0E0],"parents":[2147483647,0,0],"right_children":[2,-1,-1],"split_conditions":[1E0,-6.8771504E-2,6.883969E-2],"split_indices":[6,0,0],"split_type":[0,0,0],"sum_hessian":[1.4119856E2,7.147913E1,6.971942E1],"tree_param":{"num_deleted":"0","num_feature":"44","num_nodes":"3","size_leaf_vector":"1"}},{"base_weights":[1.0563095E-2,-5.839217E-1,1.0492744E0,5.276205E-2,-7.8755677E-1,1.1385107E0,6.136367E-1,-9.141977E-1,4.974087E-1,-1.1608613E0,-2.6897442E-1,1.9271804E-2,1.1689509E0,-4.6727833E-1,1.0114745E0,-5.7653844E-2,1.1368475E-2,-3.5482004E-1,5.5960454E-2,1.2572901E-2,-1.2119187E0,-9.994349E-1,4.8169053E-1,5.963053E-2,2.282356E-2,9.962445E-3,-4.259957E-2,5.8894217E-2,4.899249E-3,-5.355501E-2,6.156794E-1,1.5341488E-3,-1.2669917E0,-1.2231979E-1,-6.252461E-2,8.131924E-1,-4.7488715E-2,4.22835E-2,5.0683734E-3,-2.6349975E-2,-6.586E-2,1.6292486E-2,-3.7353594E-2,4.8926654E-3,4.434557E-2],"categories":[],"categories_nodes":[],"categories_segments":[],"categories_sizes":[],"default_left":[0,0,0,0,0,0,0,0,0,0,0,0,0,0,0,0,0,0,0,0,0,0,0,0,0,0,0,0,0,0,0,0,0,0,0,0,0,0,0,0,0,0,0,0,0],"id":13,"left_children":[1,3,5,7,9,11,13,15,17,19,21,-1,23,25,27,-1,-1,29,-1,-1,31,33,35,-1,-1,-1,-1,-1,-1,-1,37,-1,39,41,-1,43,-1,-1,-1,-1,-1,-1,-1,-1,-1],"loss_changes":[8.638838E1,1.157896E1,1.28088E0,1.0129486E1,1.275238E1,4.9147415E-1,5.1282644E0,2.2911139E0,8.9083605E0,3.1125374E0,1.6683718E1,0E0,1.1312866E-1,1.0920231E0,1.135602E0,0E0,0E0,5.897142E0,0E0,0E0,2.6223412E0,3.216402E0,8.007766E0,0E0,0E0,0E0,0E0,0E0,0E0,0E0,3.678509E-1,0E0,6.497879E-1,1.507165E0,0E0,5.9449005E-1,0E0,0E0,0E0,0E0,0E0,0E0,0E0,0E0,0E0],"parents":[2147483647,0,0,1,1,2,2,3,3,4,4,5,5,6,6,7,7,8,8,9,9,10,10,12,12,13,13,14,14,17,17,20,20,21,21,22,22,30,30,32,32,33,33,35,35],"right_children":[2,4,6,8,10,12,14,16,18,20,22,-1,24,26,28,-1,-1,30,-1,-1,32,34,36,-1,-1,-1,-1,-1,-1,-1,38,-1,40,42,-1,44,-1,-1,-1,-1,-1,-1,-1,-1,-1],"split_conditions":[-5.1166668E1,-6.79E1,1.2219999E1,-8.88E1,-5.313333E1,6.2E0,1.5233333E1,1.09E1,3.36684E-1,4.89797E1,2E1,1.9271804E-2,2.7E1,5E-1,2.2E1,-5.7653844E-2,1.1368475E-2,-7.996667E1,5.5960454E-2,1.2572901E-2,3.600006E-1,4.6E1,4.89922E1,5.963053E-2,2.282356E-2,9.962445E-3,-4.259957E-2,5.8894217E-2,4.899249E-3,-5.355501E-2,2.1E1,1.5341488E-3,-3.628E1,1.4E1,-6.252461E-2,-5.2966667E1,-4.7488715E-2,4.22835E-2,5.0683734E-3,-2.6349975E-2,-6.586E-2,1.6292486E-2,-3.7353594E-2,4.8926654E-3,4.434557E-2],"split_indices":[15,15,26,15,15,8,26,8,41,28,0,0,5,11,5,0,0,15,0,0,26,24,28,0,0,0,0,0,0,0,5,0,25,5,0,15,0,0,0,0,0,0,0,0,0],"split_type":[0,0,0,0,0,0,0,0,0,0,0,0,0,0,0,0,0,0,0,0,0,0,0,0,0,0,0,0,0,0,0,0,0,0,0,0,0,0,0,0,0,0,0,0,0],"sum_hessian":[1.3790843E2,8.798811E1,4.9920322E1,2.1501766E1,6.648635E1,4.0094013E1,9.826307E0,6.4402776E0,1.5061489E1,3.793796E1,2.854839E1,2.0884724E0,3.8005543E1,2.596672E0,7.2296357E0,5.317483E0,1.1227949E0,6.53462E0,8.526869E0,1.186718E0,3.6751244E1,1.4300953E1,1.4247437E1,3.613181E1,1.8737323E0,1.126705E0,1.4699671E0,5.8707337E0,1.3589019E0,3.7000942E0,2.8345256E0,1.5785096E0,3.5172733E1,3.5134118E0,1.0787541E1,1.19191E1,2.3283365E0,1.5134599E0,1.3210657E0,2.9652853E0,3.2207447E1,2.3244138E0,1.188998E0,1.3309995E0,1.05881E1],"tree_param":{"num_deleted":"0","num_feature":"44","num_nodes":"45","size_leaf_vector":"1"}},{"base_weights":[7.501468E-2,-5.3703225E-1,1.0687293E0,-2.4645227E-1,-1.0827241E0,2.5108647E-1,1.1260532E0,-5.0689095E-1,8.4378225E-1,-6.394012E-2,-1.8216456E-1,4.8078302E-2,-4.049514E-2,1.866808E-2,5.7612386E-2,3.4764115E-2,-7.7037936E-1,9.8467577E-1,-2.4187483E-3,-4.937699E-2,6.966425E-1,-4.9663942E-2,3.2241994E-1,-1.0416523E0,-3.053006E-1,8.984354E-3,5.334371E-2,4.1463535E-2,1.0488616E-2,-2.5235703E-2,3.1415414E-2,7.737476E-3,-5.718344E-2,-5.5657722E-2,1.4649659E-2],"categories":[],"categories_nodes":[],"categories_segments":[],"categories_sizes":[],"default_left":[0,0,0,0,0,0,0,0,0,0,0,0,0,0,0,0,0,0,0,0,0,0,0,0,0,0,0,0,0,0,0,0,0,0,0],"id":14,"left_children":[1,3,5,7,9,11,13,15,17,-1,19,-1,-1,-1,-1,21,23,25,-1,-1,27,-1,29,31,33,-1,-1,-1,-1,-1,-1,-1,-1,-1,-1],"loss_changes":[8.183842E1,1.2950073E1,2.1199684E0,1.6238695E1,4.829197E0,4.280577E0,5.0863266E-1,6.5308104E0,1.444457E0,0E0,5.1411653E0,0E0,0E0,0E0,0E0,5.0135326E0,3.5553741E0,4.4640732E-1,0E0,0E0,5.818963E-2,0E0,3.6456375E0,2.4930992E0,6.476601E0,0E0,0E0,0E0,0E0,0E0,0E0,0E0,0E0,0E0,0E0],"parents":[2147483647,0,0,1,1,2,2,3,3,4,4,5,5,6,6,7,7,8,8,10,10,15,15,16,16,17,17,20,20,22,22,23,23,24,24],"right_children":[2,4,6,8,10,12,14,16,18,-1,20,-1,-1,-1,-1,22,24,26,-1,-1,28,-1,30,32,34,-1,-1,-1,-1,-1,-1,-1,-1,-1,-1],"split_conditions":[-5.1166668E1,2.19E1,-1.3379999E1,6.7399993E0,-5.27E1,6.1E0,6.2E0,-2.53E1,5E0,-6.394012E-2,1.4E0,4.8078302E-2,-4.049514E-2,1.866808E-2,5.7612386E-2,3E-1,2E1,9.2E0,-2.4187483E-3,-4.937699E-2,3.4199994E0,-4.9663942E-2,5E0,3.600006E-1,6.1E0,8.984354E-3,5.334371E-2,4.1463535E-2,1.0488616E-2,-2.5235703E-2,3.1415414E-2,7.737476E-3,-5.718344E-2,-5.5657722E-2,1.4649659E-2],"split_indices":[15,8,25,25,15,8,8,25,32,0,11,0,0,0,0,11,0,8,0,0,25,0,0,26,8,0,0,0,0,0,0,0,0,0,0],"split_type":[0,0,0,0,0,0,0,0,0,0,0,0,0,0,0,0,0,0,0,0,0,0,0,0,0,0,0,0,0,0,0,0,0,0,0],"sum_hessian":[1.3261475E2,8.235214E1,5.026261E1,5.4684418E1,2.7667719E1,3.6454637E0,4.6617146E1,4.4571987E1,1.0112434E1,2.2375835E1,5.2918835E0,2.2395093E0,1.4059544E0,2.0807512E0,4.4536396E1,1.487055E1,2.9701435E1,8.6436825E0,1.4687517E0,2.6967463E0,2.5951376E0,2.7148898E0,1.215566E1,1.7976374E1,1.1725062E1,1.0960284E0,7.547654E0,1.4868393E0,1.1082983E0,3.1062484E0,9.049412E0,1.371786E0,1.6604588E1,4.6226807E0,7.1023817E0],"tree_param":{"num_deleted":"0","num_feature":"44","num_nodes":"35","size_leaf_vector":"1"}},{"base_weights":[2.9397652E-2,-6.595723E-2,6.609426E-2],"categories":[],"categories_nodes":[],"categories_segments":[],"categories_sizes":[],"default_left":[0,0,0],"id":15,"left_children":[1,-1,-1],"loss_changes":[2.343733E2,0E0,0E0],"parents":[2147483647,0,0],"right_children":[2,-1,-1],"split_conditions":[1E0,-6.595723E-2,6.609426E-2],"split_indices":[6,0,0],"split_type":[0,0,0],"sum_hessian":[1.3246703E2,6.4817635E1,6.764939E1],"tree_param":{"num_deleted":"0","num_feature":"44","num_nodes":"3","size_leaf_vector":"1"}},{"base_weights":[3.5074353E-2,-6.480434E-2,6.494259E-2],"categories":[],"categories_nodes":[],"categories_segments":[],"categories_sizes":[],"default_left":[0,0,0],"id":16,"left_children":[1,-1,-1],"loss_changes":[2.1769057E2,0E0,0E0],"parents":[2147483647,0,0],"right_children":[2,-1,-1],"split_conditions":[1E0,-6.480434E-2,6.494259E-2],"split_indices":[6,0,0],"split_type":[0,0,0],"sum_hessian":[1.2740054E2,6.20337E1,6.536685E1],"tree_param":{"num_deleted":"0","num_feature":"44","num_nodes":"3","size_leaf_vector":"1"}},{"base_weights":[-9.7206683E-4,-6.382646E-2,6.3835554E-2],"categories":[],"categories_nodes":[],"categories_segments":[],"categories_sizes":[],"default_left":[0,0,0],"id":17,"left_children":[1,-1,-1],"loss_changes":[2.0247531E2,0E0,0E0],"parents":[2147483647,0,0],"right_children":[2,-1,-1],"split_conditions":[1E0,-6.382646E-2,6.3835554E-2],"split_indices":[6,0,0],"split_type":[0,0,0],"sum_hessian":[1.2223647E2,6.1169582E1,6.106689E1],"tree_param":{"num_deleted":"0","num_feature":"44","num_nodes":"3","size_leaf_vector":"1"}},{"base_weights":[-1.0458624E-2,-6.139662E-1,9.575138E-1,2.684061E-2,-8.14741E-1,1.789135E-1,1.0391923E0,-5.6299824E-1,5.3498966E-1,-1.0613273E-1,-9.667703E-1,4.4385977E-2,-4.6899533E-1,7.227949E-1,1.1446866E0,-8.695521E-1,3.0069876E-2,-3.5144173E-2,7.678768E-1,-3.7460873E-1,3.234262E-2,-1.0318896E0,1.9828353E-2,-3.998473E-2,9.562502E-3,2.0699427E-1,9.425257E-1,5.886064E-2,1.8396176E-2,-2.924339E-1,-5.252406E-2,-3.098069E-1,5.5538207E-2,2.8577256E-1,-7.743162E-1,-3.7921706E-1,-1.1306418E0,-3.4336213E-2,6.0719675E-1,5.2171137E-2,4.1536135E-3,-3.4413017E-2,1.3595606E-2,-3.308421E-2,1.0104097E-2,3.6408063E-2,-8.955659E-3,-5.001955E-2,-8.329702E-4,1.8365555E-2,-3.4854922E-2,1.2643519E-2,-5.8874406E-2,3.6025576E-2,6.5394165E-3],"categories":[],"categories_nodes":[],"categories_segments":[],"categories_sizes":[],"default_left":[0,0,0,0,0,0,0,0,0,0,0,0,0,0,0,0,0,0,0,0,0,0,0,0,0,0,0,0,0,0,0,0,0,0,0,0,0,0,0,0,0,0,0,0,0,0,0,0,0,0,0,0,0,0,0],"id":18,"left_children":[1,3,5,7,9,11,13,15,17,19,21,-1,23,25,27,29,-1,-1,31,33,-1,35,-1,-1,-1,37,39,-1,-1,41,-1,43,-1,45,47,49,51,-1,53,-1,-1,-1,-1,-1,-1,-1,-1,-1,-1,-1,-1,-1,-1,-1,-1],"loss_changes":[7.108005E1,9.663069E0,2.7859993E0,5.9497304E0,6.047779E0,3.0087159E0,5.774193E-1,3.8101046E0,3.6061068E0,2.5081706E0,4.5714455E0,0E0,9.3973064E-1,1.3051629E0,3.210373E-1,4.9667788E-1,0E0,0E0,3.8288388E0,2.569363E0,0E0,2.473114E0,0E0,0E0,0E0,2.2896748E0,6.938791E-1,0E0,0E0,9.0717053E-1,0E0,6.845508E-1,0E0,9.704488E-1,9.7870016E-1,2.0172544E0,2.7996063E0,0E0,1.2964642E-1,0E0,0E0,0E0,0E0,0E0,0E0,0E0,0E0,0E0,0E0,0E0,0E0,0E0,0E0,0E0,0E0],"parents":[2147483647,0,0,1,1,2,2,3,3,4,4,5,5,6,6,7,7,8,8,9,9,10,10,12,12,13,13,14,14,15,15,18,18,19,19,21,21,25,25,26,26,29,29,31,31,33,33,34,34,35,35,36,36,38,38],"right_children":[2,4,6,8,10,12,14,16,18,20,22,-1,24,26,28,30,-1,-1,32,34,-1,36,-1,-1,-1,38,40,-1,-1,42,-1,44,-1,46,48,50,52,-1,54,-1,-1,-1,-1,-1,-1,-1,-1,-1,-1,-1,-1,-1,-1,-1,-1],"split_conditions":[-5.1533333E1,-6.79E1,-1.2033333E1,3.29983E-1,4.89851E1,1.24722E-1,-4.9833332E1,-7.75E1,-9.046667E1,4.89842E1,2.072572E0,4.4385977E-2,4.54606E-1,2E1,2.7E1,1.1E1,3.0069876E-2,-3.5144173E-2,6.66667E-1,4.89778E1,3.234262E-2,-2.4E0,1.9828353E-2,-3.998473E-2,9.562502E-3,-5.086667E1,-5.0533333E1,5.886064E-2,1.8396176E-2,4.89851E1,-5.252406E-2,9E0,5.5538207E-2,1.88562E-1,-5.19E1,3E0,3.600006E-1,-3.4336213E-2,9E0,5.2171137E-2,4.1536135E-3,-3.4413017E-2,1.3595606E-2,-3.308421E-2,1.0104097E-2,3.6408063E-2,-8.955659E-3,-5.001955E-2,-8.329702E-4,1.8365555E-2,-3.4854922E-2,1.2643519E-2,-5.8874406E-2,3.6025576E-2,6.5394165E-3],"split_indices":[15,15,25,12,28,12,15,15,15,28,12,0,12,0,5,5,0,0,10,28,0,13,0,0,0,15,15,0,0,28,0,5,0,12,15,5,26,0,0,0,0,0,0,0,0,0,0,0,0,0,0,0,0,0,0],"split_type":[0,0,0,0,0,0,0,0,0,0,0,0,0,0,0,0,0,0,0,0,0,0,0,0,0,0,0,0,0,0,0,0,0,0,0,0,0,0,0,0,0,0,0,0,0,0,0,0,0,0,0,0,0,0,0],"sum_hessian":[1.1966884E2,7.393676E1,4.573208E1,1.784565E1,5.609111E1,4.6449137E0,4.1087162E1,8.209017E0,9.636634E0,1.0208308E1,4.58828E1,2.0414534E0,2.6034606E0,1.2237136E1,2.8850027E1,6.698658E0,1.510359E0,1.2063498E0,8.430284E0,7.8956313E0,2.312677E0,4.4023167E1,1.859633E0,1.5939069E0,1.0095536E0,4.2358503E0,8.001286E0,2.7195694E1,1.6543326E0,2.2232718E0,4.475386E0,2.0581286E0,6.372155E0,3.0845318E0,4.8110995E0,6.4216084E0,3.760156E1,1.0886879E0,3.1471624E0,6.9690833E0,1.0322016E0,1.1776847E0,1.0455873E0,1.0462761E0,1.0118525E0,1.2903255E0,1.7942064E0,3.4586954E0,1.3524042E0,1.8713475E0,4.550261E0,1.0874678E0,3.651409E1,2.12851E0,1.0186527E0],"tree_param":{"num_deleted":"0","num_feature":"44","num_nodes":"55","size_leaf_vector":"1"}},{"base_weights":[-3.710889E-2,-6.2341344E-2,6.224754E-2],"categories":[],"categories_nodes":[],"categories_segments":[],"categories_sizes":[],"default_left":[0,0,0],"id":19,"left_children":[1,-1,-1],"loss_changes":[1.7322623E2,0E0,0E0],"parents":[2147483647,0,0],"right_children":[2,-1,-1],"split_conditions":[1E0,-6.2341344E-2,6.224754E-2],"split_indices":[6,0,0],"split_type":[0,0,0],"sum_hessian":[1.09690956E2,5.64519E1,5.3239056E1],"tree_param":{"num_deleted":"0","num_feature":"44","num_nodes":"3","size_leaf_vector":"1"}},{"base_weights":[4.129768E-2,-3.053339E-1,9.758229E-1,5.4921187E-2,-5.558651E-1,4.2525E-1,1.0119921E0,-3.921197E-1,7.436446E-1,-3.6718553E-1,-5.6363042E-2,-3.5609563E-3,3.6732662E-2,5.2563876E-2,4.9628E-1,4.065972E-1,-5.286918E-1,9.510634E-1,-1.6295036E-2,-4.5345175E-1,4.183317E-2,-3.7030862E-3,3.8638886E-2,3.1578384E-2,-1.8090572E-3,-6.918682E-1,2.0559874E-1,1.3393611E-2,5.2012783E-2,-2.7951154E-1,-9.445596E-1,1.6024439E-2,-4.1944467E-2,3.7806146E-2,-1.5943995E-2,-2.0264989E-2,2.1929584E-2,-5.377507E-2,-8.569542E-3],"categories":[],"categories_nodes":[],"categories_segments":[],"categories_sizes":[],"default_left":[0,0,0,0,0,0,0,0,0,0,0,0,0,0,0,0,0,0,0,0,0,0,0,0,0,0,0,0,0,0,0,0,0,0,0,0,0,0,0],"id":20,"left_children":[1,3,5,7,9,11,13,15,17,19,-1,-1,-1,-1,21,23,25,27,-1,29,-1,-1,-1,-1,-1,31,33,-1,-1,35,37,-1,-1,-1,-1,-1,-1,-1,-1],"loss_changes":[3.6396732E1,7.43586E0,1.7481232E-1,1.0933648E1,4.8131933E0,6.0501844E-1,4.1316986E-2,2.572748E0,3.404683E0,4.318642E0,0E0,0E0,0E0,0E0,6.661672E-1,3.935547E-1,2.4060097E0,4.4887257E-1,0E0,2.8149643E0,0E0,0E0,0E0,0E0,0E0,2.6036968E0,1.4555601E0,0E0,0E0,2.7103102E0,7.275181E-1,0E0,0E0,0E0,0E0,0E0,0E0,0E0,0E0],"parents":[2147483647,0,0,1,1,2,2,3,3,4,4,5,5,6,6,7,7,8,8,9,9,14,14,15,15,16,16,17,17,19,19,25,25,26,26,29,29,30,30],"right_children":[2,4,6,8,10,12,14,16,18,20,-1,-1,-1,-1,22,24,26,28,-1,30,-1,-1,-1,-1,-1,32,34,-1,-1,36,38,-1,-1,-1,-1,-1,-1,-1,-1],"split_conditions":[1E0,4.89892E1,-1.2033333E1,6.6E0,4.62E0,4.89925E1,7.23E1,3E0,7E1,3.3E0,-5.6363042E-2,-3.5609563E-3,3.6732662E-2,5.2563876E-2,7.71E1,2.2E1,4.89882E1,4.89788E1,-1.6295036E-2,5E1,4.183317E-2,-3.7030862E-3,3.8638886E-2,3.1578384E-2,-1.8090572E-3,4.89778E1,4.89887E1,1.3393611E-2,5.2012783E-2,4.6E1,2.3E1,1.6024439E-2,-4.1944467E-2,3.7806146E-2,-1.5943995E-2,-2.0264989E-2,2.1929584E-2,-5.377507E-2,-8.569542E-3],"split_indices":[16,28,25,25,25,28,8,5,0,11,0,0,0,0,8,0,28,28,0,0,0,0,0,0,0,28,28,0,0,0,5,0,0,0,0,0,0,0,0],"split_type":[0,0,0,0,0,0,0,0,0,0,0,0,0,0,0,0,0,0,0,0,0,0,0,0,0,0,0,0,0,0,0,0,0,0,0,0,0,0,0],"sum_hessian":[1.1043802E2,8.104887E1,2.9389153E1,3.356473E1,4.748413E1,2.5980744E0,2.6791079E1,2.0614683E1,1.2950049E1,3.6931618E1,1.0552513E1,1.2930543E0,1.3050202E0,2.392969E1,2.8613892E0,2.7214758E0,1.7893208E1,1.09393425E1,2.0107071E0,3.504376E1,1.8878578E0,1.1733078E0,1.6880813E0,1.5218616E0,1.1996142E0,1.4687156E1,3.2060518E0,1.7255276E0,9.213815E0,2.703697E1,8.006789E0,1.7128625E0,1.2974294E1,1.3487048E0,1.857347E0,2.3377579E1,3.6593904E0,6.5127726E0,1.4940162E0],"tree_param":{"num_deleted":"0","num_feature":"44","num_nodes":"39","size_leaf_vector":"1"}},{"base_weights":[3.221453E-2,-2.9263297E-1,9.667579E-1,8.3735086E-2,-5.662005E-1,-5.787182E-4,1.0151061E0,-3.7335756E-1,7.2604674E-1,-2.8491467E-1,-8.8248473E-1,5.300783E-2,3.566784E-1,-6.9170463E-1,1.4383182E-3,9.3178934E-1,-3.559066E-1,3.8153633E-2,-3.7078017E-1,-1.005511E0,3.4308165E-2,-4.173182E-3,3.197624E-2,7.9499125E-2,-5.3936716E-2,4.419E-1,-6.567735E-1,4.1187873E-1,5.3148694E-2,-3.2158338E-2,5.3293444E-3,-1.3636057E-1,-8.5170436E-1,-4.606142E-1,-5.724544E-2,-3.4257334E-2,2.5656173E-2,3.3795897E-2,-9.2007695E-3,4.6865786E-3,-4.4767763E-2,3.906725E-2,-7.281019E-3,-1.80532E-2,2.6274223E-2,-3.04017E-3,-5.2494377E-2,-4.7262326E-2,2.5771184E-2],"categories":[],"categories_nodes":[],"categories_segments":[],"categories_sizes":[],"default_left":[0,0,0,0,0,0,0,0,0,0,0,0,0,0,0,0,0,0,0,0,0,0,0,0,0,0,0,0,0,0,0,0,0,0,0,0,0,0,0,0,0,0,0,0,0,0,0,0,0],"id":21,"left_children":[1,3,5,7,9,-1,11,13,15,17,19,-1,21,23,25,27,29,-1,31,33,-1,-1,-1,35,-1,37,39,41,-1,-1,-1,43,45,47,-1,-1,-1,-1,-1,-1,-1,-1,-1,-1,-1,-1,-1,-1,-1],"loss_changes":[3.3747997E1,8.54872E0,1.3676682E0,1.073043E1,4.0138226E0,0E0,4.324627E-1,2.563146E0,3.7043452E0,2.699228E0,4.9530735E0,0E0,4.58856E-1,3.552105E0,3.4388523E0,4.4930172E-1,4.8630577E-1,0E0,2.7577171E0,1.0593567E0,0E0,0E0,0E0,1.947086E0,0E0,1.1649753E0,9.355514E-1,9.898497E-1,0E0,0E0,0E0,2.9155228E0,1.2156549E0,3.291516E0,0E0,0E0,0E0,0E0,0E0,0E0,0E0,0E0,0E0,0E0,0E0,0E0,0E0,0E0,0E0],"parents":[2147483647,0,0,1,1,2,2,3,3,4,4,6,6,7,7,8,8,9,9,10,10,12,12,13,13,14,14,15,15,16,16,18,18,19,19,23,23,25,25,26,26,27,27,31,31,32,32,33,33],"right_children":[2,4,6,8,10,-1,12,14,16,18,20,-1,22,24,26,28,30,-1,32,34,-1,-1,-1,36,-1,38,40,42,-1,-1,-1,44,46,48,-1,-1,-1,-1,-1,-1,-1,-1,-1,-1,-1,-1,-1,-1,-1],"split_conditions":[1E0,4.89892E1,-1.3379999E1,6.6E0,9.4E0,-5.787182E-4,7.23E1,1.69E1,7E1,3.600006E-1,8.05E1,5.300783E-2,7.81E1,-2.68E1,6.4E1,4.89817E1,4.02768E-1,3.8153633E-2,4.89956E1,4.89923E1,3.4308165E-2,-4.173182E-3,3.197624E-2,-3.1E0,-5.3936716E-2,2.56E0,3.29983E-1,2.3E1,5.3148694E-2,-3.2158338E-2,5.3293444E-3,5.9E0,-2.4E0,4.89921E1,-5.724544E-2,-3.4257334E-2,2.5656173E-2,3.3795897E-2,-9.2007695E-3,4.6865786E-3,-4.4767763E-2,3.906725E-2,-7.281019E-3,-1.80532E-2,2.6274223E-2,-3.04017E-3,-5.2494377E-2,-4.7262326E-2,2.5771184E-2],"split_indices":[16,28,25,25,14,0,8,8,0,26,14,0,8,25,0,28,12,0,28,28,0,0,0,8,0,25,12,0,0,0,0,8,13,28,0,0,0,0,0,0,0,0,0,0,0,0,0,0,0],"split_type":[0,0,0,0,0,0,0,0,0,0,0,0,0,0,0,0,0,0,0,0,0,0,0,0,0,0,0,0,0,0,0,0,0,0,0,0,0,0,0,0,0,0,0,0,0,0,0,0,0],"sum_hessian":[1.0923337E2,8.156739E1,2.7665976E1,3.4625004E1,4.694239E1,1.3386593E0,2.6327316E1,2.0473812E1,1.4151192E1,2.5851927E1,2.1090464E1,2.4070263E1,2.2570531E0,1.0613383E1,9.860429E0,1.2006788E1,2.144403E0,1.3604774E0,2.449145E1,1.9889555E1,1.200908E0,1.1587766E0,1.0982765E0,3.812033E0,6.80135E0,6.1042366E0,3.756193E0,3.2532394E0,8.753549E0,1.081821E0,1.0625821E0,1.7328474E1,7.1629763E0,4.9285374E0,1.4961018E1,1.169576E0,2.642457E0,4.3849134E0,1.719323E0,1.0524952E0,2.7036977E0,1.7150934E0,1.538146E0,1.3275693E1,4.05278E0,1.6970931E0,5.4658833E0,3.31439E0,1.6141477E0],"tree_param":{"num_deleted":"0","num_feature":"44","num_nodes":"49","size_leaf_vector":"1"}},{"base_weights":[-3.3812944E-2,-5.7220274E-1,8.048964E-1,-2.9782498E-1,-1.0832397E0,1.4856997E-1,8.7641513E-1,-5.503478E-1,6.643664E-1,-5.760793E-2,4.8779836E-3,-3.7525576E-2,3.8049355E-2,4.746136E-2,5.195083E-1,-3.333642E-2,-8.568084E-1,8.6481E-1,-1.0125358E-2,-1.023109E-1,8.048479E-1,-4.2941868E-1,4.141478E-2,-1.0209005E0,-3.1240278E-1,4.7660254E-2,1.7111672E-2,5.794197E-4,-8.053875E-3,4.8666682E-2,4.2168456E-3,2.553419E-3,-4.8764795E-2,-1.9279512E-3,-5.6846507E-2,-4.6755176E-2,3.0160261E-2],"categories":[],"categories_nodes":[],"categories_segments":[],"categories_sizes":[],"default_left":[0,0,0,0,0,0,0,0,0,0,0,0,0,0,0,0,0,0,0,0,0,0,0,0,0,0,0,0,0,0,0,0,0,0,0,0,0],"id":22,"left_children":[1,3,5,7,9,11,13,15,17,-1,-1,-1,-1,-1,19,21,23,25,-1,27,29,31,-1,33,35,-1,-1,-1,-1,-1,-1,-1,-1,-1,-1,-1,-1],"loss_changes":[4.502266E1,8.186958E0,1.7003384E0,1.0295232E1,1.8068695E0,3.3440669E0,4.1542244E-1,5.1870832E0,1.7300508E0,0E0,0E0,0E0,0E0,0E0,1.5253646E0,4.8916473E0,1.5237217E0,1.828432E-2,0E0,2.4928067E-2,6.083567E-1,2.6107855E0,0E0,1.7124481E0,4.1093845E0,0E0,0E0,0E0,0E0,0E0,0E0,0E0,0E0,0E0,0E0,0E0,0E0],"parents":[2147483647,0,0,1,1,2,2,3,3,4,4,5,5,6,6,7,7,8,8,14,14,15,15,16,16,17,17,19,19,20,20,21,21,23,23,24,24],"right_children":[2,4,6,8,10,12,14,16,18,-1,-1,-1,-1,-1,20,22,24,26,-1,28,30,32,-1,34,36,-1,-1,-1,-1,-1,-1,-1,-1,-1,-1,-1,-1],"split_conditions":[-5.16E1,2.19E1,-5.1166668E1,5.066667E0,4.4E0,1.18E2,1.2219999E1,-2.53E1,5E0,-5.760793E-2,4.8779836E-3,-3.7525576E-2,3.8049355E-2,4.746136E-2,1.5233333E1,7E-1,1.35E2,4.89851E1,-1.0125358E-2,8E-1,1.8E1,-3.4E0,4.141478E-2,1.02E2,-8.88E1,4.7660254E-2,1.7111672E-2,5.794197E-4,-8.053875E-3,4.8666682E-2,4.2168456E-3,2.553419E-3,-4.8764795E-2,-1.9279512E-3,-5.6846507E-2,-4.6755176E-2,3.0160261E-2],"split_indices":[15,8,15,25,11,1,26,25,32,0,0,0,0,0,26,8,1,28,0,11,5,8,0,1,15,0,0,0,0,0,0,0,0,0,0,0,0],"split_type":[0,0,0,0,0,0,0,0,0,0,0,0,0,0,0,0,0,0,0,0,0,0,0,0,0,0,0,0,0,0,0,0,0,0,0,0,0],"sum_hessian":[9.76864E1,5.968852E1,3.7997887E1,3.9866707E1,1.982181E1,4.0360923E0,3.3961796E1,3.1918E1,7.9487085E0,1.8751604E1,1.0702058E0,1.5439496E0,2.492143E0,2.6828882E1,7.132914E0,1.2291137E1,1.9626862E1,6.457864E0,1.4908446E0,2.4453619E0,4.687552E0,8.764033E0,3.5271034E0,1.44086275E1,5.218235E0,4.818718E0,1.6391459E0,1.1055094E0,1.3398525E0,3.51476E0,1.172792E0,5.143296E0,3.620738E0,1.6628408E0,1.2745786E1,3.0932426E0,2.1249921E0],"tree_param":{"num_deleted":"0","num_feature":"44","num_nodes":"37","size_leaf_vector":"1"}},{"base_weights":[7.10685E-2,-2.6572484E-1,9.14411E-1,-9.553374E-2,-9.068371E-1,3.16469E-1,4.8180863E-2,-2.6990137E-1,2.5083855E-1,-4.94406E-3,-5.0377037E-2,-8.873967E-3,3.5696324E-2,-4.29654E-1,1.9913809E-1,6.927754E-1,-4.2919868E-1,-6.254174E-1,-1.1004513E-3,5.0953615E-1,-3.9890043E-2,1.4629324E-1,4.8339855E-2,-7.866391E-1,2.1308191E-1,-3.6893368E-3,-4.554222E-2,1.9383056E-2,-4.3336727E-2,-5.978571E-3,3.4259435E-2,2.8572787E-2,-7.856335E-3,-1.2465789E-2,-4.606897E-2,3.3359468E-2,-1.1267731E-2],"categories":[],"categories_nodes":[],"categories_segments":[],"categories_sizes":[],"default_left":[0,0,0,0,0,0,0,0,0,0,0,0,0,0,0,0,0,0,0,0,0,0,0,0,0,0,0,0,0,0,0,0,0,0,0,0,0],"id":23,"left_children":[1,3,5,7,9,11,-1,13,15,-1,-1,-1,-1,17,19,21,23,25,27,29,-1,31,-1,33,35,-1,-1,-1,-1,-1,-1,-1,-1,-1,-1,-1,-1],"loss_changes":[2.922565E1,7.954259E0,5.584736E-1,3.6523776E0,1.1486158E0,8.5709983E-1,0E0,3.0798075E0,6.425918E0,0E0,0E0,0E0,0E0,2.5266242E0,3.7596104E0,1.7667251E0,2.1534238E0,3.1883745E0,3.8519413E0,1.0624669E0,0E0,7.9077595E-1,0E0,1.8805122E-1,9.227569E-1,0E0,0E0,0E0,0E0,0E0,0E0,0E0,0E0,0E0,0E0,0E0,0E0],"parents":[2147483647,0,0,1,1,2,2,3,3,4,4,5,5,7,7,8,8,13,13,14,14,15,15,16,16,17,17,18,18,19,19,21,21,23,23,24,24],"right_children":[2,4,6,8,10,12,-1,14,16,-1,-1,-1,-1,18,20,22,24,26,28,30,-1,32,-1,34,36,-1,-1,-1,-1,-1,-1,-1,-1,-1,-1,-1,-1],"split_conditions":[1E0,4.89955E1,-1.2033333E1,2.4199994E0,1.02E2,4.89921E1,4.8180863E-2,4.89938E1,2.17E1,-4.94406E-3,-5.0377037E-2,-8.873967E-3,3.5696324E-2,1.2E0,9.4E0,6.6E0,2.5E0,2E0,1.64E2,1.05E2,-3.9890043E-2,2.56E0,4.8339855E-2,1.7E2,3.4199994E0,-3.6893368E-3,-4.554222E-2,1.9383056E-2,-4.3336727E-2,-5.978571E-3,3.4259435E-2,2.8572787E-2,-7.856335E-3,-1.2465789E-2,-4.606897E-2,3.3359468E-2,-1.1267731E-2],"split_indices":[16,28,25,25,1,28,0,28,8,0,0,0,0,11,8,25,11,32,1,1,0,25,0,1,25,0,0,0,0,0,0,0,0,0,0,0,0],"split_type":[0,0,0,0,0,0,0,0,0,0,0,0,0,0,0,0,0,0,0,0,0,0,0,0,0,0,0,0,0,0,0,0,0,0,0,0,0],"sum_hessian":[1.0104011E2,7.269421E1,2.8345905E1,5.8352764E1,1.4341442E1,2.7203531E0,2.5625551E1,3.896043E1,1.9392332E1,1.8090606E0,1.2532381E1,1.4597199E0,1.2606332E0,2.9124674E1,9.835757E0,1.174249E1,7.6498423E0,1.9676893E1,9.447781E0,7.8732967E0,1.9624603E0,4.4338746E0,7.308615E0,4.7703176E0,2.8795245E0,7.1387324E0,1.253816E1,6.9007683E0,2.5470123E0,1.7881672E0,6.0851297E0,1.4786112E0,2.9552636E0,1.5278466E0,3.242471E0,1.1581905E0,1.721334E0],"tree_param":{"num_deleted":"0","num_feature":"44","num_nodes":"37","size_leaf_vector":"1"}},{"base_weights":[2.9625623E-2,-6.0052663E-2,6.0317256E-2],"categories":[],"categories_nodes":[],"categories_segments":[],"categories_sizes":[],"default_left":[0,0,0],"id":24,"left_children":[1,-1,-1],"loss_changes":[1.5281808E2,0E0,0E0],"parents":[2147483647,0,0],"right_children":[2,-1,-1],"split_conditions":[1E0,-6.0052663E-2,6.0317256E-2],"split_indices":[6,0,0],"split_type":[0,0,0],"sum_hessian":[1.0352491E2,5.059214E1,5.2932766E1],"tree_param":{"num_deleted":"0","num_feature":"44","num_nodes":"3","size_leaf_vector":"1"}},{"base_weights":[-2.319835E-2,-5.9607197E-2,5.921137E-2],"categories":[],"categories_nodes":[],"categories_segments":[],"categories_sizes":[],"default_left":[0,0,0],"id":25,"left_children":[1,-1,-1],"loss_changes":[1.4054463E2,0E0,0E0],"parents":[2147483647,0,0],"right_children":[2,-1,-1],"split_conditions":[1E0,-5.9607197E-2,5.921137E-2],"split_indices":[6,0,0],"split_type":[0,0,0],"sum_hessian":[9.757687E1,4.9584885E1,4.7991985E1],"tree_param":{"num_deleted":"0","num_feature":"44","num_nodes":"3","size_leaf_vector":"1"}},{"base_weights":[1.5575031E-2,-5.8935553E-2,5.883171E-2],"categories":[],"categories_nodes":[],"categories_segments":[],"categories_sizes":[],"default_left":[0,0,0],"id":26,"left_children":[1,-1,-1],"loss_changes":[1.3310175E2,0E0,0E0],"parents":[2147483647,0,0],"right_children":[2,-1,-1],"split_conditions":[1E0,-5.8935553E-2,5.883171E-2],"split_indices":[6,0,0],"split_type":[0,0,0],"sum_hessian":[9.398871E1,4.632391E1,4.7664795E1],"tree_param":{"num_deleted":"0","num_feature":"44","num_nodes":"3","size_leaf_vector":"1"}},{"base_weights":[3.01372E-2,-5.8196153E-2,5.8261175E-2],"categories":[],"categories_nodes":[],"categories_segments":[],"categories_sizes":[],"default_left":[0,0,0],"id":27,"left_children":[1,-1,-1],"loss_changes":[1.2635418E2,0E0,0E0],"parents":[2147483647,0,0],"right_children":[2,-1,-1],"split_conditions":[1E0,-5.8196153E-2,5.8261175E-2],"split_indices":[6,0,0],"split_type":[0,0,0],"sum_hessian":[9.1224815E1,4.444512E1,4.677969E1],"tree_param":{"num_deleted":"0","num_feature":"44","num_nodes":"3","size_leaf_vector":"1"}},{"base_weights":[7.405305E-3,-5.773464E-2,5.763883E-2],"categories":[],"categories_nodes":[],"categories_segments":[],"categories_sizes":[],"default_left":[0,0,0],"id":28,"left_children":[1,-1,-1],"loss_changes":[1.18253395E2,0E0,0E0],"parents":[2147483647,0,0],"right_children":[2,-1,-1],"split_conditions":[1E0,-5.773464E-2,5.763883E-2],"split_indices":[6,0,0],"split_type":[0,0,0],"sum_hessian":[8.6843216E1,4.310281E1,4.374041E1],"tree_param":{"num_deleted":"0","num_feature":"44","num_nodes":"3","size_leaf_vector":"1"}},{"base_weights":[-6.6179344E-3,-5.503028E-1,7.5723493E-1,-4.558545E-2,-7.3596823E-1,2.1245198E-1,8.4649086E-1,-4.6308685E-2,3.420297E-1,-1.0420464E-1,-8.851949E-1,-4.6001038E-1,3.8324732E-2,2.361487E-1,4.453645E-2,-3.0216032E-1,4.620413E-2,-4.2068353E-1,3.004575E-1,-1.1105441E-1,-9.598485E-1,2.9849196E-3,-3.4755398E-2,3.068835E-2,-9.60476E-3,-4.2066254E-2,3.7758026E-1,1.147877E-2,-4.0708806E-2,-7.66129E-3,2.6666278E-2,1.8203875E-2,-3.178587E-2,8.542956E-3,-1.0119551E0,2.5999803E-2,1.7317942E-3,-5.2662786E-2,-1.7324256E-3],"categories":[],"categories_nodes":[],"categories_segments":[],"categories_sizes":[],"default_left":[0,0,0,0,0,0,0,0,0,0,0,0,0,0,0,0,0,0,0,0,0,0,0,0,0,0,0,0,0,0,0,0,0,0,0,0,0,0,0],"id":29,"left_children":[1,3,5,7,9,11,13,-1,15,17,19,21,-1,23,-1,25,-1,27,29,31,33,-1,-1,-1,-1,-1,35,-1,-1,-1,-1,-1,-1,-1,37,-1,-1,-1,-1],"loss_changes":[3.527305E1,4.615443E0,1.5376129E0,5.2346616E0,3.3208485E0,2.7025015E0,6.0001945E-1,0E0,4.304205E0,1.1574522E0,1.578186E0,4.6596754E-1,0E0,6.659646E-1,0E0,2.461256E0,0E0,1.4494734E0,5.1662743E-1,1.1525196E0,1.7317028E0,0E0,0E0,0E0,0E0,0E0,1.4206085E-1,0E0,0E0,0E0,0E0,0E0,0E0,0E0,9.9019814E-1,0E0,0E0,0E0,0E0],"parents":[2147483647,0,0,1,1,2,2,3,3,4,4,5,5,6,6,8,8,9,9,10,10,11,11,13,13,15,15,17,17,18,18,19,19,20,20,26,26,34,34],"right_children":[2,4,6,8,10,12,14,-1,16,18,20,22,-1,24,-1,26,-1,28,30,32,34,-1,-1,-1,-1,-1,36,-1,-1,-1,-1,-1,-1,-1,38,-1,-1,-1,-1],"split_conditions":[-5.1766666E1,-6.79E1,-5.1166668E1,-8.88E1,4.89848E1,1.8E1,-1.3379999E1,-4.6308685E-2,3.36684E-1,-5.2666668E1,-3.394E1,-5.1733334E1,3.8324732E-2,9.4281E-2,4.453645E-2,-7.996667E1,4.620413E-2,4.89778E1,4.02768E-1,3.832E1,3.600006E-1,2.9849196E-3,-3.4755398E-2,3.068835E-2,-9.60476E-3,-4.2066254E-2,2.1E1,1.147877E-2,-4.0708806E-2,-7.66129E-3,2.6666278E-2,1.8203875E-2,-3.178587E-2,8.542956E-3,8.22E1,2.5999803E-2,1.7317942E-3,-5.2662786E-2,-1.7324256E-3],"split_indices":[15,15,15,15,28,0,25,0,41,15,25,15,0,12,0,15,0,28,12,26,26,0,0,0,0,0,5,0,0,0,0,0,0,0,14,0,0,0,0],"split_type":[0,0,0,0,0,0,0,0,0,0,0,0,0,0,0,0,0,0,0,0,0,0,0,0,0,0,0,0,0,0,0,0,0,0,0,0,0,0,0],"sum_hessian":[8.293147E1,4.8611206E1,3.4320263E1,1.3408027E1,3.5203182E1,5.3072386E0,2.9013023E1,3.673382E0,9.734645E0,7.0508995E0,2.8152283E1,2.4740777E0,2.8331609E0,2.3891144E0,2.6623909E1,4.8489337E0,4.8857107E0,3.9343355E0,3.116564E0,2.6948574E0,2.5457424E1,1.0029709E0,1.4711068E0,1.0393844E0,1.34973E0,2.5715144E0,2.2774193E0,1.6402843E0,2.2940512E0,1.1730957E0,1.9434683E0,1.5748004E0,1.1200569E0,1.0210791E0,2.4436346E1,1.2443883E0,1.033031E0,2.3370987E1,1.0653595E0],"tree_param":{"num_deleted":"0","num_feature":"44","num_nodes":"39","size_leaf_vector":"1"}},{"base_weights":[3.8190495E-2,-4.8989403E-1,7.262547E-1,1.0537873E-1,-7.311788E-1,-8.649809E-3,7.670695E-1,-4.1876204E-2,3.7248203E-1,-1.9873863E-1,-8.7692964E-1,8.44942E-1,4.2306942E-1,-4.3413278E-1,8.4241354E-1,-4.3867782E-1,2.7716821E-2,-2.2177558E-1,-1.0311565E0,5.0218374E-1,9.630784E-1,-1.0971281E-2,5.519556E-1,-4.3297604E-2,2.6062256E-2,1.0063419E-2,4.7316875E-2,1.7459914E-2,-6.9925135E-1,-4.7154158E-1,2.5323221E-2,-5.4119974E-2,-1.6878579E-3,7.0825416E-1,-2.7840078E-2,9.8682857E-1,1.3732466E-2,3.579801E-2,-1.0518458E-2,-9.2124E-3,-4.375167E-2,6.9492734E-3,-4.218283E-2,5.5656786E-4,4.6096515E-2,-2.091448E-2,2.3161536E-2,2.1101346E-2,5.155551E-2],"categories":[],"categories_nodes":[],"categories_segments":[],"categories_sizes":[],"default_left":[0,0,0,0,0,0,0,0,0,0,0,0,0,0,0,0,0,0,0,0,0,0,0,0,0,0,0,0,0,0,0,0,0,0,0,0,0,0,0,0,0,0,0,0,0,0,0,0,0],"id":30,"left_children":[1,3,5,7,9,-1,11,-1,13,15,17,19,21,23,25,27,-1,29,31,33,35,-1,37,-1,-1,-1,-1,-1,39,41,-1,-1,-1,43,45,47,-1,-1,-1,-1,-1,-1,-1,-1,-1,-1,-1,-1,-1],"loss_changes":[3.060828E1,6.928587E0,1.4744053E0,3.9972425E0,2.4696693E0,0E0,5.8420753E-1,0E0,4.950283E0,1.7998472E0,2.444378E0,6.364231E-1,8.242923E-1,2.560467E0,3.4140444E-1,1.7000916E0,0E0,1.3874446E0,1.0439148E0,1.0223446E0,4.7496796E-2,0E0,1.0704539E0,0E0,0E0,0E0,0E0,0E0,3.51367E-1,1.3031867E0,0E0,0E0,0E0,9.799614E-1,8.7099296E-1,2.6187897E-2,0E0,0E0,0E0,0E0,0E0,0E0,0E0,0E0,0E0,0E0,0E0,0E0,0E0],"parents":[2147483647,0,0,1,1,2,2,3,3,4,4,6,6,8,8,9,9,10,10,11,11,12,12,13,13,14,14,15,15,17,17,18,18,19,19,20,20,22,22,28,28,29,29,33,33,34,34,35,35],"right_children":[2,4,6,8,10,-1,12,-1,14,16,18,20,22,24,26,28,-1,30,32,34,36,-1,38,-1,-1,-1,-1,-1,40,42,-1,-1,-1,44,46,48,-1,-1,-1,-1,-1,-1,-1,-1,-1,-1,-1,-1,-1],"split_conditions":[-5.1766666E1,-6.79E1,4.3E0,-9.046667E1,6E-1,-8.649809E-3,1.08E1,-4.1876204E-2,3.36684E-1,4.89967E1,4.89848E1,4.9599996E0,4.89856E1,-7.75E1,1.172E1,3E0,2.7716821E-2,4.89841E1,8.150179E1,1.5E1,4.89971E1,-1.0971281E-2,1.9E0,-4.3297604E-2,2.6062256E-2,1.0063419E-2,4.7316875E-2,1.7459914E-2,4E-1,2.6600006E0,2.5323221E-2,-5.4119974E-2,-1.6878579E-3,7E-1,4.89922E1,-8.966667E0,1.3732466E-2,3.579801E-2,-1.0518458E-2,-9.2124E-3,-4.375167E-2,6.9492734E-3,-4.218283E-2,5.5656786E-4,4.6096515E-2,-2.091448E-2,2.3161536E-2,2.1101346E-2,5.155551E-2],"split_indices":[15,15,8,15,13,0,26,0,41,28,28,26,28,15,26,5,0,28,42,5,28,0,11,0,0,0,0,0,11,26,0,0,0,11,28,25,0,0,0,0,0,0,0,0,0,0,0,0,0],"split_type":[0,0,0,0,0,0,0,0,0,0,0,0,0,0,0,0,0,0,0,0,0,0,0,0,0,0,0,0,0,0,0,0,0,0,0,0,0,0,0,0,0,0,0,0,0,0,0,0,0],"sum_hessian":[8.225853E1,4.670261E1,3.555592E1,1.3632695E1,3.3069916E1,1.4031236E0,3.4152798E1,2.5379353E0,1.109476E1,7.615048E0,2.5454866E1,2.666119E1,7.4916086E0,4.112327E0,6.982433E0,6.091655E0,1.5233933E0,5.31496E0,2.0139906E1,8.179694E0,1.8481495E1,1.1343615E0,6.357247E0,2.8966696E0,1.2156571E0,1.3835421E0,5.598891E0,1.4294432E0,4.6622114E0,4.2200813E0,1.0948787E0,1.9074692E1,1.0652151E0,5.64765E0,2.5320444E0,1.7446169E1,1.0353271E0,5.281762E0,1.0754846E0,1.7075677E0,2.954644E0,1.8353426E0,2.3847384E0,1.5717795E0,4.07587E0,1.4930958E0,1.0389487E0,2.0339637E0,1.5412204E1],"tree_param":{"num_deleted":"0","num_feature":"44","num_nodes":"49","size_leaf_vector":"1"}},{"base_weights":[-3.0860692E-2,-5.6571104E-2,5.6372862E-2],"categories":[],"categories_nodes":[],"categories_segments":[],"categories_sizes":[],"default_left":[0,0,0],"id":31,"left_children":[1,-1,-1],"loss_changes":[9.861842E1,0E0,0E0],"parents":[2147483647,0,0],"right_children":[2,-1,-1],"split_conditions":[1E0,-5.6571104E-2,5.6372862E-2],"split_indices":[6,0,0],"split_type":[0,0,0],"sum_hessian":[7.535926E1,3.8654957E1,3.6704304E1],"tree_param":{"num_deleted":"0","num_feature":"44","num_nodes":"3","size_leaf_vector":"1"}},{"base_weights":[1.5043184E-2,-5.6178667E-2,5.6241997E-2],"categories":[],"categories_nodes":[],"categories_segments":[],"categories_sizes":[],"default_left":[0,0,0],"id":32,"left_children":[1,-1,-1],"loss_changes":[9.8983116E1,0E0,0E0],"parents":[2147483647,0,0],"right_children":[2,-1,-1],"split_conditions":[1E0,-5.6178667E-2,5.6241997E-2],"split_indices":[6,0,0],"split_type":[0,0,0],"sum_hessian":[7.6332016E1,3.7670677E1,3.8661343E1],"tree_param":{"num_deleted":"0","num_feature":"44","num_nodes":"3","size_leaf_vector":"1"}},{"base_weights":[3.4988195E-2,-4.6419382E-1,7.587561E-1,7.03351E-2,-6.424593E-1,1.8237855E-1,4.0269997E-2,-4.05557E-2,3.7074238E-1,-6.781335E-2,-7.6979655E-1,-1.3612241E-2,2.6454438E-2,-2.0634873E-1,7.987064E-1,2.522791E-2,-2.5534162E-1,-8.3589524E-1,2.0264603E-2,-3.865107E-2,2.4337068E-2,1.4221069E-2,4.427199E-2,-4.7938278E-1,1.4561139E-2,-9.4923794E-1,2.2391621E-2,1.9876389E-2,-4.2221446E-2,4.5709815E-3,-5.0069954E-2,2.2753118E-2,-3.0399868E-2],"categories":[],"categories_nodes":[],"categories_segments":[],"categories_sizes":[],"default_left":[0,0,0,0,0,0,0,0,0,0,0,0,0,0,0,0,0,0,0,0,0,0,0,0,0,0,0,0,0,0,0,0,0],"id":33,"left_children":[1,3,5,7,9,11,-1,-1,13,15,17,-1,-1,19,21,-1,23,25,-1,-1,-1,-1,-1,27,-1,29,31,-1,-1,-1,-1,-1,-1],"loss_changes":[2.7561295E1,4.35133E0,6.8974876E-1,3.5320625E0,2.4347963E0,7.150415E-1,0E0,0E0,2.5821252E0,9.082888E-1,2.4922886E0,0E0,0E0,2.325274E0,8.003473E-3,0E0,8.9070034E-1,2.6065578E0,0E0,0E0,0E0,0E0,0E0,1.8492923E0,0E0,1.3670979E0,1.3887017E0,0E0,0E0,0E0,0E0,0E0,0E0],"parents":[2147483647,0,0,1,1,2,2,3,3,4,4,5,5,8,8,9,9,10,10,13,13,14,14,16,16,17,17,23,23,25,25,26,26],"right_children":[2,4,6,8,10,12,-1,-1,14,16,18,-1,-1,20,22,-1,24,26,-1,-1,-1,-1,-1,28,-1,30,32,-1,-1,-1,-1,-1,-1],"split_conditions":[-5.16E1,-6.79E1,-5.1166668E1,-9.046667E1,4.89848E1,2.2E1,4.0269997E-2,-4.05557E-2,3.36684E-1,3E0,4.6E0,-1.3612241E-2,2.6454438E-2,-7.996667E1,5.933333E0,2.522791E-2,-5.1966667E1,3.412E1,2.0264603E-2,-3.865107E-2,2.4337068E-2,1.4221069E-2,4.427199E-2,3E-1,1.4561139E-2,3.600006E-1,1.7E1,1.9876389E-2,-4.2221446E-2,4.5709815E-3,-5.0069954E-2,2.2753118E-2,-3.0399868E-2],"split_indices":[15,15,15,15,28,0,0,0,41,5,11,0,0,15,10,0,15,26,0,0,0,0,0,11,0,26,5,0,0,0,0,0,0],"split_type":[0,0,0,0,0,0,0,0,0,0,0,0,0,0,0,0,0,0,0,0,0,0,0,0,0,0,0,0,0,0,0,0,0],"sum_hessian":[7.4310524E1,4.419081E1,3.0119717E1,1.1203265E1,3.2987545E1,2.6225777E0,2.7497139E1,2.4155521E0,8.787713E0,6.261824E0,2.672572E1,1.2276282E0,1.3949493E0,3.96241E0,4.825303E0,1.1280948E0,5.1337295E0,2.5575739E1,1.1499801E0,2.1165698E0,1.8458403E0,1.3138858E0,3.5114174E0,3.7283604E0,1.4053689E0,2.2498667E1,3.0770729E0,1.0697167E0,2.6586437E0,1.0379548E0,2.1460712E1,1.989615E0,1.0874578E0],"tree_param":{"num_deleted":"0","num_feature":"44","num_nodes":"33","size_leaf_vector":"1"}},{"base_weights":[-2.6043342E-2,-5.5534393E-2,5.5357087E-2],"categories":[],"categories_nodes":[],"categories_segments":[],"categories_sizes":[],"default_left":[0,0,0],"id":34,"left_children":[1,-1,-1],"loss_changes":[8.612844E1,0E0,0E0],"parents":[2147483647,0,0],"right_children":[2,-1,-1],"split_conditions":[1E0,-5.5534393E-2,5.5357087E-2],"split_indices":[6,0,0],"split_type":[0,0,0],"sum_hessian":[6.8073746E1,3.479197E1,3.328178E1],"tree_param":{"num_deleted":"0","num_feature":"44","num_nodes":"3","size_leaf_vector":"1"}},{"base_weights":[-5.656798E-2,-5.513177E-2,5.4727193E-2],"categories":[],"categories_nodes":[],"categories_segments":[],"categories_sizes":[],"default_left":[0,0,0],"id":35,"left_children":[1,-1,-1],"loss_changes":[7.945072E1,0E0,0E0],"parents":[2147483647,0,0],"right_children":[2,-1,-1],"split_conditions":[1E0,-5.513177E-2,5.4727193E-2],"split_indices":[6,0,0],"split_type":[0,0,0],"sum_hessian":[6.3978996E1,3.354094E1,3.0438055E1],"tree_param":{"num_deleted":"0","num_feature":"44","num_nodes":"3","size_leaf_vector":"1"}},{"base_weights":[3.313903E-2,-4.020765E-1,7.143525E-1,-1.6079146E-1,-8.0489725E-1,2.7915645E-1,8.1551623E-1,-2.974026E-1,5.428285E-1,-5.0640482E-2,7.553862E-2,-2.0281121E-2,6.017604E-1,3.0770004E-1,4.373676E-2,7.693701E-2,-5.478285E-1,6.2442017E-3,3.4966923E-2,2.6728934E-2,-2.8571045E-2,1.0405859E-2,3.430541E-2,3.4096543E-2,-1.4783956E-2,-3.375536E-2,2.8184155E-1,-7.13992E-1,2.0602277E-2,1.1002495E-3,3.592467E-2,-4.0495403E-2,9.248134E-3],"categories":[],"categories_nodes":[],"categories_segments":[],"categories_sizes":[],"default_left":[0,0,0,0,0,0,0,0,0,0,0,0,0,0,0,0,0,0,0,0,0,0,0,0,0,0,0,0,0,0,0,0,0],"id":36,"left_children":[1,3,5,7,9,11,13,15,17,-1,19,-1,21,23,-1,25,27,-1,-1,-1,-1,-1,-1,-1,-1,-1,29,31,-1,-1,-1,-1,-1],"loss_changes":[2.0089903E1,3.8940043E0,9.3455505E-1,2.7700272E0,2.8694153E0,1.6799049E0,3.593197E-1,2.2331343E0,2.2443867E-1,0E0,1.447441E0,0E0,1.7271876E-2,1.042802E0,0E0,1.7690101E0,2.5473757E0,0E0,0E0,0E0,0E0,0E0,0E0,0E0,0E0,0E0,9.7772455E-1,1.219686E0,0E0,0E0,0E0,0E0,0E0],"parents":[2147483647,0,0,1,1,2,2,3,3,4,4,5,5,6,6,7,7,8,8,10,10,12,12,13,13,15,15,16,16,26,26,27,27],"right_children":[2,4,6,8,10,12,14,16,18,-1,20,-1,22,24,-1,26,28,-1,-1,-1,-1,-1,-1,-1,-1,-1,30,32,-1,-1,-1,-1,-1],"split_conditions":[-5.16E1,2E1,9.314788E0,1.56E1,-5.27E1,4.89942E1,3.2399993E0,-2.53E1,6.6E0,-5.0640482E-2,4.89922E1,-2.0281121E-2,4.5E0,1.1E1,4.373676E-2,3E-1,8.73053E-1,6.2442017E-3,3.4966923E-2,2.6728934E-2,-2.8571045E-2,1.0405859E-2,3.430541E-2,3.4096543E-2,-1.4783956E-2,-3.375536E-2,-2.692E1,9.666667E0,2.0602277E-2,1.1002495E-3,3.592467E-2,-4.0495403E-2,9.248134E-3],"split_indices":[15,10,41,13,15,28,26,25,25,0,28,0,14,5,0,11,12,0,0,0,0,0,0,0,0,0,25,25,0,0,0,0,0],"split_type":[0,0,0,0,0,0,0,0,0,0,0,0,0,0,0,0,0,0,0,0,0,0,0,0,0,0,0,0,0,0,0,0,0],"sum_hessian":[6.579382E1,4.0395557E1,2.5398264E1,2.6138222E1,1.4257338E1,5.4994893E0,1.9898775E1,2.2371931E1,3.766291E0,1.1412062E1,2.845276E0,1.6787444E0,3.8207448E0,2.725234E0,1.717354E1,9.245069E0,1.3126863E1,1.5159705E0,2.2503204E0,1.7659675E0,1.0793086E0,1.2860837E0,2.534661E0,1.6016589E0,1.1235752E0,1.4882237E0,7.7568445E0,1.140816E1,1.7187023E0,5.521552E0,2.2352922E0,1.0397799E1,1.0103613E0],"tree_param":{"num_deleted":"0","num_feature":"44","num_nodes":"33","size_leaf_vector":"1"}},{"base_weights":[-2.5913477E-2,-5.4502428E-2,5.425936E-2],"categories":[],"categories_nodes":[],"categories_segments":[],"categories_sizes":[],"default_left":[0,0,0],"id":37,"left_children":[1,-1,-1],"loss_changes":[7.359223E1,0E0,0E0],"parents":[2147483647,0,0],"right_children":[2,-1,-1],"split_conditions":[1E0,-5.4502428E-2,5.425936E-2],"split_indices":[6,0,0],"split_type":[0,0,0],"sum_hessian":[6.0241295E1,3.0780663E1,2.9460632E1],"tree_param":{"num_deleted":"0","num_feature":"44","num_nodes":"3","size_leaf_vector":"1"}},{"base_weights":[-2.2380007E-2,-5.4248072E-2,5.4118287E-2],"categories":[],"categories_nodes":[],"categories_segments":[],"categories_sizes":[],"default_left":[0,0,0],"id":38,"left_children":[1,-1,-1],"loss_changes":[7.2975685E1,0E0,0E0],"parents":[2147483647,0,0],"right_children":[2,-1,-1],"split_conditions":[1E0,-5.4248072E-2,5.4118287E-2],"split_indices":[6,0,0],"split_type":[0,0,0],"sum_hessian":[6.016572E1,3.0677237E1,2.9488485E1],"tree_param":{"num_deleted":"0","num_feature":"44","num_nodes":"3","size_leaf_vector":"1"}},{"base_weights":[-6.492655E-3,-4.5346177E-1,7.2929835E-1,-2.097852E-1,-4.9489763E-2,6.9112115E-2,7.922343E-1,-3.5932466E-1,3.7830792E-2,-8.587681E-3,1.3992029E-2,1.0120567E-2,8.366682E-1,1.0838343E-2,-5.564465E-1,3.9115825E-1,4.4388168E-2,-3.0951435E-2,1.8791145E-1,-6.848927E-1,1.4134186E-2,3.1634312E-2,-1.3544029E-3,-1.4525189E-2,1.8326228E-2,-4.063411E-2,5.6791855E-3],"categories":[],"categories_nodes":[],"categories_segments":[],"categories_sizes":[],"default_left":[0,0,0,0,0,0,0,0,0,0,0,0,0,0,0,0,0,0,0,0,0,0,0,0,0,0,0],"id":39,"left_children":[1,3,5,7,-1,9,11,13,-1,-1,-1,-1,15,17,19,21,-1,-1,23,25,-1,-1,-1,-1,-1,-1,-1],"loss_changes":[1.9445742E1,4.59846E0,8.737936E-1,4.109455E0,0E0,2.0239638E-1,3.628683E-1,1.7334907E0,0E0,0E0,0E0,0E0,7.53603E-2,1.1432437E0,1.8606997E0,3.9068925E-1,0E0,0E0,7.861608E-1,1.4908237E0,0E0,0E0,0E0,0E0,0E0,0E0,0E0],"parents":[2147483647,0,0,1,1,2,2,3,3,5,5,6,6,7,7,12,12,13,13,14,14,15,15,18,18,19,19],"right_children":[2,4,6,8,-1,10,12,14,-1,-1,-1,-1,16,18,20,22,-1,-1,24,26,-1,-1,-1,-1,-1,-1,-1],"split_conditions":[-5.13E1,2.19E1,-1.2033333E1,1.04E1,-4.9489763E-2,4.89914E1,9.314788E0,-2.53E1,3.7830792E-2,-8.587681E-3,1.3992029E-2,1.0120567E-2,3.2399993E0,3E-1,8.73053E-1,1.1600006E0,4.4388168E-2,-3.0951435E-2,5E0,1.6133333E1,1.4134186E-2,3.1634312E-2,-1.3544029E-3,-1.4525189E-2,1.8326228E-2,-4.063411E-2,5.6791855E-3],"split_indices":[15,14,25,25,0,28,41,25,0,0,0,0,26,11,12,26,0,0,0,10,0,0,0,0,0,0,0],"split_type":[0,0,0,0,0,0,0,0,0,0,0,0,0,0,0,0,0,0,0,0,0,0,0,0,0,0,0],"sum_hessian":[5.7122334E1,3.577431E1,2.1348022E1,2.5554901E1,1.0219411E1,2.040604E0,1.9307419E1,2.2674469E1,2.880431E0,1.038517E0,1.002087E0,1.7417998E0,1.7565619E1,8.20737E0,1.44671E1,2.6978595E0,1.4867759E1,1.2533134E0,6.9540567E0,1.2705992E1,1.7611082E0,1.3852161E0,1.3126435E0,1.720162E0,5.2338943E0,1.0937711E1,1.7682807E0],"tree_param":{"num_deleted":"0","num_feature":"44","num_nodes":"27","size_leaf_vector":"1"}},{"base_weights":[-8.079884E-3,-5.3647544E-2,5.3679537E-2],"categories":[],"categories_nodes":[],"categories_segments":[],"categories_sizes":[],"default_left":[0,0,0],"id":40,"left_children":[1,-1,-1],"loss_changes":[6.39114E1,0E0,0E0],"parents":[2147483647,0,0],"right_children":[2,-1,-1],"split_conditions":[1E0,-5.3647544E-2,5.3679537E-2],"split_indices":[6,0,0],"split_type":[0,0,0],"sum_hessian":[5.3486313E1,2.695652E1,2.652979E1],"tree_param":{"num_deleted":"0","num_feature":"44","num_nodes":"3","size_leaf_vector":"1"}},{"base_weights":[4.9755946E-2,-3.8104028E-1,7.2850615E-1,1.0463063E-1,-5.3435886E-1,1.028449E-2,7.59963E-1,-2.8376192E-2,4.041562E-1,-7.7541506E-1,-2.0066968E-1,6.955042E-3,7.859374E-1,-2.9297063E-1,4.308002E-2,4.6216343E-2,-9.2100865E-1,-6.29311E-1,2.815511E-1,7.722657E-3,4.1804332E-2,-3.3086736E-2,1.5694682E-2,1.5275597E-2,-1.069294E-2,-1.1268542E-3,-4.974633E-2,3.7717097E-3,-7.6630497E-1,4.7934243E-1,-9.52336E-3,-6.791194E-3,-4.346372E-2,5.690032E-3,3.3278994E-2],"categories":[],"categories_nodes":[],"categories_segments":[],"categories_sizes":[],"default_left":[0,0,0,0,0,0,0,0,0,0,0,0,0,0,0,0,0,0,0,0,0,0,0,0,0,0,0,0,0,0,0,0,0,0,0],"id":41,"left_children":[1,3,5,7,9,-1,11,-1,13,15,17,-1,19,21,-1,23,25,27,29,-1,-1,-1,-1,-1,-1,-1,-1,-1,31,33,-1,-1,-1,-1,-1],"loss_changes":[1.6857798E1,2.6877122E0,2.1140575E-1,2.105071E0,2.0184216E0,0E0,2.2480392E-1,0E0,2.4938924E0,1.8779087E0,2.7991285E0,0E0,4.938488E-1,9.979361E-1,0E0,2.8529286E-1,8.463211E-1,7.3599935E-1,7.131045E-1,0E0,0E0,0E0,0E0,0E0,0E0,0E0,0E0,0E0,2.6956654E-1,2.631364E-1,0E0,0E0,0E0,0E0,0E0],"parents":[2147483647,0,0,1,1,2,2,3,3,4,4,6,6,8,8,9,9,10,10,12,12,13,13,15,15,16,16,17,17,18,18,28,28,29,29],"right_children":[2,4,6,8,10,-1,12,-1,14,16,18,-1,20,22,-1,24,26,28,30,-1,-1,-1,-1,-1,-1,-1,-1,-1,32,34,-1,-1,-1,-1,-1],"split_conditions":[-5.1166668E1,-6.79E1,-1.2033333E1,-8.88E1,-5.313333E1,1.028449E-2,6.2E0,-2.8376192E-2,1.97631E-1,3E0,1.2E2,6.955042E-3,1.833333E0,-7.75E1,4.308002E-2,4.89948E1,5.399994E-1,1.02E2,4.89886E1,7.722657E-3,4.1804332E-2,-3.3086736E-2,1.5694682E-2,1.5275597E-2,-1.069294E-2,-1.1268542E-3,-4.974633E-2,3.7717097E-3,5E0,-5.1966667E1,-9.52336E-3,-6.791194E-3,-4.346372E-2,5.690032E-3,3.3278994E-2],"split_indices":[15,15,25,15,15,0,8,0,41,5,1,0,26,15,0,28,26,1,28,0,0,0,0,0,0,0,0,0,5,15,0,0,0,0,0],"split_type":[0,0,0,0,0,0,0,0,0,0,0,0,0,0,0,0,0,0,0,0,0,0,0,0,0,0,0,0,0,0,0,0,0,0,0],"sum_hessian":[5.570327E1,3.4344048E1,2.135922E1,8.316678E0,2.602737E1,1.6400577E0,1.9719164E1,2.2878513E0,6.028826E0,1.4342571E1,1.1684799E1,1.04705E0,1.8672113E1,2.5310915E0,3.4977348E0,2.2616909E0,1.208088E1,6.024581E0,5.6602182E0,1.6739104E0,1.6998203E1,1.5181587E0,1.0129329E0,1.0450584E0,1.2166324E0,1.0175433E0,1.1063337E1,1.0536406E0,4.97094E0,3.9778504E0,1.682368E0,1.0234473E0,3.9474928E0,1.8863751E0,2.0914752E0],"tree_param":{"num_deleted":"0","num_feature":"44","num_nodes":"35","size_leaf_vector":"1"}},{"base_weights":[-6.5530546E-2,-5.328659E-2,5.2799087E-2],"categories":[],"categories_nodes":[],"categories_segments":[],"categories_sizes":[],"default_left":[0,0,0],"id":42,"left_children":[1,-1,-1],"loss_changes":[5.6577717E1,0E0,0E0],"parents":[2147483647,0,0],"right_children":[2,-1,-1],"split_conditions":[1E0,-5.328659E-2,5.2799087E-2],"split_indices":[6,0,0],"split_type":[0,0,0],"sum_hessian":[4.843429E1,2.5628077E1,2.2806217E1],"tree_param":{"num_deleted":"0","num_feature":"44","num_nodes":"3","size_leaf_vector":"1"}},{"base_weights":[3.8709253E-2,-3.3838528E-1,6.9863665E-1,-4.8717895E-1,-4.6238117E-2,2.9391152E-1,3.836332E-2,-1.6923966E-1,-4.7601048E-2,-5.7626677E-1,4.0596855E-1,-5.972635E-3,2.7120156E-2,-3.7619267E-2,-5.1485123E-3,-9.7128015E-4,-4.1350883E-2,3.0548578E-2,-9.528184E-3,-3.70684E-1,4.3763933E-1,1.3511897E-3,-3.9304867E-2,3.183116E-2,-8.225588E-3],"categories":[],"categories_nodes":[],"categories_segments":[],"categories_sizes":[],"default_left":[0,0,0,0,0,0,0,0,0,0,0,0,0,0,0,0,0,0,0,0,0,0,0,0,0],"id":43,"left_children":[1,3,5,7,9,11,-1,13,-1,15,17,-1,-1,-1,19,-1,-1,-1,-1,21,23,-1,-1,-1,-1],"loss_changes":[1.3290126E1,1.4578085E0,3.1336784E-1,3.1579895E0,3.2530816E0,5.2021325E-1,0E0,1.3886459E0,0E0,8.513768E-1,1.0194117E0,0E0,0E0,0E0,2.1633546E0,0E0,0E0,0E0,0E0,1.2296277E0,8.295907E-1,0E0,0E0,0E0,0E0],"parents":[2147483647,0,0,1,1,2,2,3,3,4,4,5,5,7,7,9,9,10,10,14,14,19,19,20,20],"right_children":[2,4,6,8,10,12,-1,14,-1,16,18,-1,-1,-1,20,-1,-1,-1,-1,22,24,-1,-1,-1,-1],"split_conditions":[-5.1166668E1,-5.313333E1,9.2E0,1.69E1,2E1,4.89955E1,3.836332E-2,-8.88E1,-4.7601048E-2,2.3E0,4.89915E1,-5.972635E-3,2.7120156E-2,-3.7619267E-2,1.97631E-1,-9.7128015E-4,-4.1350883E-2,3.0548578E-2,-9.528184E-3,-3.058E1,-5.43E1,1.3511897E-3,-3.9304867E-2,3.183116E-2,-8.225588E-3],"split_indices":[15,15,14,8,0,28,0,15,0,13,28,0,0,0,41,0,0,0,0,25,15,0,0,0,0],"split_type":[0,0,0,0,0,0,0,0,0,0,0,0,0,0,0,0,0,0,0,0,0,0,0,0,0],"sum_hessian":[5.1455112E1,3.305444E1,1.8400671E1,2.1458046E1,1.1596395E1,3.4337308E0,1.4966939E1,1.355255E1,7.9054966E0,5.2125053E0,6.383889E0,1.484148E0,1.9495827E0,2.1888099E0,1.1363741E1,1.9529865E0,3.2595186E0,4.7331123E0,1.6507771E0,6.3140945E0,5.049646E0,3.703444E0,2.6106505E0,3.7523985E0,1.2972474E0],"tree_param":{"num_deleted":"0","num_feature":"44","num_nodes":"25","size_leaf_vector":"1"}},{"base_weights":[5.8640153E-3,-3.8822013E-1,5.512887E-1,8.957462E-2,-6.032385E-1,1.0316968E-1,6.3415504E-1,-3.3911165E-2,3.1926337E-1,-8.83128E-1,-3.1996608E-1,-1.3529375E-2,2.0393861E-2,7.563102E-1,3.409114E-1,-2.4402435E-1,3.6350902E-2,-1.448621E-2,-4.7306295E-2,1.9580187E-2,-4.4675413E-1,3.0887228E-1,4.2472657E-2,5.002785E-1,-1.02787E-2,-3.432991E-2,1.55890165E-2,-1.3586687E-1,-6.969906E-1,-9.159693E-3,3.142242E-2,-7.40854E-4,3.1503946E-2,1.907172E-2,-1.7381685E-2,-1.809076E-3,-4.1841827E-2],"categories":[],"categories_nodes":[],"categories_segments":[],"categories_sizes":[],"default_left":[0,0,0,0,0,0,0,0,0,0,0,0,0,0,0,0,0,0,0,0,0,0,0,0,0,0,0,0,0,0,0,0,0,0,0,0,0],"id":44,"left_children":[1,3,5,7,9,11,13,-1,15,17,19,-1,-1,21,23,25,-1,-1,-1,-1,27,29,-1,31,-1,-1,-1,33,35,-1,-1,-1,-1,-1,-1,-1,-1],"loss_changes":[1.0979457E1,3.1014795E0,7.300496E-1,1.9936329E0,1.3496203E0,6.271167E-1,3.828044E-1,0E0,2.115115E0,9.174967E-2,1.2394867E0,0E0,0E0,2.295866E-1,7.19444E-1,1.2696552E0,0E0,0E0,0E0,0E0,7.207639E-1,6.820703E-1,0E0,3.9529216E-1,0E0,0E0,0E0,7.807587E-1,4.8403192E-1,0E0,0E0,0E0,0E0,0E0,0E0,0E0,0E0],"parents":[2147483647,0,0,1,1,2,2,3,3,4,4,5,5,6,6,8,8,9,9,10,10,13,13,14,14,15,15,20,20,21,21,23,23,27,27,28,28],"right_children":[2,4,6,8,10,12,14,-1,16,18,20,-1,-1,22,24,26,-1,-1,-1,-1,28,30,-1,32,-1,-1,-1,34,36,-1,-1,-1,-1,-1,-1,-1,-1],"split_conditions":[-5.1766666E1,-6.79E1,9.5E0,-9.046667E1,-5.44E1,1E0,5E0,-3.3911165E-2,3.36684E-1,3E0,-2.4E0,-1.3529375E-2,2.0393861E-2,2E1,5.6E1,-7.996667E1,3.6350902E-2,-1.448621E-2,-4.7306295E-2,1.9580187E-2,4.89922E1,1.1E0,4.2472657E-2,-5.04E1,-1.02787E-2,-3.432991E-2,1.55890165E-2,2E0,9E-1,-9.159693E-3,3.142242E-2,-7.40854E-4,3.1503946E-2,1.907172E-2,-1.7381685E-2,-1.809076E-3,-4.1841827E-2],"split_indices":[15,15,14,15,15,11,32,0,41,5,13,0,0,0,0,15,0,0,0,0,28,11,0,15,0,0,0,4,8,0,0,0,0,0,0,0,0],"split_type":[0,0,0,0,0,0,0,0,0,0,0,0,0,0,0,0,0,0,0,0,0,0,0,0,0,0,0,0,0,0,0,0,0,0,0,0,0],"sum_hessian":[4.908502E1,2.866326E1,2.0421759E1,9.076866E0,1.9586393E1,3.537409E0,1.688435E1,1.6404426E0,7.436424E0,8.78687E0,1.0799524E1,1.6389875E0,1.8984214E0,1.0804464E1,6.0798855E0,3.291274E0,4.145149E0,1.380674E0,7.406196E0,1.317379E0,9.482145E0,2.6052976E0,8.199167E0,4.772634E0,1.3072513E0,1.7012706E0,1.5900035E0,4.9167085E0,4.5654364E0,1.1938428E0,1.4114548E0,1.1389024E0,3.6337318E0,1.1954004E0,3.7213082E0,1.0172732E0,3.5481632E0],"tree_param":{"num_deleted":"0","num_feature":"44","num_nodes":"37","size_leaf_vector":"1"}},{"base_weights":[5.2295118E-3,-5.269269E-2,5.226307E-2],"categories":[],"categories_nodes":[],"categories_segments":[],"categories_sizes":[],"default_left":[0,0,0],"id":45,"left_children":[1,-1,-1],"loss_changes":[5.499216E1,0E0,0E0],"parents":[2147483647,0,0],"right_children":[2,-1,-1],"split_conditions":[1E0,-5.269269E-2,5.226307E-2],"split_indices":[6,0,0],"split_type":[0,0,0],"sum_hessian":[4.7925625E1,2.3738745E1,2.4186882E1],"tree_param":{"num_deleted":"0","num_feature":"44","num_nodes":"3","size_leaf_vector":"1"}},{"base_weights":[2.1796461E-2,-5.2327435E-2,5.2345198E-2],"categories":[],"categories_nodes":[],"categories_segments":[],"categories_sizes":[],"default_left":[0,0,0],"id":46,"left_children":[1,-1,-1],"loss_changes":[5.290947E1,0E0,0E0],"parents":[2147483647,0,0],"right_children":[2,-1,-1],"split_conditions":[1E0,-5.2327435E-2,5.2345198E-2],"split_indices":[6,0,0],"split_type":[0,0,0],"sum_hessian":[4.631128E1,2.2667147E1,2.3644133E1],"tree_param":{"num_deleted":"0","num_feature":"44","num_nodes":"3","size_leaf_vector":"1"}},{"base_weights":[3.117141E-2,-5.2214056E-2,5.209754E-2],"categories":[],"categories_nodes":[],"categories_segments":[],"categories_sizes":[],"default_left":[0,0,0],"id":47,"left_children":[1,-1,-1],"loss_changes":[5.1120266E1,0E0,0E0],"parents":[2147483647,0,0],"right_children":[2,-1,-1],"split_conditions":[1E0,-5.2214056E-2,5.209754E-2],"split_indices":[6,0,0],"split_type":[0,0,0],"sum_hessian":[4.502585E1,2.1798967E1,2.3226883E1],"tree_param":{"num_deleted":"0","num_feature":"44","num_nodes":"3","size_leaf_vector":"1"}},{"base_weights":[-2.1666944E-2,-5.1832378E-2,5.1525354E-2],"categories":[],"categories_nodes":[],"categories_segments":[],"categories_sizes":[],"default_left":[0,0,0],"id":48,"left_children":[1,-1,-1],"loss_changes":[4.81953E1,0E0,0E0],"parents":[2147483647,0,0],"right_children":[2,-1,-1],"split_conditions":[1E0,-5.1832378E-2,5.1525354E-2],"split_indices":[6,0,0],"split_type":[0,0,0],"sum_hessian":[4.3129066E1,2.1960045E1,2.1169022E1],"tree_param":{"num_deleted":"0","num_feature":"44","num_nodes":"3","size_leaf_vector":"1"}},{"base_weights":[5.0538518E-2,-5.1580857E-2,5.1540054E-2],"categories":[],"categories_nodes":[],"categories_segments":[],"categories_sizes":[],"default_left":[0,0,0],"id":49,"left_children":[1,-1,-1],"loss_changes":[4.7465797E1,0E0,0E0],"parents":[2147483647,0,0],"right_children":[2,-1,-1],"split_conditions":[1E0,-5.1580857E-2,5.1540054E-2],"split_indices":[6,0,0],"split_type":[0,0,0],"sum_hessian":[4.274298E1,2.029074E1,2.2452242E1],"tree_param":{"num_deleted":"0","num_feature":"44","num_nodes":"3","size_leaf_vector":"1"}},{"base_weights":[5.5319574E-2,-5.1271643E-2,5.1367868E-2],"categories":[],"categories_nodes":[],"categories_segments":[],"categories_sizes":[],"default_left":[0,0,0],"id":50,"left_children":[1,-1,-1],"loss_changes":[4.55959E1,0E0,0E0],"parents":[2147483647,0,0],"right_children":[2,-1,-1],"split_conditions":[1E0,-5.1271643E-2,5.1367868E-2],"split_indices":[6,0,0],"split_type":[0,0,0],"sum_hessian":[4.1399853E1,1.957766E1,2.1822195E1],"tree_param":{"num_deleted":"0","num_feature":"44","num_nodes":"3","size_leaf_vector":"1"}},{"base_weights":[2.7987283E-2,-3.7101212E-1,5.8288723E-1,4.750716E-2,-5.2560943E-1,1.0730786E-1,3.4228962E-2,-3.129128E-2,3.3062324E-1,-4.1065454E-2,-6.974627E-1,1.8889023E-2,-7.0869937E-3,-1.1366385E-2,3.3823024E-2,-2.0724323E-1,1.7223647E-2,-4.5576867E-2,-2.7874655E-1,6.588138E-2,-2.7442694E-2,-3.431546E-2,1.1294365E-1,1.9362358E-2,-1.42553E-2,2.3572193E-2,-1.8141987E-2],"categories":[],"categories_nodes":[],"categories_segments":[],"categories_sizes":[],"default_left":[0,0,0,0,0,0,0,0,0,0,0,0,0,0,0,0,0,0,0,0,0,0,0,0,0,0,0],"id":51,"left_children":[1,3,5,7,9,11,-1,-1,13,15,17,-1,-1,-1,-1,19,-1,-1,21,23,-1,-1,25,-1,-1,-1,-1],"loss_changes":[8.580487E0,1.4864042E0,7.095704E-1,1.5432312E0,1.3517513E0,3.2555264E-1,0E0,0E0,1.2322875E0,4.1752884E-1,8.3719444E-1,0E0,0E0,0E0,0E0,4.4666678E-1,0E0,0E0,9.649713E-1,4.8689383E-1,0E0,0E0,8.0104893E-1,0E0,0E0,0E0,0E0],"parents":[2147483647,0,0,1,1,2,2,3,3,4,4,5,5,8,8,9,9,10,10,15,15,18,18,19,19,22,22],"right_children":[2,4,6,8,10,12,-1,-1,14,16,18,-1,-1,-1,-1,20,-1,-1,22,24,-1,-1,26,-1,-1,-1,-1],"split_conditions":[-5.1766666E1,-6.953333E1,-8.966667E0,-8.88E1,4.58579E-1,3E-1,3.4228962E-2,-3.129128E-2,1.97631E-1,4.89965E1,-5.3033333E1,1.8889023E-2,-7.0869937E-3,-1.1366385E-2,3.3823024E-2,4.8995E1,1.7223647E-2,-4.5576867E-2,2E1,5E-1,-2.7442694E-2,-3.431546E-2,3.4199994E0,1.9362358E-2,-1.42553E-2,2.3572193E-2,-1.8141987E-2],"split_indices":[15,15,25,15,41,11,0,0,41,28,15,0,0,0,0,28,0,0,0,11,0,0,25,0,0,0,0],"split_type":[0,0,0,0,0,0,0,0,0,0,0,0,0,0,0,0,0,0,0,0,0,0,0,0,0,0,0],"sum_hessian":[3.6778E1,2.1587181E1,1.519082E1,6.0099635E0,1.5577218E1,3.0380595E0,1.21527605E1,1.42068E0,4.5892835E0,4.402692E0,1.1174526E1,1.2085938E0,1.8294656E0,1.8872283E0,2.702055E0,3.3997588E0,1.0029331E0,6.615351E0,4.559175E0,2.337792E0,1.0619669E0,1.865699E0,2.693476E0,1.166464E0,1.171328E0,1.5412632E0,1.1522127E0],"tree_param":{"num_deleted":"0","num_feature":"44","num_nodes":"27","size_leaf_vector":"1"}},{"base_weights":[2.2998124E-2,-5.0994832E-2,5.0818052E-2],"categories":[],"categories_nodes":[],"categories_segments":[],"categories_sizes":[],"default_left":[0,0,0],"id":52,"left_children":[1,-1,-1],"loss_changes":[4.1326553E1,0E0,0E0],"parents":[2147483647,0,0],"right_children":[2,-1,-1],"split_conditions":[1E0,-5.0994832E-2,5.0818052E-2],"split_indices":[6,0,0],"split_type":[0,0,0],"sum_hessian":[3.789095E1,1.8471596E1,1.9419353E1],"tree_param":{"num_deleted":"0","num_feature":"44","num_nodes":"3","size_leaf_vector":"1"}},{"base_weights":[1.6633596E-2,-5.0555956E-2,5.0202787E-2],"categories":[],"categories_nodes":[],"categories_segments":[],"categories_sizes":[],"default_left":[0,0,0],"id":53,"left_children":[1,-1,-1],"loss_changes":[3.701359E1,0E0,0E0],"parents":[2147483647,0,0],"right_children":[2,-1,-1],"split_conditions":[1E0,-5.0555956E-2,5.0202787E-2],"split_indices":[6,0,0],"split_type":[0,0,0],"sum_hessian":[3.4472466E1,1.6879517E1,1.7592949E1],"tree_param":{"num_deleted":"0","num_feature":"44","num_nodes":"3","size_leaf_vector":"1"}},{"base_weights":[7.1953423E-3,-5.041365E-2,5.024446E-2],"categories":[],"categories_nodes":[],"categories_segments":[],"categories_sizes":[],"default_left":[0,0,0],"id":54,"left_children":[1,-1,-1],"loss_changes":[3.705267E1,0E0,0E0],"parents":[2147483647,0,0],"right_children":[2,-1,-1],"split_conditions":[1E0,-5.041365E-2,5.024446E-2],"split_indices":[6,0,0],"split_type":[0,0,0],"sum_hessian":[3.457252E1,1.7128384E1,1.7444138E1],"tree_param":{"num_deleted":"0","num_feature":"44","num_nodes":"3","size_leaf_vector":"1"}},{"base_weights":[-1.7173288E-2,-5.0126314E-2,4.9693983E-2],"categories":[],"categories_nodes":[],"categories_segments":[],"categories_sizes":[],"default_left":[0,0,0],"id":55,"left_children":[1,-1,-1],"loss_changes":[3.3576866E1,0E0,0E0],"parents":[2147483647,0,0],"right_children":[2,-1,-1],"split_conditions":[1E0,-5.0126314E-2,4.9693983E-2],"split_indices":[6,0,0],"split_type":[0,0,0],"sum_hessian":[3.1703304E1,1.6059984E1,1.5643321E1],"tree_param":{"num_deleted":"0","num_feature":"44","num_nodes":"3","size_leaf_vector":"1"}},{"base_weights":[3.2027855E-3,-4.96011E-2,4.9444802E-2],"categories":[],"categories_nodes":[],"categories_segments":[],"categories_sizes":[],"default_left":[0,0,0],"id":56,"left_children":[1,-1,-1],"loss_changes":[3.114845E1,0E0,0E0],"parents":[2147483647,0,0],"right_children":[2,-1,-1],"split_conditions":[1E0,-4.96011E-2,4.9444802E-2],"split_indices":[6,0,0],"split_type":[0,0,0],"sum_hessian":[2.9752155E1,1.4801304E1,1.4950852E1],"tree_param":{"num_deleted":"0","num_feature":"44","num_nodes":"3","size_leaf_vector":"1"}},{"base_weights":[-1.7132472E-2,-4.949827E-2,4.9274366E-2],"categories":[],"categories_nodes":[],"categories_segments":[],"categories_sizes":[],"default_left":[0,0,0],"id":57,"left_children":[1,-1,-1],"loss_changes":[3.03222E1,0E0,0E0],"parents":[2147483647,0,0],"right_children":[2,-1,-1],"split_conditions":[1E0,-4.949827E-2,4.9274366E-2],"split_indices":[6,0,0],"split_type":[0,0,0],"sum_hessian":[2.9087301E1,1.4769353E1,1.4317948E1],"tree_param":{"num_deleted":"0","num_feature":"44","num_nodes":"3","size_leaf_vector":"1"}},{"base_weights":[1.15832025E-2,-4.909357E-2,4.8981216E-2],"categories":[],"categories_nodes":[],"categories_segments":[],"categories_sizes":[],"default_left":[0,0,0],"id":58,"left_children":[1,-1,-1],"loss_changes":[2.8130606E1,0E0,0E0],"parents":[2147483647,0,0],"right_children":[2,-1,-1],"split_conditions":[1E0,-4.909357E-2,4.8981216E-2],"split_indices":[6,0,0],"split_type":[0,0,0],"sum_hessian":[2.7250599E1,1.3441717E1,1.3808882E1],"tree_param":{"num_deleted":"0","num_feature":"44","num_nodes":"3","size_leaf_vector":"1"}},{"base_weights":[6.764196E-3,-4.903652E-2,4.8862495E-2],"categories":[],"categories_nodes":[],"categories_segments":[],"categories_sizes":[],"default_left":[0,0,0],"id":59,"left_children":[1,-1,-1],"loss_changes":[2.7657612E1,0E0,0E0],"parents":[2147483647,0,0],"right_children":[2,-1,-1],"split_conditions":[1E0,-4.903652E-2,4.8862495E-2],"split_indices":[6,0,0],"split_type":[0,0,0],"sum_hessian":[2.685956E1,1.3307884E1,1.3551677E1],"tree_param":{"num_deleted":"0","num_feature":"44","num_nodes":"3","size_leaf_vector":"1"}},{"base_weights":[-1.0217176E-2,-4.878557E-2,4.8513833E-2],"categories":[],"categories_nodes":[],"categories_segments":[],"categories_sizes":[],"default_left":[0,0,0],"id":60,"left_children":[1,-1,-1],"loss_changes":[2.6433651E1,0E0,0E0],"parents":[2147483647,0,0],"right_children":[2,-1,-1],"split_conditions":[1E0,-4.878557E-2,4.8513833E-2],"split_indices":[6,0,0],"split_type":[0,0,0],"sum_hessian":[2.5922981E1,1.3063855E1,1.2859126E1],"tree_param":{"num_deleted":"0","num_feature":"44","num_nodes":"3","size_leaf_vector":"1"}}]},"name":"gbtree"},"learner_model_param":{"base_score":"5E-1","boost_from_average":"1","num_class":"0","num_feature":"44","num_target":"1"},"objective":{"name":"binary:logistic","reg_loss_param":{"scale_pos_weight":"3.69565225"}}},"version":[2,1,2]}