{"learner":{"attributes":{"best_iteration":"0","best_score":"1.0"},"feature_names":["temp_range_low","temp_range_high","range_width","range_center","target_month","target_day","first_yes_price","forecast_available","forecast_temp_max","model_count_available","temp_max_mean","temp_max_spread","temp_max_std","gfs_seamless_temp_max","icon_seamless_temp_max","temp_max_bucket_gap","temp_max_in_bucket","forecast_shift_mean","forecast_shift_max","forecast_shift_direction","forecast_consensus_shift","forecast_stability","models_changed_count","prob_shift","climatology_normal","climatology_anomaly","climatology_anomaly_abs","is_extreme_forecast","hours_to_resolution","is_same_day","is_next_day","season","day_of_week","market_price_change_1h","market_price_change_3h","market_price_velocity","market_price_vs_model","market_volume_signal","ensemble_mean","ensemble_std","ensemble_spread","ensemble_p10","ensemble_p90","ensemble_skew"],"feature_types":["float","float","float","float","int","int","float","float","float","int","float","float","float","float","float","float","float","float","float","float","float","float","float","float","int","float","float","float","float","float","float","int","int","float","float","float","float","float","float","float","float","float","float","float"],"gradient_booster":{"model":{"gbtree_model_param":{"num_parallel_tree":"1","num_trees":"61"},"iteration_indptr":[0,1,2,3,4,5,6,7,8,9,10,11,12,13,14,15,16,17,18,19,20,21,22,23,24,25,26,27,28,29,30,31,32,33,34,35,36,37,38,39,40,41,42,43,44,45,46,47,48,49,50,51,52,53,54,55,56,57,58,59,60,61],"tree_info":[0,0,0,0,0,0,0,0,0,0,0,0,0,0,0,0,0,0,0,0,0,0,0,0,0,0,0,0,0,0,0,0,0,0,0,0,0,0,0,0,0,0,0,0,0,0,0,0,0,0,0,0,0,0,0,0,0,0,0,0,0],"trees":[{"base_weights":[1.24111764E-1,-9.899498E-2,9.911191E-2],"categories":[],"categories_nodes":[],"categories_segments":[],"categories_sizes":[],"default_left":[0,0,0],"id":0,"left_children":[1,-1,-1],"loss_changes":[8.29224E2,0E0,0E0],"parents":[2147483647,0,0],"right_children":[2,-1,-1],"split_conditions":[1E0,-9.899498E-2,9.911191E-2],"split_indices":[6,0,0],"split_type":[0,0,0],"sum_hessian":[2.1009999E2,9.85E1,1.116E2],"tree_param":{"num_deleted":"0","num_feature":"44","num_nodes":"3","size_leaf_vector":"1"}},{"base_weights":[4.064906E-2,-9.432253E-2,9.435744E-2],"categories":[],"categories_nodes":[],"categories_segments":[],"categories_sizes":[],"default_left":[0,0,0],"id":1,"left_children":[1,-1,-1],"loss_changes":[7.181182E2,0E0,0E0],"parents":[2147483647,0,0],"right_children":[2,-1,-1],"split_conditions":[1E0,-9.432253E-2,9.435744E-2],"split_indices":[6,0,0],"split_type":[0,0,0],"sum_hessian":[1.9980948E2,9.776029E1,1.0204918E2],"tree_param":{"num_deleted":"0","num_feature":"44","num_nodes":"3","size_leaf_vector":"1"}},{"base_weights":[-9.431673E-2,-9.0297304E-2,9.019208E-2],"categories":[],"categories_nodes":[],"categories_segments":[],"categories_sizes":[],"default_left":[0,0,0],"id":2,"left_children":[1,-1,-1],"loss_changes":[6.1694336E2,0E0,0E0],"parents":[2147483647,0,0],"right_children":[2,-1,-1],"split_conditions":[1E0,-9.0297304E-2,9.019208E-2],"split_indices":[6,0,0],"split_type":[0,0,0],"sum_hessian":[1.8788779E2,9.8823814E1,8.906397E1],"tree_param":{"num_deleted":"0","num_feature":"44","num_nodes":"3","size_leaf_vector":"1"}},{"base_weights":[5.900437E-2,-4.063484E-1,1.4616947E0,-1.4315621E0,-5.5785194E-2,-5.5371452E-2,1.5753018E0,-2.4087296E-1,-8.4860004E-2,-6.873491E-1,6.7422056E-1,4.2293105E-2,8.089487E-2,6.5947026E-2,-7.068449E-2,-8.34485E-2,-1.8100187E-1,-1.3187605E-1,1.4656031E0,-9.555055E-1,2.6826525E-1,1.1567847E0,-1.0137372E0,8.002503E-2,6.038872E-1,-8.0650054E-2,6.5947026E-2,2.9191598E-2,-6.8905935E-2,7.5044714E-2,-4.8261784E-2,3.019436E-2,-8.0650054E-2,-4.8261784E-2,6.5947026E-2],"categories":[],"categories_nodes":[],"categories_segments":[],"categories_sizes":[],"default_left":[0,0,0,0,0,0,0,0,0,0,0,0,0,0,0,0,0,0,0,0,0,0,0,0,0,0,0,0,0,0,0,0,0,0,0],"id":3,"left_children":[1,3,5,7,9,-1,11,13,-1,15,17,-1,-1,-1,-1,-1,19,21,23,25,27,29,31,-1,33,-1,-1,-1,-1,-1,-1,-1,-1,-1,-1],"loss_changes":[1.3170015E2,5.4405796E1,1.6411781E1,1.1796593E1,5.3028008E1,0E0,1.3959503E-1,1.6873018E1,0E0,3.0326874E1,3.4251865E1,0E0,0E0,0E0,0E0,0E0,1.4792115E1,3.2272106E1,2.1747246E0,2.5389458E1,1.4946112E1,9.908637E0,1.7240824E1,0E0,7.178953E0,0E0,0E0,0E0,0E0,0E0,0E0,0E0,0E0,0E0,0E0],"parents":[2147483647,0,0,1,1,2,2,3,3,4,4,6,6,7,7,9,9,10,10,16,16,17,17,18,18,19,19,20,20,21,21,22,22,24,24],"right_children":[2,4,6,8,10,-1,12,14,-1,16,18,-1,-1,-1,-1,-1,20,22,24,26,28,30,32,-1,34,-1,-1,-1,-1,-1,-1,-1,-1,-1,-1],"split_conditions":[2.528E1,1.1E1,3.1E1,4.89862E1,1E0,-5.5371452E-2,1.88562E-1,2.7E0,-8.4860004E-2,4.89902E1,1.75E1,4.2293105E-2,8.089487E-2,6.5947026E-2,-7.068449E-2,-8.34485E-2,4.3E1,-6.3E0,2.0900002E1,4.89978E1,6.523333E1,4.89903E1,5.8E0,8.002503E-2,3.6E1,-8.0650054E-2,6.5947026E-2,2.9191598E-2,-6.8905935E-2,7.5044714E-2,-4.8261784E-2,3.019436E-2,-8.0650054E-2,-4.8261784E-2,6.5947026E-2],"split_indices":[25,1,1,28,16,0,12,8,0,28,8,0,0,0,0,0,1,8,26,28,10,28,26,0,1,0,0,0,0,0,0,0,0,0,0],"split_type":[0,0,0,0,0,0,0,0,0,0,0,0,0,0,0,0,0,0,0,0,0,0,0,0,0,0,0,0,0,0,0,0,0,0,0],"sum_hessian":[1.9985336E2,1.5060077E2,4.9252598E1,3.7589005E1,1.1301176E2,1.715275E0,4.7537323E1,7.204135E0,3.038487E1,6.06226E1,5.238916E1,3.773585E0,4.3763737E1,3.0384672E0,4.165668E0,1.9848183E1,4.0774418E1,2.6366148E1,2.6023012E1,1.4555313E1,2.6219103E1,1.0585637E1,1.578051E1,2.1759348E1,4.263664E0,1.1516847E1,3.0384672E0,2.2543514E1,3.6755893E0,9.360441E0,1.2251964E0,4.263664E0,1.1516847E1,1.2251964E0,3.0384672E0],"tree_param":{"num_deleted":"0","num_feature":"44","num_nodes":"35","size_leaf_vector":"1"}},{"base_weights":[1.0084186E-1,-8.4393255E-2,8.4735766E-2],"categories":[],"categories_nodes":[],"categories_segments":[],"categories_sizes":[],"default_left":[0,0,0],"id":4,"left_children":[1,-1,-1],"loss_changes":[5.896135E2,0E0,0E0],"parents":[2147483647,0,0],"right_children":[2,-1,-1],"split_conditions":[1E0,-8.4393255E-2,8.4735766E-2],"split_indices":[6,0,0],"split_type":[0,0,0],"sum_hessian":[2.0480806E2,9.647786E1,1.083302E2],"tree_param":{"num_deleted":"0","num_feature":"44","num_nodes":"3","size_leaf_vector":"1"}},{"base_weights":[-1.1252329E-1,-8.1595704E-2,8.169408E-2],"categories":[],"categories_nodes":[],"categories_segments":[],"categories_sizes":[],"default_left":[0,0,0],"id":5,"left_children":[1,-1,-1],"loss_changes":[4.7857376E2,0E0,0E0],"parents":[2147483647,0,0],"right_children":[2,-1,-1],"split_conditions":[1E0,-8.1595704E-2,8.169408E-2],"split_indices":[6,0,0],"split_type":[0,0,0],"sum_hessian":[1.7835275E2,9.5410324E1,8.294244E1],"tree_param":{"num_deleted":"0","num_feature":"44","num_nodes":"3","size_leaf_vector":"1"}},{"base_weights":[7.6380394E-2,-7.907329E-2,7.936029E-2],"categories":[],"categories_nodes":[],"categories_segments":[],"categories_sizes":[],"default_left":[0,0,0],"id":6,"left_children":[1,-1,-1],"loss_changes":[4.9206567E2,0E0,0E0],"parents":[2147483647,0,0],"right_children":[2,-1,-1],"split_conditions":[1E0,-7.907329E-2,7.936029E-2],"split_indices":[6,0,0],"split_type":[0,0,0],"sum_hessian":[1.944535E2,9.269331E1,1.017602E2],"tree_param":{"num_deleted":"0","num_feature":"44","num_nodes":"3","size_leaf_vector":"1"}},{"base_weights":[6.1193317E-2,-7.675677E-2,7.698557E-2],"categories":[],"categories_nodes":[],"categories_segments":[],"categories_sizes":[],"default_left":[0,0,0],"id":7,"left_children":[1,-1,-1],"loss_changes":[4.444067E2,0E0,0E0],"parents":[2147483647,0,0],"right_children":[2,-1,-1],"split_conditions":[1E0,-7.675677E-2,7.698557E-2],"split_indices":[6,0,0],"split_type":[0,0,0],"sum_hessian":[1.8629044E2,8.955801E1,9.673243E1],"tree_param":{"num_deleted":"0","num_feature":"44","num_nodes":"3","size_leaf_vector":"1"}},{"base_weights":[1.6116502E-2,-7.473923E-2,7.4894816E-2],"categories":[],"categories_nodes":[],"categories_segments":[],"categories_sizes":[],"default_left":[0,0,0],"id":8,"left_children":[1,-1,-1],"loss_changes":[4.1115988E2,0E0,0E0],"parents":[2147483647,0,0],"right_children":[2,-1,-1],"split_conditions":[1E0,-7.473923E-2,7.4894816E-2],"split_indices":[6,0,0],"split_type":[0,0,0],"sum_hessian":[1.8164995E2,8.993683E1,9.171313E1],"tree_param":{"num_deleted":"0","num_feature":"44","num_nodes":"3","size_leaf_vector":"1"}},{"base_weights":[1.5796382E-2,-5.7776064E-1,9.339462E-1,-9.5576745E-1,4.6706414E-1,-5.230885E-1,1.1721747E0,9.135539E-1,-1.2241659E0,1.0379078E0,-6.401835E-2,5.703042E-1,-6.2611654E-2,1.2321322E0,-4.295556E-2,6.574415E-2,-4.472175E-2,-1.3312612E0,5.106836E-1,6.707468E-2,6.592267E-2,-3.8173094E-2,5.7309784E-2,-4.14705E-2,1.2924758E0,-7.181244E-1,-7.234387E-2,5.4628123E-2,-3.8624275E-2,4.761705E-2,-5.1944852E-2,9.011713E-1,6.9235094E-2,3.469054E-2,-6.5332524E-2,6.71993E-2,-5.0814968E-2],"categories":[],"categories_nodes":[],"categories_segments":[],"categories_sizes":[],"default_left":[0,0,0,0,0,0,0,0,0,0,0,0,0,0,0,0,0,0,0,0,0,0,0,0,0,0,0,0,0,0,0,0,0,0,0,0,0],"id":9,"left_children":[1,3,5,7,9,11,13,15,17,19,-1,21,-1,23,-1,-1,-1,25,27,29,-1,-1,-1,-1,31,33,-1,-1,-1,-1,-1,35,-1,-1,-1,-1,-1],"loss_changes":[9.777413E1,4.3489403E1,2.506242E1,4.1435608E1,3.088067E1,9.156702E0,8.469208E0,8.912289E0,1.381472E1,6.144026E0,0E0,4.6570044E0,0E0,8.475571E0,0E0,0E0,0E0,3.7007523E0,4.4526744E0,7.043724E0,0E0,0E0,0E0,0E0,8.5292816E-1,1.1370965E1,0E0,0E0,0E0,0E0,0E0,1.3224889E1,0E0,0E0,0E0,0E0,0E0],"parents":[2147483647,0,0,1,1,2,2,3,3,4,4,5,5,6,6,7,7,8,8,9,9,11,11,13,13,17,17,18,18,19,19,24,24,25,25,31,31],"right_children":[2,4,6,8,10,12,14,16,18,20,-1,22,-1,24,-1,-1,-1,26,28,30,-1,-1,-1,-1,32,34,-1,-1,-1,-1,-1,36,-1,-1,-1,-1,-1],"split_conditions":[1.094E1,1.5E0,4.89944E1,9.833333E0,6.063333E1,1.3219999E1,4.2166668E1,4.89903E1,2.9E0,3.76E0,-6.401835E-2,1.3066667E1,-6.2611654E-2,-1.3E1,-4.295556E-2,6.574415E-2,-4.472175E-2,-2.35E1,3E0,5.4833332E1,6.592267E-2,-3.8173094E-2,5.7309784E-2,-4.14705E-2,2.8E1,4.89862E1,-7.234387E-2,5.4628123E-2,-3.8624275E-2,4.761705E-2,-5.1944852E-2,2.5E1,6.9235094E-2,3.469054E-2,-6.5332524E-2,6.71993E-2,-5.0814968E-2],"split_indices":[25,3,28,15,15,25,15,28,11,26,0,26,0,3,0,0,0,3,11,15,0,0,0,0,13,28,0,0,0,0,0,8,0,0,0,0,0],"split_type":[0,0,0,0,0,0,0,0,0,0,0,0,0,0,0,0,0,0,0,0,0,0,0,0,0,0,0,0,0,0,0,0,0,0,0,0,0],"sum_hessian":[1.774204E2,1.0798317E2,6.943723E1,7.9357635E1,2.8625534E1,9.589702E0,5.984753E1,9.661841E0,6.969579E1,2.188294E1,6.742593E0,3.9237158E0,5.6659856E0,5.85138E1,1.3337313E0,8.129934E0,1.5319076E0,6.586262E1,3.833176E0,5.183706E0,1.6699234E1,1.0850446E0,2.8386712E0,1.3016112E0,5.721219E1,1.1593132E1,5.4269485E1,2.7394576E0,1.0937184E0,2.9562829E0,2.2274232E0,1.2966814E1,4.4245377E1,3.3580134E0,8.235119E0,1.0777075E1,2.1897397E0],"tree_param":{"num_deleted":"0","num_feature":"44","num_nodes":"37","size_leaf_vector":"1"}},{"base_weights":[7.1112146E-3,-7.14745E-2,7.1903355E-2],"categories":[],"categories_nodes":[],"categories_segments":[],"categories_sizes":[],"default_left":[0,0,0],"id":10,"left_children":[1,-1,-1],"loss_changes":[3.5346768E2,0E0,0E0],"parents":[2147483647,0,0],"right_children":[2,-1,-1],"split_conditions":[1E0,-7.14745E-2,7.1903355E-2],"split_indices":[6,0,0],"split_type":[0,0,0],"sum_hessian":[1.6994409E2,8.4805275E1,8.513882E1],"tree_param":{"num_deleted":"0","num_feature":"44","num_nodes":"3","size_leaf_vector":"1"}},{"base_weights":[-1.201157E-2,-6.993319E-2,7.0164956E-2],"categories":[],"categories_nodes":[],"categories_segments":[],"categories_sizes":[],"default_left":[0,0,0],"id":11,"left_children":[1,-1,-1],"loss_changes":[3.3130997E2,0E0,0E0],"parents":[2147483647,0,0],"right_children":[2,-1,-1],"split_conditions":[1E0,-6.993319E-2,7.0164956E-2],"split_indices":[6,0,0],"split_type":[0,0,0],"sum_hessian":[1.668165E2,8.426729E1,8.25492E1],"tree_param":{"num_deleted":"0","num_feature":"44","num_nodes":"3","size_leaf_vector":"1"}},{"base_weights":[1.1126556E-1,-6.854408E-2,6.893449E-2],"categories":[],"categories_nodes":[],"categories_segments":[],"categories_sizes":[],"default_left":[0,0,0],"id":12,"left_children":[1,-1,-1],"loss_changes":[3.3572754E2,0E0,0E0],"parents":[2147483647,0,0],"right_children":[2,-1,-1],"split_conditions":[1E0,-6.854408E-2,6.893449E-2],"split_indices":[6,0,0],"split_type":[0,0,0],"sum_hessian":[1.7671404E2,8.141931E1,9.529473E1],"tree_param":{"num_deleted":"0","num_feature":"44","num_nodes":"3","size_leaf_vector":"1"}},{"base_weights":[1.0943307E-2,-8.7118566E-1,4.9574438E-1,8.262647E-1,-1.1896509E0,-2.705463E-1,1.2091157E0,5.667586E-2,-3.7126392E-2,-6.5947324E-2,-6.60667E-1,9.83576E-2,-6.325536E-2,6.2228855E-2,2.4643805E-2,2.7023662E-2,-5.9548575E-2,-2.6118305E-1,7.824683E-1,-6.2245574E-2,5.01182E-1,9.645677E-1,-3.5706516E-2,-3.7786406E-2,3.3133037E-2,2.270191E-2,5.5632543E-2],"categories":[],"categories_nodes":[],"categories_segments":[],"categories_sizes":[],"default_left":[0,0,0,0,0,0,0,0,0,0,0,0,0,0,0,0,0,0,0,0,0,0,0,0,0,0,0],"id":13,"left_children":[1,3,5,7,9,11,13,-1,-1,-1,15,17,-1,-1,-1,-1,-1,19,21,-1,23,25,-1,-1,-1,-1,-1],"loss_changes":[6.906896E1,3.1949875E1,5.7293976E1,5.488156E0,2.4557037E0,1.8857874E1,7.619705E-1,0E0,0E0,0E0,8.005918E0,9.593419E0,0E0,0E0,0E0,0E0,0E0,1.9951546E1,4.340912E0,0E0,3.592412E0,4.3018055E-1,0E0,0E0,0E0,0E0,0E0],"parents":[2147483647,0,0,1,1,2,2,3,3,4,4,5,5,6,6,10,10,11,11,17,17,18,18,20,20,21,21],"right_children":[2,4,6,8,10,12,14,-1,-1,-1,16,18,-1,-1,-1,-1,-1,20,22,-1,24,26,-1,-1,-1,-1,-1],"split_conditions":[2.19E1,9.833333E0,1E0,4.89903E1,2.2E1,5.763333E1,3.7E0,5.667586E-2,-3.7126392E-2,-6.5947324E-2,3E0,5.31E1,-6.325536E-2,6.2228855E-2,2.4643805E-2,2.7023662E-2,-5.9548575E-2,4.8995E1,4.89928E1,-6.2245574E-2,2E0,3.5799994E0,-3.5706516E-2,-3.7786406E-2,3.3133037E-2,2.270191E-2,5.5632543E-2],"split_indices":[8,15,16,28,5,15,11,0,0,0,1,14,0,0,0,0,0,28,28,0,32,26,0,0,0,0,0],"split_type":[0,0,0,0,0,0,0,0,0,0,0,0,0,0,0,0,0,0,0,0,0,0,0,0,0,0,0],"sum_hessian":[1.5949559E2,5.6284702E1,1.03210884E2,8.639709E0,4.7644993E1,5.005908E1,5.315181E1,7.4567437E0,1.1829658E0,3.7086792E1,1.0558202E1,3.717221E1,1.2886865E1,4.994153E1,3.2102833E0,3.2278786E0,7.330323E0,2.4771526E1,1.2400686E1,1.0539184E1,1.4232342E1,1.1372434E1,1.0282531E0,1.2013423E0,1.3030999E1,3.4712167E0,7.9012165E0],"tree_param":{"num_deleted":"0","num_feature":"44","num_nodes":"27","size_leaf_vector":"1"}},{"base_weights":[-7.540544E-2,-6.666028E-1,8.4804696E-1,8.8975936E-1,-8.349971E-1,2.6914945E-2,1.1439018E0,2.0372014E-2,5.503136E-2,-1.1922144E0,-4.8659485E-2,-5.443448E-2,5.045561E-1,1.2034577E0,3.6675355E-1,-6.8575275E-1,-6.5289274E-2,1.0272467E0,-6.212293E-2,-4.8401147E-2,1.0060887E0,6.2027466E-2,2.843131E-2,-3.638253E-2,4.6503197E-2,3.0878572E-2,-5.9320237E-2,6.148214E-2,3.2395533E-1,5.915409E-2,2.5127346E-2,-3.7380423E-2,4.6581116E-2],"categories":[],"categories_nodes":[],"categories_segments":[],"categories_sizes":[],"default_left":[0,0,0,0,0,0,0,0,0,0,0,0,0,0,0,0,0,0,0,0,0,0,0,0,0,0,0,0,0,0,0,0,0],"id":14,"left_children":[1,3,5,7,9,11,13,-1,-1,15,17,-1,19,21,23,25,-1,27,-1,-1,29,-1,-1,-1,-1,-1,-1,-1,31,-1,-1,-1,-1],"loss_changes":[7.811608E1,2.3587265E1,1.354562E1,4.663329E-1,2.21804E1,8.982437E0,1.4589653E0,0E0,0E0,2.233429E0,3.437997E1,0E0,9.6628895E0,1.8225479E-1,3.3651726E0,8.608409E0,0E0,1.6091805E0,0E0,0E0,2.312975E-1,0E0,0E0,0E0,0E0,0E0,0E0,0E0,3.6328123E0,0E0,0E0,0E0,0E0],"parents":[2147483647,0,0,1,1,2,2,3,3,4,4,5,5,6,6,9,9,10,10,12,12,13,13,14,14,15,15,17,17,20,20,28,28],"right_children":[2,4,6,8,10,12,14,-1,-1,16,18,-1,20,22,24,26,-1,28,-1,-1,30,-1,-1,-1,-1,-1,-1,-1,32,-1,-1,-1,-1],"split_conditions":[1.094E1,9.5E0,4.89964E1,-2.3800001E1,5.34E1,3.2E1,4.12E1,2.0372014E-2,5.503136E-2,3E0,5.63E1,-5.443448E-2,1.3E0,2E0,3.6E1,4.89862E1,-6.5289274E-2,-6.433333E0,-6.212293E-2,-4.8401147E-2,1.8E0,6.2027466E-2,2.843131E-2,-3.638253E-2,4.6503197E-2,3.0878572E-2,-5.9320237E-2,6.148214E-2,5.7E1,5.915409E-2,2.5127346E-2,-3.7380423E-2,4.6581116E-2],"split_indices":[25,15,28,25,10,1,15,0,0,1,8,0,11,4,1,28,0,25,0,0,11,0,0,0,0,0,0,0,1,0,0,0,0],"split_type":[0,0,0,0,0,0,0,0,0,0,0,0,0,0,0,0,0,0,0,0,0,0,0,0,0,0,0,0,0,0,0,0,0],"sum_hessian":[1.4104932E2,8.61646E1,5.4884724E1,7.994323E0,7.817027E1,1.482621E1,4.0058514E1,3.3238559E0,4.670467E0,5.339695E1,2.4773321E1,4.0612445E0,1.0764966E1,3.6697674E1,3.3608408E0,1.1069849E1,4.2327103E1,1.3103428E1,1.1669893E1,2.4985876E0,8.266378E0,3.3770416E1,2.9272583E0,1.0429155E0,2.3179252E0,3.0073693E0,8.06248E0,9.594013E0,3.5094144E0,5.117926E0,3.148452E0,1.186623E0,2.3227916E0],"tree_param":{"num_deleted":"0","num_feature":"44","num_nodes":"33","size_leaf_vector":"1"}},{"base_weights":[2.118607E-3,-6.546577E-2,6.6135146E-2],"categories":[],"categories_nodes":[],"categories_segments":[],"categories_sizes":[],"default_left":[0,0,0],"id":15,"left_children":[1,-1,-1],"loss_changes":[2.6364838E2,0E0,0E0],"parents":[2147483647,0,0],"right_children":[2,-1,-1],"split_conditions":[1E0,-6.546577E-2,6.6135146E-2],"split_indices":[6,0,0],"split_type":[0,0,0],"sum_hessian":[1.5023431E2,7.538258E1,7.485173E1],"tree_param":{"num_deleted":"0","num_feature":"44","num_nodes":"3","size_leaf_vector":"1"}},{"base_weights":[4.9321752E-2,-6.434039E-2,6.495015E-2],"categories":[],"categories_nodes":[],"categories_segments":[],"categories_sizes":[],"default_left":[0,0,0],"id":16,"left_children":[1,-1,-1],"loss_changes":[2.5097943E2,0E0,0E0],"parents":[2147483647,0,0],"right_children":[2,-1,-1],"split_conditions":[1E0,-6.434039E-2,6.495015E-2],"split_indices":[6,0,0],"split_type":[0,0,0],"sum_hessian":[1.4830975E2,7.166139E1,7.664837E1],"tree_param":{"num_deleted":"0","num_feature":"44","num_nodes":"3","size_leaf_vector":"1"}},{"base_weights":[5.9891116E-2,-6.338682E-2,6.386294E-2],"categories":[],"categories_nodes":[],"categories_segments":[],"categories_sizes":[],"default_left":[0,0,0],"id":17,"left_children":[1,-1,-1],"loss_changes":[2.3830052E2,0E0,0E0],"parents":[2147483647,0,0],"right_children":[2,-1,-1],"split_conditions":[1E0,-6.338682E-2,6.386294E-2],"split_indices":[6,0,0],"split_type":[0,0,0],"sum_hessian":[1.4544208E2,6.9550674E1,7.589141E1],"tree_param":{"num_deleted":"0","num_feature":"44","num_nodes":"3","size_leaf_vector":"1"}},{"base_weights":[7.791935E-3,-4.790244E-1,7.5674844E-1,-8.048919E-1,4.2756173E-1,-1.1346222E-1,1.0786707E0,7.0901954E-1,-1.0321453E0,9.693915E-1,-5.3661656E-2,-5.2782353E-2,3.8480744E-1,1.1294936E0,1.638781E-2,4.903987E-2,-3.3164013E-2,-1.1313525E0,2.357139E-2,5.43646E-2,3.547871E-1,-4.4876713E-2,8.362415E-1,7.1121055E-1,6.0379703E-2,-6.5456796E-1,-6.151549E-2,-3.3709176E-2,4.5198407E-2,5.416403E-2,3.0719498E-1,5.1031914E-2,-3.4587864E-2,2.5679624E-2,-5.5622663E-2,4.323546E-2,-3.3868536E-2],"categories":[],"categories_nodes":[],"categories_segments":[],"categories_sizes":[],"default_left":[0,0,0,0,0,0,0,0,0,0,0,0,0,0,0,0,0,0,0,0,0,0,0,0,0,0,0,0,0,0,0,0,0,0,0,0,0],"id":18,"left_children":[1,3,5,7,9,11,13,15,17,19,-1,-1,21,23,-1,-1,-1,25,-1,-1,27,-1,29,31,-1,33,-1,-1,-1,-1,35,-1,-1,-1,-1,-1,-1],"loss_changes":[5.1157703E1,2.5469217E1,1.5605549E1,2.2374352E1,1.9857166E1,7.8376613E0,1.1731224E0,3.933813E0,8.752899E0,8.8430023E-1,0E0,0E0,7.168668E0,3.6513138E-1,0E0,0E0,0E0,1.6474838E0,0E0,0E0,3.0424054E0,0E0,8.0659485E-1,4.321299E0,0E0,6.4937444E0,0E0,0E0,0E0,0E0,2.8751326E0,0E0,0E0,0E0,0E0,0E0,0E0],"parents":[2147483647,0,0,1,1,2,2,3,3,4,4,5,5,6,6,7,7,8,8,9,9,12,12,13,13,17,17,20,20,22,22,23,23,25,25,30,30],"right_children":[2,4,6,8,10,12,14,16,18,20,-1,-1,22,24,-1,-1,-1,26,-1,-1,28,-1,30,32,-1,34,-1,-1,-1,-1,36,-1,-1,-1,-1,-1,-1],"split_conditions":[1.094E1,5.3E1,4.89963E1,9.833333E0,5.763333E1,7.84573E-1,4.12E1,4.89903E1,1.367073E0,5.4833332E1,-5.3661656E-2,-5.2782353E-2,3.2E1,2.9E1,1.638781E-2,4.903987E-2,-3.3164013E-2,3E0,2.357139E-2,5.43646E-2,6.3E1,-4.4876713E-2,8.05536E-1,3.68E1,6.0379703E-2,-2.248E1,-6.151549E-2,-3.3709176E-2,4.5198407E-2,5.416403E-2,3.33E1,5.1031914E-2,-3.4587864E-2,2.5679624E-2,-5.5622663E-2,4.323546E-2,-3.3868536E-2],"split_indices":[25,1,28,15,15,12,15,28,12,15,0,0,1,1,0,0,0,1,0,0,1,0,12,15,0,25,0,0,0,0,8,0,0,0,0,0,0],"split_type":[0,0,0,0,0,0,0,0,0,0,0,0,0,0,0,0,0,0,0,0,0,0,0,0,0,0,0,0,0,0,0,0,0,0,0,0,0],"sum_hessian":[1.38316E2,8.404667E1,5.426932E1,6.1906784E1,2.2139885E1,1.4829693E1,3.943963E1,7.803258E0,5.4103527E1,1.6527182E1,5.6127033E0,4.742815E0,1.0086878E1,3.646732E1,2.9723082E0,6.751452E0,1.0518057E0,5.098691E1,3.1166131E0,1.3221743E1,3.3054388E0,2.3690841E0,7.7177944E0,7.327856E0,2.9139463E1,1.00723095E1,4.0914604E1,1.0710515E0,2.2343872E0,4.546971E0,3.1708233E0,6.226993E0,1.1008626E0,2.8020463E0,7.2702627E0,2.1021872E0,1.0686363E0],"tree_param":{"num_deleted":"0","num_feature":"44","num_nodes":"37","size_leaf_vector":"1"}},{"base_weights":[2.304165E-3,-6.1871763E-2,6.2349834E-2],"categories":[],"categories_nodes":[],"categories_segments":[],"categories_sizes":[],"default_left":[0,0,0],"id":19,"left_children":[1,-1,-1],"loss_changes":[1.9947371E2,0E0,0E0],"parents":[2147483647,0,0],"right_children":[2,-1,-1],"split_conditions":[1E0,-6.1871763E-2,6.2349834E-2],"split_indices":[6,0,0],"split_type":[0,0,0],"sum_hessian":[1.27268654E2,6.376411E1,6.350454E1],"tree_param":{"num_deleted":"0","num_feature":"44","num_nodes":"3","size_leaf_vector":"1"}},{"base_weights":[2.7302481E-2,-4.8089102E-1,7.889976E-1,-5.8712937E-2,-2.0384975E-1,1.3322605E-2,1.0555942E0,7.514591E-1,-3.5151657E-1,4.8229974E-2,-5.276557E-1,2.2944908E-1,5.6400962E-2,4.9169153E-2,2.7182096E-1,-9.209146E-1,7.847529E-2,4.0307693E-2,-5.4218043E-2,-3.4835763E-2,4.2274013E-2,-3.21268E-2,4.0485013E-2,4.0896926E-2,-5.77823E-2,6.320346E-1,-4.563463E-1,-4.0170062E-2,3.844696E-2,-1.8244538E-3,4.7165487E-2,-5.396321E-2,7.924482E-3],"categories":[],"categories_nodes":[],"categories_segments":[],"categories_sizes":[],"default_left":[0,0,0,0,0,0,0,0,0,0,0,0,0,0,0,0,0,0,0,0,0,0,0,0,0,0,0,0,0,0,0,0,0],"id":20,"left_children":[1,3,5,-1,7,9,11,13,15,-1,17,19,-1,-1,21,23,25,-1,-1,-1,-1,-1,-1,27,-1,29,31,-1,-1,-1,-1,-1,-1],"loss_changes":[4.915055E1,1.4396952E1,1.0491032E1,0E0,8.114821E0,7.7170944E0,2.0025063E0,5.9696054E-1,1.2040491E1,0E0,7.984208E0,3.0432763E0,0E0,0E0,2.4453847E0,4.813307E0,8.806555E0,0E0,0E0,0E0,0E0,0E0,0E0,3.7570553E0,0E0,3.0637918E0,5.998057E0,0E0,0E0,0E0,0E0,0E0,0E0],"parents":[2147483647,0,0,1,1,2,2,4,4,5,5,6,6,7,7,8,8,10,10,11,11,14,14,15,15,16,16,23,23,25,25,26,26],"right_children":[2,4,6,-1,8,10,12,14,16,-1,18,20,-1,-1,22,24,26,-1,-1,-1,-1,-1,-1,28,-1,30,32,-1,-1,-1,-1,-1,-1],"split_conditions":[1.298E1,6.1E1,1E0,-5.8712937E-2,-6.3E0,5E0,4.8994E1,-1.08E1,9.3E1,4.8229974E-2,1.3219999E1,2.9333332E1,5.6400962E-2,4.9169153E-2,6.6E1,5.8E0,-5.3799996E0,4.0307693E-2,-5.4218043E-2,-3.4835763E-2,4.2274013E-2,-3.21268E-2,4.0485013E-2,9E-1,-5.77823E-2,5.2E1,4.89918E1,-4.0170062E-2,3.844696E-2,-1.8244538E-3,4.7165487E-2,-5.396321E-2,7.924482E-3],"split_indices":[25,2,16,0,8,5,28,8,2,0,25,10,0,0,2,26,25,0,0,0,0,0,0,11,0,8,28,0,0,0,0,0,0],"split_type":[0,0,0,0,0,0,0,0,0,0,0,0,0,0,0,0,0,0,0,0,0,0,0,0,0,0,0,0,0,0,0,0,0],"sum_hessian":[1.2499478E2,7.519456E1,4.980022E1,2.0542658E1,5.46519E1,1.3006676E1,3.6793545E1,6.7693977E0,4.7882504E1,4.431352E0,8.575323E0,3.3015232E0,3.349202E1,3.8550625E0,2.914335E0,2.0110435E1,2.777207E1,2.3932517E0,6.1820717E0,1.2664784E0,2.035045E0,1.0073457E0,1.9069895E0,4.107153E0,1.6003283E1,1.35576515E1,1.4214417E1,1.8538109E0,2.2533422E0,4.587621E0,8.970031E0,6.6855836E0,7.528834E0],"tree_param":{"num_deleted":"0","num_feature":"44","num_nodes":"33","size_leaf_vector":"1"}},{"base_weights":[8.291549E-2,-6.6500205E-1,4.875504E-1,5.5704415E-1,-9.143419E-1,-2.5703505E-1,1.1170714E0,4.6256088E-2,-3.65268E-2,-5.870256E-2,-1.6938753E-1,-5.363321E-2,-5.0092008E-2,5.7196755E-2,2.2293188E-2,3.6973603E-2,-5.098627E-2,-3.5663795E-1,4.116635E-1,-5.55362E-2,3.9197433E-1,6.669311E-1,-4.0207606E-2,-4.164627E-2,3.786477E-2,4.419126E-2,-3.3349853E-2],"categories":[],"categories_nodes":[],"categories_segments":[],"categories_sizes":[],"default_left":[0,0,0,0,0,0,0,0,0,0,0,0,0,0,0,0,0,0,0,0,0,0,0,0,0,0,0],"id":21,"left_children":[1,3,5,7,9,11,13,-1,-1,-1,15,-1,17,-1,-1,-1,-1,19,21,-1,23,25,-1,-1,-1,-1,-1],"loss_changes":[3.9305256E1,1.4417244E1,3.973665E1,4.636079E0,7.2087097E0,6.591525E0,3.1563568E-1,0E0,0E0,0E0,9.306368E0,0E0,4.740328E0,0E0,0E0,0E0,0E0,1.1748058E1,4.698885E0,0E0,5.461523E0,3.9547377E0,0E0,0E0,0E0,0E0,0E0],"parents":[2147483647,0,0,1,1,2,2,3,3,4,4,5,5,6,6,10,10,12,12,17,17,18,18,20,20,21,21],"right_children":[2,4,6,8,10,12,14,-1,-1,-1,16,-1,18,-1,-1,-1,-1,20,22,-1,24,26,-1,-1,-1,-1,-1],"split_conditions":[2.19E1,-6.3E0,1E0,4.89903E1,2.1E1,4.89884E1,2.072572E0,4.6256088E-2,-3.65268E-2,-5.870256E-2,4.89862E1,-5.363321E-2,5.3E1,5.7196755E-2,2.2293188E-2,3.6973603E-2,-5.098627E-2,4.89949E1,4.89928E1,-5.55362E-2,2.9E1,7.4433334E1,-4.0207606E-2,-4.164627E-2,3.786477E-2,4.419126E-2,-3.3349853E-2],"split_indices":[8,8,16,28,5,28,12,0,0,0,28,0,1,0,0,0,0,28,28,0,1,10,0,0,0,0,0],"split_type":[0,0,0,0,0,0,0,0,0,0,0,0,0,0,0,0,0,0,0,0,0,0,0,0,0,0,0],"sum_hessian":[1.2780606E2,4.464389E1,8.316217E1,7.3561916E0,3.72877E1,3.837026E1,4.479191E1,5.939721E0,1.4164708E0,2.7221586E1,1.0066113E1,6.91857E0,3.1451687E1,4.2391006E1,2.400901E0,4.928647E0,5.137466E0,1.9039541E1,1.2412146E1,9.24412E0,9.795422E0,1.0631462E1,1.7806841E0,1.9562501E0,7.839172E0,9.434807E0,1.1966544E0],"tree_param":{"num_deleted":"0","num_feature":"44","num_nodes":"27","size_leaf_vector":"1"}},{"base_weights":[2.2036359E-2,-8.248824E-1,4.6022597E-1,7.0317894E-1,-5.843958E-2,-1.316391E-1,1.0698277E0,1.8068507E-1,4.918299E-2,-4.2558506E-1,5.1503825E-1,6.772611E-1,5.664743E-2,-3.397704E-2,3.894895E-2,-5.2880045E-2,-1.6275673E-1,4.399054E-2,2.0821428E-1,5.1681813E-2,-3.6191773E-2,6.742969E-1,-7.1250856E-1,-3.9953586E-2,6.0853267E-1,-3.5261266E-2,4.960301E-2,-5.4159977E-2,3.6183675E-3,-3.480355E-2,5.1847458E-2],"categories":[],"categories_nodes":[],"categories_segments":[],"categories_sizes":[],"default_left":[0,0,0,0,0,0,0,0,0,0,0,0,0,0,0,0,0,0,0,0,0,0,0,0,0,0,0,0,0,0,0],"id":22,"left_children":[1,3,5,7,-1,9,11,13,-1,15,17,19,-1,-1,-1,-1,21,-1,23,-1,-1,25,27,-1,29,-1,-1,-1,-1,-1,-1],"loss_changes":[4.2487915E1,2.134162E1,2.7351967E1,9.650433E-1,0E0,7.6623545E0,1.5602493E-1,2.5616875E0,0E0,4.3905387E0,1.2369599E0,4.56681E0,0E0,0E0,0E0,0E0,9.951601E0,0E0,3.793551E0,0E0,0E0,4.5014153E0,3.8342328E0,0E0,4.3195057E0,0E0,0E0,0E0,0E0,0E0,0E0],"parents":[2147483647,0,0,1,1,2,2,3,3,5,5,6,6,7,7,9,9,10,10,11,11,16,16,18,18,21,21,22,22,24,24],"right_children":[2,4,6,8,-1,10,12,14,-1,16,18,20,-1,-1,-1,-1,22,-1,24,-1,-1,26,28,-1,30,-1,-1,-1,-1,-1,-1],"split_conditions":[2.17E1,9.833333E0,1E0,7E-1,-5.843958E-2,4.89949E1,3.2E1,-2.3800001E1,4.918299E-2,5.34E1,5E0,3.75E1,5.664743E-2,-3.397704E-2,3.894895E-2,-5.2880045E-2,5.763333E1,4.399054E-2,2.9E1,5.1681813E-2,-3.6191773E-2,4.9200006E0,1.1059999E1,-3.9953586E-2,1.6E1,-3.5261266E-2,4.960301E-2,-5.4159977E-2,3.6183675E-3,-3.480355E-2,5.1847458E-2],"split_indices":[8,15,16,11,0,28,1,25,0,8,5,15,0,0,0,0,15,0,1,0,0,26,25,0,5,0,0,0,0,0,0],"split_type":[0,0,0,0,0,0,0,0,0,0,0,0,0,0,0,0,0,0,0,0,0,0,0,0,0,0,0,0,0,0,0],"sum_hessian":[1.1246547E2,3.8046993E1,7.441848E1,6.797883E0,3.124911E1,3.8156357E1,3.6262123E1,2.9488373E0,3.8490458E0,2.6467495E1,1.1688861E1,6.6477175E0,2.9614405E1,1.1539265E0,1.7949107E0,6.885708E0,1.9581787E1,4.486973E0,7.201888E0,5.5087967E0,1.1389205E0,7.672726E0,1.1909061E1,1.7649097E0,5.4369783E0,1.2081932E0,6.464533E0,7.8306265E0,4.078435E0,1.1896205E0,4.2473574E0],"tree_param":{"num_deleted":"0","num_feature":"44","num_nodes":"31","size_leaf_vector":"1"}},{"base_weights":[-2.3364773E-2,-6.930576E-1,3.5430628E-1,3.3589378E-2,-8.7350446E-1,-1.6526088E-1,9.9730253E-1,-3.2433093E-1,-5.7102304E-2,-4.6575612E-1,5.496077E-1,1.0436082E0,1.6729323E-2,-5.2741807E-2,3.9491765E-2,-5.516612E-2,-1.1572971E-2,-3.3067174E-2,7.3354316E-1,1.9996716E-2,5.42725E-2,-4.931016E-2,3.9349914E-1,2.238009E-1,4.651115E-2,3.485246E-2,-4.177575E-2,-3.5669465E-2,4.2720884E-2],"categories":[],"categories_nodes":[],"categories_segments":[],"categories_sizes":[],"default_left":[0,0,0,0,0,0,0,0,0,0,0,0,0,0,0,0,0,0,0,0,0,0,0,0,0,0,0,0,0],"id":23,"left_children":[1,3,5,-1,7,9,11,13,-1,15,17,19,-1,-1,-1,-1,21,-1,23,-1,-1,-1,25,27,-1,-1,-1,-1,-1],"loss_changes":[2.7453865E1,1.0223591E1,2.3365376E1,0E0,4.7904644E0,8.691211E0,6.0762024E-1,1.1323585E1,0E0,8.149572E0,3.1757526E0,3.3805656E-1,0E0,0E0,0E0,0E0,7.285848E0,0E0,8.907294E-1,0E0,0E0,0E0,5.4535217E0,3.1913846E0,0E0,0E0,0E0,0E0,0E0],"parents":[2147483647,0,0,1,1,2,2,4,4,5,5,6,6,7,7,9,9,10,10,11,11,16,16,18,18,22,22,23,23],"right_children":[2,4,6,-1,8,10,12,14,-1,16,18,20,-1,-1,-1,-1,22,-1,24,-1,-1,-1,26,28,-1,-1,-1,-1,-1],"split_conditions":[2.33E1,3.4E1,1E0,3.3589378E-2,4.89862E1,4.8995E1,4E0,4.89855E1,-5.7102304E-2,5.3E1,2E0,8E-1,1.6729323E-2,-5.2741807E-2,3.9491765E-2,-5.516612E-2,4.89884E1,-3.3067174E-2,1.3E0,1.9996716E-2,5.42725E-2,-4.931016E-2,4.89928E1,3.014E1,4.651115E-2,3.485246E-2,-4.177575E-2,-3.5669465E-2,4.2720884E-2],"split_indices":[8,24,16,0,28,28,11,28,0,1,32,11,0,0,0,0,28,0,11,0,0,0,28,25,0,0,0,0,0],"split_type":[0,0,0,0,0,0,0,0,0,0,0,0,0,0,0,0,0,0,0,0,0,0,0,0,0,0,0,0,0],"sum_hessian":[1.06575226E2,3.812905E1,6.8446175E1,4.1344457E0,3.3994606E1,3.826748E1,3.0178698E1,1.188903E1,2.2105574E1,2.7187624E1,1.1079854E1,2.767054E1,2.508158E0,7.2130384E0,4.675992E0,1.0715849E1,1.6471775E1,1.1187792E0,9.961075E0,2.3333652E0,2.5337175E1,4.4148116E0,1.2056964E1,3.3685575E0,6.5925174E0,1.0015987E1,2.0409763E0,1.302135E0,2.0664225E0],"tree_param":{"num_deleted":"0","num_feature":"44","num_nodes":"29","size_leaf_vector":"1"}},{"base_weights":[8.1789754E-2,-5.9074342E-2,5.9633683E-2],"categories":[],"categories_nodes":[],"categories_segments":[],"categories_sizes":[],"default_left":[0,0,0],"id":24,"left_children":[1,-1,-1],"loss_changes":[1.699434E2,0E0,0E0],"parents":[2147483647,0,0],"right_children":[2,-1,-1],"split_conditions":[1E0,-5.9074342E-2,5.9633683E-2],"split_indices":[6,0,0],"split_type":[0,0,0],"sum_hessian":[1.1909394E2,5.5695026E1,6.339891E1],"tree_param":{"num_deleted":"0","num_feature":"44","num_nodes":"3","size_leaf_vector":"1"}},{"base_weights":[-2.373254E-2,-5.85997E-2,5.9113868E-2],"categories":[],"categories_nodes":[],"categories_segments":[],"categories_sizes":[],"default_left":[0,0,0],"id":25,"left_children":[1,-1,-1],"loss_changes":[1.4980234E2,0E0,0E0],"parents":[2147483647,0,0],"right_children":[2,-1,-1],"split_conditions":[1E0,-5.85997E-2,5.9113868E-2],"split_indices":[6,0,0],"split_type":[0,0,0],"sum_hessian":[1.0617444E2,5.440386E1,5.1770584E1],"tree_param":{"num_deleted":"0","num_feature":"44","num_nodes":"3","size_leaf_vector":"1"}},{"base_weights":[7.955591E-3,-5.7892334E-2,5.8503766E-2],"categories":[],"categories_nodes":[],"categories_segments":[],"categories_sizes":[],"default_left":[0,0,0],"id":26,"left_children":[1,-1,-1],"loss_changes":[1.4100977E2,0E0,0E0],"parents":[2147483647,0,0],"right_children":[2,-1,-1],"split_conditions":[1E0,-5.7892334E-2,5.8503766E-2],"split_indices":[6,0,0],"split_type":[0,0,0],"sum_hessian":[1.0208149E2,5.0961838E1,5.111965E1],"tree_param":{"num_deleted":"0","num_feature":"44","num_nodes":"3","size_leaf_vector":"1"}},{"base_weights":[-4.371936E-2,-5.7397217E-2,5.7747662E-2],"categories":[],"categories_nodes":[],"categories_segments":[],"categories_sizes":[],"default_left":[0,0,0],"id":27,"left_children":[1,-1,-1],"loss_changes":[1.2925769E2,0E0,0E0],"parents":[2147483647,0,0],"right_children":[2,-1,-1],"split_conditions":[1E0,-5.7397217E-2,5.7747662E-2],"split_indices":[6,0,0],"split_type":[0,0,0],"sum_hessian":[9.565417E1,4.981062E1,4.5843548E1],"tree_param":{"num_deleted":"0","num_feature":"44","num_nodes":"3","size_leaf_vector":"1"}},{"base_weights":[6.2938794E-2,-5.7000037E-2,5.7567175E-2],"categories":[],"categories_nodes":[],"categories_segments":[],"categories_sizes":[],"default_left":[0,0,0],"id":28,"left_children":[1,-1,-1],"loss_changes":[1.3257224E2,0E0,0E0],"parents":[2147483647,0,0],"right_children":[2,-1,-1],"split_conditions":[1E0,-5.7000037E-2,5.7567175E-2],"split_indices":[6,0,0],"split_type":[0,0,0],"sum_hessian":[9.925297E1,4.7123344E1,5.2129623E1],"tree_param":{"num_deleted":"0","num_feature":"44","num_nodes":"3","size_leaf_vector":"1"}},{"base_weights":[7.656525E-2,-6.5538603E-1,4.2684916E-1,6.395467E-1,-9.4184315E-1,-1.0371341E-1,9.6621597E-1,4.3451097E-2,9.4805155E-3,-5.4092854E-2,-4.0353942E-1,1.8131085E-1,-6.9412136E-1,1.691261E-2,4.9687844E-2,2.107887E-2,-4.4993863E-2,-1.15621954E-1,6.7578655E-1,-5.0452944E-2,3.857579E-2,-4.8588607E-2,4.5284486E-1,1.0407243E-2,4.260574E-2,3.827785E-2,-3.6248617E-2,-1.1430319E-3,3.3827204E-2],"categories":[],"categories_nodes":[],"categories_segments":[],"categories_sizes":[],"default_left":[0,0,0,0,0,0,0,0,0,0,0,0,0,0,0,0,0,0,0,0,0,0,0,0,0,0,0,0,0],"id":29,"left_children":[1,3,5,7,9,11,13,-1,-1,-1,15,17,19,-1,-1,-1,-1,21,23,-1,25,-1,27,-1,-1,-1,-1,-1,-1],"loss_changes":[2.5377542E1,1.2501382E1,1.9219372E1,4.966638E-1,1.5736618E0,5.9455767E0,2.3852539E-1,0E0,0E0,0E0,3.2871938E0,3.6190848E0,2.6849403E0,0E0,0E0,0E0,0E0,8.189227E0,5.8080435E-1,0E0,3.0031056E0,0E0,1.1063049E0,0E0,0E0,0E0,0E0,0E0,0E0],"parents":[2147483647,0,0,1,1,2,2,3,3,4,4,5,5,6,6,10,10,11,11,12,12,17,17,18,18,20,20,22,22],"right_children":[2,4,6,8,10,12,14,-1,-1,-1,16,18,20,-1,-1,-1,-1,22,24,-1,26,-1,28,-1,-1,-1,-1,-1,-1],"split_conditions":[2.19E1,9.833333E0,1E0,3.9E1,2.2E1,5.763333E1,3.55903E-1,4.3451097E-2,9.4805155E-3,-5.4092854E-2,4.89862E1,5.34E1,1.298E1,1.691261E-2,4.9687844E-2,2.107887E-2,-4.4993863E-2,4.8995E1,4.9200006E0,-5.0452944E-2,7.47E1,-4.8588607E-2,2.9E1,1.0407243E-2,4.260574E-2,3.827785E-2,-3.6248617E-2,-1.1430319E-3,3.3827204E-2],"split_indices":[8,15,16,24,5,15,12,0,0,0,28,8,25,0,0,0,0,28,26,0,8,0,1,0,0,0,0,0,0],"split_type":[0,0,0,0,0,0,0,0,0,0,0,0,0,0,0,0,0,0,0,0,0,0,0,0,0,0,0,0,0],"sum_hessian":[9.6888824E1,3.1077806E1,6.581102E1,5.406238E0,2.5671568E1,3.358346E1,3.222756E1,2.9634142E0,2.442824E0,1.9571285E1,6.1002827E0,2.3116627E1,1.0466834E1,1.9120699E0,3.0315487E1,2.3478382E0,3.7524445E0,1.4922083E1,8.194543E0,7.0565233E0,3.4103112E0,5.6712813E0,9.250802E0,2.8408194E0,5.3537235E0,1.74564E0,1.6646711E0,3.2459548E0,6.0048475E0],"tree_param":{"num_deleted":"0","num_feature":"44","num_nodes":"29","size_leaf_vector":"1"}},{"base_weights":[-2.0210287E-2,-7.429034E-1,3.5303444E-1,2.8278846E-2,-9.3710405E-1,-1.509768E-1,9.470998E-1,-5.3720392E-2,-4.186967E-1,-4.775937E-2,3.4443937E-2,4.907585E-2,1.5859237E-2,2.3604238E-2,-4.5385912E-2,-5.245629E-1,2.5325125E-1,-4.8101943E-2,3.2984328E-2,4.1559044E-1,-3.9092008E-2,4.737999E-2,5.395737E-3],"categories":[],"categories_nodes":[],"categories_segments":[],"categories_sizes":[],"default_left":[0,0,0,0,0,0,0,0,0,0,0,0,0,0,0,0,0,0,0,0,0,0,0],"id":30,"left_children":[1,3,5,-1,7,9,11,-1,13,-1,15,-1,-1,-1,-1,17,19,-1,-1,21,-1,-1,-1],"loss_changes":[2.3757854E1,8.15E0,1.754408E1,0E0,1.4355602E0,4.849991E0,2.6997375E-1,0E0,3.5584226E0,0E0,3.4618428E0,0E0,0E0,0E0,0E0,4.7699223E0,3.7250834E0,0E0,0E0,2.867725E0,0E0,0E0,0E0],"parents":[2147483647,0,0,1,1,2,2,4,4,5,5,6,6,8,8,10,10,15,15,16,16,19,19],"right_children":[2,4,6,-1,8,10,12,-1,14,-1,16,-1,-1,-1,-1,18,20,-1,-1,22,-1,-1,-1],"split_conditions":[2.19E1,9.5E0,1E0,2.8278846E-2,2.2E1,4.89884E1,4.4E0,-5.3720392E-2,3E0,-4.775937E-2,-6.68E0,4.907585E-2,1.5859237E-2,2.3604238E-2,-4.5385912E-2,2.9E0,6.56E1,-4.8101943E-2,3.2984328E-2,4.89921E1,-3.9092008E-2,4.737999E-2,5.395737E-3],"split_indices":[8,15,16,0,5,28,11,0,1,0,25,0,0,0,0,11,15,0,0,28,0,0,0],"split_type":[0,0,0,0,0,0,0,0,0,0,0,0,0,0,0,0,0,0,0,0,0,0,0],"sum_hessian":[8.610411E1,2.8987268E1,5.711684E1,3.4990594E0,2.5488209E1,3.1304031E1,2.5812807E1,1.9303127E1,6.185081E0,5.0873995E0,2.6216633E1,2.3946262E1,1.8665441E0,2.204354E0,3.9807267E0,6.981919E0,1.9234713E1,5.2355003E0,1.7464184E0,1.7144365E1,2.090348E0,5.5199037E0,1.1624461E1],"tree_param":{"num_deleted":"0","num_feature":"44","num_nodes":"23","size_leaf_vector":"1"}},{"base_weights":[3.5274208E-2,-5.5945575E-2,5.626126E-2],"categories":[],"categories_nodes":[],"categories_segments":[],"categories_sizes":[],"default_left":[0,0,0],"id":31,"left_children":[1,-1,-1],"loss_changes":[1.1055044E2,0E0,0E0],"parents":[2147483647,0,0],"right_children":[2,-1,-1],"split_conditions":[1E0,-5.5945575E-2,5.626126E-2],"split_indices":[6,0,0],"split_type":[0,0,0],"sum_hessian":[8.587672E1,4.1696415E1,4.4180305E1],"tree_param":{"num_deleted":"0","num_feature":"44","num_nodes":"3","size_leaf_vector":"1"}},{"base_weights":[4.188401E-3,-5.5549778E-2,5.5835046E-2],"categories":[],"categories_nodes":[],"categories_segments":[],"categories_sizes":[],"default_left":[0,0,0],"id":32,"left_children":[1,-1,-1],"loss_changes":[1.0464781E2,0E0,0E0],"parents":[2147483647,0,0],"right_children":[2,-1,-1],"split_conditions":[1E0,-5.5549778E-2,5.5835046E-2],"split_indices":[6,0,0],"split_type":[0,0,0],"sum_hessian":[8.234877E1,4.1125687E1,4.122308E1],"tree_param":{"num_deleted":"0","num_feature":"44","num_nodes":"3","size_leaf_vector":"1"}},{"base_weights":[3.7452612E-2,-5.615866E-1,3.729552E-1,6.695316E-1,-9.12874E-1,-1.3494125E-1,9.249447E-1,4.520302E-2,6.1848154E-3,-5.238535E-2,-4.2970273E-1,1.4066501E-1,-6.640764E-1,4.3883085E-1,5.0474554E-2,2.502865E-2,-4.44806E-2,3.7678152E-1,-4.285295E-2,-4.8331346E-2,3.1309273E-2,4.326558E-2,-3.3279065E-2,2.8314516E-2,7.61241E-1,-3.2447156E-2,3.157553E-2,3.6706313E-2,-4.485848E-2,4.395325E-2,1.4602855E-2],"categories":[],"categories_nodes":[],"categories_segments":[],"categories_sizes":[],"default_left":[0,0,0,0,0,0,0,0,0,0,0,0,0,0,0,0,0,0,0,0,0,0,0,0,0,0,0,0,0,0,0],"id":33,"left_children":[1,3,5,7,9,11,13,-1,-1,-1,15,17,19,21,-1,-1,-1,23,-1,-1,25,-1,-1,27,29,-1,-1,-1,-1,-1,-1],"loss_changes":[1.6728624E1,1.3545145E1,1.506394E1,8.1192756E-1,1.0931797E0,4.267803E0,6.1170197E-1,0E0,0E0,0E0,3.3820314E0,4.95121E0,2.1295385E0,3.1999316E0,0E0,0E0,0E0,2.1998754E0,0E0,0E0,2.0404088E0,0E0,0E0,7.0186586E0,1.7693901E-1,0E0,0E0,0E0,0E0,0E0,0E0],"parents":[2147483647,0,0,1,1,2,2,3,3,4,4,5,5,6,6,10,10,11,11,12,12,13,13,17,17,20,20,23,23,24,24],"right_children":[2,4,6,8,10,12,14,-1,-1,-1,16,18,20,22,-1,-1,-1,24,-1,-1,26,-1,-1,28,30,-1,-1,-1,-1,-1,-1],"split_conditions":[2.23E1,9.833333E0,1E0,3.9E1,2.2E1,5.763333E1,3.2E1,4.520302E-2,6.1848154E-3,-5.238535E-2,3E0,1.9E1,2E1,3.75E1,5.0474554E-2,2.502865E-2,-4.44806E-2,5.34E1,-4.285295E-2,-4.8331346E-2,1.27E1,4.326558E-2,-3.3279065E-2,4.2166668E1,4.89921E1,-3.2447156E-2,3.157553E-2,3.6706313E-2,-4.485848E-2,4.395325E-2,1.4602855E-2],"split_indices":[13,15,16,24,5,15,1,0,0,0,1,5,5,15,0,0,0,10,0,0,26,0,0,15,28,0,0,0,0,0,0],"split_type":[0,0,0,0,0,0,0,0,0,0,0,0,0,0,0,0,0,0,0,0,0,0,0,0,0,0,0,0,0,0,0],"sum_hessian":[8.119347E1,2.8906717E1,5.2286747E1,6.2160554E0,2.269066E1,2.7624466E1,2.4662281E1,3.8888483E0,2.3272073E0,1.6826649E1,5.864013E0,1.864642E1,8.978046E0,4.570993E0,2.009129E1,1.9107171E0,3.953296E0,1.5581368E1,3.065052E0,5.984314E0,2.9937322E0,3.4537756E0,1.1172173E0,8.736454E0,6.844914E0,1.3652196E0,1.6285127E0,5.0737624E0,3.662692E0,4.77275E0,2.0721638E0],"tree_param":{"num_deleted":"0","num_feature":"44","num_nodes":"31","size_leaf_vector":"1"}},{"base_weights":[4.9198586E-2,-5.4760017E-2,5.5075165E-2],"categories":[],"categories_nodes":[],"categories_segments":[],"categories_sizes":[],"default_left":[0,0,0],"id":34,"left_children":[1,-1,-1],"loss_changes":[9.564778E1,0E0,0E0],"parents":[2147483647,0,0],"right_children":[2,-1,-1],"split_conditions":[1E0,-5.4760017E-2,5.5075165E-2],"split_indices":[6,0,0],"split_type":[0,0,0],"sum_hessian":[7.742302E1,3.706905E1,4.035397E1],"tree_param":{"num_deleted":"0","num_feature":"44","num_nodes":"3","size_leaf_vector":"1"}},{"base_weights":[-2.9471222E-2,-5.4351486E-2,5.4620545E-2],"categories":[],"categories_nodes":[],"categories_segments":[],"categories_sizes":[],"default_left":[0,0,0],"id":35,"left_children":[1,-1,-1],"loss_changes":[8.414698E1,0E0,0E0],"parents":[2147483647,0,0],"right_children":[2,-1,-1],"split_conditions":[1E0,-5.4351486E-2,5.4620545E-2],"split_indices":[6,0,0],"split_type":[0,0,0],"sum_hessian":[6.8922104E1,3.549412E1,3.3427986E1],"tree_param":{"num_deleted":"0","num_feature":"44","num_nodes":"3","size_leaf_vector":"1"}},{"base_weights":[5.4192163E-2,-3.132161E-1,5.976683E-1,6.3678235E-1,-4.6503508E-1,-2.7299173E-2,9.0306264E-1,5.5401525E-3,4.329517E-2,-9.096727E-1,1.4976554E-1,-4.109423E-2,3.2432705E-1,9.7120774E-1,5.106251E-3,-3.9482602E-1,-5.1776666E-2,4.7901633E-1,-4.34162E-2,6.348364E-1,-3.3126388E-2,1.816835E-2,5.060953E-2,2.5633737E-2,-4.2648498E-2,-3.0262811E-2,6.245799E-1,1.5201773E-3,4.292914E-2,4.1947916E-2,-2.2985802E-3],"categories":[],"categories_nodes":[],"categories_segments":[],"categories_sizes":[],"default_left":[0,0,0,0,0,0,0,0,0,0,0,0,0,0,0,0,0,0,0,0,0,0,0,0,0,0,0,0,0,0,0],"id":36,"left_children":[1,3,5,7,9,11,13,-1,-1,15,17,-1,19,21,-1,23,-1,25,-1,27,-1,-1,-1,-1,-1,-1,29,-1,-1,-1,-1],"loss_changes":[1.4965458E1,6.7595963E0,5.787961E0,6.9908E-1,1.0856814E1,3.3071501E0,1.0095291E0,0E0,0E0,1.0750065E0,6.2209916E0,0E0,2.952063E0,9.5630646E-2,0E0,2.9795442E0,0E0,2.545096E0,0E0,8.9280415E-1,0E0,0E0,0E0,0E0,0E0,0E0,1.8494587E0,0E0,0E0,0E0,0E0],"parents":[2147483647,0,0,1,1,2,2,3,3,4,4,5,5,6,6,9,9,10,10,12,12,13,13,15,15,17,17,19,19,26,26],"right_children":[2,4,6,8,10,12,14,-1,-1,16,18,-1,20,22,-1,24,-1,26,-1,28,-1,-1,-1,-1,-1,-1,30,-1,-1,-1,-1],"split_conditions":[1.094E1,9.833333E0,4.89965E1,-2.3800001E1,4.5E1,3.1E1,4.12E1,5.5401525E-3,4.329517E-2,3E0,6.063333E1,-4.109423E-2,7.4433334E1,2.6E1,5.106251E-3,-2.248E1,-5.1776666E-2,2.266667E0,-4.34162E-2,3.1E1,-3.3126388E-2,1.816835E-2,5.060953E-2,2.5633737E-2,-4.2648498E-2,-3.0262811E-2,1.3E1,1.5201773E-3,4.292914E-2,4.1947916E-2,-2.2985802E-3],"split_indices":[25,15,28,25,1,1,15,0,0,1,15,0,10,1,0,25,0,26,0,13,0,0,0,0,0,0,5,0,0,0,0],"split_type":[0,0,0,0,0,0,0,0,0,0,0,0,0,0,0,0,0,0,0,0,0,0,0,0,0,0,0,0,0,0,0],"sum_hessian":[7.301059E1,4.3814312E1,2.919628E1,5.597008E0,3.8217304E1,9.882687E0,1.9313593E1,2.148478E0,3.4485302E0,2.1899485E1,1.631782E1,2.6214647E0,7.2612214E0,1.7603289E1,1.7103052E0,5.1146135E0,1.6784872E1,1.2730322E1,3.587499E0,5.7946644E0,1.466557E0,1.735115E0,1.5868173E1,1.6759105E0,3.4387028E0,1.1329788E0,1.15973425E1,1.8724025E0,3.922262E0,8.597527E0,2.9998164E0],"tree_param":{"num_deleted":"0","num_feature":"44","num_nodes":"31","size_leaf_vector":"1"}},{"base_weights":[-2.5088571E-2,-5.394907E-2,5.3925224E-2],"categories":[],"categories_nodes":[],"categories_segments":[],"categories_sizes":[],"default_left":[0,0,0],"id":37,"left_children":[1,-1,-1],"loss_changes":[7.769778E1,0E0,0E0],"parents":[2147483647,0,0],"right_children":[2,-1,-1],"split_conditions":[1E0,-5.394907E-2,5.3925224E-2],"split_indices":[6,0,0],"split_type":[0,0,0],"sum_hessian":[6.480357E1,3.3159607E1,3.1643969E1],"tree_param":{"num_deleted":"0","num_feature":"44","num_nodes":"3","size_leaf_vector":"1"}},{"base_weights":[-5.3869877E-3,-5.3504158E-2,5.373409E-2],"categories":[],"categories_nodes":[],"categories_segments":[],"categories_sizes":[],"default_left":[0,0,0],"id":38,"left_children":[1,-1,-1],"loss_changes":[7.602089E1,0E0,0E0],"parents":[2147483647,0,0],"right_children":[2,-1,-1],"split_conditions":[1E0,-5.3504158E-2,5.373409E-2],"split_indices":[6,0,0],"split_type":[0,0,0],"sum_hessian":[6.410824E1,3.2288525E1,3.1819717E1],"tree_param":{"num_deleted":"0","num_feature":"44","num_nodes":"3","size_leaf_vector":"1"}},{"base_weights":[4.0376376E-2,-4.0368125E-1,6.146089E-1,6.571884E-1,-5.8441746E-1,-1.2805589E-1,7.825933E-1,8.716277E-3,4.14582E-2,-5.1219966E-2,-6.075426E-3,-3.4113053E-2,2.2925168E-1,2.849099E-1,4.592822E-2,4.5520028E-1,-4.4768956E-2,3.6082324E-2,-3.028507E-2,-1.0304118E-1,2.9783353E-2,1.9936395E-1,3.989049E-2,2.3420287E-2,-3.2439288E-2,3.663973E-2,-1.0663124E-2],"categories":[],"categories_nodes":[],"categories_segments":[],"categories_sizes":[],"default_left":[0,0,0,0,0,0,0,0,0,0,0,0,0,0,0,0,0,0,0,0,0,0,0,0,0,0,0],"id":39,"left_children":[1,3,5,7,9,11,13,-1,-1,-1,15,-1,17,19,-1,21,-1,-1,-1,23,-1,25,-1,-1,-1,-1,-1],"loss_changes":[1.6713753E1,7.481723E0,3.6626997E0,3.4200764E-1,8.1767845E0,1.3696749E0,1.3237209E0,0E0,0E0,0E0,6.5199504E0,0E0,2.2763608E0,8.422366E-1,0E0,7.590399E-1,0E0,0E0,0E0,1.4681568E0,0E0,1.7695936E0,0E0,0E0,0E0,0E0,0E0],"parents":[2147483647,0,0,1,1,2,2,3,3,4,4,5,5,6,6,10,10,12,12,13,13,15,15,19,19,21,21],"right_children":[2,4,6,8,10,12,14,-1,-1,-1,16,-1,18,20,-1,22,-1,-1,-1,24,-1,26,-1,-1,-1,-1,-1],"split_conditions":[1.094E1,9.833333E0,4.89944E1,-2.3800001E1,4.3E1,1.7E0,1E0,8.716277E-3,4.14582E-2,-5.1219966E-2,-1.9400007E0,-3.4113053E-2,1.8E0,5E0,4.592822E-2,1E0,-4.4768956E-2,3.6082324E-2,-3.028507E-2,4E-1,2.9783353E-2,-1.40199995E1,3.989049E-2,2.3420287E-2,-3.2439288E-2,3.663973E-2,-1.0663124E-2],"split_indices":[25,15,28,25,1,11,16,0,0,0,25,0,11,32,0,16,0,0,0,11,0,25,0,0,0,0,0],"split_type":[0,0,0,0,0,0,0,0,0,0,0,0,0,0,0,0,0,0,0,0,0,0,0,0,0,0,0],"sum_hessian":[6.357311E1,3.6017532E1,2.7555576E1,4.8592067E0,3.1158323E1,5.126932E0,2.2428644E1,1.8049735E0,3.0542333E0,1.725788E1,1.3900444E1,1.6532278E0,3.473704E0,5.477004E0,1.6951641E1,9.4743185E0,4.4261255E0,2.2704573E0,1.2032468E0,2.7332354E0,2.7437687E0,6.3296704E0,3.144648E0,1.4044032E0,1.3288323E0,2.4222865E0,3.9073842E0],"tree_param":{"num_deleted":"0","num_feature":"44","num_nodes":"27","size_leaf_vector":"1"}},{"base_weights":[-4.667101E-2,-5.3003788E-2,5.290357E-2],"categories":[],"categories_nodes":[],"categories_segments":[],"categories_sizes":[],"default_left":[0,0,0],"id":40,"left_children":[1,-1,-1],"loss_changes":[6.3578506E1,0E0,0E0],"parents":[2147483647,0,0],"right_children":[2,-1,-1],"split_conditions":[1E0,-5.3003788E-2,5.290357E-2],"split_indices":[6,0,0],"split_type":[0,0,0],"sum_hessian":[5.4787415E1,2.8596054E1,2.619136E1],"tree_param":{"num_deleted":"0","num_feature":"44","num_nodes":"3","size_leaf_vector":"1"}},{"base_weights":[8.413225E-2,-3.2982683E-1,6.2987876E-1,6.470772E-1,-4.9025303E-1,7.538823E-1,-2.3507605E-1,9.089961E-3,4.031266E-2,-8.624968E-1,3.3090077E-2,2.7863103E-1,4.678936E-2,2.6406119E-2,-3.6621857E-2,-3.6857563E-1,-4.9834967E-2,4.6899554E-1,-4.3355066E-2,-3.8007896E-2,3.892327E-2,2.0824533E-2,-4.0035993E-2,8.313054E-3,6.1270857E-1,-3.0121088E-2,3.077966E-2,5.065666E-3,4.07007E-2],"categories":[],"categories_nodes":[],"categories_segments":[],"categories_sizes":[],"default_left":[0,0,0,0,0,0,0,0,0,0,0,0,0,0,0,0,0,0,0,0,0,0,0,0,0,0,0,0,0],"id":41,"left_children":[1,3,5,7,9,11,13,-1,-1,15,17,19,-1,-1,-1,21,-1,23,-1,-1,-1,-1,-1,25,27,-1,-1,-1,-1],"loss_changes":[1.4293917E1,5.9768877E0,3.0987186E0,2.62609E-1,6.182231E0,1.8193073E0,1.9725881E0,0E0,0E0,8.586321E-1,5.9364805E0,4.7892046E0,0E0,0E0,0E0,2.2124922E0,0E0,6.6647863E-1,0E0,0E0,0E0,0E0,0E0,1.6413991E0,7.1206594E-1,0E0,0E0,0E0,0E0],"parents":[2147483647,0,0,1,1,2,2,3,3,4,4,5,5,6,6,9,9,10,10,11,11,15,15,17,17,23,23,24,24],"right_children":[2,4,6,8,10,12,14,-1,-1,16,18,20,-1,-1,-1,22,-1,24,-1,-1,-1,-1,-1,26,28,-1,-1,-1,-1],"split_conditions":[1.094E1,9.833333E0,4.2166668E1,-2.3800001E1,4.3E1,2.8E1,1.3219999E1,9.089961E-3,4.031266E-2,3E0,5.763333E1,4.89972E1,4.678936E-2,2.6406119E-2,-3.6621857E-2,4.89862E1,-4.9834967E-2,5.25E1,-4.3355066E-2,-3.8007896E-2,3.892327E-2,2.0824533E-2,-4.0035993E-2,1.367073E0,4.9200006E0,-3.0121088E-2,3.077966E-2,5.065666E-3,4.07007E-2],"split_indices":[25,15,15,25,1,13,25,0,0,1,15,28,0,0,0,28,0,8,0,0,0,0,0,12,26,0,0,0,0],"split_type":[0,0,0,0,0,0,0,0,0,0,0,0,0,0,0,0,0,0,0,0,0,0,0,0,0,0,0,0,0],"sum_hessian":[6.1351135E1,3.511294E1,2.6238194E1,4.5249696E0,3.0587973E1,2.306055E1,3.1776435E0,1.6994717E0,2.8254979E0,1.7495625E1,1.3092349E1,7.084103E0,1.5976447E1,1.2293549E0,1.9482887E0,4.538494E0,1.295713E1,9.143661E0,3.9486887E0,2.1321363E0,4.951967E0,1.6241543E0,2.91434E0,2.4257114E0,6.717949E0,1.2134044E0,1.212307E0,2.322122E0,4.395827E0],"tree_param":{"num_deleted":"0","num_feature":"44","num_nodes":"29","size_leaf_vector":"1"}},{"base_weights":[5.5159E-3,-5.250245E-2,5.2575737E-2],"categories":[],"categories_nodes":[],"categories_segments":[],"categories_sizes":[],"default_left":[0,0,0],"id":42,"left_children":[1,-1,-1],"loss_changes":[6.034377E1,0E0,0E0],"parents":[2147483647,0,0],"right_children":[2,-1,-1],"split_conditions":[1E0,-5.250245E-2,5.2575737E-2],"split_indices":[6,0,0],"split_type":[0,0,0],"sum_hessian":[5.265327E1,2.6204872E1,2.6448397E1],"tree_param":{"num_deleted":"0","num_feature":"44","num_nodes":"3","size_leaf_vector":"1"}},{"base_weights":[1.5223744E-2,-3.5472265E-1,5.708467E-1,-6.2951624E-1,4.7212413E-1,2.218783E-2,8.4209263E-1,4.2299446E-1,-8.1440306E-1,4.074824E-2,-3.3265628E-2,-3.5574596E-2,3.395179E-1,9.02504E-1,5.669251E-3,-1.6006429E-3,3.4999747E-2,-1.9380568E-1,-5.043723E-2,6.408554E-1,-2.8802505E-2,4.7538422E-2,9.092907E-3,-4.0620558E-2,3.278489E-2,8.349895E-3,3.7234474E-2],"categories":[],"categories_nodes":[],"categories_segments":[],"categories_sizes":[],"default_left":[0,0,0,0,0,0,0,0,0,0,0,0,0,0,0,0,0,0,0,0,0,0,0,0,0,0,0],"id":43,"left_children":[1,3,5,7,9,11,13,15,17,-1,-1,-1,19,21,-1,-1,-1,23,-1,25,-1,-1,-1,-1,-1,-1,-1],"loss_changes":[1.1362985E1,7.8430614E0,3.268034E0,5.278472E0,3.9954927E0,2.1817229E0,5.470705E-1,5.828474E-1,2.4468355E0,0E0,0E0,0E0,2.16089E0,2.959013E-1,0E0,0E0,0E0,3.9287438E0,0E0,1.3933754E-1,0E0,0E0,0E0,0E0,0E0,0E0,0E0],"parents":[2147483647,0,0,1,1,2,2,3,3,4,4,5,5,6,6,7,7,8,8,12,12,13,13,17,17,19,19],"right_children":[2,4,6,8,10,12,14,16,18,-1,-1,-1,20,22,-1,-1,-1,24,-1,26,-1,-1,-1,-1,-1,-1,-1],"split_conditions":[1.094E1,5.9E1,4.89965E1,9.833333E0,6.063333E1,3.0266666E1,4.12E1,-1.9300001E1,-2.05E1,4.074824E-2,-3.3265628E-2,-3.5574596E-2,7.47E1,2E0,5.669251E-3,-1.6006429E-3,3.4999747E-2,-2.2833332E1,-5.043723E-2,3.11E1,-2.8802505E-2,4.7538422E-2,9.092907E-3,-4.0620558E-2,3.278489E-2,8.349895E-3,3.7234474E-2],"split_indices":[25,1,28,15,15,10,15,25,25,0,0,0,8,4,0,0,0,25,0,13,0,0,0,0,0,0,0],"split_type":[0,0,0,0,0,0,0,0,0,0,0,0,0,0,0,0,0,0,0,0,0,0,0,0,0,0,0],"sum_hessian":[5.3295567E1,3.2210594E1,2.108497E1,2.4355097E1,7.855499E0,7.333347E0,1.3751623E1,3.4466114E0,2.0908485E1,6.253966E0,1.6015326E0,1.8391167E0,5.4942303E0,1.247862E1,1.2730035E0,1.6389177E0,1.8076937E0,5.4624147E0,1.544607E1,4.3594627E0,1.1347675E0,1.1396055E1,1.0825645E0,3.1860256E0,2.2763891E0,1.2523865E0,3.1070764E0],"tree_param":{"num_deleted":"0","num_feature":"44","num_nodes":"27","size_leaf_vector":"1"}},{"base_weights":[-8.548476E-3,-6.7859375E-1,3.2252714E-1,5.041253E-1,-4.9483005E-2,-9.030573E-2,8.0937874E-1,5.7944455E-3,3.208279E-2,1.4345096E-1,-5.736168E-1,3.4942207E-1,9.0109456E-1,2.505886E-1,-2.8689388E-2,-4.25177E-2,3.9031089E-3,3.342136E-2,-4.7386996E-3,1.3266223E-2,4.6876874E-2,-1.195485E-2,5.220457E-1,1.2498917E-2,-3.2766975E-2,3.1861424E-2,4.4895145E-3],"categories":[],"categories_nodes":[],"categories_segments":[],"categories_sizes":[],"default_left":[0,0,0,0,0,0,0,0,0,0,0,0,0,0,0,0,0,0,0,0,0,0,0,0,0,0,0],"id":44,"left_children":[1,3,5,7,-1,9,11,-1,-1,13,15,17,19,21,-1,-1,-1,-1,-1,-1,-1,23,25,-1,-1,-1,-1],"loss_changes":[1.1541677E1,6.8275356E0,7.07545E0,1.522783E-1,0E0,2.313879E0,3.637743E-1,0E0,0E0,1.2283045E0,1.2637179E0,6.737774E-1,4.7332764E-2,9.309756E-1,0E0,0E0,0E0,0E0,0E0,0E0,0E0,1.4401382E0,2.6151383E-1,0E0,0E0,0E0,0E0],"parents":[2147483647,0,0,1,1,2,2,3,3,5,5,6,6,9,9,10,10,11,11,12,12,13,13,21,21,22,22],"right_children":[2,4,6,8,-1,10,12,-1,-1,14,16,18,20,22,-1,-1,-1,-1,-1,-1,-1,24,26,-1,-1,-1,-1],"split_conditions":[2.19E1,9.5E0,1E0,6E0,-4.9483005E-2,5.763333E1,3.2E1,5.7944455E-3,3.208279E-2,2.2E1,2E1,2.7E1,8E-1,5E0,-2.8689388E-2,-4.25177E-2,3.9031089E-3,3.342136E-2,-4.7386996E-3,1.3266223E-2,4.6876874E-2,3E0,2E0,1.2498917E-2,-3.2766975E-2,3.1861424E-2,4.4895145E-3],"split_indices":[8,15,16,32,0,15,1,0,0,5,5,1,11,32,0,0,0,0,0,0,0,32,4,0,0,0,0],"split_type":[0,0,0,0,0,0,0,0,0,0,0,0,0,0,0,0,0,0,0,0,0,0,0,0,0,0,0],"sum_hessian":[5.004145E1,1.6201826E1,3.3839622E1,3.244632E0,1.2957193E1,1.8752598E1,1.5087027E1,1.3307325E0,1.9138995E0,1.3113402E1,5.639195E0,3.3078642E0,1.1779162E1,1.1975222E1,1.1381804E0,3.7443013E0,1.8948939E0,1.6314298E0,1.6764344E0,1.0875044E0,1.0691658E1,6.5735154E0,5.401706E0,5.1061683E0,1.4673471E0,3.8907466E0,1.5109595E0],"tree_param":{"num_deleted":"0","num_feature":"44","num_nodes":"27","size_leaf_vector":"1"}},{"base_weights":[4.907587E-2,-5.1974203E-2,5.229027E-2],"categories":[],"categories_nodes":[],"categories_segments":[],"categories_sizes":[],"default_left":[0,0,0],"id":45,"left_children":[1,-1,-1],"loss_changes":[5.796345E1,0E0,0E0],"parents":[2147483647,0,0],"right_children":[2,-1,-1],"split_conditions":[1E0,-5.1974203E-2,5.229027E-2],"split_indices":[6,0,0],"split_type":[0,0,0],"sum_hessian":[5.1420612E1,2.4557592E1,2.6863022E1],"tree_param":{"num_deleted":"0","num_feature":"44","num_nodes":"3","size_leaf_vector":"1"}},{"base_weights":[-2.0473098E-2,-5.168988E-2,5.159495E-2],"categories":[],"categories_nodes":[],"categories_segments":[],"categories_sizes":[],"default_left":[0,0,0],"id":46,"left_children":[1,-1,-1],"loss_changes":[5.1370556E1,0E0,0E0],"parents":[2147483647,0,0],"right_children":[2,-1,-1],"split_conditions":[1E0,-5.168988E-2,5.159495E-2],"split_indices":[6,0,0],"split_type":[0,0,0],"sum_hessian":[4.6171837E1,2.3531301E1,2.2640537E1],"tree_param":{"num_deleted":"0","num_feature":"44","num_nodes":"3","size_leaf_vector":"1"}},{"base_weights":[1.7152729E-2,-5.1416587E-2,5.1461887E-2],"categories":[],"categories_nodes":[],"categories_segments":[],"categories_sizes":[],"default_left":[0,0,0],"id":47,"left_children":[1,-1,-1],"loss_changes":[5.0473053E1,0E0,0E0],"parents":[2147483647,0,0],"right_children":[2,-1,-1],"split_conditions":[1E0,-5.1416587E-2,5.1461887E-2],"split_indices":[6,0,0],"split_type":[0,0,0],"sum_hessian":[4.570046E1,2.2471418E1,2.3229042E1],"tree_param":{"num_deleted":"0","num_feature":"44","num_nodes":"3","size_leaf_vector":"1"}},{"base_weights":[7.875136E-2,-5.1135015E-2,5.16123E-2],"categories":[],"categories_nodes":[],"categories_segments":[],"categories_sizes":[],"default_left":[0,0,0],"id":48,"left_children":[1,-1,-1],"loss_changes":[5.2464912E1,0E0,0E0],"parents":[2147483647,0,0],"right_children":[2,-1,-1],"split_conditions":[1E0,-5.1135015E-2,5.16123E-2],"split_indices":[6,0,0],"split_type":[0,0,0],"sum_hessian":[4.7950535E1,2.221536E1,2.5735174E1],"tree_param":{"num_deleted":"0","num_feature":"44","num_nodes":"3","size_leaf_vector":"1"}},{"base_weights":[4.4105615E-2,-5.1030792E-2,5.1247414E-2],"categories":[],"categories_nodes":[],"categories_segments":[],"categories_sizes":[],"default_left":[0,0,0],"id":49,"left_children":[1,-1,-1],"loss_changes":[4.862579E1,0E0,0E0],"parents":[2147483647,0,0],"right_children":[2,-1,-1],"split_conditions":[1E0,-5.1030792E-2,5.1247414E-2],"split_indices":[6,0,0],"split_type":[0,0,0],"sum_hessian":[4.4560287E1,2.1347097E1,2.3213188E1],"tree_param":{"num_deleted":"0","num_feature":"44","num_nodes":"3","size_leaf_vector":"1"}},{"base_weights":[5.842549E-2,-5.0671913E-2,5.0946783E-2],"categories":[],"categories_nodes":[],"categories_segments":[],"categories_sizes":[],"default_left":[0,0,0],"id":50,"left_children":[1,-1,-1],"loss_changes":[4.6192326E1,0E0,0E0],"parents":[2147483647,0,0],"right_children":[2,-1,-1],"split_conditions":[1E0,-5.0671913E-2,5.0946783E-2],"split_indices":[6,0,0],"split_type":[0,0,0],"sum_hessian":[4.286413E1,2.0231762E1,2.2632368E1],"tree_param":{"num_deleted":"0","num_feature":"44","num_nodes":"3","size_leaf_vector":"1"}},{"base_weights":[6.6415384E-2,-5.561122E-1,3.4868827E-1,1.7618276E-2,-7.6087344E-1,-2.8256482E-2,3.981442E-2,-2.5348634E-1,-4.573065E-2,-3.6261752E-2,1.3059351E-1,-3.4329724E-2,2.5267635E-2,-1.3450627E-1,3.317249E-1,-4.320506E-1,2.805148E-1,6.2461466E-1,-8.843181E-2,-3.6800444E-2,1.2332398E-2,2.350569E-3,2.1095002E-2,7.1917633E-3,3.5666402E-2,-3.3879608E-2,2.8897846E-2],"categories":[],"categories_nodes":[],"categories_segments":[],"categories_sizes":[],"default_left":[0,0,0,0,0,0,0,0,0,0,0,0,0,0,0,0,0,0,0,0,0,0,0,0,0,0,0],"id":51,"left_children":[1,3,5,-1,7,9,-1,11,-1,-1,13,-1,-1,15,17,19,21,23,25,-1,-1,-1,-1,-1,-1,-1,-1],"loss_changes":[7.2996826E0,2.6865172E0,4.8203516E0,0E0,6.204462E-1,1.9107084E0,0E0,1.6366868E0,0E0,0E0,8.020495E-1,0E0,0E0,9.658106E-1,1.0847166E0,1.08456E0,9.44722E-2,1.1293578E-1,2.0846565E0,0E0,0E0,0E0,0E0,0E0,0E0,0E0,0E0],"parents":[2147483647,0,0,1,1,2,2,4,4,5,5,7,7,10,10,13,13,14,14,15,15,16,16,17,17,18,18],"right_children":[2,4,6,-1,8,10,-1,12,-1,-1,14,-1,-1,16,18,20,22,24,26,-1,-1,-1,-1,-1,-1,-1,-1],"split_conditions":[2.19E1,9.833333E0,1E0,1.7618276E-2,-2.248E1,4.89884E1,3.981442E-2,2.5E0,-4.573065E-2,-3.6261752E-2,4E0,-3.4329724E-2,2.5267635E-2,4.8995E1,4.89921E1,6.5E1,3.31E1,-7.66E0,4.89969E1,-3.6800444E-2,1.2332398E-2,2.350569E-3,2.1095002E-2,7.1917633E-3,3.5666402E-2,-3.3879608E-2,2.8897846E-2],"split_indices":[14,15,16,0,25,28,0,14,0,0,32,0,0,28,28,1,13,25,28,0,0,0,0,0,0,0,0],"split_type":[0,0,0,0,0,0,0,0,0,0,0,0,0,0,0,0,0,0,0,0,0,0,0,0,0,0,0],"sum_hessian":[3.943743E1,1.2000744E1,2.7436687E1,2.074742E0,9.9260025E0,1.5402446E1,1.2034242E1,2.9241674E0,7.001835E0,2.1970444E0,1.3205401E1,1.9222469E0,1.0019205E0,5.8396907E0,7.3657103E0,3.3773253E0,2.4623652E0,4.0534453E0,3.3122654E0,2.2743194E0,1.103006E0,1.4311947E0,1.0311705E0,1.0397732E0,3.0136719E0,1.7490777E0,1.5631876E0],"tree_param":{"num_deleted":"0","num_feature":"44","num_nodes":"27","size_leaf_vector":"1"}},{"base_weights":[3.23116E-2,-5.0254922E-2,5.0460525E-2],"categories":[],"categories_nodes":[],"categories_segments":[],"categories_sizes":[],"default_left":[0,0,0],"id":52,"left_children":[1,-1,-1],"loss_changes":[4.1211487E1,0E0,0E0],"parents":[2147483647,0,0],"right_children":[2,-1,-1],"split_conditions":[1E0,-5.0254922E-2,5.0460525E-2],"split_indices":[6,0,0],"split_type":[0,0,0],"sum_hessian":[3.8663864E1,1.8737188E1,1.9926676E1],"tree_param":{"num_deleted":"0","num_feature":"44","num_nodes":"3","size_leaf_vector":"1"}},{"base_weights":[5.298331E-2,-4.9815886E-2,5.024006E-2],"categories":[],"categories_nodes":[],"categories_segments":[],"categories_sizes":[],"default_left":[0,0,0],"id":53,"left_children":[1,-1,-1],"loss_changes":[3.781534E1,0E0,0E0],"parents":[2147483647,0,0],"right_children":[2,-1,-1],"split_conditions":[1E0,-4.9815886E-2,5.024006E-2],"split_indices":[6,0,0],"split_type":[0,0,0],"sum_hessian":[3.5860558E1,1.703458E1,1.8825977E1],"tree_param":{"num_deleted":"0","num_feature":"44","num_nodes":"3","size_leaf_vector":"1"}},{"base_weights":[-4.2194924E-3,-4.9824428E-2,4.983798E-2],"categories":[],"categories_nodes":[],"categories_segments":[],"categories_sizes":[],"default_left":[0,0,0],"id":54,"left_children":[1,-1,-1],"loss_changes":[3.6370132E1,0E0,0E0],"parents":[2147483647,0,0],"right_children":[2,-1,-1],"split_conditions":[1E0,-4.9824428E-2,4.983798E-2],"split_indices":[6,0,0],"split_type":[0,0,0],"sum_hessian":[3.461763E1,1.7386703E1,1.7230925E1],"tree_param":{"num_deleted":"0","num_feature":"44","num_nodes":"3","size_leaf_vector":"1"}},{"base_weights":[-5.8386263E-2,-4.9654573E-2,4.9244624E-2],"categories":[],"categories_nodes":[],"categories_segments":[],"categories_sizes":[],"default_left":[0,0,0],"id":55,"left_children":[1,-1,-1],"loss_changes":[3.2261395E1,0E0,0E0],"parents":[2147483647,0,0],"right_children":[2,-1,-1],"split_conditions":[1E0,-4.9654573E-2,4.9244624E-2],"split_indices":[6,0,0],"split_type":[0,0,0],"sum_hessian":[3.108024E1,1.6418507E1,1.4661735E1],"tree_param":{"num_deleted":"0","num_feature":"44","num_nodes":"3","size_leaf_vector":"1"}},{"base_weights":[3.0174118E-3,-4.9293425E-2,4.914753E-2],"categories":[],"categories_nodes":[],"categories_segments":[],"categories_sizes":[],"default_left":[0,0,0],"id":56,"left_children":[1,-1,-1],"loss_changes":[3.1835423E1,0E0,0E0],"parents":[2147483647,0,0],"right_children":[2,-1,-1],"split_conditions":[1E0,-4.9293425E-2,4.914753E-2],"split_indices":[6,0,0],"split_type":[0,0,0],"sum_hessian":[3.0852448E1,1.5353062E1,1.5499385E1],"tree_param":{"num_deleted":"0","num_feature":"44","num_nodes":"3","size_leaf_vector":"1"}},{"base_weights":[9.7103216E-2,-4.8983872E-2,4.959548E-2],"categories":[],"categories_nodes":[],"categories_segments":[],"categories_sizes":[],"default_left":[0,0,0],"id":57,"left_children":[1,-1,-1],"loss_changes":[3.3145157E1,0E0,0E0],"parents":[2147483647,0,0],"right_children":[2,-1,-1],"split_conditions":[1E0,-4.8983872E-2,4.959548E-2],"split_indices":[6,0,0],"split_type":[0,0,0],"sum_hessian":[3.239187E1,1.4658028E1,1.7733839E1],"tree_param":{"num_deleted":"0","num_feature":"44","num_nodes":"3","size_leaf_vector":"1"}},{"base_weights":[4.4894043E-2,-4.867126E-2,4.903571E-2],"categories":[],"categories_nodes":[],"categories_segments":[],"categories_sizes":[],"default_left":[0,0,0],"id":58,"left_children":[1,-1,-1],"loss_changes":[2.9350473E1,0E0,0E0],"parents":[2147483647,0,0],"right_children":[2,-1,-1],"split_conditions":[1E0,-4.867126E-2,4.903571E-2],"split_indices":[6,0,0],"split_type":[0,0,0],"sum_hessian":[2.8797384E1,1.3771569E1,1.5025815E1],"tree_param":{"num_deleted":"0","num_feature":"44","num_nodes":"3","size_leaf_vector":"1"}},{"base_weights":[4.063701E-2,-4.850192E-2,4.8810147E-2],"categories":[],"categories_nodes":[],"categories_segments":[],"categories_sizes":[],"default_left":[0,0,0],"id":59,"left_children":[1,-1,-1],"loss_changes":[2.8145702E1,0E0,0E0],"parents":[2147483647,0,0],"right_children":[2,-1,-1],"split_conditions":[1E0,-4.850192E-2,4.8810147E-2],"split_indices":[6,0,0],"split_type":[0,0,0],"sum_hessian":[2.7764898E1,1.3328984E1,1.4435914E1],"tree_param":{"num_deleted":"0","num_feature":"44","num_nodes":"3","size_leaf_vector":"1"}},{"base_weights":[7.3922716E-2,-4.8385184E-2,4.8822463E-2],"categories":[],"categories_nodes":[],"categories_segments":[],"categories_sizes":[],"default_left":[0,0,0],"id":60,"left_children":[1,-1,-1],"loss_changes":[2.8508434E1,0E0,0E0],"parents":[2147483647,0,0],"right_children":[2,-1,-1],"split_conditions":[1E0,-4.8385184E-2,4.8822463E-2],"split_indices":[6,0,0],"split_type":[0,0,0],"sum_hessian":[2.8319918E1,1.3113319E1,1.5206597E1],"tree_param":{"num_deleted":"0","num_feature":"44","num_nodes":"3","size_leaf_vector":"1"}}]},"name":"gbtree"},"learner_model_param":{"base_score":"5E-1","boost_from_average":"1","num_class":"0","num_feature":"44","num_target":"1"},"objective":{"name":"binary:logistic","reg_loss_param":{"scale_pos_weight":"12.3999996"}}},"version":[2,1,2]}