{"learner":{"attributes":{"best_iteration":"0","best_score":"1.0"},"feature_names":["temp_range_low","temp_range_high","range_width","range_center","target_month","target_day","first_yes_price","forecast_available","forecast_temp_max","model_count_available","temp_max_mean","temp_max_spread","temp_max_std","gfs_seamless_temp_max","icon_seamless_temp_max","temp_max_bucket_gap","temp_max_in_bucket","forecast_shift_mean","forecast_shift_max","forecast_shift_direction","forecast_consensus_shift","forecast_stability","models_changed_count","prob_shift","climatology_normal","climatology_anomaly","climatology_anomaly_abs","is_extreme_forecast","hours_to_resolution","is_same_day","is_next_day","season","day_of_week","market_price_change_1h","market_price_change_3h","market_price_velocity","market_price_vs_model","market_volume_signal","ensemble_mean","ensemble_std","ensemble_spread","ensemble_p10","ensemble_p90","ensemble_skew"],"feature_types":["float","float","float","float","int","int","float","float","float","int","float","float","float","float","float","float","float","float","float","float","float","float","float","float","int","float","float","float","float","float","float","int","int","float","float","float","float","float","float","float","float","float","float","float"],"gradient_booster":{"model":{"gbtree_model_param":{"num_parallel_tree":"1","num_trees":"61"},"iteration_indptr":[0,1,2,3,4,5,6,7,8,9,10,11,12,13,14,15,16,17,18,19,20,21,22,23,24,25,26,27,28,29,30,31,32,33,34,35,36,37,38,39,40,41,42,43,44,45,46,47,48,49,50,51,52,53,54,55,56,57,58,59,60,61],"tree_info":[0,0,0,0,0,0,0,0,0,0,0,0,0,0,0,0,0,0,0,0,0,0,0,0,0,0,0,0,0,0,0,0,0,0,0,0,0,0,0,0,0,0,0,0,0,0,0,0,0,0,0,0,0,0,0,0,0,0,0,0,0],"trees":[{"base_weights":[3.2990858E-2,-9.959799E-2,9.9611014E-2],"categories":[],"categories_nodes":[],"categories_segments":[],"categories_sizes":[],"default_left":[0,0,0],"id":0,"left_children":[1,-1,-1],"loss_changes":[2.0067916E3,0E0,0E0],"parents":[2147483647,0,0],"right_children":[2,-1,-1],"split_conditions":[1E0,-9.959799E-2,9.9611014E-2],"split_indices":[6,0,0],"split_type":[0,0,0],"sum_hessian":[5.0382733E2,2.4775E2,2.5607733E2],"tree_param":{"num_deleted":"0","num_feature":"44","num_nodes":"3","size_leaf_vector":"1"}},{"base_weights":[-1.4574719E-3,-9.4871074E-2,9.4869904E-2],"categories":[],"categories_nodes":[],"categories_segments":[],"categories_sizes":[],"default_left":[0,0,0],"id":1,"left_children":[1,-1,-1],"loss_changes":[1.761981E3,0E0,0E0],"parents":[2147483647,0,0],"right_children":[2,-1,-1],"split_conditions":[1E0,-9.4871074E-2,9.4869904E-2],"split_indices":[6,0,0],"split_type":[0,0,0],"sum_hessian":[4.8741718E2,2.4389467E2,2.4352249E2],"tree_param":{"num_deleted":"0","num_feature":"44","num_nodes":"3","size_leaf_vector":"1"}},{"base_weights":[6.910007E-2,-9.078988E-2,9.081663E-2],"categories":[],"categories_nodes":[],"categories_segments":[],"categories_sizes":[],"default_left":[0,0,0],"id":2,"left_children":[1,-1,-1],"loss_changes":[1.6699747E3,0E0,0E0],"parents":[2147483647,0,0],"right_children":[2,-1,-1],"split_conditions":[1E0,-9.078988E-2,9.081663E-2],"split_indices":[6,0,0],"split_type":[0,0,0],"sum_hessian":[5.0507266E2,2.4294582E2,2.6212683E2],"tree_param":{"num_deleted":"0","num_feature":"44","num_nodes":"3","size_leaf_vector":"1"}},{"base_weights":[5.066198E-3,-1.1498843E-1,1.1342847E0,1.824067E-1,-3.9380455E-1,1.2907156E0,9.761622E-2,2.4074663E-1,-1.01034E0,-1.2806764E0,-2.6656923E-1,8.5911167E-1,7.5807005E-2,4.5009736E-2,-6.0260154E-2,-2.4661826E-1,2.931924E-1,-7.678327E-2,3.2759078E-2,-8.2489245E-2,-6.6782886E-1,5.111983E-1,-4.0940467E-1,1.1643167E0,-5.532765E-2,4.5009736E-2,-5.8372205E-1,3.0938098E-1,-5.212753E-2,7.78203E-1,-7.678327E-2,7.625884E-1,-6.66601E-2,-5.6828E-1,8.889602E-2,1.6616208E-2,6.601628E-2,8.098418E-3,-5.138098E-2,8.231413E-3,2.1570202E-2,5.482017E-2,1.6616208E-2,4.8665736E-2,-1.6675886E-2,-2.0885568E-2,-8.2011566E-2,-2.1716386E-2,3.540976E-2],"categories":[],"categories_nodes":[],"categories_segments":[],"categories_sizes":[],"default_left":[0,0,0,0,0,0,0,0,0,0,0,0,0,0,0,0,0,0,0,0,0,0,0,0,0,0,0,0,0,0,0,0,0,0,0,0,0,0,0,0,0,0,0,0,0,0,0,0,0],"id":3,"left_children":[1,3,5,7,9,11,13,15,17,19,21,23,-1,-1,-1,25,27,-1,-1,-1,29,31,33,35,-1,-1,37,39,-1,41,-1,43,-1,45,47,-1,-1,-1,-1,-1,-1,-1,-1,-1,-1,-1,-1,-1,-1],"loss_changes":[6.674987E1,3.697836E1,7.5471573E0,1.52773485E1,2.5616547E1,2.6895142E0,8.702856E0,5.3578367E0,9.989477E0,5.3675385E0,2.269891E1,1.1118302E1,0E0,0E0,0E0,8.502363E0,4.3695087E0,0E0,0E0,0E0,1.6794006E1,1.5786298E1,1.3634577E1,1.4653931E0,0E0,0E0,5.6456423E0,3.2087383E0,0E0,3.9124918E-1,0E0,6.946621E0,0E0,2.0335804E1,1.4029183E1,0E0,0E0,0E0,0E0,0E0,0E0,0E0,0E0,0E0,0E0,0E0,0E0,0E0,0E0],"parents":[2147483647,0,0,1,1,2,2,3,3,4,4,5,5,6,6,7,7,8,8,9,9,10,10,11,11,15,15,16,16,20,20,21,21,22,22,23,23,26,26,27,27,29,29,31,31,33,33,34,34],"right_children":[2,4,6,8,10,12,14,16,18,20,22,24,-1,-1,-1,26,28,-1,-1,-1,30,32,34,36,-1,-1,38,40,-1,42,-1,44,-1,46,48,-1,-1,-1,-1,-1,-1,-1,-1,-1,-1,-1,-1,-1,-1],"split_conditions":[1E0,4.55E1,8.95669E-1,1.5833333E1,4.8E1,-2.7E0,1.2E1,-3.4E0,6E1,4.89924E1,5.208995E1,5.18545E-1,7.5807005E-2,4.5009736E-2,-6.0260154E-2,8E0,5.2E1,-7.678327E-2,3.2759078E-2,-8.2489245E-2,4.89926E1,5.4E1,7.6E1,1.41421E-1,-5.532765E-2,4.5009736E-2,2E0,3.8E1,-5.212753E-2,3.7E1,-7.678327E-2,2E1,-6.66601E-2,7.56E1,4.89881E1,1.6616208E-2,6.601628E-2,8.098418E-3,-5.138098E-2,8.231413E-3,2.1570202E-2,5.482017E-2,1.6616208E-2,4.8665736E-2,-1.6675886E-2,-2.0885568E-2,-8.2011566E-2,-2.1716386E-2,3.540976E-2],"split_indices":[16,8,12,25,0,25,5,8,0,28,42,12,0,0,0,0,0,0,0,0,28,0,0,12,0,0,32,0,0,0,0,5,0,10,28,0,0,0,0,0,0,0,0,0,0,0,0,0,0],"split_type":[0,0,0,0,0,0,0,0,0,0,0,0,0,0,0,0,0,0,0,0,0,0,0,0,0,0,0,0,0,0,0,0,0,0,0,0,0,0,0,0,0,0,0,0,0,0,0,0,0],"sum_hessian":[4.904101E2,4.4409375E2,4.631635E1,2.1505464E2,2.2903911E2,4.0030743E1,6.2856073E0,2.0578728E2,9.267364E0,2.7599075E1,2.0144003E2,1.53851E1,2.4645641E1,4.0807657E0,2.2048416E0,1.9633736E1,1.8615353E2,7.1044893E0,2.162874E0,1.6168839E1,1.1430238E1,3.0854136E1,1.7058589E2,1.3670224E1,1.7148768E0,4.0807657E0,1.5552971E1,1.8468364E2,1.4698944E0,4.325748E0,7.1044893E0,2.7669365E1,3.184771E0,1.2923947E2,4.1346413E1,2.6528387E0,1.10173855E1,6.0406246E0,9.512346E0,8.5548676E1,9.9134964E1,1.6729093E0,2.6528387E0,2.330165E1,4.3677154E0,1.14540535E2,1.4698943E1,2.2573524E1,1.8772886E1],"tree_param":{"num_deleted":"0","num_feature":"44","num_nodes":"49","size_leaf_vector":"1"}},{"base_weights":[4.2544637E-2,-8.66017E-2,8.67829E-2],"categories":[],"categories_nodes":[],"categories_segments":[],"categories_sizes":[],"default_left":[0,0,0],"id":4,"left_children":[1,-1,-1],"loss_changes":[1.4956619E3,0E0,0E0],"parents":[2147483647,0,0],"right_children":[2,-1,-1],"split_conditions":[1E0,-8.66017E-2,8.67829E-2],"split_indices":[6,0,0],"split_type":[0,0,0],"sum_hessian":[4.957963E2,2.4206316E2,2.5373314E2],"tree_param":{"num_deleted":"0","num_feature":"44","num_nodes":"3","size_leaf_vector":"1"}},{"base_weights":[-9.8925635E-2,-8.3527945E-2,8.3660714E-2],"categories":[],"categories_nodes":[],"categories_segments":[],"categories_sizes":[],"default_left":[0,0,0],"id":5,"left_children":[1,-1,-1],"loss_changes":[1.2535934E3,0E0,0E0],"parents":[2147483647,0,0],"right_children":[2,-1,-1],"split_conditions":[1E0,-8.3527945E-2,8.3660714E-2],"split_indices":[6,0,0],"split_type":[0,0,0],"sum_hessian":[4.4809485E2,2.3751263E2,2.1058223E2],"tree_param":{"num_deleted":"0","num_feature":"44","num_nodes":"3","size_leaf_vector":"1"}},{"base_weights":[1.2291538E-2,-8.0799274E-2,8.090008E-2],"categories":[],"categories_nodes":[],"categories_segments":[],"categories_sizes":[],"default_left":[0,0,0],"id":6,"left_children":[1,-1,-1],"loss_changes":[1.2300065E3,0E0,0E0],"parents":[2147483647,0,0],"right_children":[2,-1,-1],"split_conditions":[1E0,-8.0799274E-2,8.090008E-2],"split_indices":[6,0,0],"split_type":[0,0,0],"sum_hessian":[4.684484E2,2.325866E2,2.358618E2],"tree_param":{"num_deleted":"0","num_feature":"44","num_nodes":"3","size_leaf_vector":"1"}},{"base_weights":[-1.1405977E-2,-7.83989E-2,7.847907E-2],"categories":[],"categories_nodes":[],"categories_segments":[],"categories_sizes":[],"default_left":[0,0,0],"id":7,"left_children":[1,-1,-1],"loss_changes":[1.1045724E3,0E0,0E0],"parents":[2147483647,0,0],"right_children":[2,-1,-1],"split_conditions":[1E0,-7.83989E-2,7.847907E-2],"split_indices":[6,0,0],"split_type":[0,0,0],"sum_hessian":[4.4684515E2,2.2516531E2,2.2167984E2],"tree_param":{"num_deleted":"0","num_feature":"44","num_nodes":"3","size_leaf_vector":"1"}},{"base_weights":[2.6046606E-2,-7.625226E-2,7.634865E-2],"categories":[],"categories_nodes":[],"categories_segments":[],"categories_sizes":[],"default_left":[0,0,0],"id":8,"left_children":[1,-1,-1],"loss_changes":[1.0545063E3,0E0,0E0],"parents":[2147483647,0,0],"right_children":[2,-1,-1],"split_conditions":[1E0,-7.625226E-2,7.634865E-2],"split_indices":[6,0,0],"split_type":[0,0,0],"sum_hessian":[4.5095187E2,2.2176193E2,2.2918994E2],"tree_param":{"num_deleted":"0","num_feature":"44","num_nodes":"3","size_leaf_vector":"1"}},{"base_weights":[2.435398E-2,2.7601814E-1,-9.986773E-1,-1.313587E-1,6.7080086E-1,-3.8786954E-1,-1.1876501E0,1.9245593E-1,-9.954453E-1,9.255613E-1,-5.207016E-2,-6.472031E-2,1.1344623E-1,-3.2183263E-1,-1.2405509E0,3.911335E-1,-1.00342244E-1,4.6310526E-1,-1.1499959E0,3.5323006E-1,9.6687376E-1,5.735632E-1,-8.180425E-1,-5.6224316E-2,5.2008176E-1,4.5686316E-2,-5.4386165E-2,-1.3487931E0,-8.758339E-1,-6.0302228E-2,4.9948573E-1,3.8397968E-1,-6.928757E-1,2.9702024E-3,4.4791743E-2,-1.3231068E0,-3.6775196E-1,-4.790051E-2,7.2467464E-1,5.5676454E-1,1.0087757E0,2.7398948E-2,1.0074513E0,-6.961184E-2,3.2750612E-1,9.111018E-1,-4.9443122E-2,-7.207898E-2,-8.7556535E-1,4.6516132E-1,-6.8212815E-2,5.222776E-2,1.6644249E-2,-8.456098E-3,4.3450534E-2,-1.2547877E-3,-6.8968154E-2,-3.184413E-2,-7.196787E-2,2.8151501E-2,-6.0627867E-2,2.7626648E-3,5.1479977E-2,4.639345E-2,-1.4997432E-2,5.1965486E-2,-4.3231595E-2,-6.0106117E-2,3.7224386E-2,5.6189563E-2,1.3703584E-2,-4.8444454E-2,4.2058155E-2,4.033853E-4,6.4949386E-2,1.4561944E-2,-6.3874304E-2,2.9200444E-3,4.489515E-2],"categories":[],"categories_nodes":[],"categories_segments":[],"categories_sizes":[],"default_left":[0,0,0,0,0,0,0,0,0,0,0,0,0,0,0,0,0,0,0,0,0,0,0,0,0,0,0,0,0,0,0,0,0,0,0,0,0,0,0,0,0,0,0,0,0,0,0,0,0,0,0,0,0,0,0,0,0,0,0,0,0,0,0,0,0,0,0,0,0,0,0,0,0,0,0,0,0,0,0],"id":9,"left_children":[1,3,5,7,9,11,13,15,17,19,21,-1,23,25,27,29,31,33,35,37,39,41,43,-1,45,-1,-1,47,49,-1,51,53,55,-1,-1,57,59,-1,61,63,65,67,69,-1,71,73,-1,-1,75,77,-1,-1,-1,-1,-1,-1,-1,-1,-1,-1,-1,-1,-1,-1,-1,-1,-1,-1,-1,-1,-1,-1,-1,-1,-1,-1,-1,-1,-1],"loss_changes":[1.1462618E2,5.7541855E1,9.685883E0,4.961988E1,3.348957E1,1.0260992E1,2.653473E0,7.5630784E0,1.1424103E1,2.8344421E0,2.3599663E1,0E0,8.261431E0,5.9033732E0,1.284523E0,1.3972319E1,1.5498732E1,8.800154E-1,5.4682274E0,5.866091E0,1.5813065E0,6.4074764E0,1.50004635E1,0E0,8.07744E0,0E0,0E0,7.7145386E-1,1.1865349E1,0E0,6.286417E0,8.154947E0,1.1072744E1,0E0,0E0,1.9249573E0,8.037365E0,0E0,1.7483702E0,4.663193E0,7.3002853E0,1.2400907E1,9.807873E-1,0E0,6.2703147E0,3.555397E0,0E0,0E0,5.1269903E0,8.846432E-1,0E0,0E0,0E0,0E0,0E0,0E0,0E0,0E0,0E0,0E0,0E0,0E0,0E0,0E0,0E0,0E0,0E0,0E0,0E0,0E0,0E0,0E0,0E0,0E0,0E0,0E0,0E0,0E0,0E0],"parents":[2147483647,0,0,1,1,2,2,3,3,4,4,5,5,6,6,7,7,8,8,9,9,10,10,12,12,13,13,14,14,15,15,16,16,17,17,18,18,19,19,20,20,21,21,22,22,24,24,27,27,28,28,30,30,31,31,32,32,35,35,36,36,38,38,39,39,40,40,41,41,42,42,44,44,45,45,48,48,49,49],"right_children":[2,4,6,8,10,12,14,16,18,20,22,-1,24,26,28,30,32,34,36,38,40,42,44,-1,46,-1,-1,48,50,-1,52,54,56,-1,-1,58,60,-1,62,64,66,68,70,-1,72,74,-1,-1,76,78,-1,-1,-1,-1,-1,-1,-1,-1,-1,-1,-1,-1,-1,-1,-1,-1,-1,-1,-1,-1,-1,-1,-1,-1,-1,-1,-1,-1,-1],"split_conditions":[3.066667E0,-3.366667E0,3.3E0,9.3E0,7.33333E-1,1.1600006E0,1E-1,-3.1566668E1,-3.9166668E1,-2.9E0,9E-1,-6.472031E-2,4.89867E1,1.0866667E1,4.89924E1,-1.5E0,-1.9E0,-3.96E1,-4.066667E0,4.89912E1,4.43E1,4.89928E1,1.4766667E1,-5.6224316E-2,9.333333E0,4.5686316E-2,-5.4386165E-2,6.8E1,4.89926E1,-6.0302228E-2,3.3E1,2.4E1,4E-1,2.9702024E-3,4.4791743E-2,-1.738E1,3.7E0,-4.790051E-2,1.3E0,4.18E1,1.8133333E1,1.36E1,1.866667E0,-6.961184E-2,1.433333E0,7E0,-4.9443122E-2,-7.207898E-2,7.45E1,2E0,-6.8212815E-2,5.222776E-2,1.6644249E-2,-8.456098E-3,4.3450534E-2,-1.2547877E-3,-6.8968154E-2,-3.184413E-2,-7.196787E-2,2.8151501E-2,-6.0627867E-2,2.7626648E-3,5.1479977E-2,4.639345E-2,-1.4997432E-2,5.1965486E-2,-4.3231595E-2,-6.0106117E-2,3.7224386E-2,5.6189563E-2,1.3703584E-2,-4.8444454E-2,4.2058155E-2,4.033853E-4,6.4949386E-2,1.4561944E-2,-6.3874304E-2,2.9200444E-3,4.489515E-2],"split_indices":[15,15,26,14,15,26,11,15,15,15,11,0,28,26,28,10,8,15,15,28,14,28,26,0,15,0,0,0,28,0,0,0,11,0,0,25,26,0,11,8,26,26,15,0,15,15,0,0,14,4,0,0,0,0,0,0,0,0,0,0,0,0,0,0,0,0,0,0,0,0,0,0,0,0,0,0,0,0,0],"split_type":[0,0,0,0,0,0,0,0,0,0,0,0,0,0,0,0,0,0,0,0,0,0,0,0,0,0,0,0,0,0,0,0,0,0,0,0,0,0,0,0,0,0,0,0,0,0,0,0,0,0,0,0,0,0,0,0,0,0,0,0,0,0,0,0,0,0,0,0,0,0,0,0,0,0,0,0,0,0,0],"sum_hessian":[4.4314816E2,3.562431E2,8.690507E1,1.7565338E2,1.805897E2,2.1255249E1,6.564982E1,1.2833673E2,4.7316647E1,1.333226E2,4.726711E1,7.005352E0,1.4249898E1,4.1880765E0,6.1461742E1,7.625692E1,5.207981E1,4.3421087E0,4.2974537E1,9.618649E0,1.2370396E2,2.6155186E1,2.1111921E1,3.0869284E0,1.116297E1,1.5287784E0,2.659298E0,4.531483E1,1.6146914E1,4.20099E0,7.205593E1,2.8850285E1,2.3229528E1,2.8347743E0,1.5073345E0,3.4621387E1,8.353151E0,1.7746813E0,7.843967E0,1.2791963E1,1.10911995E2,1.2050081E1,1.4105104E1,1.391955E1,7.1923723E0,9.180246E0,1.9827231E0,3.6175568E1,9.139262E0,4.323657E0,1.1823256E1,1.5634517E1,5.6421413E1,1.37835865E1,1.5066697E1,1.2300645E1,1.0928883E1,5.953943E0,2.8667444E1,4.1330338E0,4.2201176E0,2.824457E0,5.0195103E0,8.867674E0,3.9242883E0,1.0957136E2,1.3406335E0,4.1898193E0,7.860262E0,1.1714437E1,2.3906684E0,1.7895507E0,5.4028215E0,3.0651326E0,6.1151137E0,2.4121122E0,6.7271495E0,2.8137736E0,1.5098833E0],"tree_param":{"num_deleted":"0","num_feature":"44","num_nodes":"79","size_leaf_vector":"1"}},{"base_weights":[9.267309E-3,-7.34368E-2,7.3649086E-2],"categories":[],"categories_nodes":[],"categories_segments":[],"categories_sizes":[],"default_left":[0,0,0],"id":10,"left_children":[1,-1,-1],"loss_changes":[9.246175E2,0E0,0E0],"parents":[2147483647,0,0],"right_children":[2,-1,-1],"split_conditions":[1E0,-7.34368E-2,7.3649086E-2],"split_indices":[6,0,0],"split_type":[0,0,0],"sum_hessian":[4.2539594E2,2.1166312E2,2.137328E2],"tree_param":{"num_deleted":"0","num_feature":"44","num_nodes":"3","size_leaf_vector":"1"}},{"base_weights":[-1.6675597E-2,-7.180626E-2,7.187385E-2],"categories":[],"categories_nodes":[],"categories_segments":[],"categories_sizes":[],"default_left":[0,0,0],"id":11,"left_children":[1,-1,-1],"loss_changes":[8.604213E2,0E0,0E0],"parents":[2147483647,0,0],"right_children":[2,-1,-1],"split_conditions":[1E0,-7.180626E-2,7.187385E-2],"split_indices":[6,0,0],"split_type":[0,0,0],"sum_hessian":[4.1485123E2,2.0993684E2,2.0491437E2],"tree_param":{"num_deleted":"0","num_feature":"44","num_nodes":"3","size_leaf_vector":"1"}},{"base_weights":[1.7609693E-2,-7.028751E-2,7.039989E-2],"categories":[],"categories_nodes":[],"categories_segments":[],"categories_sizes":[],"default_left":[0,0,0],"id":12,"left_children":[1,-1,-1],"loss_changes":[8.2771716E2,0E0,0E0],"parents":[2147483647,0,0],"right_children":[2,-1,-1],"split_conditions":[1E0,-7.028751E-2,7.039989E-2],"split_indices":[6,0,0],"split_type":[0,0,0],"sum_hessian":[4.1624536E2,2.056784E2,2.1056694E2],"tree_param":{"num_deleted":"0","num_feature":"44","num_nodes":"3","size_leaf_vector":"1"}},{"base_weights":[-3.389476E-2,1.7594625E-1,-8.631029E-1,-1.8685956E-1,5.6303316E-1,-1.1954461E0,-6.4631456E-1,7.0287704E-2,-9.001309E-1,8.230924E-1,-4.5773715E-2,-6.5684505E-2,-2.7367654E-1,-4.805991E-1,-6.1517913E-2,1.790737E-1,-3.2645506E-1,-1.1119485E0,-6.056105E-2,-3.9967738E-2,8.4996885E-1,-6.095416E-2,2.1836041E-1,-4.633752E-2,3.142718E-2,-7.063104E-1,2.669467E-1,9.4677806E-2,6.761497E-1,6.3078356E-1,-5.995312E-1,6.4121517E-3,-1.2089363E0,-6.28182E-1,4.5498308E-2,2.117286E-1,8.908203E-1,6.216997E-1,-2.6310122E-1,2.2728822E-1,-8.81328E-1,6.9797516E-1,-4.6398457E-2,1.2186305E-2,-6.1787695E-2,5.4049443E-2,-1.483805E-2,4.4814337E-2,6.707785E-3,-5.2423276E-2,2.2784973E-2,-3.184695E-2,-6.58449E-2,-5.5621147E-2,2.4137815E-2,-4.1880604E-2,2.9489124E-2,4.5938905E-2,-2.137136E-3,5.911511E-3,5.3083476E-2,-3.5146665E-2,3.376488E-2,4.120284E-2,-4.1990057E-2,-5.011445E-2,1.5961122E-2,4.420753E-2,8.38964E-3],"categories":[],"categories_nodes":[],"categories_segments":[],"categories_sizes":[],"default_left":[0,0,0,0,0,0,0,0,0,0,0,0,0,0,0,0,0,0,0,0,0,0,0,0,0,0,0,0,0,0,0,0,0,0,0,0,0,0,0,0,0,0,0,0,0,0,0,0,0,0,0,0,0,0,0,0,0,0,0,0,0,0,0,0,0,0,0,0,0],"id":13,"left_children":[1,3,5,7,9,11,13,15,17,19,21,-1,23,25,-1,27,29,31,33,-1,35,-1,37,-1,-1,39,41,43,45,47,49,-1,51,53,-1,55,57,59,61,63,65,67,-1,-1,-1,-1,-1,-1,-1,-1,-1,-1,-1,-1,-1,-1,-1,-1,-1,-1,-1,-1,-1,-1,-1,-1,-1,-1,-1],"loss_changes":[6.88288E1,4.4456985E1,4.982506E0,3.0101196E1,2.4268211E1,2.9493065E0,4.298374E0,5.293798E0,7.6630135E0,5.3577805E0,1.4755838E1,0E0,3.360474E0,7.1057243E0,0E0,3.956724E0,7.2940598E0,4.3233376E0,5.978673E0,0E0,2.5757675E0,0E0,7.739221E0,0E0,0E0,5.3901854E0,5.918211E0,1.677886E1,5.7357755E0,7.1831656E-1,1.0472315E1,0E0,1.1519318E0,4.186904E0,0E0,3.5446022E0,2.6319351E0,4.642535E0,8.104545E0,4.3914614E0,4.234087E0,6.5029645E-1,0E0,0E0,0E0,0E0,0E0,0E0,0E0,0E0,0E0,0E0,0E0,0E0,0E0,0E0,0E0,0E0,0E0,0E0,0E0,0E0,0E0,0E0,0E0,0E0,0E0,0E0,0E0],"parents":[2147483647,0,0,1,1,2,2,3,3,4,4,5,5,6,6,7,7,8,8,9,9,10,10,12,12,13,13,15,15,16,16,17,17,18,18,20,20,22,22,25,25,26,26,27,27,28,28,29,29,30,30,32,32,33,33,35,35,36,36,37,37,38,38,39,39,40,40,41,41],"right_children":[2,4,6,8,10,12,14,16,18,20,22,-1,24,26,-1,28,30,32,34,-1,36,-1,38,-1,-1,40,42,44,46,48,50,-1,52,54,-1,56,58,60,62,64,66,68,-1,-1,-1,-1,-1,-1,-1,-1,-1,-1,-1,-1,-1,-1,-1,-1,-1,-1,-1,-1,-1,-1,-1,-1,-1,-1,-1],"split_conditions":[3.166667E0,-3.1E0,3E0,1.25E1,7.33333E-1,2.7E1,1.0233333E1,-2.8466667E1,-3.7E0,3.87E1,4.366667E0,-6.5684505E-2,6.6E1,8.533333E0,-6.1517913E-2,-2.96E1,6.233333E0,-4.27E1,2.6E0,-3.9967738E-2,3E-1,-6.095416E-2,9E-1,-4.633752E-2,3.142718E-2,2E-1,9E-1,2.1E1,-2E0,2E-1,-2.0433332E1,6.4121517E-3,-1.738E1,7.96E1,4.5498308E-2,1.9E1,3.5E0,4.89928E1,5E0,1.0866667E1,3.9E0,9.333333E0,-4.6398457E-2,1.2186305E-2,-6.1787695E-2,5.4049443E-2,-1.483805E-2,4.4814337E-2,6.707785E-3,-5.2423276E-2,2.2784973E-2,-3.184695E-2,-6.58449E-2,-5.5621147E-2,2.4137815E-2,-4.1880604E-2,2.9489124E-2,4.5938905E-2,-2.137136E-3,5.911511E-3,5.3083476E-2,-3.5146665E-2,3.376488E-2,4.120284E-2,-4.1990057E-2,-5.011445E-2,1.5961122E-2,4.420753E-2,8.38964E-3],"split_indices":[15,15,32,8,15,5,15,15,15,14,26,0,0,15,0,15,26,15,11,0,11,0,11,0,0,11,11,5,8,11,15,0,25,14,0,5,11,28,32,26,11,15,0,0,0,0,0,0,0,0,0,0,0,0,0,0,0,0,0,0,0,0,0,0,0,0,0,0,0],"split_type":[0,0,0,0,0,0,0,0,0,0,0,0,0,0,0,0,0,0,0,0,0,0,0,0,0,0,0,0,0,0,0,0,0,0,0,0,0,0,0,0,0,0,0,0,0,0,0,0,0,0,0,0,0,0,0,0,0,0,0,0,0,0,0,0,0,0,0,0,0],"sum_hessian":[3.9369083E2,3.1481177E2,7.887906E1,1.6276959E2,1.5204216E2,2.9357996E1,4.952106E1,1.2030053E2,4.2469067E1,1.0628798E2,4.575418E1,2.5643307E1,3.714688E0,3.999565E1,9.525409E0,9.484333E1,2.5457195E1,3.365398E1,8.815086E0,1.2636479E0,1.0502433E2,7.7431154E0,3.8011066E1,2.1391044E0,1.5755837E0,3.0762497E1,9.233155E0,8.2095276E1,1.27480545E1,5.3596406E0,2.0097555E1,2.4176066E0,3.1236374E1,5.784635E0,3.030451E0,6.6897836E0,9.833455E1,2.0525106E1,1.748596E1,4.809337E0,2.5953161E1,7.091131E0,2.142024E0,7.455921E1,7.5360637E0,8.923709E0,3.8243446E0,2.9681091E0,2.3915315E0,1.410372E1,5.993836E0,6.055116E0,2.5181257E1,4.0276904E0,1.7569447E0,1.4498727E0,5.2399106E0,9.5490685E1,2.8438613E0,1.016348E1,1.0361626E1,1.2076548E1,5.409413E0,3.230459E0,1.5788779E0,2.3727634E1,2.2255259E0,4.754083E0,2.337048E0],"tree_param":{"num_deleted":"0","num_feature":"44","num_nodes":"69","size_leaf_vector":"1"}},{"base_weights":[-2.3633176E-2,1.7126353E-1,-7.580116E-1,-1.8745857E-1,5.477606E-1,-1.0161016E0,-3.2386878E-1,6.48125E-2,-9.340612E-1,7.88842E-1,6.029134E-2,-6.641899E-1,-6.4656E-2,3.7758905E-2,-4.821331E-1,-1.7819671E-2,4.9913424E-1,1.693224E-2,-1.0101718E0,-3.8854733E-2,8.161966E-1,-5.2901477E-1,4.269627E-1,-8.9101285E-1,2.2080171E-1,-6.0030084E-2,-1.1187043E-1,4.8677836E-2,-5.729821E-2,6.530745E-1,-4.113446E-2,-6.466377E-2,-5.486581E-1,-3.607565E-2,8.3988196E-1,-6.2212672E-2,4.092078E-1,5.58253E-1,-4.6839125E-2,-6.0502496E-2,-4.8511595E-1,2.7677754E-2,-3.7713689E-3,-5.398771E-2,2.0341754E-1,-5.6765802E-2,5.5964324E-3,-5.493489E-3,5.3397562E-2,-5.94891E-2,5.882617E-3,4.2880364E-2,4.5239567E-3,4.215516E-2,-1.0764417E-2,-1.6998549E-3,3.521943E-2,4.475156E-2,-5.82244E-2,3.3097718E-2,-1.3836536E-2],"categories":[],"categories_nodes":[],"categories_segments":[],"categories_sizes":[],"default_left":[0,0,0,0,0,0,0,0,0,0,0,0,0,0,0,0,0,0,0,0,0,0,0,0,0,0,0,0,0,0,0,0,0,0,0,0,0,0,0,0,0,0,0,0,0,0,0,0,0,0,0,0,0,0,0,0,0,0,0,0,0],"id":14,"left_children":[1,3,5,7,9,11,13,15,17,19,21,23,-1,-1,25,27,29,-1,31,-1,33,35,37,39,41,-1,43,45,-1,47,-1,-1,49,-1,51,-1,53,55,-1,-1,57,-1,-1,-1,59,-1,-1,-1,-1,-1,-1,-1,-1,-1,-1,-1,-1,-1,-1,-1,-1],"loss_changes":[5.547606E1,4.1485188E1,8.778717E0,2.9753672E1,1.7551495E1,4.0652313E0,5.790266E0,4.271465E0,4.2051888E0,4.922825E0,1.1167632E1,5.0754604E0,0E0,0E0,7.3994384E0,7.6140575E0,4.4073725E0,0E0,4.239876E0,0E0,4.2075195E0,1.3842202E1,6.21097E0,1.9439096E0,6.094964E-1,0E0,6.259262E0,7.32408E0,0E0,5.6859684E0,0E0,0E0,7.0345106E0,0E0,1.2221603E0,0E0,2.714281E0,2.586235E0,0E0,0E0,1.067222E1,0E0,0E0,0E0,3.6551993E0,0E0,0E0,0E0,0E0,0E0,0E0,0E0,0E0,0E0,0E0,0E0,0E0,0E0,0E0,0E0,0E0],"parents":[2147483647,0,0,1,1,2,2,3,3,4,4,5,5,6,6,7,7,8,8,9,9,10,10,11,11,14,14,15,15,16,16,18,18,20,20,21,21,22,22,23,23,24,24,26,26,27,27,29,29,32,32,34,34,36,36,37,37,40,40,44,44],"right_children":[2,4,6,8,10,12,14,16,18,20,22,24,-1,-1,26,28,30,-1,32,-1,34,36,38,40,42,-1,44,46,-1,48,-1,-1,50,-1,52,-1,54,56,-1,-1,58,-1,-1,-1,60,-1,-1,-1,-1,-1,-1,-1,-1,-1,-1,-1,-1,-1,-1,-1,-1],"split_conditions":[3.166667E0,-3.1E0,5E0,1.25E1,5.33333E-1,-1.266667E0,3.3E1,4.6E1,-4.27E1,1E-1,9.2E0,-3.7E0,-6.4656E-2,3.7758905E-2,5E1,7.519527E0,-3.7666668E1,1.693224E-2,5E0,-3.8854733E-2,4.89815E1,4.89928E1,2.3E0,4.89924E1,4.366667E0,-6.0030084E-2,4.89857E1,-3.8033333E1,-5.729821E-2,-3.96E1,-4.113446E-2,-6.466377E-2,1.4E0,-3.607565E-2,4.89948E1,-6.2212672E-2,1.433333E0,2E0,-4.6839125E-2,-6.0502496E-2,4.89926E1,2.7677754E-2,-3.7713689E-3,-5.398771E-2,5.6E1,-5.6765802E-2,5.5964324E-3,-5.493489E-3,5.3397562E-2,-5.94891E-2,5.882617E-3,4.2880364E-2,4.5239567E-3,4.215516E-2,-1.0764417E-2,-1.6998549E-3,3.521943E-2,4.475156E-2,-5.82244E-2,3.3097718E-2,-1.3836536E-2],"split_indices":[15,15,32,8,15,25,0,0,15,11,26,25,0,0,0,41,15,0,32,0,28,28,11,28,15,0,28,15,0,15,0,0,11,0,28,0,15,32,0,0,28,0,0,0,0,0,0,0,0,0,0,0,0,0,0,0,0,0,0,0,0],"split_type":[0,0,0,0,0,0,0,0,0,0,0,0,0,0,0,0,0,0,0,0,0,0,0,0,0,0,0,0,0,0,0,0,0,0,0,0,0,0,0,0,0,0,0,0,0,0,0,0,0,0,0,0,0,0,0,0,0,0,0,0,0],"sum_hessian":[3.856907E2,3.0540582E2,8.028487E1,1.5665184E2,1.4875398E2,4.9511E1,3.0773867E1,1.1777111E2,3.888073E1,9.911681E1,4.963717E1,2.3304129E1,2.6206873E1,3.453853E0,2.7320013E1,9.975175E1,1.8019363E1,1.9993063E0,3.688142E1,1.2311387E0,9.788567E1,1.886884E1,3.076833E1,1.8544403E1,4.7597256E0,8.528498E0,1.8791515E1,9.5102844E1,4.648904E0,1.6592876E1,1.4264863E0,2.1742067E1,1.5139354E1,1.0379342E0,9.684774E1,1.0521649E1,8.347189E0,2.8605108E1,2.1632195E0,9.273898E0,9.270506E0,1.8325523E0,2.9271736E0,4.0214977E0,1.4770019E1,3.9633498E0,9.1139496E1,6.103647E0,1.0489229E1,7.3151193E0,7.8242345E0,9.446892E1,2.3788223E0,4.718651E0,3.6285381E0,5.8131747E0,2.2791935E1,2.9533412E0,6.3171644E0,7.3613534E0,7.4086647E0],"tree_param":{"num_deleted":"0","num_feature":"44","num_nodes":"61","size_leaf_vector":"1"}},{"base_weights":[4.4274524E-2,-6.79925E-2,6.817963E-2],"categories":[],"categories_nodes":[],"categories_segments":[],"categories_sizes":[],"default_left":[0,0,0],"id":15,"left_children":[1,-1,-1],"loss_changes":[7.416048E2,0E0,0E0],"parents":[2147483647,0,0],"right_children":[2,-1,-1],"split_conditions":[1E0,-6.79925E-2,6.817963E-2],"split_indices":[6,0,0],"split_type":[0,0,0],"sum_hessian":[3.983283E2,1.9294742E2,2.0538089E2],"tree_param":{"num_deleted":"0","num_feature":"44","num_nodes":"3","size_leaf_vector":"1"}},{"base_weights":[1.9088494E-2,-6.682253E-2,6.6928454E-2],"categories":[],"categories_nodes":[],"categories_segments":[],"categories_sizes":[],"default_left":[0,0,0],"id":16,"left_children":[1,-1,-1],"loss_changes":[6.820905E2,0E0,0E0],"parents":[2147483647,0,0],"right_children":[2,-1,-1],"split_conditions":[1E0,-6.682253E-2,6.6928454E-2],"split_indices":[6,0,0],"split_type":[0,0,0],"sum_hessian":[3.7935266E2,1.8711322E2,1.9223946E2],"tree_param":{"num_deleted":"0","num_feature":"44","num_nodes":"3","size_leaf_vector":"1"}},{"base_weights":[2.0971041E-2,-6.562566E-2,6.57464E-2],"categories":[],"categories_nodes":[],"categories_segments":[],"categories_sizes":[],"default_left":[0,0,0],"id":17,"left_children":[1,-1,-1],"loss_changes":[6.429617E2,0E0,0E0],"parents":[2147483647,0,0],"right_children":[2,-1,-1],"split_conditions":[1E0,-6.562566E-2,6.57464E-2],"split_indices":[6,0,0],"split_type":[0,0,0],"sum_hessian":[3.7062946E2,1.8251979E2,1.8810968E2],"tree_param":{"num_deleted":"0","num_feature":"44","num_nodes":"3","size_leaf_vector":"1"}},{"base_weights":[3.486841E-2,2.4761385E-1,-6.3006735E-1,-1.0549647E-1,6.6470903E-1,5.4764815E-2,-7.6512927E-1,1.3897501E-1,-8.773157E-1,7.6319927E-1,1.2116415E-1,6.604681E-1,-4.2771897E-1,-6.196907E-1,-5.9610784E-2,2.8681272E-1,-1.0208712E-1,5.042286E-3,-9.433905E-1,5.9195334E-1,8.6705554E-1,6.3077635E-1,-7.39589E-1,4.3655038E-2,4.8746425E-3,-5.379693E-2,3.3040535E-2,-7.282708E-1,2.3113005E-1,4.153796E-1,-5.48909E-2,4.483967E-1,-7.6515913E-1,-6.0223706E-2,-5.542267E-1,2.180059E-1,9.5951897E-1,9.223106E-1,-2.2878756E-1,1.8623316E-1,4.8945777E-2,-5.487007E-2,2.8455261E-2,-5.9261435E-1,-5.78322E-2,4.028539E-2,-4.229361E-2,-3.6805738E-2,2.2466803E-2,4.095145E-3,3.9057627E-2,1.0929404E-2,-5.1474746E-2,-5.4319985E-2,-6.5351115E-3,3.1065328E-2,-9.636903E-3,5.50515E-2,2.1465452E-2,5.2651018E-2,3.8529117E-2,2.5479097E-2,-4.1086935E-2,-4.1711867E-2,3.3931784E-2,-4.4866722E-2,1.2042499E-2],"categories":[],"categories_nodes":[],"categories_segments":[],"categories_sizes":[],"default_left":[0,0,0,0,0,0,0,0,0,0,0,0,0,0,0,0,0,0,0,0,0,0,0,0,0,0,0,0,0,0,0,0,0,0,0,0,0,0,0,0,0,0,0,0,0,0,0,0,0,0,0,0,0,0,0,0,0,0,0,0,0,0,0,0,0,0,0],"id":18,"left_children":[1,3,5,7,9,11,13,15,17,19,21,23,25,27,-1,29,31,-1,33,35,37,39,41,-1,-1,-1,-1,43,45,47,-1,49,51,-1,53,55,57,59,61,63,-1,-1,-1,65,-1,-1,-1,-1,-1,-1,-1,-1,-1,-1,-1,-1,-1,-1,-1,-1,-1,-1,-1,-1,-1,-1,-1],"loss_changes":[5.1489807E1,4.0666237E1,8.203865E0,2.8449863E1,6.6799164E0,4.8033233E0,3.8435936E0,4.1233835E0,2.43812E0,1.3881569E0,9.500623E0,7.829888E-1,7.214926E0,5.4447193E0,0E0,1.3179226E1,1.655262E1,0E0,2.7924786E0,5.7716646E0,4.1103973E0,1.903274E0,4.426522E0,0E0,0E0,0E0,0E0,2.2719593E0,5.1513076E0,2.9162807E0,0E0,2.972005E0,5.5594053E0,0E0,3.3572688E0,3.9071074E0,1.1517029E0,4.083748E-1,2.1229484E0,4.1606345E0,0E0,0E0,0E0,1.0553424E1,0E0,0E0,0E0,0E0,0E0,0E0,0E0,0E0,0E0,0E0,0E0,0E0,0E0,0E0,0E0,0E0,0E0,0E0,0E0,0E0,0E0,0E0,0E0],"parents":[2147483647,0,0,1,1,2,2,3,3,4,4,5,5,6,6,7,7,8,8,9,9,10,10,11,11,12,12,13,13,15,15,16,16,18,18,19,19,20,20,21,21,22,22,27,27,28,28,29,29,31,31,32,32,34,34,35,35,36,36,37,37,38,38,39,39,43,43],"right_children":[2,4,6,8,10,12,14,16,18,20,22,24,26,28,-1,30,32,-1,34,36,38,40,42,-1,-1,-1,-1,44,46,48,-1,50,52,-1,54,56,58,60,62,64,-1,-1,-1,66,-1,-1,-1,-1,-1,-1,-1,-1,-1,-1,-1,-1,-1,-1,-1,-1,-1,-1,-1,-1,-1,-1,-1],"split_conditions":[1.933333E0,-3.366667E0,4.65E1,1.25E1,7.33333E-1,3.033333E0,9.333333E0,-3.1566668E1,-4.27E1,-1.266667E0,4.24264E-1,7.07107E-1,9.766667E0,8.533333E0,-5.9610784E-2,2.1E1,-1.9E0,5.042286E-3,7.07107E-1,8.95669E-1,1.319933E0,1.666667E0,1.8E1,4.3655038E-2,4.8746425E-3,-5.379693E-2,3.3040535E-2,7.483905E1,3.2E0,-1.9E0,-5.48909E-2,2.4E1,4.714E-2,-6.0223706E-2,-5.9E0,5.0333332E1,1.8E1,-4E-1,1.633333E0,4.89927E1,4.8945777E-2,-5.487007E-2,2.8455261E-2,6.91E1,-5.78322E-2,4.028539E-2,-4.229361E-2,-3.6805738E-2,2.2466803E-2,4.095145E-3,3.9057627E-2,1.0929404E-2,-5.1474746E-2,-5.4319985E-2,-6.5351115E-3,3.1065328E-2,-9.636903E-3,5.50515E-2,2.1465452E-2,5.2651018E-2,3.8529117E-2,2.5479097E-2,-4.1086935E-2,-4.1711867E-2,3.3931784E-2,-4.4866722E-2,1.2042499E-2],"split_indices":[15,15,8,8,15,15,15,15,15,15,12,12,15,15,0,5,8,0,12,12,12,15,25,0,0,0,0,41,26,8,0,0,12,0,15,10,5,15,26,28,0,0,0,14,0,0,0,0,0,0,0,0,0,0,0,0,0,0,0,0,0,0,0,0,0,0,0],"split_type":[0,0,0,0,0,0,0,0,0,0,0,0,0,0,0,0,0,0,0,0,0,0,0,0,0,0,0,0,0,0,0,0,0,0,0,0,0,0,0,0,0,0,0,0,0,0,0,0,0,0,0,0,0,0,0,0,0,0,0,0,0,0,0,0,0,0,0],"sum_hessian":[3.6188034E2,2.7463788E2,8.724246E1,1.4913127E2,1.255066E2,1.446947E1,7.2772995E1,1.1388004E2,3.5251232E1,1.0591136E2,1.959524E1,6.2519584E0,8.217511E0,5.611481E1,1.665818E1,7.047165E1,4.3408394E1,2.197249E0,3.305398E1,4.2512806E1,6.3398552E1,1.2475972E1,7.1192675E0,4.1381373E0,2.1138208E0,5.157679E0,3.0598323E0,4.9891758E1,6.223054E0,6.512465E1,5.3470006E0,2.389471E1,1.9513683E1,1.8528492E1,1.4525493E1,2.186316E1,2.0649649E1,6.0506046E1,2.8925056E0,6.153469E0,6.322503E0,5.7174907E0,1.4017764E0,3.9702305E1,1.0189452E1,4.222343E0,2.000711E0,1.2731394E0,6.385151E1,1.1963916E1,1.1930796E1,4.169524E0,1.5344159E1,5.7434773E0,8.782015E0,1.0772871E1,1.1090288E1,1.5449614E1,5.2000346E0,2.9313272E1,3.1192772E1,1.3509021E0,1.5416036E0,1.7768502E0,4.376619E0,2.90169E1,1.0685405E1],"tree_param":{"num_deleted":"0","num_feature":"44","num_nodes":"67","size_leaf_vector":"1"}},{"base_weights":[2.1581674E-2,-6.434852E-2,6.438094E-2],"categories":[],"categories_nodes":[],"categories_segments":[],"categories_sizes":[],"default_left":[0,0,0],"id":19,"left_children":[1,-1,-1],"loss_changes":[5.759912E2,0E0,0E0],"parents":[2147483647,0,0],"right_children":[2,-1,-1],"split_conditions":[1E0,-6.434852E-2,6.438094E-2],"split_indices":[6,0,0],"split_type":[0,0,0],"sum_hessian":[3.4567877E2,1.699771E2,1.7570168E2],"tree_param":{"num_deleted":"0","num_feature":"44","num_nodes":"3","size_leaf_vector":"1"}},{"base_weights":[2.1636767E-2,-5.6207437E-2,7.3625124E-1,3.1321723E-2,-4.2458093E-1,9.024545E-1,4.3506312E-1,-3.551554E-1,6.7303464E-2,-8.4881496E-1,-2.4058907E-1,3.4670466E-1,9.850133E-1,1.5231993E-2,8.0655164E-1,-8.492122E-2,-5.1842768E-2,-4.0332403E-2,1.6866529E-1,-9.843851E-1,1.5067644E-2,-1.5788019E-1,-4.7586232E-2,3.1859145E-4,3.354212E-2,5.1395E-2,1.5596083E-2,-4.5829743E-2,5.562305E-1,8.3204275E-3,5.0454088E-2,-6.009296E-1,2.1699993E-1,7.238566E-2,-5.5679597E-2,-6.7469376E-1,2.2470607E-1,-2.708961E-1,-5.7134844E-2,-3.4168065E-1,2.2566043E-1,3.841692E-2,4.922885E-3,2.1836799E-2,-5.1418494E-2,1.9117486E-2,-3.2878783E-2,-9.208051E-4,1.641325E-2,-5.0131988E-2,-6.1925747E-3,2.3601087E-2,3.5486426E-3,2.072954E-2,-3.9326783E-2,-3.4626838E-2,1.7918129E-2,2.0418638E-2,-3.718225E-2],"categories":[],"categories_nodes":[],"categories_segments":[],"categories_sizes":[],"default_left":[0,0,0,0,0,0,0,0,0,0,0,0,0,0,0,0,0,0,0,0,0,0,0,0,0,0,0,0,0,0,0,0,0,0,0,0,0,0,0,0,0,0,0,0,0,0,0,0,0,0,0,0,0,0,0,0,0,0,0],"id":20,"left_children":[1,3,5,7,9,11,13,15,17,19,21,23,25,27,29,31,-1,33,35,37,-1,39,-1,-1,-1,-1,-1,-1,41,-1,-1,43,45,47,-1,49,51,53,-1,55,57,-1,-1,-1,-1,-1,-1,-1,-1,-1,-1,-1,-1,-1,-1,-1,-1,-1,-1],"loss_changes":[1.8715233E1,9.803754E0,1.2616024E0,3.448657E0,4.351515E0,5.928383E-1,2.121577E0,3.805454E0,2.4740448E0,2.9880104E0,2.3262377E0,4.565153E-1,1.755085E-1,4.261616E0,7.706852E-1,2.6580942E0,0E0,1.3446423E1,5.6651616E0,1.4609632E0,0E0,2.8205557E0,0E0,0E0,0E0,0E0,0E0,0E0,4.419682E-1,0E0,0E0,3.2231436E0,1.837853E0,2.3508925E0,0E0,1.2340486E0,4.1540685E0,1.795485E0,0E0,6.807775E0,2.64325E0,0E0,0E0,0E0,0E0,0E0,0E0,0E0,0E0,0E0,0E0,0E0,0E0,0E0,0E0,0E0,0E0,0E0,0E0],"parents":[2147483647,0,0,1,1,2,2,3,3,4,4,5,5,6,6,7,7,8,8,9,9,10,10,11,11,12,12,13,13,14,14,15,15,17,17,18,18,19,19,21,21,28,28,31,31,32,32,33,33,35,35,36,36,37,37,39,39,40,40],"right_children":[2,4,6,8,10,12,14,16,18,20,22,24,26,28,30,32,-1,34,36,38,-1,40,-1,-1,-1,-1,-1,-1,42,-1,-1,44,46,48,-1,50,52,54,-1,56,58,-1,-1,-1,-1,-1,-1,-1,-1,-1,-1,-1,-1,-1,-1,-1,-1,-1,-1],"split_conditions":[1E0,4.033333E0,1.1E0,4.8984E1,2E0,3E-1,4.89921E1,5.99E1,4.6E1,1.8E1,6E0,7.6E1,4.89947E1,6.8E1,5.18E1,4E0,-5.1842768E-2,4.65E1,-1.58E1,6.6E0,1.5067644E-2,5E0,-4.7586232E-2,3.1859145E-4,3.354212E-2,5.1395E-2,1.5596083E-2,-4.5829743E-2,4.89867E1,8.3204275E-3,5.0454088E-2,2.77728E1,4.89825E1,3.87E1,-5.5679597E-2,1.9E0,5.040335E1,4.89878E1,-5.7134844E-2,7.6E1,7.4E1,3.841692E-2,4.922885E-3,2.1836799E-2,-5.1418494E-2,1.9117486E-2,-3.2878783E-2,-9.208051E-4,1.641325E-2,-5.0131988E-2,-6.1925747E-3,2.3601087E-2,3.5486426E-3,2.072954E-2,-3.9326783E-2,-3.4626838E-2,1.7918129E-2,2.0418638E-2,-3.718225E-2],"split_indices":[16,25,11,28,32,11,28,14,0,5,32,0,28,0,8,32,0,8,25,25,0,32,0,0,0,0,0,0,28,0,0,28,28,14,0,11,41,28,0,0,0,0,0,0,0,0,0,0,0,0,0,0,0,0,0,0,0,0,0],"split_type":[0,0,0,0,0,0,0,0,0,0,0,0,0,0,0,0,0,0,0,0,0,0,0,0,0,0,0,0,0,0,0,0,0,0,0,0,0,0,0,0,0,0,0,0,0,0,0,0,0,0,0,0,0,0,0,0,0,0,0],"sum_hessian":[3.3468793E2,3.0264197E2,3.204597E1,2.4527676E2,5.7365196E1,1.936407E1,1.2681901E1,2.013524E1,2.2514153E2,1.6260252E1,4.1104946E1,3.1770492E0,1.6187021E1,6.4422784E0,6.239623E0,1.5224597E1,4.910643E0,1.0948344E2,1.1565809E2,1.4674686E1,1.5855652E0,3.7917004E1,3.1879401E0,2.0472102E0,1.1298388E0,1.4721871E1,1.4651505E0,2.1113613E0,4.330917E0,1.9374652E0,4.3021574E0,5.254266E0,9.970331E0,9.99218E1,9.561638E0,6.518699E0,1.0913939E2,3.1571252E0,1.1517561E1,2.5706884E1,1.2210121E1,2.4959824E0,1.8349347E0,1.5265718E0,3.727694E0,8.858361E0,1.1119701E0,7.443552E1,2.5486282E1,3.5719383E0,2.946761E0,4.1042534E1,6.809686E1,1.4394715E0,1.7176536E0,1.7131456E1,8.575427E0,1.0760485E1,1.4496365E0],"tree_param":{"num_deleted":"0","num_feature":"44","num_nodes":"59","size_leaf_vector":"1"}},{"base_weights":[-1.5398218E-2,-7.60608E-2,6.2890047E-1,1.4002547E-2,-4.8041248E-1,2.3380479E-1,8.3546615E-1,9.482682E-2,-1.5240476E-1,-5.8085423E-2,-1.8890472E-1,5.549368E-1,-4.0020454E-1,2.685777E-3,9.199261E-1,2.4557276E-1,-5.7441678E-2,-5.4911125E-2,-3.0504242E-2,5.879158E-2,-6.082112E-1,-4.5968737E-3,8.2545286E-1,3.1671386E-2,-4.640196E-2,5.209596E-2,4.873464E-1,1.4749001E-1,5.650064E-1,-4.7868337E-2,-1.1829421E-2,-7.057724E-1,1.1407658E-1,-3.37214E-1,3.2994935E-1,2.7723595E-1,-8.922775E-1,1.49040995E-2,4.6849824E-2,-7.3711365E-2,4.424684E-2,1.2089015E-2,-5.006029E-2,-4.1166898E-2,3.7435975E-2,1.1205863E-2,-6.473561E-3,-4.4367414E-2,2.1178601E-2,7.844697E-3,-4.0328767E-2,2.0308247E-2,-3.6044978E-2,2.5408482E-2,-1.2605037E-2,-2.4727792E-3,3.2647725E-2,-1.1524459E-2,-5.4863114E-2,3.1671386E-2,-3.5848062E-2],"categories":[],"categories_nodes":[],"categories_segments":[],"categories_sizes":[],"default_left":[0,0,0,0,0,0,0,0,0,0,0,0,0,0,0,0,0,0,0,0,0,0,0,0,0,0,0,0,0,0,0,0,0,0,0,0,0,0,0,0,0,0,0,0,0,0,0,0,0,0,0,0,0,0,0,0,0,0,0,0,0],"id":21,"left_children":[1,3,5,7,9,11,13,15,17,-1,19,21,23,-1,25,27,29,-1,31,33,35,-1,37,-1,-1,-1,39,41,43,-1,45,47,49,51,53,55,57,-1,-1,59,-1,-1,-1,-1,-1,-1,-1,-1,-1,-1,-1,-1,-1,-1,-1,-1,-1,-1,-1,-1,-1],"loss_changes":[1.2850718E1,1.0941789E1,2.1139374E0,3.3304229E0,1.0649335E1,2.4826875E0,1.1517563E0,3.8373408E0,9.303539E0,0E0,4.140463E0,1.438901E0,2.9415183E0,0E0,3.553772E-1,2.5449839E0,3.423245E0,0E0,7.184736E0,2.8770084E0,3.96106E0,0E0,4.9675226E-2,0E0,0E0,0E0,1.2869455E0,7.340225E0,5.552795E0,0E0,2.267607E0,3.0358129E0,2.5230656E0,3.419688E0,1.7664402E0,5.6612754E-1,1.2956762E0,0E0,0E0,1.9072434E0,0E0,0E0,0E0,0E0,0E0,0E0,0E0,0E0,0E0,0E0,0E0,0E0,0E0,0E0,0E0,0E0,0E0,0E0,0E0,0E0,0E0],"parents":[2147483647,0,0,1,1,2,2,3,3,4,4,5,5,6,6,7,7,8,8,10,10,11,11,12,12,14,14,15,15,16,16,18,18,19,19,20,20,22,22,26,26,27,27,28,28,30,30,31,31,32,32,33,33,34,34,35,35,36,36,39,39],"right_children":[2,4,6,8,10,12,14,16,18,-1,20,22,24,-1,26,28,30,-1,32,34,36,-1,38,-1,-1,-1,40,42,44,-1,46,48,50,52,54,56,58,-1,-1,60,-1,-1,-1,-1,-1,-1,-1,-1,-1,-1,-1,-1,-1,-1,-1,-1,-1,-1,-1,-1,-1],"split_conditions":[1E0,4.033333E0,-1.566667E0,5.1E1,6.2E1,5.18545E-1,1.1E1,1.5E1,5E1,-5.8085423E-2,7.69E1,3.77124E-1,2E0,2.685777E-3,8.01388E-1,4.8E1,4.89872E1,-5.4911125E-2,6E0,4E0,2E0,-4.5968737E-3,4.24264E-1,3.1671386E-2,-4.640196E-2,5.209596E-2,1.461354E0,4.48E1,-1.2933333E1,-4.7868337E-2,3.7E0,1.744197E0,8.4E1,4.89867E1,8.01388E-1,8.4E1,7.63E1,1.49040995E-2,4.6849824E-2,1.2E1,4.424684E-2,1.2089015E-2,-5.006029E-2,-4.1166898E-2,3.7435975E-2,1.1205863E-2,-6.473561E-3,-4.4367414E-2,2.1178601E-2,7.844697E-3,-4.0328767E-2,2.0308247E-2,-3.6044978E-2,2.5408482E-2,-1.2605037E-2,-2.4727792E-3,3.2647725E-2,-1.1524459E-2,-5.4863114E-2,3.1671386E-2,-3.5848062E-2],"split_indices":[16,25,25,8,0,12,5,5,0,0,8,12,5,0,12,0,28,0,5,32,4,0,12,0,0,0,12,8,25,0,8,12,0,28,12,0,14,0,0,5,0,0,0,0,0,0,0,0,0,0,0,0,0,0,0,0,0,0,0,0,0],"split_type":[0,0,0,0,0,0,0,0,0,0,0,0,0,0,0,0,0,0,0,0,0,0,0,0,0,0,0,0,0,0,0,0,0,0,0,0,0,0,0,0,0,0,0,0,0,0,0,0,0,0,0,0,0,0,0,0,0,0,0,0,0],"sum_hessian":[3.2656665E2,2.9927136E2,2.7295315E1,2.4554517E2,5.3726177E1,1.0103102E1,1.7192211E1,1.6556174E2,7.998343E1,1.5204914E1,3.8521263E1,6.7890825E0,3.3140194E0,1.835846E0,1.5356366E1,8.28889E1,8.2672844E1,8.217241E0,7.176619E1,2.4756615E1,1.376465E1,2.196594E0,4.5924883E0,1.0526392E0,2.2613802E0,1.0879569E1,4.476797E0,6.453501E1,1.8353888E1,3.0238264E0,7.964902E1,1.19715E1,5.979469E1,9.962915E0,1.4793698E1,3.3491733E0,1.0415477E1,1.4428982E0,3.1495905E0,2.1945596E0,2.2822375E0,6.036915E1,4.165862E0,1.7379925E0,1.6615894E1,2.6198755E1,5.3450264E1,1.0497926E1,1.4735745E0,5.793008E1,1.8646077E0,3.3717213E0,6.591194E0,1.142298E1,3.370718E0,2.2559607E0,1.0932126E0,2.965584E0,7.449893E0,1.0526392E0,1.1419203E0],"tree_param":{"num_deleted":"0","num_feature":"44","num_nodes":"61","size_leaf_vector":"1"}},{"base_weights":[-4.4210223E-3,1.999139E-1,-6.6016454E-1,-1.4234759E-1,6.2173074E-1,4.1263416E-1,-7.189951E-1,5.1368408E-2,-6.92515E-1,7.6645315E-1,1.3937435E-1,3.5752398E-3,3.6918547E-2,-4.710098E-1,-1.0074327E0,-6.709641E-1,1.009567E-1,-1.0346732E0,-1.0775739E-1,-3.3359583E-2,7.9252034E-1,6.1384904E-1,-4.592837E-1,3.713385E-2,-8.1674147E-1,6.560866E-3,-1.0976554E0,-5.3022187E-2,1.9663539E-2,7.917642E-3,6.158111E-1,-3.796315E-1,-5.818252E-2,-4.6307273E-2,1.4981653E-1,4.7684705E-1,8.5875624E-1,-3.928359E-2,8.2885206E-1,-8.3621484E-1,5.256332E-1,-2.813178E-1,4.5237064E-2,-5.7066154E-2,-3.489955E-1,-5.9338238E-2,-2.738937E-1,5.932099E-3,-5.5749614E-2,3.837094E-2,-3.3934396E-2,-4.5125302E-2,2.4181023E-2,5.0491035E-2,-1.7381363E-2,-1.0387303E-3,4.0043276E-2,7.2903098E-3,4.378858E-2,1.5521578E-2,4.8029475E-2,-5.587792E-2,2.4848042E-2,1.0435128E-2,3.4984935E-2,-3.6530014E-2,1.6155735E-2,5.0012707E-3,-4.8810896E-2,-4.1402817E-2,2.6712796E-2],"categories":[],"categories_nodes":[],"categories_segments":[],"categories_sizes":[],"default_left":[0,0,0,0,0,0,0,0,0,0,0,0,0,0,0,0,0,0,0,0,0,0,0,0,0,0,0,0,0,0,0,0,0,0,0,0,0,0,0,0,0,0,0,0,0,0,0,0,0,0,0,0,0,0,0,0,0,0,0,0,0,0,0,0,0,0,0,0,0,0,0],"id":22,"left_children":[1,3,5,7,9,11,13,15,17,19,21,-1,-1,23,25,27,29,31,33,-1,35,37,39,41,43,-1,45,-1,-1,47,49,51,-1,-1,53,55,57,-1,59,61,63,65,-1,-1,67,-1,69,-1,-1,-1,-1,-1,-1,-1,-1,-1,-1,-1,-1,-1,-1,-1,-1,-1,-1,-1,-1,-1,-1,-1,-1],"loss_changes":[4.334335E1,3.569694E1,5.1469154E0,1.4633964E1,7.618683E0,4.6174544E-1,4.762722E0,3.7297828E0,7.039196E0,3.7017593E0,7.8839607E0,0E0,0E0,7.276889E0,3.5311737E0,3.1935523E0,4.619461E0,1.4532776E0,3.1550014E0,0E0,1.3436279E0,5.272476E0,5.0448775E0,5.1332226E0,3.3350544E0,0E0,1.925312E0,0E0,0E0,1.0424111E1,3.4180303E0,2.7719514E0,0E0,0E0,5.3752785E0,2.723879E0,6.9789886E-1,0E0,6.4424515E-1,4.065228E0,7.725811E-2,3.9509125E0,0E0,0E0,3.3404326E0,0E0,2.3648095E0,0E0,0E0,0E0,0E0,0E0,0E0,0E0,0E0,0E0,0E0,0E0,0E0,0E0,0E0,0E0,0E0,0E0,0E0,0E0,0E0,0E0,0E0,0E0,0E0],"parents":[2147483647,0,0,1,1,2,2,3,3,4,4,5,5,6,6,7,7,8,8,9,9,10,10,13,13,14,14,15,15,16,16,17,17,18,18,20,20,21,21,22,22,23,23,24,24,26,26,29,29,30,30,31,31,34,34,35,35,36,36,38,38,39,39,40,40,41,41,44,44,46,46],"right_children":[2,4,6,8,10,12,14,16,18,20,22,-1,-1,24,26,28,30,32,34,-1,36,38,40,42,44,-1,46,-1,-1,48,50,52,-1,-1,54,56,58,-1,60,62,64,66,-1,-1,68,-1,70,-1,-1,-1,-1,-1,-1,-1,-1,-1,-1,-1,-1,-1,-1,-1,-1,-1,-1,-1,-1,-1,-1,-1,-1],"split_conditions":[1.933333E0,-2.9E0,3.4E1,1.25E1,5.33333E-1,2.9E1,1.3E0,-3.96E1,-4.066667E0,4.89815E1,9E-1,3.5752398E-3,3.6918547E-2,4.366667E0,3.66667E-1,9.3E0,4.5E1,-1.738E1,4.72E1,-3.3359583E-2,-1.7E0,4.89907E1,1.7766666E1,4.3E0,1.366667E0,6.560866E-3,2.7E1,-5.3022187E-2,1.9663539E-2,5.9E0,-3.66E1,-1.74E1,-5.818252E-2,-4.6307273E-2,-1.2466667E1,1.5E0,1E-1,-3.928359E-2,1.1E0,2.9E1,1.433333E0,1.36E1,4.5237064E-2,-5.7066154E-2,9.133333E0,-5.9338238E-2,6.7E1,5.932099E-3,-5.5749614E-2,3.837094E-2,-3.3934396E-2,-4.5125302E-2,2.4181023E-2,5.0491035E-2,-1.7381363E-2,-1.0387303E-3,4.0043276E-2,7.2903098E-3,4.378858E-2,1.5521578E-2,4.8029475E-2,-5.587792E-2,2.4848042E-2,1.0435128E-2,3.4984935E-2,-3.6530014E-2,1.6155735E-2,5.0012707E-3,-4.8810896E-2,-4.1402817E-2,2.6712796E-2],"split_indices":[15,15,1,8,15,5,11,15,15,28,11,0,0,15,26,14,1,25,8,0,15,28,26,15,25,0,5,0,0,8,15,25,0,0,25,11,11,0,15,5,15,26,0,0,15,0,1,0,0,0,0,0,0,0,0,0,0,0,0,0,0,0,0,0,0,0,0,0,0,0,0],"split_type":[0,0,0,0,0,0,0,0,0,0,0,0,0,0,0,0,0,0,0,0,0,0,0,0,0,0,0,0,0,0,0,0,0,0,0,0,0,0,0,0,0,0,0,0,0,0,0,0,0,0,0,0,0,0,0,0,0,0,0,0,0,0,0,0,0,0,0,0,0,0,0],"sum_hessian":[3.2149384E2,2.4564426E2,7.584958E1,1.3597604E2,1.0966821E2,3.6305797E0,7.2219E1,1.0123682E2,3.4739227E1,8.390503E1,2.576318E1,2.3690732E0,1.2615066E0,4.0248325E1,3.1970678E1,5.698492E0,9.553832E1,2.1430332E1,1.3308894E1,1.0591453E0,8.284589E1,1.4358097E1,1.1405083E1,1.6657839E1,2.3590485E1,2.313897E0,2.965678E1,4.1743584E0,1.5241338E0,8.1776E1,1.3762318E1,4.174178E0,1.7256155E1,2.5646377E0,1.0744257E1,1.5790283E1,6.70556E1,1.5585806E0,1.2799516E1,8.357585E0,3.0474973E0,1.26796E1,3.9782388E0,1.307638E1,1.0514105E1,2.6364202E1,3.2925787E0,7.5250305E1,6.5256987E0,1.2683979E1,1.0783389E0,2.5712757E0,1.6029024E0,3.559832E0,7.184425E0,6.59606E0,9.194223E0,1.786108E0,6.526949E1,3.2735803E0,9.525936E0,7.0347543E0,1.3228306E0,1.8599577E0,1.1875396E0,7.153542E0,5.5260577E0,6.61735E0,3.8967547E0,1.9386082E0,1.3539705E0],"tree_param":{"num_deleted":"0","num_feature":"44","num_nodes":"71","size_leaf_vector":"1"}},{"base_weights":[-4.799598E-2,-1.11958325E-1,6.579976E-1,6.2226124E-2,-3.8227555E-1,7.986203E-1,3.0374193E-1,-2.7581869E-2,3.999511E-1,-2.9816398E-1,-9.5274645E-1,4.30203E-2,5.64794E-3,-2.117592E-1,4.694389E-2,4.7566798E-2,-5.4145575E-2,-3.7148756E-1,6.0708964E-1,-5.3197335E-2,-2.2248769E-1,-5.723935E-2,7.2861956E-3,-4.7326952E-2,2.8353428E-2,8.945827E-2,-4.913489E-2,-4.714146E-2,1.216774E-1,7.2420925E-1,-2.261588E-1,6.950339E-4,-5.011968E-1,-4.8755087E-2,6.2464215E-3,3.1528413E-2,-3.6884975E-2,5.6363654E-4,3.968398E-2,-3.5270523E-2,1.1564012E-2,-2.0285938E-2,8.322843E-3,-5.5843145E-2,-1.0231348E-2],"categories":[],"categories_nodes":[],"categories_segments":[],"categories_sizes":[],"default_left":[0,0,0,0,0,0,0,0,0,0,0,0,0,0,0,0,0,0,0,0,0,0,0,0,0,0,0,0,0,0,0,0,0,0,0,0,0,0,0,0,0,0,0,0,0],"id":23,"left_children":[1,3,5,7,9,11,13,15,17,19,21,-1,-1,23,-1,25,-1,27,29,-1,31,-1,-1,-1,-1,33,-1,-1,35,37,39,41,43,-1,-1,-1,-1,-1,-1,-1,-1,-1,-1,-1,-1],"loss_changes":[1.3824315E1,1.3210702E1,1.0248365E0,5.202928E0,4.988697E0,6.4835453E-1,3.0941892E0,1.0849553E1,5.9817014E0,5.397522E0,3.0494032E0,0E0,0E0,3.7971148E0,0E0,5.6150036E0,0E0,2.4379745E0,2.972124E0,0E0,5.5826907E0,0E0,0E0,0E0,0E0,4.803145E0,0E0,0E0,2.787882E0,1.2524576E0,1.1076691E0,3.4921749E0,7.0583515E0,0E0,0E0,0E0,0E0,0E0,0E0,0E0,0E0,0E0,0E0,0E0,0E0],"parents":[2147483647,0,0,1,1,2,2,3,3,4,4,5,5,6,6,7,7,8,8,9,9,10,10,13,13,15,15,17,17,18,18,20,20,25,25,28,28,29,29,30,30,31,31,32,32],"right_children":[2,4,6,8,10,12,14,16,18,20,22,-1,-1,24,-1,26,-1,28,30,-1,32,-1,-1,-1,-1,34,-1,-1,36,38,40,42,44,-1,-1,-1,-1,-1,-1,-1,-1,-1,-1,-1,-1],"split_conditions":[1E0,5.1E1,1.5E0,4.9E1,6E0,6E0,7.8E1,4.65E1,-1.2933333E1,5.1E1,8.1E1,4.30203E-2,5.64794E-3,6E0,4.694389E-2,5.066667E0,-5.4145575E-2,4E0,5.5E1,-5.3197335E-2,2.433333E0,-5.723935E-2,7.2861956E-3,-4.7326952E-2,2.8353428E-2,-7.833333E0,-4.913489E-2,-4.714146E-2,5.1E1,6E1,6.3E1,1.333333E0,6.7E1,-4.8755087E-2,6.2464215E-3,3.1528413E-2,-3.6884975E-2,5.6363654E-4,3.968398E-2,-3.5270523E-2,1.1564012E-2,-2.0285938E-2,8.322843E-3,-5.5843145E-2,-1.0231348E-2],"split_indices":[16,8,11,1,32,32,24,8,25,1,1,0,0,32,0,25,0,32,1,0,25,0,0,0,0,38,0,0,1,24,1,26,1,0,0,0,0,0,0,0,0,0,0,0,0],"split_type":[0,0,0,0,0,0,0,0,0,0,0,0,0,0,0,0,0,0,0,0,0,0,0,0,0,0,0,0,0,0,0,0,0,0,0,0,0,0,0,0,0,0,0,0,0],"sum_hessian":[3.0350748E2,2.790658E2,2.4441677E1,1.7017795E2,1.08887856E2,1.6598501E1,7.8431754E0,1.3515562E2,3.502232E1,9.622315E1,1.2664703E1,1.4992642E1,1.6058592E0,4.6972756E0,3.1459E0,1.2706259E2,8.093038E0,7.245339E0,2.7776981E1,7.4793186E0,8.8743835E1,1.0744183E1,1.9205208E0,2.3061838E0,2.3910918E0,1.2297547E2,4.087122E0,2.9342074E0,4.3111315E0,2.446859E1,3.3083906E0,4.98349E1,3.890893E1,3.1111217E0,1.1986435E2,2.8749456E0,1.4361858E0,2.2757773E0,2.2192814E1,1.3509429E0,1.9574478E0,1.4018017E1,3.5816883E1,1.1750167E1,2.7158766E1],"tree_param":{"num_deleted":"0","num_feature":"44","num_nodes":"45","size_leaf_vector":"1"}},{"base_weights":[-2.9284326E-2,-6.287773E-2,6.2817365E-2],"categories":[],"categories_nodes":[],"categories_segments":[],"categories_sizes":[],"default_left":[0,0,0],"id":24,"left_children":[1,-1,-1],"loss_changes":[5.0406592E2,0E0,0E0],"parents":[2147483647,0,0],"right_children":[2,-1,-1],"split_conditions":[1E0,-6.287773E-2,6.2817365E-2],"split_indices":[6,0,0],"split_type":[0,0,0],"sum_hessian":[3.1720975E2,1.6223503E2,1.549747E2],"tree_param":{"num_deleted":"0","num_feature":"44","num_nodes":"3","size_leaf_vector":"1"}},{"base_weights":[4.5461343E-3,-6.1977815E-2,6.2061E-2],"categories":[],"categories_nodes":[],"categories_segments":[],"categories_sizes":[],"default_left":[0,0,0],"id":25,"left_children":[1,-1,-1],"loss_changes":[4.8255667E2,0E0,0E0],"parents":[2147483647,0,0],"right_children":[2,-1,-1],"split_conditions":[1E0,-6.1977815E-2,6.2061E-2],"split_indices":[6,0,0],"split_type":[0,0,0],"sum_hessian":[3.11644E2,1.5535423E2,1.5628976E2],"tree_param":{"num_deleted":"0","num_feature":"44","num_nodes":"3","size_leaf_vector":"1"}},{"base_weights":[6.758863E-4,-6.1216485E-2,6.1435442E-2],"categories":[],"categories_nodes":[],"categories_segments":[],"categories_sizes":[],"default_left":[0,0,0],"id":26,"left_children":[1,-1,-1],"loss_changes":[4.4079257E2,0E0,0E0],"parents":[2147483647,0,0],"right_children":[2,-1,-1],"split_conditions":[1E0,-6.1216485E-2,6.1435442E-2],"split_indices":[6,0,0],"split_type":[0,0,0],"sum_hessian":[2.9101248E2,1.4568732E2,1.4532516E2],"tree_param":{"num_deleted":"0","num_feature":"44","num_nodes":"3","size_leaf_vector":"1"}},{"base_weights":[2.4625205E-2,-6.0527135E-2,6.049326E-2],"categories":[],"categories_nodes":[],"categories_segments":[],"categories_sizes":[],"default_left":[0,0,0],"id":27,"left_children":[1,-1,-1],"loss_changes":[4.212389E2,0E0,0E0],"parents":[2147483647,0,0],"right_children":[2,-1,-1],"split_conditions":[1E0,-6.0527135E-2,6.049326E-2],"split_indices":[6,0,0],"split_type":[0,0,0],"sum_hessian":[2.8573688E2,1.3991092E2,1.4582596E2],"tree_param":{"num_deleted":"0","num_feature":"44","num_nodes":"3","size_leaf_vector":"1"}},{"base_weights":[8.949582E-3,-5.9971787E-2,5.9898593E-2],"categories":[],"categories_nodes":[],"categories_segments":[],"categories_sizes":[],"default_left":[0,0,0],"id":28,"left_children":[1,-1,-1],"loss_changes":[3.9839975E2,0E0,0E0],"parents":[2147483647,0,0],"right_children":[2,-1,-1],"split_conditions":[1E0,-5.9971787E-2,5.9898593E-2],"split_indices":[6,0,0],"split_type":[0,0,0],"sum_hessian":[2.752832E2,1.3652557E2,1.3875763E2],"tree_param":{"num_deleted":"0","num_feature":"44","num_nodes":"3","size_leaf_vector":"1"}},{"base_weights":[1.7216595E-2,1.7431349E-1,-5.564645E-1,-1.5709521E-1,5.3808904E-1,-7.8166187E-1,-2.1814518E-1,6.121258E-2,-8.421397E-1,6.390557E-1,1.4423022E-1,-5.412587E-2,-4.7178826E-1,7.439192E-2,-6.054185E-1,3.1164667E-1,-2.2248505E-2,6.31565E-3,-9.151161E-1,3.9521775E-1,7.0743126E-1,3.8690153E-1,-5.8380646E-1,-5.012433E-2,-1.2042509E-1,-2.5503376E-1,4.8762137E-1,-4.8329618E-2,-1.3135545E-1,1.2802687E-1,5.388334E-1,-4.0530887E-2,1.566485E-2,-5.423981E-2,-5.8798724E-1,-2.9977202E-1,7.9258674E-1,4.767081E-3,7.2114897E-1,-2.8219437E-2,5.9928876E-1,-4.6450954E-2,2.3484664E-2,-4.1813474E-2,1.4705074E-1,-4.5543827E-2,3.8257802E-1,-3.1096784E-3,3.8670547E-2,2.357236E-2,-3.9268065E-2,1.6576393E-2,-3.8156103E-2,3.6349036E-3,3.256878E-2,-2.4942849E-3,1.718734E-2,-4.8199214E-2,-8.0777835E-3,-4.783385E-2,2.254981E-2,4.38572E-2,4.3542325E-3,3.7687723E-2,1.2017268E-2,3.8244084E-2,-2.3777738E-2,3.9915755E-2,-5.748459E-3,2.4571454E-2,-9.185481E-3,3.4342375E-2,-1.2972138E-3],"categories":[],"categories_nodes":[],"categories_segments":[],"categories_sizes":[],"default_left":[0,0,0,0,0,0,0,0,0,0,0,0,0,0,0,0,0,0,0,0,0,0,0,0,0,0,0,0,0,0,0,0,0,0,0,0,0,0,0,0,0,0,0,0,0,0,0,0,0,0,0,0,0,0,0,0,0,0,0,0,0,0,0,0,0,0,0,0,0,0,0,0,0],"id":29,"left_children":[1,3,5,7,9,11,13,15,17,19,21,-1,23,25,27,29,31,-1,33,35,37,39,41,-1,43,45,47,-1,49,51,53,-1,55,-1,57,59,61,-1,63,65,67,-1,-1,-1,69,-1,71,-1,-1,-1,-1,-1,-1,-1,-1,-1,-1,-1,-1,-1,-1,-1,-1,-1,-1,-1,-1,-1,-1,-1,-1,-1,-1],"loss_changes":[2.4356575E1,2.5652119E1,4.256428E0,1.6763708E1,3.937273E0,2.7053833E0,2.832872E0,1.7976842E0,2.028988E0,1.0602226E0,4.106827E0,0E0,3.378632E0,2.1538925E0,1.7048361E0,8.2716966E-1,1.9613105E0,0E0,7.6636124E-1,5.7236547E0,4.4758606E-1,1.5224977E0,2.5784903E0,0E0,2.5024898E0,4.0920753E0,1.1412165E0,0E0,2.650346E0,2.6453462E0,4.4001865E-1,0E0,1.3759605E0,0E0,1.5797024E0,4.353196E0,6.9394875E-1,0E0,7.593727E-1,2.7531345E0,1.7040925E0,0E0,0E0,0E0,1.2176774E0,0E0,6.695838E-1,0E0,0E0,0E0,0E0,0E0,0E0,0E0,0E0,0E0,0E0,0E0,0E0,0E0,0E0,0E0,0E0,0E0,0E0,0E0,0E0,0E0,0E0,0E0,0E0,0E0,0E0],"parents":[2147483647,0,0,1,1,2,2,3,3,4,4,5,5,6,6,7,7,8,8,9,9,10,10,12,12,13,13,14,14,15,15,16,16,18,18,19,19,20,20,21,21,22,22,24,24,25,25,26,26,28,28,29,29,30,30,32,32,34,34,35,35,36,36,38,38,39,39,40,40,44,44,46,46],"right_children":[2,4,6,8,10,12,14,16,18,20,22,-1,24,26,28,30,32,-1,34,36,38,40,42,-1,44,46,48,-1,50,52,54,-1,56,-1,58,60,62,-1,64,66,68,-1,-1,-1,70,-1,72,-1,-1,-1,-1,-1,-1,-1,-1,-1,-1,-1,-1,-1,-1,-1,-1,-1,-1,-1,-1,-1,-1,-1,-1,-1,-1],"split_conditions":[2.3E0,-3.233333E0,5E0,1.13E1,7.33333E-1,4.8991E1,6E0,4.89852E1,-4.27E1,-1.833333E0,7.07107E-1,-5.412587E-2,1.3E1,4.89917E1,8.333333E0,4.8984E1,4.89857E1,6.31565E-3,8.01388E-1,8.95669E-1,4.714E-2,4.89928E1,1.6833332E1,-5.012433E-2,2.35702E-1,4.2E0,5.65685E-1,-4.8329618E-2,9.333333E0,4.89822E1,-3.613333E1,-4.0530887E-2,4.6E1,-5.423981E-2,5E0,4.89937E1,2.433333E0,4.767081E-3,4.33333E-1,4.2E1,4.24264E-1,-4.6450954E-2,2.3484664E-2,-4.1813474E-2,4.366667E0,-4.5543827E-2,4.366667E0,-3.1096784E-3,3.8670547E-2,2.357236E-2,-3.9268065E-2,1.6576393E-2,-3.8156103E-2,3.6349036E-3,3.256878E-2,-2.4942849E-3,1.718734E-2,-4.8199214E-2,-8.0777835E-3,-4.783385E-2,2.254981E-2,4.38572E-2,4.3542325E-3,3.7687723E-2,1.2017268E-2,3.8244084E-2,-2.3777738E-2,3.9915755E-2,-5.748459E-3,2.4571454E-2,-9.185481E-3,3.4342375E-2,-1.2972138E-3],"split_indices":[15,15,32,14,15,28,32,28,15,15,12,0,5,28,15,28,28,0,12,12,12,28,25,0,12,25,12,0,15,28,15,0,0,0,32,28,25,0,15,0,12,0,0,0,15,0,15,0,0,0,0,0,0,0,0,0,0,0,0,0,0,0,0,0,0,0,0,0,0,0,0,0,0],"split_type":[0,0,0,0,0,0,0,0,0,0,0,0,0,0,0,0,0,0,0,0,0,0,0,0,0,0,0,0,0,0,0,0,0,0,0,0,0,0,0,0,0,0,0,0,0,0,0,0,0,0,0,0,0,0,0,0,0,0,0,0,0,0,0,0,0,0,0,0,0,0,0,0,0],"sum_hessian":[2.6818143E2,2.110764E2,5.7105034E1,1.1074922E2,1.0032718E2,3.3497486E1,2.3607548E1,8.467569E1,2.607353E1,7.936039E1,2.0966785E1,1.5730941E1,1.7766546E1,1.3908959E1,9.698588E0,2.0482294E1,6.41934E1,1.7758424E0,2.429769E1,1.8864983E1,6.0495407E1,1.6076643E1,4.8901443E0,6.338999E0,1.1427547E1,7.9522605E0,5.9566984E0,4.915029E0,4.7835593E0,1.21919155E1,8.290379E0,2.0103083E0,6.2183086E1,1.4473989E1,9.8237E0,6.9518876E0,1.19130945E1,1.500329E0,5.899508E1,5.7348127E0,1.0341829E1,3.7722168E0,1.1179274E0,2.529999E0,8.897549E0,3.70882E0,4.2434406E0,2.304868E0,3.6518302E0,2.634478E0,2.1490812E0,1.0436609E1,1.7553065E0,1.9324377E0,6.357941E0,5.253465E1,9.648438E0,4.5506644E0,5.273036E0,3.5614429E0,3.3904445E0,1.0420827E1,1.4922674E0,5.471679E1,4.27829E0,1.8121347E0,3.9226778E0,7.9960613E0,2.3457682E0,4.121061E0,4.776488E0,2.0415711E0,2.2018695E0],"tree_param":{"num_deleted":"0","num_feature":"44","num_nodes":"73","size_leaf_vector":"1"}},{"base_weights":[2.7350308E-2,1.7048839E-1,-6.272876E-1,-5.7062563E-2,4.063779E-1,-5.3693503E-2,-4.0048054E-1,1.506201E-1,-8.019232E-1,5.8090615E-1,-9.297517E-3,1.2855995E-1,-6.037847E-1,2.583759E-1,-7.113291E-2,1.4447684E-2,-8.8371676E-1,6.092894E-1,-2.0284027E-1,-6.916268E-1,1.8363579E-1,-3.747292E-2,4.1704792E-1,2.7854365E-1,-7.508189E-1,3.5732338E-1,-8.9869216E-2,4.6168607E-2,-4.3958455E-2,-5.3517558E-2,-5.2156335E-1,1.51963E-1,6.3821876E-1,2.3462376E-2,-3.5959058E-2,1.990561E-2,-4.90423E-2,4.9447545E-1,-2.586641E-1,5.912749E-1,-3.145856E-3,-9.5605076E-4,3.0605106E-2,-2.7134916E-1,-5.2855935E-2,-3.3449174E-3,2.3554564E-2,-4.0577617E-2,4.9575246E-3,1.0049461E-2,-1.9013677E-2,-4.670986E-2,-3.7484341E-3,2.847313E-2,-3.485816E-2,2.4147704E-2,3.773664E-2,7.076334E-3,4.035118E-2,-3.4985464E-2,2.0170476E-2,3.6142465E-2,8.302609E-3,-2.2268994E-2,2.6364077E-2],"categories":[],"categories_nodes":[],"categories_segments":[],"categories_sizes":[],"default_left":[0,0,0,0,0,0,0,0,0,0,0,0,0,0,0,0,0,0,0,0,0,0,0,0,0,0,0,0,0,0,0,0,0,0,0,0,0,0,0,0,0,0,0,0,0,0,0,0,0,0,0,0,0,0,0,0,0,0,0,0,0,0,0,0,0],"id":30,"left_children":[1,3,5,7,9,-1,11,13,15,17,19,21,23,25,27,-1,29,31,33,35,37,-1,39,41,43,45,47,49,-1,-1,51,53,55,-1,-1,-1,-1,57,59,61,-1,-1,-1,63,-1,-1,-1,-1,-1,-1,-1,-1,-1,-1,-1,-1,-1,-1,-1,-1,-1,-1,-1,-1,-1],"loss_changes":[2.498493E1,1.1759486E1,4.4165154E0,1.747249E1,7.8027344E0,0E0,3.6622343E0,2.1343806E0,2.4515734E0,1.8078423E0,4.440573E0,2.8649137E0,3.35532E0,2.093067E0,2.8597322E0,0E0,1.0060215E0,8.729973E-1,1.5160922E0,2.7330384E0,3.7484584E0,0E0,7.251637E-1,4.2806685E-1,2.8057375E0,2.289137E0,1.9947346E0,1.8539133E0,0E0,0E0,1.7398081E0,2.4086404E0,8.7726974E-1,0E0,0E0,0E0,0E0,1.6297219E0,3.6477318E0,2.230506E-1,0E0,0E0,0E0,1.562696E0,0E0,0E0,0E0,0E0,0E0,0E0,0E0,0E0,0E0,0E0,0E0,0E0,0E0,0E0,0E0,0E0,0E0,0E0,0E0,0E0,0E0],"parents":[2147483647,0,0,1,1,2,2,3,3,4,4,6,6,7,7,8,8,9,9,10,10,11,11,12,12,13,13,14,14,16,16,17,17,18,18,19,19,20,20,22,22,23,23,24,24,25,25,26,26,27,27,30,30,31,31,32,32,37,37,38,38,39,39,43,43],"right_children":[2,4,6,8,10,-1,12,14,16,18,20,22,24,26,28,-1,30,32,34,36,38,-1,40,42,44,46,48,50,-1,-1,52,54,56,-1,-1,-1,-1,58,60,62,-1,-1,-1,64,-1,-1,-1,-1,-1,-1,-1,-1,-1,-1,-1,-1,-1,-1,-1,-1,-1,-1,-1,-1,-1],"split_conditions":[3.166667E0,-3.2E0,1.1E1,1.25E1,5.33333E-1,-5.3693503E-2,3.3E0,7E-1,-4.27E1,1.9833332E1,4.89886E1,1.1600006E0,3.3E1,-2.8366667E1,2.1E1,1.4447684E-2,1.7E0,-2.9E0,2E0,5E1,9E-1,-3.747292E-2,5.6E1,2.9E1,1.6E1,-3.5933334E1,-2.6633333E1,-3.1733334E1,-4.3958455E-2,-5.3517558E-2,5E0,1.4E1,5.896152E1,2.3462376E-2,-3.5959058E-2,1.990561E-2,-4.90423E-2,1.36E1,6.4E1,9.133333E0,-3.145856E-3,-9.5605076E-4,3.0605106E-2,6.8E1,-5.2855935E-2,-3.3449174E-3,2.3554564E-2,-4.0577617E-2,4.9575246E-3,1.0049461E-2,-1.9013677E-2,-4.670986E-2,-3.7484341E-3,2.847313E-2,-3.485816E-2,2.4147704E-2,3.773664E-2,7.076334E-3,4.035118E-2,-3.4985464E-2,2.0170476E-2,3.6142465E-2,8.302609E-3,-2.2268994E-2,2.6364077E-2],"split_indices":[15,15,5,8,15,0,26,11,15,26,28,26,0,15,5,0,11,15,5,0,11,0,0,5,5,15,15,15,0,0,32,5,41,0,0,0,0,26,0,15,0,0,0,0,0,0,0,0,0,0,0,0,0,0,0,0,0,0,0,0,0,0,0,0,0],"split_type":[0,0,0,0,0,0,0,0,0,0,0,0,0,0,0,0,0,0,0,0,0,0,0,0,0,0,0,0,0,0,0,0,0,0,0,0,0,0,0,0,0,0,0,0,0,0,0,0,0,0,0,0,0,0,0,0,0,0,0,0,0,0,0,0,0],"sum_hessian":[2.6449655E2,2.176471E2,4.684947E1,1.1116745E2,1.0647964E2,1.4521649E1,3.2327816E1,8.75535E1,2.361395E1,7.471275E1,3.1766888E1,9.076497E0,2.325132E1,5.8810654E1,2.8742844E1,1.4704115E0,2.214354E1,7.2316414E1,2.396336E0,6.4325805E0,2.5334307E1,1.8495312E0,7.2269654E0,3.1934624E0,2.0057858E1,4.577769E1,1.3032962E1,2.5922564E1,2.82028E0,1.3322382E1,8.821157E0,4.674405E0,6.764201E1,1.0807713E0,1.3155648E0,1.2701855E0,5.162395E0,1.4808923E1,1.0525385E1,5.132103E0,2.0948625E0,2.1856673E0,1.0077951E0,8.553863E0,1.1503996E1,9.767661E0,3.6010033E1,2.0214653E0,1.1011497E1,1.94059E1,6.5166645E0,4.017417E0,4.80374E0,3.3544424E0,1.3199625E0,3.1204473E1,3.6437534E1,7.6372643E0,7.171658E0,6.2830443E0,4.24234E0,3.3848238E0,1.7472793E0,7.3865666E0,1.1672962E0],"tree_param":{"num_deleted":"0","num_feature":"44","num_nodes":"65","size_leaf_vector":"1"}},{"base_weights":[1.3419488E-2,-5.916476E-2,5.9078258E-2],"categories":[],"categories_nodes":[],"categories_segments":[],"categories_sizes":[],"default_left":[0,0,0],"id":31,"left_children":[1,-1,-1],"loss_changes":[3.5920148E2,0E0,0E0],"parents":[2147483647,0,0],"right_children":[2,-1,-1],"split_conditions":[1E0,-5.916476E-2,5.9078258E-2],"split_indices":[6,0,0],"split_type":[0,0,0],"sum_hessian":[2.5495094E2,1.25929085E2,1.2902185E2],"tree_param":{"num_deleted":"0","num_feature":"44","num_nodes":"3","size_leaf_vector":"1"}},{"base_weights":[2.4593646E-2,-5.8589257E-2,5.8523495E-2],"categories":[],"categories_nodes":[],"categories_segments":[],"categories_sizes":[],"default_left":[0,0,0],"id":32,"left_children":[1,-1,-1],"loss_changes":[3.4027063E2,0E0,0E0],"parents":[2147483647,0,0],"right_children":[2,-1,-1],"split_conditions":[1E0,-5.8589257E-2,5.8523495E-2],"split_indices":[6,0,0],"split_type":[0,0,0],"sum_hessian":[2.4620885E2,1.2043905E2,1.25769806E2],"tree_param":{"num_deleted":"0","num_feature":"44","num_nodes":"3","size_leaf_vector":"1"}},{"base_weights":[3.6956898E-3,1.3629565E-1,-6.3802886E-1,-1.4426416E-1,4.2062014E-1,-2.0508866E-1,-8.548706E-1,2.3764465E-2,-7.0196104E-1,5.569462E-1,5.043813E-2,-4.3562684E-2,5.460372E-2,-9.218647E-1,1.54899135E-2,9.887592E-2,-4.7837415E-1,9.131081E-3,-7.69413E-1,5.7883483E-1,5.0740708E-2,-5.471384E-1,3.064781E-1,2.8594112E-1,-3.7681222E-2,-5.336356E-2,-4.2947415E-1,1.9278051E-1,-1.4525472E-1,6.6563025E-2,-7.1844417E-1,-9.321912E-1,-2.1159483E-1,8.642501E-2,6.1811435E-1,1.6799212E-2,-8.20651E-3,-7.2745454E-1,2.1579202E-2,5.6230223E-1,-1.571163E-1,5.2205735E-1,-3.3368368E-2,2.866952E-1,-4.475601E-2,1.694044E-2,-1.379313E-2,-5.020178E-2,1.2652384E-2,-7.691135E-3,1.7174212E-2,5.8386027E-4,-4.8794325E-2,-5.2233268E-2,-2.0742012E-2,1.9759784E-2,-4.0853154E-2,1.7192569E-2,-3.1395108E-2,1.6488068E-2,3.258291E-2,-2.4302404E-3,-4.740741E-2,9.000861E-3,3.5828825E-2,-4.1536618E-2,1.4750454E-2,3.7131518E-2,-5.565591E-3,1.1084448E-3,2.4941033E-2],"categories":[],"categories_nodes":[],"categories_segments":[],"categories_sizes":[],"default_left":[0,0,0,0,0,0,0,0,0,0,0,0,0,0,0,0,0,0,0,0,0,0,0,0,0,0,0,0,0,0,0,0,0,0,0,0,0,0,0,0,0,0,0,0,0,0,0,0,0,0,0,0,0,0,0,0,0,0,0,0,0,0,0,0,0,0,0,0,0,0,0],"id":33,"left_children":[1,3,5,7,9,11,13,15,17,19,21,-1,23,25,-1,27,29,-1,31,33,35,37,39,41,-1,-1,43,45,47,49,51,53,55,57,59,-1,-1,61,-1,63,65,67,-1,69,-1,-1,-1,-1,-1,-1,-1,-1,-1,-1,-1,-1,-1,-1,-1,-1,-1,-1,-1,-1,-1,-1,-1,-1,-1,-1,-1],"loss_changes":[2.0851984E1,1.6259064E1,3.7643223E0,9.664311E0,5.0744953E0,2.697891E0,2.4426174E0,3.0677533E0,1.5647402E0,7.883129E-1,4.4997277E0,0E0,2.4524214E0,1.4312744E0,0E0,1.6440232E0,1.4334593E0,0E0,1.8339901E0,1.3129158E0,3.097982E-1,1.8760743E0,2.5150886E0,2.605279E0,0E0,0E0,2.8212554E0,3.6068652E0,7.14734E0,3.0637327E-1,1.4093497E0,5.571976E-1,2.6547213E0,1.3893534E0,4.1634178E-1,0E0,0E0,1.1295118E0,0E0,6.615286E-1,2.6991458E0,1.2837243E0,0E0,2.0147023E-1,0E0,0E0,0E0,0E0,0E0,0E0,0E0,0E0,0E0,0E0,0E0,0E0,0E0,0E0,0E0,0E0,0E0,0E0,0E0,0E0,0E0,0E0,0E0,0E0,0E0,0E0,0E0],"parents":[2147483647,0,0,1,1,2,2,3,3,4,4,5,5,6,6,7,7,8,8,9,9,10,10,12,12,13,13,15,15,16,16,18,18,19,19,20,20,21,21,22,22,23,23,26,26,27,27,28,28,29,29,30,30,31,31,32,32,33,33,34,34,37,37,39,39,40,40,41,41,43,43],"right_children":[2,4,6,8,10,12,14,16,18,20,22,-1,24,26,-1,28,30,-1,32,34,36,38,40,42,-1,-1,44,46,48,50,52,54,56,58,60,-1,-1,62,-1,64,66,68,-1,70,-1,-1,-1,-1,-1,-1,-1,-1,-1,-1,-1,-1,-1,-1,-1,-1,-1,-1,-1,-1,-1,-1,-1,-1,-1,-1,-1],"split_conditions":[3.166667E0,-3.366667E0,4.6999993E0,1.2433333E1,7.33333E-1,4.89867E1,2.9E1,1.1E0,-4.27E1,1.9833332E1,4.89907E1,-4.3562684E-2,4.89921E1,6.6E1,1.54899135E-2,2E1,9E0,9.131081E-3,-4.066667E0,3E-1,-2.766667E0,1.7766666E1,9E-1,9.333333E0,-3.7681222E-2,-5.336356E-2,7.45781E1,-3.0366667E1,-2.96E1,-3.3666668E1,4.89852E1,2.1E1,3.7E0,4.89912E1,-2.766667E0,1.6799212E-2,-8.20651E-3,5.05E1,2.1579202E-2,8.799999E0,2.266667E0,5.6E1,-3.3368368E-2,6.466667E0,-4.475601E-2,1.694044E-2,-1.379313E-2,-5.020178E-2,1.2652384E-2,-7.691135E-3,1.7174212E-2,5.8386027E-4,-4.8794325E-2,-5.2233268E-2,-2.0742012E-2,1.9759784E-2,-4.0853154E-2,1.7192569E-2,-3.1395108E-2,1.6488068E-2,3.258291E-2,-2.4302404E-3,-4.740741E-2,9.000861E-3,3.5828825E-2,-4.1536618E-2,1.4750454E-2,3.7131518E-2,-5.565591E-3,1.1084448E-3,2.4941033E-2],"split_indices":[15,15,26,10,15,28,5,11,15,26,28,0,28,0,0,5,5,0,15,11,15,26,11,15,0,0,41,15,15,15,28,5,26,28,15,0,0,13,0,26,15,0,0,15,0,0,0,0,0,0,0,0,0,0,0,0,0,0,0,0,0,0,0,0,0,0,0,0,0,0,0],"split_type":[0,0,0,0,0,0,0,0,0,0,0,0,0,0,0,0,0,0,0,0,0,0,0,0,0,0,0,0,0,0,0,0,0,0,0,0,0,0,0,0,0,0,0,0,0,0,0,0,0,0,0,0,0,0,0,0,0,0,0,0,0,0,0,0,0,0,0,0,0,0,0],"sum_hessian":[2.4302843E2,2.0206352E2,4.096491E1,1.0195303E2,1.0011049E2,1.4319932E1,2.6644976E1,7.9083374E1,2.2869661E1,7.2797134E1,2.7313353E1,3.3560414E0,1.096389E1,2.5392805E1,1.2521706E0,6.9491684E1,9.591691E0,1.4993513E0,2.137031E1,6.964228E1,3.1548512E0,7.8515487E0,1.9461803E1,9.026474E0,1.9374158E0,1.8702335E1,6.6904693E0,5.033913E1,1.9152554E1,3.1543462E0,6.437345E0,1.602336E1,5.3469515E0,5.381369E0,6.426091E1,1.1132901E0,2.0415611E0,6.846843E0,1.004706E0,1.2404011E1,7.0577917E0,7.597173E0,1.4293009E0,2.7875261E0,3.9029431E0,3.8591225E1,1.1747906E1,5.586563E0,1.356599E1,2.0040016E0,1.1503446E0,1.9269744E0,4.5103707E0,1.2324668E1,3.6986911E0,2.8440146E0,2.5029368E0,4.33704E0,1.0443289E0,7.8250704E0,5.6435844E1,1.9791744E0,4.8676686E0,4.1894917E0,8.2145195E0,2.4982643E0,4.5595274E0,5.5068765E0,2.090297E0,1.7320812E0,1.055445E0],"tree_param":{"num_deleted":"0","num_feature":"44","num_nodes":"71","size_leaf_vector":"1"}},{"base_weights":[2.8166594E-2,-5.7973742E-2,5.788483E-2],"categories":[],"categories_nodes":[],"categories_segments":[],"categories_sizes":[],"default_left":[0,0,0],"id":34,"left_children":[1,-1,-1],"loss_changes":[3.2046063E2,0E0,0E0],"parents":[2147483647,0,0],"right_children":[2,-1,-1],"split_conditions":[1E0,-5.7973742E-2,5.788483E-2],"split_indices":[6,0,0],"split_type":[0,0,0],"sum_hessian":[2.3688582E2,1.15459595E2,1.21426216E2],"tree_param":{"num_deleted":"0","num_feature":"44","num_nodes":"3","size_leaf_vector":"1"}},{"base_weights":[-4.87817E-3,-5.758397E-2,5.7361674E-2],"categories":[],"categories_nodes":[],"categories_segments":[],"categories_sizes":[],"default_left":[0,0,0],"id":35,"left_children":[1,-1,-1],"loss_changes":[2.96726E2,0E0,0E0],"parents":[2147483647,0,0],"right_children":[2,-1,-1],"split_conditions":[1E0,-5.758397E-2,5.7361674E-2],"split_indices":[6,0,0],"split_type":[0,0,0],"sum_hessian":[2.2258095E2,1.1154774E2,1.110332E2],"tree_param":{"num_deleted":"0","num_feature":"44","num_nodes":"3","size_leaf_vector":"1"}},{"base_weights":[1.5883395E-2,1.308627E-1,-5.3864455E-1,-1.4577737E-1,3.929693E-1,-2.8019527E-1,-9.096668E-1,9.236862E-2,-6.621329E-1,5.4834396E-1,2.2878775E-2,-4.942585E-1,5.044811E-1,7.858437E-3,-5.1303536E-2,-5.806282E-1,1.5473078E-1,-9.338917E-1,-3.187932E-1,3.869823E-1,6.498219E-1,5.671634E-1,-2.6335067E-1,-2.9015702E-1,-4.5844465E-2,6.371434E-1,4.9677426E-3,-4.4018093E-2,8.051691E-3,2.3135665E-1,-4.3978336E-1,-2.3494254E-1,-5.197633E-2,-1.3138258E-1,-4.0507685E-2,-1.568924E-2,7.3385596E-1,6.918538E-1,3.072992E-2,-1.5926705E-1,7.748723E-1,-6.6321E-1,2.1177055E-1,-7.3047763E-1,4.0396625E-1,1.0870786E-2,3.7349522E-2,-3.676369E-2,1.4034229E-2,2.3164412E-2,-4.506668E-2,1.4611094E-2,-3.1245101E-2,2.548861E-2,-1.7148241E-2,1.5752828E-2,-1.678093E-2,3.978819E-2,1.6402862E-3,-3.5103124E-3,3.6173716E-2,-7.577753E-3,1.2014344E-2,-3.0068973E-2,1.7912772E-2,7.799141E-3,4.2611565E-2,3.5912842E-3,-4.933938E-2,-3.2099582E-2,2.0854538E-2,-1.1458123E-3,-4.7345173E-2,3.439341E-2,5.8409073E-3],"categories":[],"categories_nodes":[],"categories_segments":[],"categories_sizes":[],"default_left":[0,0,0,0,0,0,0,0,0,0,0,0,0,0,0,0,0,0,0,0,0,0,0,0,0,0,0,0,0,0,0,0,0,0,0,0,0,0,0,0,0,0,0,0,0,0,0,0,0,0,0,0,0,0,0,0,0,0,0,0,0,0,0,0,0,0,0,0,0,0,0,0,0,0,0],"id":36,"left_children":[1,3,5,7,9,11,13,15,17,19,21,23,25,-1,-1,27,29,31,33,35,37,39,41,43,-1,45,-1,-1,-1,47,49,51,-1,53,-1,55,57,59,61,63,65,67,69,71,73,-1,-1,-1,-1,-1,-1,-1,-1,-1,-1,-1,-1,-1,-1,-1,-1,-1,-1,-1,-1,-1,-1,-1,-1,-1,-1,-1,-1,-1,-1],"loss_changes":[1.3791121E1,1.3039481E1,3.3076706E0,1.0862114E1,5.2895813E0,4.1703453E0,2.0002956E0,2.6495311E0,2.3004932E0,8.1121826E-1,4.559486E0,1.3595414E0,2.3219502E-1,0E0,0E0,1.338328E0,2.6804707E0,8.651266E-1,1.1662949E0,3.8565927E0,9.771919E-1,1.6433213E0,3.794717E0,4.626292E0,0E0,2.0038724E-2,0E0,0E0,0E0,2.6285708E0,3.255095E0,8.5373753E-1,0E0,1.6940069E0,0E0,1.5573858E0,6.166487E-1,9.1547966E-1,1.6957535E-1,9.17717E-1,2.5026655E-1,2.6126127E0,1.941508E0,1.3606215E0,4.2053497E-1,0E0,0E0,0E0,0E0,0E0,0E0,0E0,0E0,0E0,0E0,0E0,0E0,0E0,0E0,0E0,0E0,0E0,0E0,0E0,0E0,0E0,0E0,0E0,0E0,0E0,0E0,0E0,0E0,0E0,0E0],"parents":[2147483647,0,0,1,1,2,2,3,3,4,4,5,5,6,6,7,7,8,8,9,9,10,10,11,11,12,12,15,15,16,16,17,17,18,18,19,19,20,20,21,21,22,22,23,23,25,25,29,29,30,30,31,31,33,33,35,35,36,36,37,37,38,38,39,39,40,40,41,41,42,42,43,43,44,44],"right_children":[2,4,6,8,10,12,14,16,18,20,22,24,26,-1,-1,28,30,32,34,36,38,40,42,44,-1,46,-1,-1,-1,48,50,52,-1,54,-1,56,58,60,62,64,66,68,70,72,74,-1,-1,-1,-1,-1,-1,-1,-1,-1,-1,-1,-1,-1,-1,-1,-1,-1,-1,-1,-1,-1,-1,-1,-1,-1,-1,-1,-1,-1,-1],"split_conditions":[3.166667E0,-3.366667E0,6.353472E1,-2.7833332E1,5.33333E-1,6.16E1,2E-1,-3.96E1,5E0,-1.266667E0,4.5941826E1,4.89926E1,9.133333E0,7.858437E-3,-5.1303536E-2,6E1,8.333333E0,-2.64E1,6.2E1,1.9E0,2.8E0,1.433333E0,4.89928E1,4.8992E1,-4.5844465E-2,4.89918E1,4.9677426E-3,-4.4018093E-2,8.051691E-3,-4.966667E0,-3.7666668E1,7.933333E0,-5.197633E-2,5.8E0,-4.0507685E-2,5.0333332E1,8E-1,4.89845E1,1.8E1,2.3E0,4.1266666E1,4.89857E1,4.8E1,2E-1,4.366667E0,1.0870786E-2,3.7349522E-2,-3.676369E-2,1.4034229E-2,2.3164412E-2,-4.506668E-2,1.4611094E-2,-3.1245101E-2,2.548861E-2,-1.7148241E-2,1.5752828E-2,-1.678093E-2,3.978819E-2,1.6402862E-3,-3.5103124E-3,3.6173716E-2,-7.577753E-3,1.2014344E-2,-3.0068973E-2,1.7912772E-2,7.799141E-3,4.2611565E-2,3.5912842E-3,-4.933938E-2,-3.2099582E-2,2.0854538E-2,-1.1458123E-3,-4.7345173E-2,3.439341E-2,5.8409073E-3],"split_indices":[15,15,42,15,15,14,11,15,32,15,42,28,15,0,0,0,10,15,0,11,11,15,28,28,0,28,0,0,0,10,15,26,0,26,0,10,25,28,5,11,10,28,0,11,15,0,0,0,0,0,0,0,0,0,0,0,0,0,0,0,0,0,0,0,0,0,0,0,0,0,0,0,0,0,0],"split_type":[0,0,0,0,0,0,0,0,0,0,0,0,0,0,0,0,0,0,0,0,0,0,0,0,0,0,0,0,0,0,0,0,0,0,0,0,0,0,0,0,0,0,0,0,0,0,0,0,0,0,0,0,0,0,0,0,0,0,0,0,0,0,0,0,0,0,0,0,0,0,0,0,0,0,0],"sum_hessian":[2.1419441E2,1.7804205E2,3.6152348E1,8.683548E1,9.120657E1,2.2343412E1,1.3808935E1,5.9989235E1,2.6846249E1,6.38985E1,2.7308077E1,1.7845257E1,4.4981546E0,1.324034E0,1.2484901E1,4.382611E0,5.560662E1,1.402512E1,1.2821129E1,2.6528528E1,3.7369972E1,9.073225E0,1.8234852E1,1.3171083E1,4.6741734E0,2.957116E0,1.5410386E0,2.988025E0,1.3945858E0,4.979897E1,5.807653E0,2.264672E0,1.17604475E1,1.0198636E1,2.6224928E0,1.271869E1,1.3809839E1,3.488406E1,2.485912E0,2.069318E0,7.003907E0,9.686702E0,8.54815E0,8.026841E0,5.1442423E0,1.2313527E0,1.7257633E0,1.742724E0,4.8056244E1,1.9630241E0,3.844629E0,1.0695043E0,1.1951678E0,2.1808133E0,8.017822E0,6.26112E0,6.45757E0,1.2565144E1,1.2446954E0,1.3411766E0,3.3542885E1,1.4774889E0,1.0084232E0,1.0285804E0,1.0407377E0,1.1133336E0,5.8905735E0,3.198667E0,6.488035E0,1.2448859E0,7.3032637E0,2.1391616E0,5.88768E0,1.8850169E0,3.2592254E0],"tree_param":{"num_deleted":"0","num_feature":"44","num_nodes":"75","size_leaf_vector":"1"}},{"base_weights":[5.6945365E-2,-5.6934446E-2,5.6925632E-2],"categories":[],"categories_nodes":[],"categories_segments":[],"categories_sizes":[],"default_left":[0,0,0],"id":37,"left_children":[1,-1,-1],"loss_changes":[2.8337045E2,0E0,0E0],"parents":[2147483647,0,0],"right_children":[2,-1,-1],"split_conditions":[1E0,-5.6934446E-2,5.6925632E-2],"split_indices":[6,0,0],"split_type":[0,0,0],"sum_hessian":[2.171279E2,1.031008E2,1.1402709E2],"tree_param":{"num_deleted":"0","num_feature":"44","num_nodes":"3","size_leaf_vector":"1"}},{"base_weights":[3.1313915E-2,-5.650425E-2,5.6444686E-2],"categories":[],"categories_nodes":[],"categories_segments":[],"categories_sizes":[],"default_left":[0,0,0],"id":38,"left_children":[1,-1,-1],"loss_changes":[2.6217896E2,0E0,0E0],"parents":[2147483647,0,0],"right_children":[2,-1,-1],"split_conditions":[1E0,-5.650425E-2,5.6444686E-2],"split_indices":[6,0,0],"split_type":[0,0,0],"sum_hessian":[2.0367363E2,9.89454E1,1.04728226E2],"tree_param":{"num_deleted":"0","num_feature":"44","num_nodes":"3","size_leaf_vector":"1"}},{"base_weights":[4.8083447E-2,1.64639E-1,-5.0947034E-1,-8.682676E-2,4.180036E-1,1.4415741E-2,-5.7918113E-1,7.93749E-2,-7.175297E-1,5.4576117E-1,4.5361027E-2,-1.8142511E-1,-7.3180765E-1,1.496178E-1,-1.8811913E-1,-8.811361E-1,-1.9013722E-1,3.9413938E-1,6.04386E-1,-2.8318262E-1,4.3143374E-1,-4.0877588E-2,1.7757773E-1,6.135273E-3,-7.8625745E-1,-4.3838632E-1,1.9646369E-1,4.802089E-1,-3.8693014E-1,4.3768953E-3,-5.0132822E-2,1.6166037E-2,-3.664903E-2,-1.6740532E-1,6.685896E-1,6.5514743E-1,1.864989E-1,-7.233104E-1,2.843757E-1,-1.0928904E-2,5.7789034E-1,-2.6485157E-1,4.3222106E-1,-4.217309E-1,-9.0066653E-1,-3.993689E-2,1.7400378E-2,7.234773E-3,3.4211215E-2,3.0161688E-2,6.084844E-3,7.930165E-3,-4.7442596E-2,5.835883E-3,-3.6524426E-2,3.676512E-2,-2.5242023E-4,1.7944688E-3,3.367802E-2,-6.5162205E-3,2.486281E-2,-3.1473977E-3,-4.565194E-2,2.1843245E-2,-2.3403994E-3,-1.631621E-5,3.503948E-2,1.4244184E-2,-3.167527E-2,3.1302553E-2,3.0049455E-4,-4.1571952E-2,5.60658E-3,-1.989672E-2,-5.002282E-2],"categories":[],"categories_nodes":[],"categories_segments":[],"categories_sizes":[],"default_left":[0,0,0,0,0,0,0,0,0,0,0,0,0,0,0,0,0,0,0,0,0,0,0,0,0,0,0,0,0,0,0,0,0,0,0,0,0,0,0,0,0,0,0,0,0,0,0,0,0,0,0,0,0,0,0,0,0,0,0,0,0,0,0,0,0,0,0,0,0,0,0,0,0,0,0],"id":39,"left_children":[1,3,5,7,9,-1,11,13,15,17,19,21,23,25,27,29,31,33,35,37,39,-1,41,-1,43,45,47,49,51,-1,-1,-1,-1,53,55,57,59,61,63,-1,65,67,69,71,73,-1,-1,-1,-1,-1,-1,-1,-1,-1,-1,-1,-1,-1,-1,-1,-1,-1,-1,-1,-1,-1,-1,-1,-1,-1,-1,-1,-1,-1,-1],"loss_changes":[1.3127777E1,1.06616E1,2.110653E0,8.917342E0,3.9382763E0,0E0,1.8386068E0,1.3020418E0,1.3621502E0,3.1200027E-1,2.9562652E0,2.5053308E0,1.1730576E0,1.5805942E0,2.118245E0,1.6481447E0,1.76237E0,3.214998E0,7.849684E-1,3.3718474E0,1.1419557E0,0E0,9.5131594E-1,0E0,5.329704E-1,1.500154E0,1.1872926E0,9.333897E-2,3.756415E0,0E0,0E0,0E0,0E0,1.2707154E0,6.2051153E-1,4.0609932E-1,6.5849066E-1,8.723066E-1,3.3627772E-1,0E0,6.384628E-1,8.5604894E-1,4.1710013E-1,1.6481706E0,3.934374E-1,0E0,0E0,0E0,0E0,0E0,0E0,0E0,0E0,0E0,0E0,0E0,0E0,0E0,0E0,0E0,0E0,0E0,0E0,0E0,0E0,0E0,0E0,0E0,0E0,0E0,0E0,0E0,0E0,0E0,0E0],"parents":[2147483647,0,0,1,1,2,2,3,3,4,4,6,6,7,7,8,8,9,9,10,10,11,11,12,12,13,13,14,14,15,15,16,16,17,17,18,18,19,19,20,20,22,22,24,24,25,25,26,26,27,27,28,28,33,33,34,34,35,35,36,36,37,37,38,38,40,40,41,41,42,42,43,43,44,44],"right_children":[2,4,6,8,10,-1,12,14,16,18,20,22,24,26,28,30,32,34,36,38,40,-1,42,-1,44,46,48,50,52,-1,-1,-1,-1,54,56,58,60,62,64,-1,66,68,70,72,74,-1,-1,-1,-1,-1,-1,-1,-1,-1,-1,-1,-1,-1,-1,-1,-1,-1,-1,-1,-1,-1,-1,-1,-1,-1,-1,-1,-1,-1,-1],"split_conditions":[3.166667E0,-3.366667E0,3.3E1,1.2433333E1,7.33333E-1,1.4415741E-2,3.3E0,-2.8366667E1,-4.066667E0,-1.7E0,1.45E1,1.1600006E0,1E-1,-3.96E1,6.233333E0,-4.27E1,3.7E0,1.5E0,2.6E0,4.89928E1,1.433333E0,-4.0877588E-2,7.666667E0,6.135273E-3,5.06E1,5.2E1,-2.8733334E1,-2.64E1,2E1,4.3768953E-3,-5.0132822E-2,1.6166037E-2,-3.664903E-2,1E0,7.71E1,1E-1,4.89937E1,5.05E1,9E-1,-1.0928904E-2,4.89881E1,5.4E1,9.133333E0,4.89922E1,4.89861E1,-3.993689E-2,1.7400378E-2,7.234773E-3,3.4211215E-2,3.0161688E-2,6.084844E-3,7.930165E-3,-4.7442596E-2,5.835883E-3,-3.6524426E-2,3.676512E-2,-2.5242023E-4,1.7944688E-3,3.367802E-2,-6.5162205E-3,2.486281E-2,-3.1473977E-3,-4.565194E-2,2.1843245E-2,-2.3403994E-3,-1.631621E-5,3.503948E-2,1.4244184E-2,-3.167527E-2,3.1302553E-2,3.0049455E-4,-4.1571952E-2,5.60658E-3,-1.989672E-2,-5.002282E-2],"split_indices":[15,15,0,10,15,0,26,15,15,15,26,26,11,15,26,15,26,11,11,28,15,0,15,0,13,0,15,15,0,0,0,0,0,11,13,11,28,13,11,0,28,0,15,28,28,0,0,0,0,0,0,0,0,0,0,0,0,0,0,0,0,0,0,0,0,0,0,0,0,0,0,0,0,0,0],"split_type":[0,0,0,0,0,0,0,0,0,0,0,0,0,0,0,0,0,0,0,0,0,0,0,0,0,0,0,0,0,0,0,0,0,0,0,0,0,0,0,0,0,0,0,0,0,0,0,0,0,0,0,0,0,0,0,0,0,0,0,0,0,0,0,0,0,0,0,0,0,0,0,0,0,0,0],"sum_hessian":[1.9971864E2,1.6576955E2,3.3949097E1,8.352642E1,8.224313E1,2.476109E0,3.1472986E1,6.679807E1,1.6728354E1,6.089961E1,2.1343521E1,9.334715E0,2.2138271E1,5.3254353E1,1.3543718E1,1.2255684E1,4.472669E0,1.913465E1,4.176496E1,1.1674853E1,9.668668E0,2.906798E0,6.427917E0,1.2510625E0,2.0887209E1,3.3129196E0,4.9941433E1,2.780687E0,1.0763032E1,1.3972706E0,1.0858413E1,2.5063698E0,1.9662995E0,6.409792E0,1.2724856E1,3.6734947E1,5.0300155E0,6.421055E0,5.253798E0,1.6873472E0,7.981321E0,2.3334985E0,4.0944185E0,6.1090174E0,1.4778192E1,2.2611086E0,1.051811E0,4.6321747E1,3.619683E0,1.5620568E0,1.2186302E0,5.8253374E0,4.937694E0,4.787042E0,1.6227499E0,1.1494932E1,1.2299241E0,1.1458945E0,3.558905E1,2.7782037E0,2.2518115E0,1.7303241E0,4.6907306E0,3.3789177E0,1.8748803E0,1.5738789E0,6.4074416E0,1.0279123E0,1.3055862E0,2.4921684E0,1.6022501E0,3.141046E0,2.9679713E0,3.273636E0,1.1504556E1],"tree_param":{"num_deleted":"0","num_feature":"44","num_nodes":"75","size_leaf_vector":"1"}},{"base_weights":[7.283774E-4,-5.6140818E-2,5.5864807E-2],"categories":[],"categories_nodes":[],"categories_segments":[],"categories_sizes":[],"default_left":[0,0,0],"id":40,"left_children":[1,-1,-1],"loss_changes":[2.3758907E2,0E0,0E0],"parents":[2147483647,0,0],"right_children":[2,-1,-1],"split_conditions":[1E0,-5.6140818E-2,5.5864807E-2],"split_indices":[6,0,0],"split_type":[0,0,0],"sum_hessian":[1.8738736E2,9.339907E1,9.398829E1],"tree_param":{"num_deleted":"0","num_feature":"44","num_nodes":"3","size_leaf_vector":"1"}},{"base_weights":[1.7541463E-2,1.4980322E-1,-4.9219006E-1,-5.6804813E-2,3.9353627E-1,7.06859E-2,-6.1775726E-1,1.6403559E-1,-5.2953017E-1,5.2020824E-1,-5.7521548E-2,2.8430048E-2,-2.5484714E-1,-3.4062284E-1,-7.5824964E-1,-3.5061398E-1,2.206998E-1,1.1306697E-1,-7.6874703E-1,6.34265E-1,3.5663366E-1,-3.734803E-1,5.7833487E-1,-3.938627E-2,2.3103354E-2,-6.792226E-2,-4.201331E-2,-4.89E-2,-4.744345E-1,-4.1078947E-2,1.3440199E-2,2.832881E-1,-3.532533E-1,3.6047357E-1,-3.3250126E-1,-9.293784E-1,-7.1207196E-2,6.9424814E-1,1.5679711E-1,4.201397E-1,-1.6083706E-2,-6.750605E-1,2.5281513E-2,4.119169E-3,3.3631787E-2,1.9808584E-1,-3.586281E-2,-1.8001202E-1,-4.2151403E-2,1.1566717E-2,4.109777E-2,2.5356695E-2,-4.1478556E-2,6.458726E-3,2.601122E-2,1.03268E-2,-3.25288E-2,2.9921974E-3,-5.115683E-2,1.7338064E-2,-3.146507E-2,1.4473456E-2,3.7742082E-2,3.047337E-2,-9.091447E-3,-7.83889E-3,2.3864849E-2,-4.7668356E-2,-1.2905778E-4,-3.1529557E-2,2.5040908E-2,7.0513175E-3,-3.5464507E-2],"categories":[],"categories_nodes":[],"categories_segments":[],"categories_sizes":[],"default_left":[0,0,0,0,0,0,0,0,0,0,0,0,0,0,0,0,0,0,0,0,0,0,0,0,0,0,0,0,0,0,0,0,0,0,0,0,0,0,0,0,0,0,0,0,0,0,0,0,0,0,0,0,0,0,0,0,0,0,0,0,0,0,0,0,0,0,0,0,0,0,0,0,0],"id":41,"left_children":[1,3,5,7,9,11,13,15,17,19,21,-1,23,25,27,29,31,33,35,37,39,41,43,-1,-1,45,-1,-1,47,-1,-1,49,51,53,55,57,59,61,63,65,-1,67,-1,-1,-1,69,-1,71,-1,-1,-1,-1,-1,-1,-1,-1,-1,-1,-1,-1,-1,-1,-1,-1,-1,-1,-1,-1,-1,-1,-1,-1,-1],"loss_changes":[1.255925E1,7.4655933E0,2.7568026E0,8.529515E0,3.9116583E0,1.4252084E0,9.677191E-1,1.70708E0,4.0816154E0,7.652521E-1,3.3895643E0,0E0,2.452413E0,1.6336094E0,7.883396E-1,1.9504764E0,1.9305139E0,9.9308926E-1,2.070037E0,7.5107193E-1,1.1739948E0,3.3001866E0,2.0817721E-1,0E0,0E0,1.7165228E0,0E0,0E0,1.0099411E0,0E0,0E0,1.1111848E0,2.6563485E0,1.387288E-1,7.0844746E-1,1.4908209E0,1.3032786E0,4.2858124E-1,8.224908E-1,8.16283E-1,0E0,1.6328926E0,0E0,0E0,0E0,2.1345475E0,0E0,1.3272839E0,0E0,0E0,0E0,0E0,0E0,0E0,0E0,0E0,0E0,0E0,0E0,0E0,0E0,0E0,0E0,0E0,0E0,0E0,0E0,0E0,0E0,0E0,0E0,0E0,0E0],"parents":[2147483647,0,0,1,1,2,2,3,3,4,4,5,5,6,6,7,7,8,8,9,9,10,10,12,12,13,13,14,14,15,15,16,16,17,17,18,18,19,19,20,20,21,21,22,22,25,25,28,28,31,31,32,32,33,33,34,34,35,35,36,36,37,37,38,38,39,39,41,41,45,45,47,47],"right_children":[2,4,6,8,10,12,14,16,18,20,22,-1,24,26,28,30,32,34,36,38,40,42,44,-1,-1,46,-1,-1,48,-1,-1,50,52,54,56,58,60,62,64,66,-1,68,-1,-1,-1,70,-1,72,-1,-1,-1,-1,-1,-1,-1,-1,-1,-1,-1,-1,-1,-1,-1,-1,-1,-1,-1,-1,-1,-1,-1,-1,-1],"split_conditions":[2.3E0,-3.366667E0,4.5941826E1,-2.8466667E1,4.33333E-1,3.033333E0,4.6999993E0,-3.96E1,-2.182843E0,1.5E1,6E0,2.8430048E-2,8.8E0,9.89949E-1,4E0,1.09E1,9.1E0,2.5E1,-4.066667E0,6E0,1.08E1,1.8133333E1,-1.2466667E1,-3.938627E-2,2.3103354E-2,4.89921E1,-4.201331E-2,-4.89E-2,1.5E1,-4.1078947E-2,1.3440199E-2,4.7E1,-3.7666668E1,2.82843E-1,9.4281E-2,4.714E-2,3.7E0,-2.466667E0,-3E0,-2.9E0,-1.6083706E-2,1.8E0,2.5281513E-2,4.119169E-3,3.3631787E-2,4.89879E1,-3.586281E-2,6.533333E0,-4.2151403E-2,1.1566717E-2,4.109777E-2,2.5356695E-2,-4.1478556E-2,6.458726E-3,2.601122E-2,1.03268E-2,-3.25288E-2,2.9921974E-3,-5.115683E-2,1.7338064E-2,-3.146507E-2,1.4473456E-2,3.7742082E-2,3.047337E-2,-9.091447E-3,-7.83889E-3,2.3864849E-2,-4.7668356E-2,-1.2905778E-4,-3.1529557E-2,2.5040908E-2,7.0513175E-3,-3.5464507E-2],"split_indices":[15,15,42,15,15,15,26,15,41,5,32,0,15,12,32,8,8,5,15,32,25,26,25,0,0,28,0,0,5,0,0,1,15,12,12,12,26,15,15,15,0,15,0,0,0,28,0,15,0,0,0,0,0,0,0,0,0,0,0,0,0,0,0,0,0,0,0,0,0,0,0,0,0],"split_type":[0,0,0,0,0,0,0,0,0,0,0,0,0,0,0,0,0,0,0,0,0,0,0,0,0,0,0,0,0,0,0,0,0,0,0,0,0,0,0,0,0,0,0,0,0,0,0,0,0,0,0,0,0,0,0,0,0,0,0,0,0,0,0,0,0,0,0,0,0,0,0,0,0],"sum_hessian":[1.8419566E2,1.468088E2,3.738686E1,7.9870766E1,6.693804E1,6.898818E0,3.0488043E1,5.4883945E1,2.4986818E1,5.2141632E1,1.4796407E1,2.4321208E0,4.466697E0,1.14084E1,1.9079643E1,4.9290004E0,4.9954945E1,6.921434E0,1.8065384E1,2.9025381E1,2.3116251E1,1.016034E1,4.636066E0,2.5055583E0,1.961139E0,8.115163E0,3.2932374E0,9.37496E0,9.704683E0,2.6146326E0,2.314368E0,4.549973E1,4.4552164E0,4.5731325E0,2.3483016E0,1.44137745E1,3.6516092E0,2.5382607E1,3.6427746E0,2.1485313E1,1.6309391E0,7.7379384E0,2.422402E0,1.0400113E0,3.5960546E0,6.2497935E0,1.8653692E0,6.2226086E0,3.4820745E0,4.280108E1,2.69865E0,1.5645059E0,2.8907104E0,2.607051E0,1.9660817E0,1.0015892E0,1.3467124E0,1.2791773E0,1.3134597E1,2.304437E0,1.3471723E0,4.057143E0,2.1325464E1,1.2166076E0,2.426167E0,1.7796336E0,1.9705679E1,5.1775227E0,2.5604155E0,1.3824844E0,4.867309E0,4.3298492E0,1.8927593E0],"tree_param":{"num_deleted":"0","num_feature":"44","num_nodes":"73","size_leaf_vector":"1"}},{"base_weights":[3.851579E-2,-5.5646706E-2,5.549962E-2],"categories":[],"categories_nodes":[],"categories_segments":[],"categories_sizes":[],"default_left":[0,0,0],"id":42,"left_children":[1,-1,-1],"loss_changes":[2.2788358E2,0E0,0E0],"parents":[2147483647,0,0],"right_children":[2,-1,-1],"split_conditions":[1E0,-5.5646706E-2,5.549962E-2],"split_indices":[6,0,0],"split_type":[0,0,0],"sum_hessian":[1.8270651E2,8.804803E1,9.465848E1],"tree_param":{"num_deleted":"0","num_feature":"44","num_nodes":"3","size_leaf_vector":"1"}},{"base_weights":[1.9043554E-2,1.3514067E-1,-5.5282056E-1,-7.06079E-2,3.519493E-1,-7.211023E-1,-8.634067E-2,8.667227E-2,-5.6155133E-1,4.913559E-1,2.4728566E-2,-7.9446256E-1,1.4112705E-2,-5.066776E-1,2.785716E-1,3.5552862E-1,-1.4425216E-2,-4.855698E-2,-1.3775311E-1,5.4250866E-1,7.140411E-2,1.3680498E-1,-3.680628E-2,4.5981803E-3,-8.631358E-1,1.1330454E-2,-3.8981672E-2,3.5989363E-2,-3.1294066E-2,-3.44896E-2,5.109672E-1,2.1969531E-1,-3.596507E-1,-3.6365356E-2,8.9257635E-2,5.881388E-1,1.0484893E-1,2.4510594E-2,-4.9333444E-1,-1.4403472E-2,5.222494E-1,-4.96875E-2,-4.8927164E-1,3.5595622E-2,1.2050471E-2,-3.2482605E-2,1.464609E-2,-4.018236E-3,-4.6729878E-2,-3.084748E-2,1.4942044E-2,1.6567847E-2,3.334743E-2,-3.1597495E-2,2.321669E-2,-3.3304345E-2,-2.5976866E-3,-2.3427095E-2,7.1648597E-3,2.9578607E-3,3.2167476E-2,-4.10312E-2,8.011285E-4],"categories":[],"categories_nodes":[],"categories_segments":[],"categories_sizes":[],"default_left":[0,0,0,0,0,0,0,0,0,0,0,0,0,0,0,0,0,0,0,0,0,0,0,0,0,0,0,0,0,0,0,0,0,0,0,0,0,0,0,0,0,0,0,0,0,0,0,0,0,0,0,0,0,0,0,0,0,0,0,0,0,0,0],"id":43,"left_children":[1,3,5,7,9,11,13,15,17,19,21,23,-1,25,27,29,31,-1,33,35,37,39,-1,-1,41,-1,-1,-1,-1,-1,43,45,47,-1,49,51,53,-1,55,57,59,-1,61,-1,-1,-1,-1,-1,-1,-1,-1,-1,-1,-1,-1,-1,-1,-1,-1,-1,-1,-1,-1],"loss_changes":[1.1643833E1,6.5221243E0,2.2615728E0,5.8834944E0,3.2306128E0,1.8155308E0,1.5191766E0,1.584245E0,3.0720015E0,1.0309772E0,2.0015047E0,1.3216944E0,0E0,1.0833194E0,2.6271012E0,2.9384112E0,3.569155E0,0E0,1.4356562E0,8.217907E-1,1.7930356E0,1.1890191E0,0E0,0E0,4.4339943E-1,0E0,0E0,0E0,0E0,0E0,6.1117077E-1,1.8678651E0,2.7878532E0,0E0,1.4106764E0,5.8533E-1,1.7220606E0,0E0,2.163406E-1,1.1795976E0,2.8377032E-1,0E0,1.1682026E0,0E0,0E0,0E0,0E0,0E0,0E0,0E0,0E0,0E0,0E0,0E0,0E0,0E0,0E0,0E0,0E0,0E0,0E0,0E0,0E0],"parents":[2147483647,0,0,1,1,2,2,3,3,4,4,5,5,6,6,7,7,8,8,9,9,10,10,11,11,13,13,14,14,15,15,16,16,18,18,19,19,20,20,21,21,24,24,30,30,31,31,32,32,34,34,35,35,36,36,38,38,39,39,40,40,42,42],"right_children":[2,4,6,8,10,12,14,16,18,20,22,24,-1,26,28,30,32,-1,34,36,38,40,-1,-1,42,-1,-1,-1,-1,-1,44,46,48,-1,50,52,54,-1,56,58,60,-1,62,-1,-1,-1,-1,-1,-1,-1,-1,-1,-1,-1,-1,-1,-1,-1,-1,-1,-1,-1,-1],"split_conditions":[3.166667E0,-3.366667E0,2.1E1,-2.52E1,4.33333E-1,4.2E0,7.933333E0,-2.692E1,5E0,6E0,2.4E0,3.7E1,1.4112705E-2,1E-1,9.333333E0,-3.413333E1,-3.35E1,-4.855698E-2,1.5E1,1.08E1,5.06E1,6E0,-3.680628E-2,4.5981803E-3,5E0,1.1330454E-2,-3.8981672E-2,3.5989363E-2,-3.1294066E-2,-3.44896E-2,-3.1566668E1,-1.1E0,4.89894E1,-3.6365356E-2,-2.0433332E1,4.81E1,-1.366667E0,2.4510594E-2,6.12E1,4.89886E1,1.6E1,-4.96875E-2,1.366667E0,3.5595622E-2,1.2050471E-2,-3.2482605E-2,1.464609E-2,-4.018236E-3,-4.6729878E-2,-3.084748E-2,1.4942044E-2,1.6567847E-2,3.334743E-2,-3.1597495E-2,2.321669E-2,-3.3304345E-2,-2.5976866E-3,-2.3427095E-2,7.1648597E-3,2.9578607E-3,3.2167476E-2,-4.10312E-2,8.011285E-4],"split_indices":[15,15,5,15,15,11,15,25,32,32,11,0,0,11,15,15,15,0,5,25,8,32,0,0,32,0,0,0,0,0,15,8,28,0,15,8,15,0,8,28,5,0,25,0,0,0,0,0,0,0,0,0,0,0,0,0,0,0,0,0,0,0,0],"split_type":[0,0,0,0,0,0,0,0,0,0,0,0,0,0,0,0,0,0,0,0,0,0,0,0,0,0,0,0,0,0,0,0,0,0,0,0,0,0,0,0,0,0,0,0,0,0,0,0,0,0,0,0,0,0,0,0,0,0,0,0,0,0,0],"sum_hessian":[1.7325539E2,1.4465244E2,2.860296E1,7.4565285E1,7.008715E1,2.0618896E1,7.9840636E0,5.7096973E1,1.7468307E1,4.8796616E1,2.1290537E1,1.9408073E1,1.2108235E0,3.5297296E0,4.454334E0,1.4915184E1,4.218179E1,8.226312E0,9.241996E0,4.323811E1,5.5585055E0,1.9271914E1,2.0186229E0,1.3710881E0,1.8036983E1,1.0035423E0,2.5261874E0,3.1310837E0,1.3232502E0,1.4857616E0,1.3429422E1,2.535231E1,1.6829481E1,1.9566557E0,7.2853403E0,3.8844387E1,4.393723E0,3.2673895E0,2.291116E0,1.4533217E1,4.7386966E0,1.2138273E1,5.8987107E0,6.760252E0,6.669171E0,1.3580203E0,2.399429E1,1.2094324E1,4.735157E0,1.2224617E0,6.0628786E0,1.0344371E1,2.8500015E1,1.1922206E0,3.2015026E0,1.2807451E0,1.0103707E0,3.2378724E0,1.1295344E1,1.2908659E0,3.4478307E0,3.18564E0,2.7130706E0],"tree_param":{"num_deleted":"0","num_feature":"44","num_nodes":"63","size_leaf_vector":"1"}},{"base_weights":[2.9538212E-2,1.3383903E-1,-4.8176095E-1,-5.272035E-2,3.2153803E-1,-6.603429E-1,-1.9724643E-1,1.3020675E-1,-5.5616814E-1,4.6586645E-1,-1.889126E-2,-1.6146244E-1,-7.8691095E-1,-5.426609E-1,2.5447415E-2,-3.6261213E-1,2.2908342E-1,3.501048E-1,-7.91532E-1,-7.1048024E-3,4.8681986E-1,3.071911E-1,-4.0853414E-1,-3.6744498E-2,2.8200233E-2,-4.8302263E-2,-2.027488E-1,1.0508154E-2,-4.009138E-2,4.7328043E-1,-4.7559333E-1,-4.4546615E-2,1.0309968E-1,6.070549E-1,1.3121869E-1,1.3893805E-3,4.412796E-1,-4.93115E-2,-3.2316548E-1,5.1112497E-1,-4.5857325E-2,-2.8125534E-2,5.4887515E-1,-5.088039E-1,1.0391038E-2,-3.186168E-2,1.0596331E-2,3.11434E-2,-3.292813E-4,-6.7155124E-3,-3.381058E-2,2.191382E-2,-1.733797E-2,-2.879177E-2,4.1200157E-2,1.5994638E-2,-2.0139031E-2,2.6795624E-2,6.585419E-3,-3.6286775E-2,2.7498014E-3,1.7967723E-2,3.0061051E-2,6.943897E-4,-4.1304543E-3,2.7686233E-2,-2.257122E-2,3.271938E-2,3.253866E-4,-3.489463E-2,-2.0102232E-3],"categories":[],"categories_nodes":[],"categories_segments":[],"categories_sizes":[],"default_left":[0,0,0,0,0,0,0,0,0,0,0,0,0,0,0,0,0,0,0,0,0,0,0,0,0,0,0,0,0,0,0,0,0,0,0,0,0,0,0,0,0,0,0,0,0,0,0,0,0,0,0,0,0,0,0,0,0,0,0,0,0,0,0,0,0,0,0,0,0,0,0],"id":44,"left_children":[1,3,5,7,9,11,13,15,17,19,21,23,25,27,29,31,33,35,37,-1,39,41,43,-1,-1,-1,45,-1,-1,47,49,-1,51,53,55,-1,57,-1,59,61,63,65,67,69,-1,-1,-1,-1,-1,-1,-1,-1,-1,-1,-1,-1,-1,-1,-1,-1,-1,-1,-1,-1,-1,-1,-1,-1,-1,-1,-1],"loss_changes":[9.216052E0,5.035367E0,1.3580809E0,6.770815E0,3.5257616E0,9.823971E-1,9.9239933E-1,2.7221894E0,4.4523745E0,7.100277E-1,2.9553602E0,2.4170442E0,1.2437E0,1.1502295E0,2.1750245E0,2.4139502E0,1.611613E0,1.2670475E-1,1.1262283E0,0E0,6.5597725E-1,1.0443358E0,7.593894E-1,0E0,0E0,0E0,9.447587E-1,0E0,0E0,3.6947107E-1,2.2414565E-1,0E0,1.0434524E0,2.8169408E0,3.9165478E0,0E0,3.5434067E-2,0E0,9.7466356E-1,4.2398548E-1,7.843459E-3,1.7940388E0,4.207573E-1,8.036654E-1,0E0,0E0,0E0,0E0,0E0,0E0,0E0,0E0,0E0,0E0,0E0,0E0,0E0,0E0,0E0,0E0,0E0,0E0,0E0,0E0,0E0,0E0,0E0,0E0,0E0,0E0,0E0],"parents":[2147483647,0,0,1,1,2,2,3,3,4,4,5,5,6,6,7,7,8,8,9,9,10,10,11,11,12,12,13,13,14,14,15,15,16,16,17,17,18,18,20,20,21,21,22,22,26,26,29,29,30,30,32,32,33,33,34,34,36,36,38,38,39,39,40,40,41,41,42,42,43,43],"right_children":[2,4,6,8,10,12,14,16,18,20,22,24,26,28,30,32,34,36,38,-1,40,42,44,-1,-1,-1,46,-1,-1,48,50,-1,52,54,56,-1,58,-1,60,62,64,66,68,70,-1,-1,-1,-1,-1,-1,-1,-1,-1,-1,-1,-1,-1,-1,-1,-1,-1,-1,-1,-1,-1,-1,-1,-1,-1,-1,-1],"split_conditions":[3.166667E0,-3.366667E0,5E0,8.2E0,5.33333E-1,4.366667E0,5E1,-3.5933334E1,-3.7666668E1,4.06E1,9E-1,4.3E0,2.2E1,3.3E1,5.6E1,4.5E0,-3.3966667E1,9.3E0,1.7E0,-7.1048024E-3,4.89948E1,4.89928E1,3.066667E0,-3.6744498E-2,2.8200233E-2,-4.8302263E-2,5E1,1.0508154E-2,-4.009138E-2,6.11E1,4.89861E1,-4.4546615E-2,1E0,6E-1,6E-1,1.3893805E-3,5.2E1,-4.93115E-2,5E0,-1.266667E0,4.42E1,4.4E1,1.933333E0,1E0,1.0391038E-2,-3.186168E-2,1.0596331E-2,3.11434E-2,-3.292813E-4,-6.7155124E-3,-3.381058E-2,2.191382E-2,-1.733797E-2,-2.879177E-2,4.1200157E-2,1.5994638E-2,-2.0139031E-2,2.6795624E-2,6.585419E-3,-3.6286775E-2,2.7498014E-3,1.7967723E-2,3.0061051E-2,6.943897E-4,-4.1304543E-3,2.7686233E-2,-2.257122E-2,3.271938E-2,3.253866E-4,-3.489463E-2,-2.0102232E-3],"split_indices":[15,15,32,8,15,15,0,15,15,8,11,15,5,0,0,14,15,14,11,0,28,28,15,0,0,0,0,0,0,8,28,0,27,8,10,0,0,0,32,15,14,0,15,27,0,0,0,0,0,0,0,0,0,0,0,0,0,0,0,0,0,0,0,0,0,0,0,0,0,0,0],"split_type":[0,0,0,0,0,0,0,0,0,0,0,0,0,0,0,0,0,0,0,0,0,0,0,0,0,0,0,0,0,0,0,0,0,0,0,0,0,0,0,0,0,0,0,0,0,0,0,0,0,0,0,0,0,0,0,0,0,0,0,0,0,0,0,0,0,0,0,0,0,0,0],"sum_hessian":[1.7060623E2,1.4231366E2,2.8292574E1,7.173415E1,7.05795E1,1.6570673E1,1.1721903E1,5.3159935E1,1.8574223E1,4.930688E1,2.1272615E1,3.8138206E0,1.2756851E1,4.031676E0,7.6902266E0,8.437687E0,4.4722248E1,3.7288203E0,1.4845403E1,1.4501239E0,4.785676E1,1.1696074E1,9.576543E0,2.1228654E0,1.6909552E0,9.2627E0,3.494151E0,1.080919E0,2.9507568E0,4.0899825E0,3.600244E0,3.5253494E0,4.912338E0,8.127883E0,3.6594364E1,1.109905E0,2.6189153E0,9.705277E0,5.140125E0,4.580712E1,2.049636E0,5.269167E0,6.426906E0,8.386677E0,1.1898652E0,1.4442275E0,2.049924E0,2.8908277E0,1.199155E0,1.9509145E0,1.6493295E0,2.8297338E0,2.0826037E0,1.003289E0,7.124594E0,2.7336653E1,9.257711E0,1.4458034E0,1.173112E0,2.0445228E0,3.095602E0,1.8921555E1,2.6885567E1,1.0175632E0,1.0320727E0,2.0892491E0,3.1799178E0,5.2073307E0,1.2195758E0,5.62683E0,2.7598472E0],"tree_param":{"num_deleted":"0","num_feature":"44","num_nodes":"71","size_leaf_vector":"1"}},{"base_weights":[2.9021898E-2,-5.5335272E-2,5.4918814E-2],"categories":[],"categories_nodes":[],"categories_segments":[],"categories_sizes":[],"default_left":[0,0,0],"id":45,"left_children":[1,-1,-1],"loss_changes":[2.0652551E2,0E0,0E0],"parents":[2147483647,0,0],"right_children":[2,-1,-1],"split_conditions":[1E0,-5.5335272E-2,5.4918814E-2],"split_indices":[6,0,0],"split_type":[0,0,0],"sum_hessian":[1.6804964E2,8.147873E1,8.657091E1],"tree_param":{"num_deleted":"0","num_feature":"44","num_nodes":"3","size_leaf_vector":"1"}},{"base_weights":[7.7884377E-4,-5.5051427E-2,5.46782E-2],"categories":[],"categories_nodes":[],"categories_segments":[],"categories_sizes":[],"default_left":[0,0,0],"id":46,"left_children":[1,-1,-1],"loss_changes":[1.9519846E2,0E0,0E0],"parents":[2147483647,0,0],"right_children":[2,-1,-1],"split_conditions":[1E0,-5.5051427E-2,5.46782E-2],"split_indices":[6,0,0],"split_type":[0,0,0],"sum_hessian":[1.601197E2,7.972697E1,8.0392746E1],"tree_param":{"num_deleted":"0","num_feature":"44","num_nodes":"3","size_leaf_vector":"1"}},{"base_weights":[6.677991E-2,-5.471433E-2,5.4359693E-2],"categories":[],"categories_nodes":[],"categories_segments":[],"categories_sizes":[],"default_left":[0,0,0],"id":47,"left_children":[1,-1,-1],"loss_changes":[1.9400372E2,0E0,0E0],"parents":[2147483647,0,0],"right_children":[2,-1,-1],"split_conditions":[1E0,-5.471433E-2,5.4359693E-2],"split_indices":[6,0,0],"split_type":[0,0,0],"sum_hessian":[1.6174406E2,7.5623886E1,8.612018E1],"tree_param":{"num_deleted":"0","num_feature":"44","num_nodes":"3","size_leaf_vector":"1"}},{"base_weights":[2.3544082E-2,-5.435867E-2,5.4034848E-2],"categories":[],"categories_nodes":[],"categories_segments":[],"categories_sizes":[],"default_left":[0,0,0],"id":48,"left_children":[1,-1,-1],"loss_changes":[1.8181761E2,0E0,0E0],"parents":[2147483647,0,0],"right_children":[2,-1,-1],"split_conditions":[1E0,-5.435867E-2,5.4034848E-2],"split_indices":[6,0,0],"split_type":[0,0,0],"sum_hessian":[1.5284348E2,7.451964E1,7.8323845E1],"tree_param":{"num_deleted":"0","num_feature":"44","num_nodes":"3","size_leaf_vector":"1"}},{"base_weights":[6.68489E-2,-5.4040898E-2,5.38548E-2],"categories":[],"categories_nodes":[],"categories_segments":[],"categories_sizes":[],"default_left":[0,0,0],"id":49,"left_children":[1,-1,-1],"loss_changes":[1.7547786E2,0E0,0E0],"parents":[2147483647,0,0],"right_children":[2,-1,-1],"split_conditions":[1E0,-5.4040898E-2,5.38548E-2],"split_indices":[6,0,0],"split_type":[0,0,0],"sum_hessian":[1.4934471E2,6.988439E1,7.946033E1],"tree_param":{"num_deleted":"0","num_feature":"44","num_nodes":"3","size_leaf_vector":"1"}},{"base_weights":[-9.212746E-4,-5.3864837E-2,5.352316E-2],"categories":[],"categories_nodes":[],"categories_segments":[],"categories_sizes":[],"default_left":[0,0,0],"id":50,"left_children":[1,-1,-1],"loss_changes":[1.5908748E2,0E0,0E0],"parents":[2147483647,0,0],"right_children":[2,-1,-1],"split_conditions":[1E0,-5.3864837E-2,5.352316E-2],"split_indices":[6,0,0],"split_type":[0,0,0],"sum_hessian":[1.3595166E2,6.781512E1,6.813654E1],"tree_param":{"num_deleted":"0","num_feature":"44","num_nodes":"3","size_leaf_vector":"1"}},{"base_weights":[-1.4266502E-2,8.5900515E-2,-5.2890134E-1,-7.4809946E-2,2.610097E-1,-2.8810748E-1,-8.1584954E-1,4.7199875E-2,-5.362397E-1,3.8845423E-1,-5.8197707E-2,-1.05317295E-1,-3.7651718E-2,-1.6944095E-2,-4.5117464E-2,2.8479964E-1,4.297717E-3,-6.615378E-1,-9.010417E-2,-8.306667E-3,4.1183266E-1,5.7393235E-1,-2.588386E-1,8.898043E-2,-3.375811E-2,3.6106363E-1,-3.005184E-3,-1.9712178E-1,1.06823854E-1,1.2928747E-3,-7.519914E-1,1.3946176E-2,-2.7096266E-2,-7.015648E-3,4.3219495E-1,8.184762E-3,3.490476E-2,-3.7134156E-2,-7.820653E-2,2.4752301E-1,-2.715723E-2,2.2502596E-2,7.928654E-3,2.0572373E-3,-2.7131973E-2,-5.689179E-3,9.199105E-3,-8.113108E-3,-4.4373237E-2,2.4327828E-2,1.0594186E-2,-1.741083E-2,1.6486943E-2,-3.191861E-3,3.0262176E-2],"categories":[],"categories_nodes":[],"categories_segments":[],"categories_sizes":[],"default_left":[0,0,0,0,0,0,0,0,0,0,0,0,0,0,0,0,0,0,0,0,0,0,0,0,0,0,0,0,0,0,0,0,0,0,0,0,0,0,0,0,0,0,0,0,0,0,0,0,0,0,0,0,0,0,0],"id":51,"left_children":[1,3,5,7,9,11,13,15,17,19,21,23,-1,-1,-1,25,27,29,31,-1,33,35,37,39,-1,41,-1,43,45,-1,47,-1,-1,-1,49,-1,-1,-1,51,53,-1,-1,-1,-1,-1,-1,-1,-1,-1,-1,-1,-1,-1,-1,-1],"loss_changes":[6.647282E0,3.060621E0,1.2163186E0,3.2414107E0,2.1354923E0,1.0226909E0,6.710529E-2,4.6868145E-1,6.1270404E-1,5.513582E-1,2.1384358E0,1.2193439E0,0E0,0E0,0E0,2.0675606E-1,8.4838915E-1,5.934787E-1,7.8388816E-1,0E0,4.6571636E-1,9.409714E-2,1.0429871E0,1.0055004E0,0E0,3.5021365E-2,0E0,1.1638005E0,4.838832E-1,0E0,5.104666E-1,0E0,0E0,0E0,3.1599665E-1,0E0,0E0,0E0,1.2484015E0,8.891027E-1,0E0,0E0,0E0,0E0,0E0,0E0,0E0,0E0,0E0,0E0,0E0,0E0,0E0,0E0,0E0],"parents":[2147483647,0,0,1,1,2,2,3,3,4,4,5,5,6,6,7,7,8,8,9,9,10,10,11,11,15,15,16,16,17,17,18,18,20,20,21,21,22,22,23,23,25,25,27,27,28,28,30,30,34,34,38,38,39,39],"right_children":[2,4,6,8,10,12,14,16,18,20,22,24,-1,-1,-1,26,28,30,32,-1,34,36,38,40,-1,42,-1,44,46,-1,48,-1,-1,-1,50,-1,-1,-1,52,54,-1,-1,-1,-1,-1,-1,-1,-1,-1,-1,-1,-1,-1,-1,-1],"split_conditions":[3.166667E0,-3.366667E0,1.3E0,1.2433333E1,5.33333E-1,4.89926E1,1.366667E0,4.89801E1,-4.066667E0,-2.134E1,4.4065685E1,1.0233333E1,-3.7651718E-2,-1.6944095E-2,-4.5117464E-2,-2.93E1,4.89893E1,-4.11E1,3.7E0,-8.306667E-3,1E-1,1.8E0,4.89886E1,7.45E1,-3.375811E-2,3.1E1,-3.005184E-3,1.4266667E1,-3.5333332E1,1.2928747E-3,-1.738E1,1.3946176E-2,-2.7096266E-2,-7.015648E-3,-4E-1,8.184762E-3,3.490476E-2,-3.7134156E-2,6.1129578E1,5E1,-2.715723E-2,2.2502596E-2,7.928654E-3,2.0572373E-3,-2.7131973E-2,-5.689179E-3,9.199105E-3,-8.113108E-3,-4.4373237E-2,2.4327828E-2,1.0594186E-2,-1.741083E-2,1.6486943E-2,-3.191861E-3,3.0262176E-2],"split_indices":[15,15,11,10,15,28,26,28,15,25,42,15,0,0,0,15,28,15,26,0,11,15,28,14,0,0,0,26,15,0,25,0,0,0,15,0,0,0,41,0,0,0,0,0,0,0,0,0,0,0,0,0,0,0,0],"split_type":[0,0,0,0,0,0,0,0,0,0,0,0,0,0,0,0,0,0,0,0,0,0,0,0,0,0,0,0,0,0,0,0,0,0,0,0,0,0,0,0,0,0,0,0,0,0,0,0,0,0,0,0,0,0,0],"sum_hessian":[1.27068306E2,1.07062965E2,2.0005337E1,5.612539E1,5.093758E1,1.1967117E1,8.03822E0,4.5098335E1,1.1027053E1,3.624837E1,1.4689207E1,9.470305E0,2.4968114E0,1.9889089E0,6.049311E0,6.0353184E0,3.9063015E1,8.232203E0,2.7948506E0,1.2192327E0,3.502914E1,3.090843E0,1.1598365E1,7.6915874E0,1.7787182E0,4.904087E0,1.1312313E0,1.2865408E1,2.6197609E1,1.0403409E0,7.1918616E0,1.7490067E0,1.0458437E0,1.036357E0,3.3992783E1,1.256785E0,1.8340579E0,2.3070574E0,9.291307E0,6.6357174E0,1.0558698E0,2.5575438E0,2.3465433E0,8.13588E0,4.7295275E0,6.66543E0,1.9532179E1,1.7540488E0,5.437813E0,2.6295818E1,7.6969647E0,5.6789494E0,3.612358E0,3.986986E0,2.6487317E0],"tree_param":{"num_deleted":"0","num_feature":"44","num_nodes":"55","size_leaf_vector":"1"}},{"base_weights":[1.5512336E-2,-5.3473856E-2,5.3180277E-2],"categories":[],"categories_nodes":[],"categories_segments":[],"categories_sizes":[],"default_left":[0,0,0],"id":52,"left_children":[1,-1,-1],"loss_changes":[1.4864955E2,0E0,0E0],"parents":[2147483647,0,0],"right_children":[2,-1,-1],"split_conditions":[1E0,-5.3473856E-2,5.3180277E-2],"split_indices":[6,0,0],"split_type":[0,0,0],"sum_hessian":[1.2871855E2,6.3236015E1,6.548254E1],"tree_param":{"num_deleted":"0","num_feature":"44","num_nodes":"3","size_leaf_vector":"1"}},{"base_weights":[1.1800419E-2,-5.3251453E-2,5.297891E-2],"categories":[],"categories_nodes":[],"categories_segments":[],"categories_sizes":[],"default_left":[0,0,0],"id":53,"left_children":[1,-1,-1],"loss_changes":[1.3839728E2,0E0,0E0],"parents":[2147483647,0,0],"right_children":[2,-1,-1],"split_conditions":[1E0,-5.3251453E-2,5.297891E-2],"split_indices":[6,0,0],"split_type":[0,0,0],"sum_hessian":[1.20662224E2,5.949803E1,6.1164192E1],"tree_param":{"num_deleted":"0","num_feature":"44","num_nodes":"3","size_leaf_vector":"1"}},{"base_weights":[5.1726665E-2,-5.3041704E-2,5.282107E-2],"categories":[],"categories_nodes":[],"categories_segments":[],"categories_sizes":[],"default_left":[0,0,0],"id":54,"left_children":[1,-1,-1],"loss_changes":[1.3804617E2,0E0,0E0],"parents":[2147483647,0,0],"right_children":[2,-1,-1],"split_conditions":[1E0,-5.3041704E-2,5.282107E-2],"split_indices":[6,0,0],"split_type":[0,0,0],"sum_hessian":[1.21497284E2,5.7627216E1,6.3870068E1],"tree_param":{"num_deleted":"0","num_feature":"44","num_nodes":"3","size_leaf_vector":"1"}},{"base_weights":[1.2157785E-2,-5.2790325E-2,5.2487303E-2],"categories":[],"categories_nodes":[],"categories_segments":[],"categories_sizes":[],"default_left":[0,0,0],"id":55,"left_children":[1,-1,-1],"loss_changes":[1.2708964E2,0E0,0E0],"parents":[2147483647,0,0],"right_children":[2,-1,-1],"split_conditions":[1E0,-5.2790325E-2,5.2487303E-2],"split_indices":[6,0,0],"split_type":[0,0,0],"sum_hessian":[1.1269055E2,5.552375E1,5.7166798E1],"tree_param":{"num_deleted":"0","num_feature":"44","num_nodes":"3","size_leaf_vector":"1"}},{"base_weights":[4.849898E-3,-5.2592415E-2,5.2286506E-2],"categories":[],"categories_nodes":[],"categories_segments":[],"categories_sizes":[],"default_left":[0,0,0],"id":56,"left_children":[1,-1,-1],"loss_changes":[1.1971573E2,0E0,0E0],"parents":[2147483647,0,0],"right_children":[2,-1,-1],"split_conditions":[1E0,-5.2592415E-2,5.2286506E-2],"split_indices":[6,0,0],"split_type":[0,0,0],"sum_hessian":[1.0684268E2,5.301326E1,5.3829426E1],"tree_param":{"num_deleted":"0","num_feature":"44","num_nodes":"3","size_leaf_vector":"1"}},{"base_weights":[2.1569856E-2,-5.2361485E-2,5.21213E-2],"categories":[],"categories_nodes":[],"categories_segments":[],"categories_sizes":[],"default_left":[0,0,0],"id":57,"left_children":[1,-1,-1],"loss_changes":[1.163371E2,0E0,0E0],"parents":[2147483647,0,0],"right_children":[2,-1,-1],"split_conditions":[1E0,-5.2361485E-2,5.21213E-2],"split_indices":[6,0,0],"split_type":[0,0,0],"sum_hessian":[1.0462409E2,5.109922E1,5.352487E1],"tree_param":{"num_deleted":"0","num_feature":"44","num_nodes":"3","size_leaf_vector":"1"}},{"base_weights":[3.3713393E-2,-5.2108657E-2,5.1881403E-2],"categories":[],"categories_nodes":[],"categories_segments":[],"categories_sizes":[],"default_left":[0,0,0],"id":58,"left_children":[1,-1,-1],"loss_changes":[1.0676902E2,0E0,0E0],"parents":[2147483647,0,0],"right_children":[2,-1,-1],"split_conditions":[1E0,-5.2108657E-2,5.1881403E-2],"split_indices":[6,0,0],"split_type":[0,0,0],"sum_hessian":[9.685002E1,4.6730858E1,5.011916E1],"tree_param":{"num_deleted":"0","num_feature":"44","num_nodes":"3","size_leaf_vector":"1"}},{"base_weights":[1.1118272E-2,-5.1915158E-2,5.1713485E-2],"categories":[],"categories_nodes":[],"categories_segments":[],"categories_sizes":[],"default_left":[0,0,0],"id":59,"left_children":[1,-1,-1],"loss_changes":[1.0158266E2,0E0,0E0],"parents":[2147483647,0,0],"right_children":[2,-1,-1],"split_conditions":[1E0,-5.1915158E-2,5.1713485E-2],"split_indices":[6,0,0],"split_type":[0,0,0],"sum_hessian":[9.260825E1,4.570991E1,4.6898342E1],"tree_param":{"num_deleted":"0","num_feature":"44","num_nodes":"3","size_leaf_vector":"1"}},{"base_weights":[-8.007409E-3,-5.1773246E-2,5.150623E-2],"categories":[],"categories_nodes":[],"categories_segments":[],"categories_sizes":[],"default_left":[0,0,0],"id":60,"left_children":[1,-1,-1],"loss_changes":[9.848612E1,0E0,0E0],"parents":[2147483647,0,0],"right_children":[2,-1,-1],"split_conditions":[1E0,-5.1773246E-2,5.150623E-2],"split_indices":[6,0,0],"split_type":[0,0,0],"sum_hessian":[9.0333336E1,4.540137E1,4.4931965E1],"tree_param":{"num_deleted":"0","num_feature":"44","num_nodes":"3","size_leaf_vector":"1"}}]},"name":"gbtree"},"learner_model_param":{"base_score":"5E-1","boost_from_average":"1","num_class":"0","num_feature":"44",