{"learner":{"attributes":{"best_iteration":"0","best_score":"1.0"},"feature_names":["temp_range_low","temp_range_high","range_width","range_center","target_month","target_day","first_yes_price","forecast_available","forecast_temp_max","model_count_available","temp_max_mean","temp_max_spread","temp_max_std","gfs_seamless_temp_max","icon_seamless_temp_max","temp_max_bucket_gap","temp_max_in_bucket","forecast_shift_mean","forecast_shift_max","forecast_shift_direction","forecast_consensus_shift","forecast_stability","models_changed_count","prob_shift","climatology_normal","climatology_anomaly","climatology_anomaly_abs","is_extreme_forecast","hours_to_resolution","is_same_day","is_next_day","season","day_of_week","market_price_change_1h","market_price_change_3h","market_price_velocity","market_price_vs_model","market_volume_signal","ensemble_mean","ensemble_std","ensemble_spread","ensemble_p10","ensemble_p90","ensemble_skew"],"feature_types":["float","float","float","float","int","int","float","float","float","int","float","float","float","float","float","float","float","float","float","float","float","float","float","float","int","float","float","float","float","float","float","int","int","float","float","float","float","float","float","float","float","float","float","float"],"gradient_booster":{"model":{"gbtree_model_param":{"num_parallel_tree":"1","num_trees":"61"},"iteration_indptr":[0,1,2,3,4,5,6,7,8,9,10,11,12,13,14,15,16,17,18,19,20,21,22,23,24,25,26,27,28,29,30,31,32,33,34,35,36,37,38,39,40,41,42,43,44,45,46,47,48,49,50,51,52,53,54,55,56,57,58,59,60,61],"tree_info":[0,0,0,0,0,0,0,0,0,0,0,0,0,0,0,0,0,0,0,0,0,0,0,0,0,0,0,0,0,0,0,0,0,0,0,0,0,0,0,0,0,0,0,0,0,0,0,0,0,0,0,0,0,0,0,0,0,0,0,0,0],"trees":[{"base_weights":[-7.732253E-2,-9.955654E-2,9.952096E-2],"categories":[],"categories_nodes":[],"categories_segments":[],"categories_sizes":[],"default_left":[0,0,0],"id":0,"left_children":[1,-1,-1],"loss_changes":[1.7184467E3,0E0,0E0],"parents":[2147483647,0,0],"right_children":[2,-1,-1],"split_conditions":[1E0,-9.955654E-2,9.952096E-2],"split_indices":[6,0,0],"split_type":[0,0,0],"sum_hessian":[4.3225E2,2.245E2,2.0775E2],"tree_param":{"num_deleted":"0","num_feature":"44","num_nodes":"3","size_leaf_vector":"1"}},{"base_weights":[-1.3317854E-2,-9.482835E-2,9.482386E-2],"categories":[],"categories_nodes":[],"categories_segments":[],"categories_sizes":[],"default_left":[0,0,0],"id":1,"left_children":[1,-1,-1],"loss_changes":[1.569451E3,0E0,0E0],"parents":[2147483647,0,0],"right_children":[2,-1,-1],"split_conditions":[1E0,-9.482835E-2,9.482386E-2],"split_indices":[6,0,0],"split_type":[0,0,0],"sum_hessian":[4.3436832E2,2.1870763E2,2.1566069E2],"tree_param":{"num_deleted":"0","num_feature":"44","num_nodes":"3","size_leaf_vector":"1"}},{"base_weights":[3.0038573E-2,-9.075483E-2,9.07698E-2],"categories":[],"categories_nodes":[],"categories_segments":[],"categories_sizes":[],"default_left":[0,0,0],"id":2,"left_children":[1,-1,-1],"loss_changes":[1.4814655E3,0E0,0E0],"parents":[2147483647,0,0],"right_children":[2,-1,-1],"split_conditions":[1E0,-9.075483E-2,9.07698E-2],"split_indices":[6,0,0],"split_type":[0,0,0],"sum_hessian":[4.477156E2,2.2016368E2,2.2755191E2],"tree_param":{"num_deleted":"0","num_feature":"44","num_nodes":"3","size_leaf_vector":"1"}},{"base_weights":[-8.3954155E-2,-3.6189842E-1,9.7851324E-1,-1.3402489E-1,-9.3804944E-1,1.2032981E0,-3.396637E-1,1.9738898E-1,-3.5103947E-1,-5.4787457E-1,-1.2625418E0,-2.7271605E-1,1.2924024E0,-7.439281E-2,6.6439867E-1,-2.500623E-2,9.385838E-1,-8.13316E-2,-2.1444374E-1,-9.6916133E-1,4.5539573E-1,-1.341255E0,-3.404509E-1,-6.2204476E-2,5.4605383E-2,1.9426052E-1,1.3359412E0,-5.8001317E-2,7.2912514E-2,3.1781173E-1,-1.049591E0,1.2283491E0,-2.7271605E-1,-7.7403516E-2,-1.2145421E-1,8.953035E-2,-1.2308879E0,-6.0263544E-2,8.7045467E-1,-8.949782E-1,-1.5163246E0,4.2593125E-2,-6.2204476E-2,5.4605383E-2,-4.822552E-2,8.522833E-1,6.956365E-2,2.2530256E-2,-6.7821376E-2,-7.983639E-2,-1.1043802E-2,9.713027E-3,7.0562616E-2,3.2452233E-2,-5.8001317E-2,6.6212595E-2,-1.0970763E-2,-5.8001317E-2,3.8586564E-2,-8.17418E-2,-3.0344931E-2,6.231544E-2,-5.2130546E-2,-1.1043802E-2,-7.645046E-2,-4.2049896E-2,-8.40582E-2,6.6212595E-2,-5.2130546E-2],"categories":[],"categories_nodes":[],"categories_segments":[],"categories_sizes":[],"default_left":[0,0,0,0,0,0,0,0,0,0,0,0,0,0,0,0,0,0,0,0,0,0,0,0,0,0,0,0,0,0,0,0,0,0,0,0,0,0,0,0,0,0,0,0,0,0,0,0,0,0,0,0,0,0,0,0,0,0,0,0,0,0,0,0,0,0,0,0,0],"id":3,"left_children":[1,3,5,7,9,11,13,15,17,19,21,23,25,-1,27,29,31,-1,33,35,37,39,41,-1,-1,43,45,-1,-1,47,49,51,53,-1,55,57,59,-1,61,63,65,-1,-1,-1,-1,67,-1,-1,-1,-1,-1,-1,-1,-1,-1,-1,-1,-1,-1,-1,-1,-1,-1,-1,-1,-1,-1,-1,-1],"loss_changes":[1.249033E2,4.3861088E1,2.6402313E1,1.7420282E1,1.1309288E1,1.0238167E1,1.6621338E1,1.5864873E1,2.5115694E1,1.9378769E1,3.2437668E0,8.126683E0,3.1379929E0,0E0,1.3170101E1,2.6640646E1,8.1292515E0,0E0,1.6325777E1,8.942177E0,1.0651098E1,2.286354E0,6.8240037E0,0E0,0E0,5.0901923E0,6.388626E-1,0E0,0E0,1.3258764E1,8.266623E0,3.149496E0,4.9282455E0,0E0,1.8073708E1,7.0756145E0,5.4666214E0,0E0,9.73056E0,6.321065E0,2.1543503E0,0E0,0E0,0E0,0E0,9.948837E0,0E0,0E0,0E0,0E0,0E0,0E0,0E0,0E0,0E0,0E0,0E0,0E0,0E0,0E0,0E0,0E0,0E0,0E0,0E0,0E0,0E0,0E0,0E0],"parents":[2147483647,0,0,1,1,2,2,3,3,4,4,5,5,6,6,7,7,8,8,9,9,10,10,11,11,12,12,14,14,15,15,16,16,18,18,19,19,20,20,21,21,22,22,25,25,26,26,29,29,30,30,31,31,32,32,34,34,35,35,36,36,38,38,39,39,40,40,45,45],"right_children":[2,4,6,8,10,12,14,16,18,20,22,24,26,-1,28,30,32,-1,34,36,38,40,42,-1,-1,44,46,-1,-1,48,50,52,54,-1,56,58,60,-1,62,64,66,-1,-1,-1,-1,68,-1,-1,-1,-1,-1,-1,-1,-1,-1,-1,-1,-1,-1,-1,-1,-1,-1,-1,-1,-1,-1,-1,-1],"split_conditions":[1E0,4.8997E1,1.84E1,9.5E0,1.02E1,1.5E0,3.01E1,6.5E0,7.5E0,8.5E0,3.34E1,2E1,3.9E1,-7.439281E-2,1.7E1,5.2E0,8.5E0,-8.13316E-2,4.89783E1,-7.3E0,9.2E0,2E0,3.55E1,-6.2204476E-2,5.4605383E-2,5E0,3.0200007E0,-5.8001317E-2,7.2912514E-2,2E1,4E0,5.8E0,4.714E-2,-7.7403516E-2,4.89789E1,2.5E0,6.5E0,-6.0263544E-2,3.5800006E0,4.89977E1,4.9399996E0,4.2593125E-2,-6.2204476E-2,5.4605383E-2,-4.822552E-2,1.7599994E0,6.956365E-2,2.2530256E-2,-6.7821376E-2,-7.983639E-2,-1.1043802E-2,9.713027E-3,7.0562616E-2,3.2452233E-2,-5.8001317E-2,6.6212595E-2,-1.0970763E-2,-5.8001317E-2,3.8586564E-2,-8.17418E-2,-3.0344931E-2,6.231544E-2,-5.2130546E-2,-1.1043802E-2,-7.645046E-2,-4.2049896E-2,-8.40582E-2,6.6212595E-2,-5.2130546E-2],"split_indices":[16,28,8,14,8,0,8,0,0,0,10,5,24,0,5,8,0,0,28,25,8,32,0,0,0,5,26,0,0,5,32,8,12,0,28,0,0,0,25,28,26,0,0,0,0,25,0,0,0,0,0,0,0,0,0,0,0,0,0,0,0,0,0,0,0,0,0,0,0],"split_type":[0,0,0,0,0,0,0,0,0,0,0,0,0,0,0,0,0,0,0,0,0,0,0,0,0,0,0,0,0,0,0,0,0,0,0,0,0,0,0,0,0,0,0,0,0,0,0,0,0,0,0,0,0,0,0,0,0,0,0,0,0,0,0,0,0,0,0,0,0],"sum_hessian":[4.2076212E2,3.3403662E2,8.672548E1,2.4024854E2,9.378809E1,7.416542E1,1.256006E1,9.510277E1,1.4514577E2,4.380484E1,4.9983253E1,4.1050243E0,7.0060394E1,5.6346903E0,6.925369E0,7.389644E1,2.1206333E1,1.2984286E1,1.3216148E2,3.0874302E1,1.2930538E1,4.563324E1,4.350011E0,2.4498653E0,1.6551589E0,2.8800917E0,6.7180305E1,1.9598923E0,4.9654765E0,5.5886925E1,1.800951E1,1.7101309E1,4.1050243E0,7.5945826E0,1.24566895E2,6.2501564E0,2.4624146E1,2.2048788E0,1.0725659E1,1.4579699E1,3.1053543E1,1.9001454E0,2.4498653E0,1.6551589E0,1.2249327E0,8.580528E0,5.8599773E1,5.2457115E1,3.4298115E0,1.0289434E1,7.7200756E0,2.8800917E0,1.4221217E1,2.145132E0,1.9598923E0,7.1106086E0,1.1745629E2,1.9598923E0,4.290264E0,1.3964232E1,1.0659914E1,9.25574E0,1.4699192E0,7.7200756E0,6.859623E0,7.2898493E0,2.3763695E1,7.1106086E0,1.4699192E0],"tree_param":{"num_deleted":"0","num_feature":"44","num_nodes":"69","size_leaf_vector":"1"}},{"base_weights":[1.8250784E-2,-8.595137E-2,8.657824E-2],"categories":[],"categories_nodes":[],"categories_segments":[],"categories_sizes":[],"default_left":[0,0,0],"id":4,"left_children":[1,-1,-1],"loss_changes":[1.3128943E3,0E0,0E0],"parents":[2147483647,0,0],"right_children":[2,-1,-1],"split_conditions":[1E0,-8.595137E-2,8.657824E-2],"split_indices":[6,0,0],"split_type":[0,0,0],"sum_hessian":[4.3908606E2,2.1801666E2,2.210694E2],"tree_param":{"num_deleted":"0","num_feature":"44","num_nodes":"3","size_leaf_vector":"1"}},{"base_weights":[-1.8950904E-2,-8.297494E-2,8.337207E-2],"categories":[],"categories_nodes":[],"categories_segments":[],"categories_sizes":[],"default_left":[0,0,0],"id":5,"left_children":[1,-1,-1],"loss_changes":[1.162907E3,0E0,0E0],"parents":[2147483647,0,0],"right_children":[2,-1,-1],"split_conditions":[1E0,-8.297494E-2,8.337207E-2],"split_indices":[6,0,0],"split_type":[0,0,0],"sum_hessian":[4.183367E2,2.1205873E2,2.0627798E2],"tree_param":{"num_deleted":"0","num_feature":"44","num_nodes":"3","size_leaf_vector":"1"}},{"base_weights":[-6.95865E-2,-8.034172E-2,8.061564E-2],"categories":[],"categories_nodes":[],"categories_segments":[],"categories_sizes":[],"default_left":[0,0,0],"id":6,"left_children":[1,-1,-1],"loss_changes":[1.058845E3,0E0,0E0],"parents":[2147483647,0,0],"right_children":[2,-1,-1],"split_conditions":[1E0,-8.034172E-2,8.061564E-2],"split_indices":[6,0,0],"split_type":[0,0,0],"sum_hessian":[4.075306E2,2.1294476E2,1.9458585E2],"tree_param":{"num_deleted":"0","num_feature":"44","num_nodes":"3","size_leaf_vector":"1"}},{"base_weights":[-2.5274806E-2,-7.793192E-2,7.8216456E-2],"categories":[],"categories_nodes":[],"categories_segments":[],"categories_sizes":[],"default_left":[0,0,0],"id":7,"left_children":[1,-1,-1],"loss_changes":[9.6690497E2,0E0,0E0],"parents":[2147483647,0,0],"right_children":[2,-1,-1],"split_conditions":[1E0,-7.793192E-2,7.8216456E-2],"split_indices":[6,0,0],"split_type":[0,0,0],"sum_hessian":[3.9468826E2,2.0090794E2,1.9378032E2],"tree_param":{"num_deleted":"0","num_feature":"44","num_nodes":"3","size_leaf_vector":"1"}},{"base_weights":[-1.8317826E-2,-7.581787E-2,7.60442E-2],"categories":[],"categories_nodes":[],"categories_segments":[],"categories_sizes":[],"default_left":[0,0,0],"id":8,"left_children":[1,-1,-1],"loss_changes":[9.112586E2,0E0,0E0],"parents":[2147483647,0,0],"right_children":[2,-1,-1],"split_conditions":[1E0,-7.581787E-2,7.60442E-2],"split_indices":[6,0,0],"split_type":[0,0,0],"sum_hessian":[3.9320517E2,1.9927458E2,1.939306E2],"tree_param":{"num_deleted":"0","num_feature":"44","num_nodes":"3","size_leaf_vector":"1"}},{"base_weights":[-6.9964263E-3,2.7279517E-1,-1.2716725E0,-7.1674585E-2,4.456704E-1,-5.5249286E-1,-1.3842274E0,6.1015683E-1,-3.3048707E-1,-6.4424664E-2,3.7919514E-2,-6.171285E-1,-7.270447E-2,1.3489996E-1,7.905187E-1,-9.132608E-2,-6.700222E-2,-5.957193E-2,4.371343E-2,-6.910223E-1,5.763908E-1,9.1778123E-1,3.891733E-1,4.7027862E-1,-7.475151E-1,-5.7167996E-2,1.6692473E-2,3.7978478E-2,-5.75021E-2,-1.7281896E-2,4.806122E-2,4.9691953E-2,2.7836338E-4,-5.6068357E-2,3.808854E-2,-6.6595435E-2,-9.00437E-3],"categories":[],"categories_nodes":[],"categories_segments":[],"categories_sizes":[],"default_left":[0,0,0,0,0,0,0,0,0,0,0,0,0,0,0,0,0,0,0,0,0,0,0,0,0,0,0,0,0,0,0,0,0,0,0,0,0],"id":9,"left_children":[1,3,5,-1,7,9,11,13,15,-1,-1,17,-1,19,21,23,-1,-1,-1,25,27,29,31,33,35,-1,-1,-1,-1,-1,-1,-1,-1,-1,-1,-1,-1],"loss_changes":[1.386623E2,9.5296906E1,4.9816284E0,0E0,3.7498825E1,1.1851522E1,2.3566132E0,2.058648E1,1.2368753E1,0E0,0E0,6.8707833E0,0E0,2.5054241E1,8.570503E0,1.6160706E1,0E0,0E0,0E0,1.1511881E1,1.4980941E1,7.575882E0,1.0158022E1,1.1863531E1,6.448473E0,0E0,0E0,0E0,0E0,0E0,0E0,0E0,0E0,0E0,0E0,0E0,0E0],"parents":[2147483647,0,0,1,1,2,2,4,4,5,5,6,6,7,7,8,8,11,11,13,13,14,14,15,15,19,19,20,20,21,21,22,22,23,23,24,24],"right_children":[2,4,6,-1,8,10,12,14,16,-1,-1,18,-1,20,22,24,-1,-1,-1,26,28,30,32,34,36,-1,-1,-1,-1,-1,-1,-1,-1,-1,-1,-1,-1],"split_conditions":[2.066667E0,-3.6E0,2.333333E0,-7.1674585E-2,8.33333E-1,1.198E1,4.89786E1,-1.333333E0,1.83E1,-6.4424664E-2,3.7919514E-2,4.89783E1,-7.270447E-2,6.5000005E0,1.5733333E1,4.89938E1,-6.700222E-2,-5.957193E-2,4.371343E-2,-1.566667E0,4.89978E1,3.9E1,-9.66667E-1,-1.366E1,1.1400006E0,-5.7167996E-2,1.6692473E-2,3.7978478E-2,-5.75021E-2,-1.7281896E-2,4.806122E-2,4.9691953E-2,2.7836338E-4,-5.6068357E-2,3.808854E-2,-6.6595435E-2,-9.00437E-3],"split_indices":[15,15,15,0,15,26,28,15,10,0,0,28,0,25,10,28,0,0,0,15,28,24,15,25,25,0,0,0,0,0,0,0,0,0,0,0,0],"split_type":[0,0,0,0,0,0,0,0,0,0,0,0,0,0,0,0,0,0,0,0,0,0,0,0,0,0,0,0,0,0,0,0,0,0,0,0,0],"sum_hessian":[3.8989172E2,3.1990222E2,6.998952E1,2.875885E1,2.9114334E2,1.0270962E1,5.9718555E1,2.4040881E2,5.073454E1,6.588758E0,3.6822038E0,5.80558E0,5.3912975E1,6.6617744E1,1.7379108E2,4.1899208E1,8.835332E0,4.336715E0,1.4688649E0,2.3008753E1,4.3608994E1,1.3097383E2,4.281723E1,2.2729391E1,1.9169817E1,1.5883011E1,7.125742E0,3.9932133E1,3.676861E0,4.1226463E0,1.2685119E2,1.6002396E1,2.6814837E1,3.0776107E0,1.9651781E1,8.780011E0,1.0389806E1],"tree_param":{"num_deleted":"0","num_feature":"44","num_nodes":"37","size_leaf_vector":"1"}},{"base_weights":[2.519201E-2,-7.311348E-2,7.330143E-2],"categories":[],"categories_nodes":[],"categories_segments":[],"categories_sizes":[],"default_left":[0,0,0],"id":10,"left_children":[1,-1,-1],"loss_changes":[8.237101E2,0E0,0E0],"parents":[2147483647,0,0],"right_children":[2,-1,-1],"split_conditions":[1E0,-7.311348E-2,7.330143E-2],"split_indices":[6,0,0],"split_type":[0,0,0],"sum_hessian":[3.8233832E2,1.88118E2,1.9422032E2],"tree_param":{"num_deleted":"0","num_feature":"44","num_nodes":"3","size_leaf_vector":"1"}},{"base_weights":[2.6396107E-2,-7.144772E-2,7.1661286E-2],"categories":[],"categories_nodes":[],"categories_segments":[],"categories_sizes":[],"default_left":[0,0,0],"id":11,"left_children":[1,-1,-1],"loss_changes":[7.768557E2,0E0,0E0],"parents":[2147483647,0,0],"right_children":[2,-1,-1],"split_conditions":[1E0,-7.144772E-2,7.1661286E-2],"split_indices":[6,0,0],"split_type":[0,0,0],"sum_hessian":[3.7742935E2,1.8550777E2,1.9192157E2],"tree_param":{"num_deleted":"0","num_feature":"44","num_nodes":"3","size_leaf_vector":"1"}},{"base_weights":[2.4439722E-2,-6.993394E-2,7.013255E-2],"categories":[],"categories_nodes":[],"categories_segments":[],"categories_sizes":[],"default_left":[0,0,0],"id":12,"left_children":[1,-1,-1],"loss_changes":[7.343371E2,0E0,0E0],"parents":[2147483647,0,0],"right_children":[2,-1,-1],"split_conditions":[1E0,-6.993394E-2,7.013255E-2],"split_indices":[6,0,0],"split_type":[0,0,0],"sum_hessian":[3.724021E2,1.8320882E2,1.8919328E2],"tree_param":{"num_deleted":"0","num_feature":"44","num_nodes":"3","size_leaf_vector":"1"}},{"base_weights":[2.059105E-2,4.0139472E-1,-8.7100625E-1,-6.575341E-2,6.1120963E-1,-4.5415187E-1,-1.2702534E0,2.6565647E-1,7.676691E-1,-2.3609626E-1,-6.28249E-2,-6.0254264E-1,-6.665048E-2,4.6395928E-1,-6.0749706E-2,7.9033434E-1,-4.320393E-2,7.7049267E-3,-6.0755163E-2,-5.481596E-2,3.874723E-2,-6.919632E-1,6.0785574E-1,8.242256E-1,-7.643332E-2,-8.537959E-1,3.1136772E-1,-5.7306346E-2,1.978775E-2,-8.073701E-3,3.8442653E-2,6.1819404E-3,4.2902835E-2,-4.8456825E-2,2.9171152E-2,7.8780055E-3,-5.9987582E-2,-5.0835013E-2,2.4586434E-2],"categories":[],"categories_nodes":[],"categories_segments":[],"categories_sizes":[],"default_left":[0,0,0,0,0,0,0,0,0,0,0,0,0,0,0,0,0,0,0,0,0,0,0,0,0,0,0,0,0,0,0,0,0,0,0,0,0,0,0],"id":13,"left_children":[1,3,5,-1,7,9,11,13,15,17,-1,19,-1,21,-1,23,-1,25,-1,-1,-1,27,29,31,33,35,37,-1,-1,-1,-1,-1,-1,-1,-1,-1,-1,-1,-1],"loss_changes":[1.23860245E2,9.285184E1,1.7594765E1,0E0,1.2146317E1,9.321E0,1.5104599E0,2.1916634E1,6.4786453E0,1.0620243E1,0E0,5.317278E0,0E0,1.1208633E1,0E0,4.6187515E0,0E0,9.836978E0,0E0,0E0,0E0,4.231585E0,7.334059E0,3.4333572E0,4.542065E0,3.618682E0,7.155054E0,0E0,0E0,0E0,0E0,0E0,0E0,0E0,0E0,0E0,0E0,0E0,0E0],"parents":[2147483647,0,0,1,1,2,2,4,4,5,5,6,6,7,7,8,8,9,9,11,11,13,13,15,15,17,17,21,21,22,22,23,23,24,24,25,25,26,26],"right_children":[2,4,6,-1,8,10,12,14,16,18,-1,20,-1,22,-1,24,-1,26,-1,-1,-1,28,30,32,34,36,38,-1,-1,-1,-1,-1,-1,-1,-1,-1,-1,-1,-1],"split_conditions":[7E-1,-3.6E0,2.333333E0,-6.575341E-2,-1.3E0,1.81E1,4.89786E1,4.89978E1,3.2938477E1,4.89988E1,-6.28249E-2,4.89783E1,-6.665048E-2,6E-1,-6.0749706E-2,2.6E0,-4.320393E-2,6.3E0,-6.0755163E-2,-5.481596E-2,3.874723E-2,1.6E1,4.89911E1,1.38E0,4.8996E1,3.9E1,8E0,-5.7306346E-2,1.978775E-2,-8.073701E-3,3.8442653E-2,6.1819404E-3,4.2902835E-2,-4.8456825E-2,2.9171152E-2,7.8780055E-3,-5.9987582E-2,-5.0835013E-2,2.4586434E-2],"split_indices":[15,15,15,0,15,13,28,28,42,28,0,28,0,13,0,11,0,13,0,0,0,5,28,26,28,24,5,0,0,0,0,0,0,0,0,0,0,0,0],"split_type":[0,0,0,0,0,0,0,0,0,0,0,0,0,0,0,0,0,0,0,0,0,0,0,0,0,0,0,0,0,0,0,0,0,0,0,0,0,0,0],"sum_hessian":[3.6277634E2,2.5459003E2,1.0818631E2,2.7156792E1,2.2743324E2,5.397181E1,5.4214497E1,7.17237E1,1.5570953E2,4.345594E1,1.0515871E1,5.568484E0,4.864601E1,6.3857895E1,7.865805E0,1.5408493E2,1.6246136E0,3.5586098E1,7.8698416E0,4.2493653E0,1.3191186E0,6.6477404E0,5.7210155E1,1.4833403E2,5.750886E0,8.802233E0,2.6783865E1,4.651757E0,1.9959836E0,9.8999605E0,4.7310196E1,7.0474496E0,1.4128659E2,2.2449887E0,3.5058973E0,2.3823407E0,6.419892E0,2.6480682E0,2.4135796E1],"tree_param":{"num_deleted":"0","num_feature":"44","num_nodes":"39","size_leaf_vector":"1"}},{"base_weights":[-4.285468E-2,2.3339073E-1,-1.0307897E0,-6.4421035E-2,3.9428285E-1,-5.455666E-1,-1.2439028E0,2.243614E-1,7.339563E-1,7.9031534E-2,-1.0087861E0,-4.5974553E-1,-6.545453E-2,3.5799247E-1,-2.0982048E-1,8.927837E-1,-4.896921E-1,-6.3664114E-1,5.1682305E-2,7.479149E-2,-6.2435478E-2,-5.0878227E-2,3.8050402E-2,-5.3155113E-2,4.0584582E-1,-5.8281075E-2,8.765889E-3,6.5922385E-1,1.0691109E0,-5.7175767E-2,2.9695684E-1,-5.5544592E-2,3.2582503E-2,3.9815444E-2,-3.6995243E-2,2.5893493E-2,-6.1293095E-3,7.2505088E-3,-5.1300664E-2,3.631993E-2,-3.6561172E-2,5.6529354E-2,3.3459829E-3,4.106906E-2,-4.9710213E-3],"categories":[],"categories_nodes":[],"categories_segments":[],"categories_sizes":[],"default_left":[0,0,0,0,0,0,0,0,0,0,0,0,0,0,0,0,0,0,0,0,0,0,0,0,0,0,0,0,0,0,0,0,0,0,0,0,0,0,0,0,0,0,0,0,0],"id":14,"left_children":[1,3,5,-1,7,9,11,13,15,17,19,21,-1,23,25,27,29,31,-1,33,-1,-1,-1,-1,35,-1,37,39,41,-1,43,-1,-1,-1,-1,-1,-1,-1,-1,-1,-1,-1,-1,-1,-1],"loss_changes":[9.397105E1,6.642381E1,7.1010513E0,0E0,1.3932137E1,7.2377644E0,2.0303345E0,9.604213E0,1.617926E1,8.489086E0,3.8053226E0,4.5151615E0,0E0,8.996914E0,8.217366E0,2.2623558E0,5.457902E0,5.1045427E0,0E0,2.6652434E0,0E0,0E0,0E0,0E0,7.3195953E0,0E0,4.7960887E0,3.669693E0,2.3546104E0,0E0,1.1856104E0,0E0,0E0,0E0,0E0,0E0,0E0,0E0,0E0,0E0,0E0,0E0,0E0,0E0,0E0],"parents":[2147483647,0,0,1,1,2,2,4,4,5,5,6,6,7,7,8,8,9,9,10,10,11,11,13,13,14,14,15,15,16,16,17,17,19,19,24,24,26,26,27,27,28,28,30,30],"right_children":[2,4,6,-1,8,10,12,14,16,18,20,22,-1,24,26,28,30,32,-1,34,-1,-1,-1,-1,36,-1,38,40,42,-1,44,-1,-1,-1,-1,-1,-1,-1,-1,-1,-1,-1,-1,-1,-1],"split_conditions":[1.666667E0,-3.6E0,2.333333E0,-6.4421035E-2,1E0,7.8E0,4.89786E1,4.89973E1,1.84E1,7.6E0,1E0,4.89783E1,-6.545453E-2,-2E-1,-1.833333E0,4.89968E1,3.01E1,2.2E0,5.1682305E-2,4.89816E1,-6.2435478E-2,-5.0878227E-2,3.8050402E-2,-5.3155113E-2,9.33333E-1,-5.8281075E-2,6E0,4.89964E1,2.66667E-1,-5.7175767E-2,1E-1,-5.5544592E-2,3.2582503E-2,3.9815444E-2,-3.6995243E-2,2.5893493E-2,-6.1293095E-3,7.2505088E-3,-5.1300664E-2,3.631993E-2,-3.6561172E-2,5.6529354E-2,3.3459829E-3,4.106906E-2,-4.9710213E-3],"split_indices":[15,15,15,0,16,13,28,28,8,8,32,28,0,13,15,28,8,11,0,28,0,0,0,0,15,0,32,28,15,0,11,0,0,0,0,0,0,0,0,0,0,0,0,0,0],"split_type":[0,0,0,0,0,0,0,0,0,0,0,0,0,0,0,0,0,0,0,0,0,0,0,0,0,0,0,0,0,0,0,0,0,0,0,0,0,0,0,0,0,0,0,0,0],"sum_hessian":[3.4244507E2,2.6821173E2,7.423334E1,2.4975063E1,2.4323668E2,2.3740393E1,5.0492947E1,1.6323766E2,7.999902E1,1.0462414E1,1.3277978E1,4.493405E0,4.5999542E1,1.24954926E2,3.828273E1,7.104757E1,8.951458E0,6.1699247E0,4.2924895E0,2.5317938E0,1.0746184E1,3.1983676E0,1.2950373E0,3.3794687E0,1.21575455E2,6.3190804E0,3.1963652E1,3.2602074E1,3.844549E1,4.6406927E0,4.3107653E0,4.61042E0,1.5595044E0,1.3546492E0,1.1771446E0,1.0032683E2,2.1248625E1,2.900462E1,2.9590318E0,3.1555172E1,1.0469023E0,3.6102768E1,2.342723E0,1.3940955E0,2.9166698E0],"tree_param":{"num_deleted":"0","num_feature":"44","num_nodes":"45","size_leaf_vector":"1"}},{"base_weights":[4.887852E-2,-6.756436E-2,6.773634E-2],"categories":[],"categories_nodes":[],"categories_segments":[],"categories_sizes":[],"default_left":[0,0,0],"id":15,"left_children":[1,-1,-1],"loss_changes":[6.5379156E2,0E0,0E0],"parents":[2147483647,0,0],"right_children":[2,-1,-1],"split_conditions":[1E0,-6.756436E-2,6.773634E-2],"split_indices":[6,0,0],"split_type":[0,0,0],"sum_hessian":[3.5557376E2,1.7157336E2,1.840004E2],"tree_param":{"num_deleted":"0","num_feature":"44","num_nodes":"3","size_leaf_vector":"1"}},{"base_weights":[2.3339728E-2,-6.640158E-2,6.6448286E-2],"categories":[],"categories_nodes":[],"categories_segments":[],"categories_sizes":[],"default_left":[0,0,0],"id":16,"left_children":[1,-1,-1],"loss_changes":[5.9790295E2,0E0,0E0],"parents":[2147483647,0,0],"right_children":[2,-1,-1],"split_conditions":[1E0,-6.640158E-2,6.6448286E-2],"split_indices":[6,0,0],"split_type":[0,0,0],"sum_hessian":[3.3687296E2,1.6552809E2,1.7134486E2],"tree_param":{"num_deleted":"0","num_feature":"44","num_nodes":"3","size_leaf_vector":"1"}},{"base_weights":[2.130915E-3,-6.5347634E-2,6.542803E-2],"categories":[],"categories_nodes":[],"categories_segments":[],"categories_sizes":[],"default_left":[0,0,0],"id":17,"left_children":[1,-1,-1],"loss_changes":[5.5823175E2,0E0,0E0],"parents":[2147483647,0,0],"right_children":[2,-1,-1],"split_conditions":[1E0,-6.5347634E-2,6.542803E-2],"split_indices":[6,0,0],"split_type":[0,0,0],"sum_hessian":[3.2440823E2,1.6203934E2,1.623689E2],"tree_param":{"num_deleted":"0","num_feature":"44","num_nodes":"3","size_leaf_vector":"1"}},{"base_weights":[4.4783123E-2,2.6451197E-1,-1.0688525E0,-6.049807E-2,4.1082755E-1,-1.4275318E-1,-1.1184872E0,5.311276E-1,-1.8255818E-1,-3.955535E-2,3.5380866E-2,-4.3531534E-1,-1.1711859E0,1.9463044E-1,6.665284E-1,1.11329965E-1,-5.7964195E-2,-4.7660604E-2,3.5380866E-2,-4.195773E-1,-6.156227E-2,-5.8223605E-1,5.650767E-1,7.8284186E-1,2.47681E-1,-5.36712E-2,3.5167646E-1,-4.6480592E-2,3.3994246E-2,2.4926273E-2,-3.5355072E-2,3.443137E-2,-4.5591418E-2,4.020321E-2,-3.5391975E-2,3.7726585E-2,-6.7518107E-3,3.241011E-2,-1.9946095E-2],"categories":[],"categories_nodes":[],"categories_segments":[],"categories_sizes":[],"default_left":[0,0,0,0,0,0,0,0,0,0,0,0,0,0,0,0,0,0,0,0,0,0,0,0,0,0,0,0,0,0,0,0,0,0,0,0,0,0,0],"id":18,"left_children":[1,3,5,-1,7,9,11,13,15,-1,-1,17,19,21,23,25,-1,-1,-1,27,-1,29,31,33,35,-1,37,-1,-1,-1,-1,-1,-1,-1,-1,-1,-1,-1,-1],"loss_changes":[7.914326E1,5.8739952E1,2.2906914E0,0E0,1.7682133E1,2.6868746E0,1.3064575E0,9.21397E0,1.2262161E1,0E0,0E0,3.755128E0,1.5709419E0,1.766953E1,6.9101944E0,9.889437E0,0E0,0E0,0E0,3.4015439E0,0E0,3.044436E0,8.165313E0,4.1650467E0,6.5335383E0,0E0,6.607188E0,0E0,0E0,0E0,0E0,0E0,0E0,0E0,0E0,0E0,0E0,0E0,0E0],"parents":[2147483647,0,0,1,1,2,2,4,4,5,5,6,6,7,7,8,8,11,11,12,12,13,13,14,14,15,15,19,19,21,21,22,22,23,23,24,24,26,26],"right_children":[2,4,6,-1,8,10,12,14,16,-1,-1,18,20,22,24,26,-1,-1,-1,28,-1,30,32,34,36,-1,38,-1,-1,-1,-1,-1,-1,-1,-1,-1,-1,-1,-1],"split_conditions":[2E0,-3.6E0,3.9E1,-6.049807E-2,8.33333E-1,5.5E0,-1.432E1,-1.3E0,5.1000004E0,-3.955535E-2,3.5380866E-2,4.5E0,4.89786E1,5.7400007E0,1.5733333E1,1.88562E-1,-5.7964195E-2,-4.7660604E-2,3.5380866E-2,4.89782E1,-6.156227E-2,-2.3E0,4.89978E1,2.5E0,-7.66667E-1,-5.36712E-2,4.89961E1,-4.6480592E-2,3.3994246E-2,2.4926273E-2,-3.5355072E-2,3.443137E-2,-4.5591418E-2,4.020321E-2,-3.5391975E-2,3.7726585E-2,-6.7518107E-3,3.241011E-2,-1.9946095E-2],"split_indices":[15,15,24,0,15,0,25,15,25,0,0,0,28,25,10,12,0,0,0,28,0,8,28,40,15,0,28,0,0,0,0,0,0,0,0,0,0,0,0],"split_type":[0,0,0,0,0,0,0,0,0,0,0,0,0,0,0,0,0,0,0,0,0,0,0,0,0,0,0,0,0,0,0,0,0,0,0,0,0,0,0],"sum_hessian":[3.2127713E2,2.6896982E2,5.2307323E1,2.362481E1,2.45345E2,2.8580008E0,4.944932E1,2.0407648E2,4.126852E1,1.6611615E0,1.1968392E0,4.2044415E0,4.524488E1,5.925465E1,1.4482182E2,3.2404354E1,8.864166E0,3.0076022E0,1.1968392E0,3.9388275E0,4.1306053E1,1.8947643E1,4.0307007E1,1.12665665E2,3.2156166E1,4.880495E0,2.7523859E1,2.79618E0,1.1426476E0,1.6524553E0,1.7295189E1,3.768795E1,2.6190557E0,1.1153833E2,1.1273308E0,1.3416519E1,1.8739649E1,1.982741E1,7.696449E0],"tree_param":{"num_deleted":"0","num_feature":"44","num_nodes":"39","size_leaf_vector":"1"}},{"base_weights":[1.3228713E-2,-6.407639E-2,6.396603E-2],"categories":[],"categories_nodes":[],"categories_segments":[],"categories_sizes":[],"default_left":[0,0,0],"id":19,"left_children":[1,-1,-1],"loss_changes":[5.026382E2,0E0,0E0],"parents":[2147483647,0,0],"right_children":[2,-1,-1],"split_conditions":[1E0,-6.407639E-2,6.396603E-2],"split_indices":[6,0,0],"split_type":[0,0,0],"sum_hessian":[3.0462112E2,1.5059966E2,1.5402145E2],"tree_param":{"num_deleted":"0","num_feature":"44","num_nodes":"3","size_leaf_vector":"1"}},{"base_weights":[1.8253818E-2,-1.6555668E-1,6.503023E-1,-9.50693E-2,-7.3947227E-1,8.0575925E-1,-4.6363127E-1,-1.7817819E-1,2.361765E-1,-1.0038927E0,-1.6585442E-1,5.5955005E-1,1.0287433E0,-5.2736677E-2,4.4283584E-1,6.0526803E-2,-4.7555876E-1,3.069939E-1,-4.0860042E-2,8.122406E-3,-5.822764E-2,1.9277091E-1,-4.2894263E-2,-1.4849041E-1,6.996599E-1,5.2773535E-2,1.5145737E-2,3.4522362E-2,5.953239E-3,1.2475866E-1,-6.94671E-1,-2.4467006E-1,-8.671808E-1,5.03133E-1,-1.9045806E-1,2.7850276E-2,-2.0225951E-1,-4.78417E-2,3.6521446E-2,7.6832247E-1,-1.0222101E-3,-4.708336E-2,8.622565E-3,-5.1705737E-2,1.2230898E-2,-5.3041723E-2,-4.5813387E-3,-2.2657815E-2,-5.8119178E-2,-8.379332E-3,2.8971685E-2,8.470718E-3,-4.726656E-2,-3.5758827E-2,1.556083E-2,1.0190873E-3,4.2145323E-2,3.4280863E-2,-3.5016924E-2],"categories":[],"categories_nodes":[],"categories_segments":[],"categories_sizes":[],"default_left":[0,0,0,0,0,0,0,0,0,0,0,0,0,0,0,0,0,0,0,0,0,0,0,0,0,0,0,0,0,0,0,0,0,0,0,0,0,0,0,0,0,0,0,0,0,0,0,0,0,0,0,0,0,0,0,0,0,0,0],"id":20,"left_children":[1,3,5,7,9,11,13,15,17,19,21,23,25,-1,27,29,31,33,-1,-1,-1,35,-1,37,39,-1,-1,-1,-1,41,43,45,47,49,51,-1,53,-1,-1,55,57,-1,-1,-1,-1,-1,-1,-1,-1,-1,-1,-1,-1,-1,-1,-1,-1,-1,-1],"loss_changes":[3.4470707E1,9.231646E0,1.1948448E1,5.7113824E0,3.6260462E0,2.6646614E0,5.193266E0,1.1755728E1,3.3642313E0,3.3591442E0,2.4206634E0,3.1040325E0,2.5797462E-1,0E0,2.5336874E-1,4.574991E0,6.449362E0,3.9823482E0,0E0,0E0,0E0,1.0913603E0,0E0,4.8343883E0,1.2238302E0,0E0,0E0,0E0,0E0,4.542656E0,2.6139915E0,5.8659735E0,2.7649117E0,1.5732102E0,3.4172688E0,0E0,1.2751824E0,0E0,0E0,1.2744551E0,2.0491433E0,0E0,0E0,0E0,0E0,0E0,0E0,0E0,0E0,0E0,0E0,0E0,0E0,0E0,0E0,0E0,0E0,0E0,0E0],"parents":[2147483647,0,0,1,1,2,2,3,3,4,4,5,5,6,6,7,7,8,8,9,9,10,10,11,11,12,12,14,14,15,15,16,16,17,17,21,21,23,23,24,24,29,29,30,30,31,31,32,32,33,33,34,34,36,36,39,39,40,40],"right_children":[2,4,6,8,10,12,14,16,18,20,22,24,26,-1,28,30,32,34,-1,-1,-1,36,-1,38,40,-1,-1,-1,-1,42,44,46,48,50,52,-1,54,-1,-1,56,58,-1,-1,-1,-1,-1,-1,-1,-1,-1,-1,-1,-1,-1,-1,-1,-1,-1,-1],"split_conditions":[1E0,3.25E1,1.84E1,2.05E1,3.38E1,4.89968E1,3.01E1,9.7E0,3.21E1,1E0,4.89975E1,3.82E0,6.7399993E0,-5.2736677E-2,2.95E1,4.89994E1,1.8E1,5E0,-4.0860042E-2,8.122406E-3,-5.822764E-2,3.65E1,-4.2894263E-2,6E0,4.89956E1,5.2773535E-2,1.5145737E-2,3.4522362E-2,5.953239E-3,6.799994E-1,4.89997E1,7.5E0,6.68E0,1E0,4.89963E1,2.7850276E-2,3.78E1,-4.78417E-2,3.6521446E-2,7E0,5E-1,-4.708336E-2,8.622565E-3,-5.1705737E-2,1.2230898E-2,-5.3041723E-2,-4.5813387E-3,-2.2657815E-2,-5.8119178E-2,-8.379332E-3,2.8971685E-2,8.470718E-3,-4.726656E-2,-3.5758827E-2,1.556083E-2,1.0190873E-3,4.2145323E-2,3.4280863E-2,-3.5016924E-2],"split_indices":[16,0,8,0,8,28,8,14,8,32,28,26,25,0,0,28,5,32,0,0,0,0,0,32,28,0,0,0,0,26,28,0,26,32,28,0,8,0,0,5,0,0,0,0,0,0,0,0,0,0,0,0,0,0,0,0,0,0,0],"split_type":[0,0,0,0,0,0,0,0,0,0,0,0,0,0,0,0,0,0,0,0,0,0,0,0,0,0,0,0,0,0,0,0,0,0,0,0,0,0,0,0,0,0,0,0,0,0,0,0,0,0,0,0,0,0,0,0,0,0,0],"sum_hessian":[2.947815E2,2.2893993E2,6.584158E1,2.049357E2,2.4004221E1,5.8021008E1,7.820572E0,1.6420029E2,4.073542E1,1.5916905E1,8.087316E0,2.92423E1,2.877871E1,4.634727E0,3.185845E0,9.152798E1,7.267231E1,3.8833263E1,1.9021552E0,1.9257143E0,1.3991191E1,5.8020234E0,2.2852924E0,4.820789E0,2.442151E1,2.7318586E1,1.4601219E0,1.1635084E0,2.0223365E0,8.5122826E1,6.4051538E0,4.6740353E1,2.5931953E1,2.7843498E1,1.0989764E1,2.8053453E0,2.9966779E0,2.4650395E0,2.3557494E0,2.2154018E1,2.267494E0,2.8414912E0,8.2281334E1,4.6307287E0,1.774425E0,6.44393E0,4.029642E1,1.1848871E1,1.4083083E1,2.7217357E0,2.5121763E1,7.9671426E0,3.0226219E0,1.3026413E0,1.6940366E0,2.1243143E0,2.0029703E1,1.1540011E0,1.1134928E0],"tree_param":{"num_deleted":"0","num_feature":"44","num_nodes":"59","size_leaf_vector":"1"}},{"base_weights":[-3.0968219E-2,-2.2356243E-1,5.8811873E-1,-1.7375162E-1,-5.6069672E-2,7.790021E-1,-4.063431E-1,-2.977832E-1,1.303831E-1,-1.3168518E-1,8.1859785E-1,-8.275733E-1,4.0019233E-2,-5.4027725E-2,-5.8663785E-1,7.206004E-1,2.1492114E-2,-3.8567696E-2,3.1500053E-2,9.0060794E-1,4.3482038E-1,2.659899E-2,-5.6002792E-2,-1.9208863E-1,3.2837966E-1,-2.8534582E-1,-8.674631E-1,4.5412164E-2,3.1776893E-1,-4.6359584E-2,9.5843084E-2,6.833483E-1,5.1939573E-2,-1.6689783E-1,6.194234E-1,3.4985957E-3,-4.193619E-2,-3.7685778E-2,2.2123175E-2,-3.2295443E-2,1.1558559E-2,-2.903801E-2,-5.8229793E-2,-3.554696E-2,4.518752E-2,1.5253033E-2,-1.1356704E-2,-1.3331758E-2,4.2901617E-2,3.227528E-2,-3.918388E-2,2.5757665E-3,3.8947005E-2],"categories":[],"categories_nodes":[],"categories_segments":[],"categories_sizes":[],"default_left":[0,0,0,0,0,0,0,0,0,0,0,0,0,0,0,0,0,0,0,0,0,0,0,0,0,0,0,0,0,0,0,0,0,0,0,0,0,0,0,0,0,0,0,0,0,0,0,0,0,0,0,0,0],"id":21,"left_children":[1,3,5,7,-1,9,11,13,15,17,19,21,-1,23,25,27,29,-1,-1,31,33,-1,-1,35,37,39,41,-1,43,-1,45,47,-1,49,51,-1,-1,-1,-1,-1,-1,-1,-1,-1,-1,-1,-1,-1,-1,-1,-1,-1,-1],"loss_changes":[3.435065E1,9.627027E0,1.32955475E1,7.932649E0,0E0,2.188614E0,6.593204E0,1.0455644E1,3.9251556E0,2.0771658E0,1.3532829E0,4.2304797E0,0E0,4.3860273E0,5.5115604E0,4.3094683E-1,3.8127954E0,0E0,0E0,6.33461E-1,1.4024076E0,0E0,0E0,1.0360341E1,3.0603755E0,6.5421896E0,2.2830505E0,0E0,3.3932688E0,0E0,3.4387527E0,3.6004486E0,0E0,2.2762983E0,7.898066E-1,0E0,0E0,0E0,0E0,0E0,0E0,0E0,0E0,0E0,0E0,0E0,0E0,0E0,0E0,0E0,0E0,0E0,0E0],"parents":[2147483647,0,0,1,1,2,2,3,3,5,5,6,6,7,7,8,8,9,9,10,10,11,11,13,13,14,14,15,15,16,16,19,19,20,20,23,23,24,24,25,25,26,26,28,28,30,30,31,31,33,33,34,34],"right_children":[2,4,6,8,-1,10,12,14,16,18,20,22,-1,24,26,28,30,-1,-1,32,34,-1,-1,36,38,40,42,-1,44,-1,46,48,-1,50,52,-1,-1,-1,-1,-1,-1,-1,-1,-1,-1,-1,-1,-1,-1,-1,-1,-1,-1],"split_conditions":[1E0,3.55E1,1.5733333E1,2.05E1,-5.6069672E-2,4.89825E1,3.27E1,8.8E0,4.89831E1,1.15E1,5.09902E-1,4.89755E1,4.0019233E-2,6.5E0,5.7400007E0,2.06E1,2.49E1,-3.8567696E-2,3.1500053E-2,4E0,2E0,2.659899E-2,-5.6002792E-2,5.2E0,6.799994E-1,4.3400006E0,1.21E1,4.5412164E-2,2.45E1,-4.6359584E-2,1.7E1,-1.8400002E1,5.1939573E-2,5E0,1E1,3.4985957E-3,-4.193619E-2,-3.7685778E-2,2.2123175E-2,-3.2295443E-2,1.1558559E-2,-2.903801E-2,-5.8229793E-2,-3.554696E-2,4.518752E-2,1.5253033E-2,-1.1356704E-2,-1.3331758E-2,4.2901617E-2,3.227528E-2,-3.918388E-2,2.5757665E-3,3.8947005E-2],"split_indices":[16,0,10,0,0,28,13,13,28,0,12,28,0,0,26,13,8,0,0,32,4,0,0,8,26,25,14,0,0,0,5,25,0,5,5,0,0,0,0,0,0,0,0,0,0,0,0,0,0,0,0,0,0],"split_type":[0,0,0,0,0,0,0,0,0,0,0,0,0,0,0,0,0,0,0,0,0,0,0,0,0,0,0,0,0,0,0,0,0,0,0,0,0,0,0,0,0,0,0,0,0,0,0,0,0,0,0,0,0],"sum_hessian":[2.8599515E2,2.1862204E2,6.737311E1,2.0826141E2,1.0360622E1,5.670538E1,1.0667731E1,1.4794691E2,6.0314503E1,2.2658548E0,5.4439526E1,8.140383E0,2.5273478E0,8.0881E1,6.706591E1,8.51942E0,5.1795086E1,1.2246739E0,1.041181E0,4.3744904E1,1.0694622E1,1.2962327E0,6.8441505E0,5.9791943E1,2.1089056E1,3.332657E1,3.373934E1,4.9561496E0,3.56327E0,2.9306672E0,4.8864418E1,1.9317732E1,2.4427172E1,2.533271E0,8.16135E0,4.3183033E1,1.6608912E1,1.4766085E0,1.9612448E1,1.9478664E1,1.3847904E1,1.86747E1,1.5064644E1,1.2157462E0,2.3475237E0,2.9688396E1,1.9176022E1,2.918684E0,1.6399048E1,1.0731615E0,1.4601096E0,2.0798075E0,6.0815434E0],"tree_param":{"num_deleted":"0","num_feature":"44","num_nodes":"53","size_leaf_vector":"1"}},{"base_weights":[1.6107427E-2,2.211741E-1,-1.0700214E0,-5.8069594E-2,3.5548532E-1,-1.6735326E-2,-1.1279091E0,4.5231956E-1,-6.689658E-2,-3.425582E-2,3.428203E-2,-4.8660174E-1,-5.9373446E-2,1.4844142E-1,5.724217E-1,1.8405432E-1,-8.163285E-1,1.1552566E-2,-4.4323307E-2,-4.5398486E-1,5.119016E-1,6.168369E-1,-5.133483E-1,3.8331962E-1,-4.978124E-2,-5.55604E-2,3.7890222E-2,3.1182363E-3,-4.4646244E-2,3.4175314E-2,-1.1202543E-2,2.1866031E-2,4.1252952E-2,-4.5067098E-2,2.6420276E-3,-4.6840355E-2,2.828217E-2],"categories":[],"categories_nodes":[],"categories_segments":[],"categories_sizes":[],"default_left":[0,0,0,0,0,0,0,0,0,0,0,0,0,0,0,0,0,0,0,0,0,0,0,0,0,0,0,0,0,0,0,0,0,0,0,0,0],"id":22,"left_children":[1,3,5,-1,7,9,11,13,15,-1,-1,17,-1,19,21,23,25,-1,-1,27,29,31,33,35,-1,-1,-1,-1,-1,-1,-1,-1,-1,-1,-1,-1,-1],"loss_changes":[6.399921E1,4.528417E1,2.763771E0,0E0,9.069822E0,2.0624225E0,1.0739784E0,6.481495E0,8.066107E0,0E0,0E0,1.7456067E0,0E0,1.168758E1,6.5185356E0,7.9855165E0,5.828488E0,0E0,0E0,4.637718E0,4.333455E0,4.2743683E0,1.2777777E0,7.3643117E0,0E0,0E0,0E0,0E0,0E0,0E0,0E0,0E0,0E0,0E0,0E0,0E0,0E0],"parents":[2147483647,0,0,1,1,2,2,4,4,5,5,6,6,7,7,8,8,11,11,13,13,14,14,15,15,16,16,19,19,20,20,21,21,22,22,23,23],"right_children":[2,4,6,-1,8,10,12,14,16,-1,-1,18,-1,20,22,24,26,-1,-1,28,30,32,34,36,-1,-1,-1,-1,-1,-1,-1,-1,-1,-1,-1,-1,-1],"split_conditions":[2.066667E0,-3.6E0,3.9E1,-5.8069594E-2,8.33333E-1,6.5E0,6E0,-1.333333E0,5.1000004E0,-3.425582E-2,3.428203E-2,-7.5799994E0,-5.9373446E-2,1.3E0,2.6E0,4.89988E1,2.033333E0,1.1552566E-2,-4.4323307E-2,2E0,4.89968E1,4.89969E1,3.01E1,-1.366E1,-4.978124E-2,-5.55604E-2,3.7890222E-2,3.1182363E-3,-4.4646244E-2,3.4175314E-2,-1.1202543E-2,2.1866031E-2,4.1252952E-2,-4.5067098E-2,2.6420276E-3,-4.6840355E-2,2.828217E-2],"split_indices":[15,15,24,0,15,1,5,15,25,0,0,25,0,11,11,28,15,0,0,32,28,28,8,25,0,0,0,0,0,0,0,0,0,0,0,0,0],"split_type":[0,0,0,0,0,0,0,0,0,0,0,0,0,0,0,0,0,0,0,0,0,0,0,0,0,0,0,0,0,0,0,0,0,0,0,0,0],"sum_hessian":[2.8527884E2,2.4064096E2,4.4637882E1,2.0630346E1,2.2001062E2,2.3926134E0,4.224527E1,1.789208E2,4.1089817E1,1.2385664E0,1.1540471E0,4.3692737E0,3.7875996E1,5.131681E1,1.27604E2,3.1347397E1,9.742418E0,1.7144518E0,2.6548219E0,1.921664E1,3.210017E1,1.23004196E2,4.5997963E0,2.7395035E1,3.952363E0,8.453013E0,1.2894049E0,9.223934E0,9.992707E0,2.6088326E1,6.011843E0,6.772025E1,5.5283947E1,2.3781614E0,2.221635E0,2.8222442E0,2.457279E1],"tree_param":{"num_deleted":"0","num_feature":"44","num_nodes":"37","size_leaf_vector":"1"}},{"base_weights":[-2.6974801E-2,-2.069623E-1,6.0082656E-1,-8.82848E-2,-4.6218243E-1,7.070968E-1,4.4652675E-3,1.0667184E-1,-2.2120464E-1,-7.989224E-3,-5.6133926E-1,4.5500287E-1,8.976371E-1,-4.80984E-2,5.922987E-1,-1.8889588E-1,5.1276356E-1,-5.2554816E-1,7.3066615E-2,-4.2319138E-2,2.325078E-1,-9.648758E-1,-4.146594E-1,5.518005E-1,-3.6658894E-2,4.7295973E-2,3.4151638E-1,4.102469E-2,6.528718E-2,1.8618092E-1,-5.5715807E-2,6.055493E-1,-2.0836286E-1,-1.6736099E-1,-5.7090934E-2,1.8395512E-1,-4.7573555E-2,5.4003906E-1,-3.0604577E-1,-5.690406E-2,-2.245672E-1,-3.0712792E-1,-5.064047E-2,-5.3493842E-2,6.2113506E-1,8.9692307E-4,3.1127144E-2,3.4834843E-2,-3.232292E-2,-4.8494942E-2,1.9749818E-2,1.5937721E-2,4.147263E-2,1.6636066E-2,-3.557062E-2,-3.9009437E-2,5.5235005E-3,2.5243878E-2,4.788416E-3,9.806116E-3,3.1216398E-2,-4.0308528E-2,1.7174317E-2,2.6276022E-2,-3.869704E-2,1.1306533E-2,-2.5121257E-2,3.3454236E-2,-3.674431E-2,4.7346905E-2,2.2403384E-2],"categories":[],"categories_nodes":[],"categories_segments":[],"categories_sizes":[],"default_left":[0,0,0,0,0,0,0,0,0,0,0,0,0,0,0,0,0,0,0,0,0,0,0,0,0,0,0,0,0,0,0,0,0,0,0,0,0,0,0,0,0,0,0,0,0,0,0,0,0,0,0,0,0,0,0,0,0,0,0,0,0,0,0,0,0,0,0,0,0,0,0],"id":23,"left_children":[1,3,5,7,9,11,13,15,17,19,21,23,25,-1,27,29,31,33,35,-1,37,39,41,43,-1,-1,45,-1,47,49,-1,51,53,55,-1,57,-1,59,61,-1,63,65,-1,67,69,-1,-1,-1,-1,-1,-1,-1,-1,-1,-1,-1,-1,-1,-1,-1,-1,-1,-1,-1,-1,-1,-1,-1,-1,-1,-1],"loss_changes":[3.0958952E1,6.405369E0,3.866438E0,3.8201404E0,3.027152E0,2.0805569E0,6.387802E0,7.3067164E0,7.869437E0,2.833503E0,2.869501E0,3.2032495E0,4.417572E-1,0E0,7.866771E-1,1.2528212E1,1.8372331E0,9.324163E0,5.3253174E0,0E0,1.9782441E0,1.5360079E0,2.4074998E0,1.001471E0,0E0,0E0,3.3805802E-1,0E0,1.8873988E0,6.687539E0,0E0,1.2069645E0,1.232721E0,4.9272814E0,0E0,1.1330483E0,0E0,9.002185E-2,1.776739E0,0E0,2.0117636E0,3.9941132E0,0E0,2.1124623E0,7.4736595E-1,0E0,0E0,0E0,0E0,0E0,0E0,0E0,0E0,0E0,0E0,0E0,0E0,0E0,0E0,0E0,0E0,0E0,0E0,0E0,0E0,0E0,0E0,0E0,0E0,0E0,0E0],"parents":[2147483647,0,0,1,1,2,2,3,3,4,4,5,5,6,6,7,7,8,8,9,9,10,10,11,11,12,12,14,14,15,15,16,16,17,17,18,18,20,20,21,21,22,22,23,23,26,26,28,28,29,29,31,31,32,32,33,33,35,35,37,37,38,38,40,40,41,41,43,43,44,44],"right_children":[2,4,6,8,10,12,14,16,18,20,22,24,26,-1,28,30,32,34,36,-1,38,40,42,44,-1,-1,46,-1,48,50,-1,52,54,56,-1,58,-1,60,62,-1,64,66,-1,68,70,-1,-1,-1,-1,-1,-1,-1,-1,-1,-1,-1,-1,-1,-1,-1,-1,-1,-1,-1,-1,-1,-1,-1,-1,-1,-1],"split_conditions":[1E0,4.89968E1,1.84E1,9.155229E0,1E0,4.89968E1,3.01E1,5.5E0,2.15E1,9.5E0,4.89976E1,4.89956E1,5.09902E-1,-4.80984E-2,6E-1,3.4E0,9.5E0,4.9200006E0,3.65E1,-4.2319138E-2,2.65E1,1.8E0,2.1E0,2.5E0,-3.6658894E-2,4.7295973E-2,6E0,4.102469E-2,3.05E1,3.3333E-2,-5.5715807E-2,7.5E0,1E-1,1.05E1,-5.7090934E-2,4.89831E1,-4.7573555E-2,4.89987E1,3.56E1,-5.690406E-2,3.05E1,4.89983E1,-5.064047E-2,-2.8E1,3.2E0,8.9692307E-4,3.1127144E-2,3.4834843E-2,-3.232292E-2,-4.8494942E-2,1.9749818E-2,1.5937721E-2,4.147263E-2,1.6636066E-2,-3.557062E-2,-3.9009437E-2,5.5235005E-3,2.5243878E-2,4.788416E-3,9.806116E-3,3.1216398E-2,-4.0308528E-2,1.7174317E-2,2.6276022E-2,-3.869704E-2,1.1306533E-2,-2.5121257E-2,3.3454236E-2,-3.674431E-2,4.7346905E-2,2.2403384E-2],"split_indices":[16,28,8,42,32,28,8,1,1,1,28,28,12,0,11,8,1,25,1,0,1,11,11,1,0,0,32,0,1,38,0,1,11,1,0,28,0,28,8,0,1,28,0,25,38,0,0,0,0,0,0,0,0,0,0,0,0,0,0,0,0,0,0,0,0,0,0,0,0,0,0],"split_type":[0,0,0,0,0,0,0,0,0,0,0,0,0,0,0,0,0,0,0,0,0,0,0,0,0,0,0,0,0,0,0,0,0,0,0,0,0,0,0,0,0,0,0,0,0,0,0,0,0,0,0,0,0,0,0,0,0,0,0,0,0,0,0,0,0,0,0,0,0,0,0],"sum_hessian":[2.718813E2,2.1182303E2,6.005826E1,1.4550777E2,6.631527E1,5.0817085E1,9.241176E0,5.906833E1,8.643943E1,1.2076912E1,5.4238358E1,2.333359E1,2.7483494E1,3.2543561E0,5.9868197E0,3.4495872E1,2.4572456E1,4.2106148E1,4.4333286E1,2.1304994E0,9.946412E0,1.2972132E1,4.1266228E1,2.2071114E1,1.2624776E0,2.4643064E1,2.8404295E0,3.7892156E0,2.1976042E0,2.5115335E1,9.380539E0,2.1913206E1,2.6592493E0,2.7433113E1,1.4673036E1,4.074391E1,3.5893734E0,6.3293777E0,3.617035E0,1.007714E1,2.8949919E0,3.6260937E1,5.0052905E0,2.2918246E0,1.9779287E1,1.8147417E0,1.0256877E0,1.1757269E0,1.0218773E0,3.2847843E0,2.183055E1,1.06699E1,1.1243307E1,1.4443192E0,1.21493E0,7.9934225E0,1.943969E1,7.764147E0,3.2979763E1,1.9007397E0,4.428638E0,1.9073011E0,1.7097338E0,1.2422726E0,1.6527191E0,9.677814E0,2.6583124E1,1.1210629E0,1.1707618E0,5.3105555E0,1.4468733E1],"tree_param":{"num_deleted":"0","num_feature":"44","num_nodes":"71","size_leaf_vector":"1"}},{"base_weights":[7.487023E-3,-6.2310666E-2,6.234461E-2],"categories":[],"categories_nodes":[],"categories_segments":[],"categories_sizes":[],"default_left":[0,0,0],"id":24,"left_children":[1,-1,-1],"loss_changes":[4.4123917E2,0E0,0E0],"parents":[2147483647,0,0],"right_children":[2,-1,-1],"split_conditions":[1E0,-6.2310666E-2,6.234461E-2],"split_indices":[6,0,0],"split_type":[0,0,0],"sum_hessian":[2.819664E2,1.401721E2,1.4179431E2],"tree_param":{"num_deleted":"0","num_feature":"44","num_nodes":"3","size_leaf_vector":"1"}},{"base_weights":[2.1818683E-3,-6.1714858E-2,6.154881E-2],"categories":[],"categories_nodes":[],"categories_segments":[],"categories_sizes":[],"default_left":[0,0,0],"id":25,"left_children":[1,-1,-1],"loss_changes":[4.1950723E2,0E0,0E0],"parents":[2147483647,0,0],"right_children":[2,-1,-1],"split_conditions":[1E0,-6.1714858E-2,6.154881E-2],"split_indices":[6,0,0],"split_type":[0,0,0],"sum_hessian":[2.741045E2,1.366228E2,1.3748169E2],"tree_param":{"num_deleted":"0","num_feature":"44","num_nodes":"3","size_leaf_vector":"1"}},{"base_weights":[-8.359184E-3,-6.090458E-2,6.0774144E-2],"categories":[],"categories_nodes":[],"categories_segments":[],"categories_sizes":[],"default_left":[0,0,0],"id":26,"left_children":[1,-1,-1],"loss_changes":[3.757364E2,0E0,0E0],"parents":[2147483647,0,0],"right_children":[2,-1,-1],"split_conditions":[1E0,-6.090458E-2,6.0774144E-2],"split_indices":[6,0,0],"split_type":[0,0,0],"sum_hessian":[2.5178648E2,1.2662552E2,1.25160965E2],"tree_param":{"num_deleted":"0","num_feature":"44","num_nodes":"3","size_leaf_vector":"1"}},{"base_weights":[3.3328705E-2,-6.030301E-2,6.0135037E-2],"categories":[],"categories_nodes":[],"categories_segments":[],"categories_sizes":[],"default_left":[0,0,0],"id":27,"left_children":[1,-1,-1],"loss_changes":[3.6866003E2,0E0,0E0],"parents":[2147483647,0,0],"right_children":[2,-1,-1],"split_conditions":[1E0,-6.030301E-2,6.0135037E-2],"split_indices":[6,0,0],"split_type":[0,0,0],"sum_hessian":[2.5236906E2,1.2250142E2,1.2986765E2],"tree_param":{"num_deleted":"0","num_feature":"44","num_nodes":"3","size_leaf_vector":"1"}},{"base_weights":[-4.9010324E-3,-5.964271E-2,5.944583E-2],"categories":[],"categories_nodes":[],"categories_segments":[],"categories_sizes":[],"default_left":[0,0,0],"id":28,"left_children":[1,-1,-1],"loss_changes":[3.4132675E2,0E0,0E0],"parents":[2147483647,0,0],"right_children":[2,-1,-1],"split_conditions":[1E0,-5.964271E-2,5.944583E-2],"split_indices":[6,0,0],"split_type":[0,0,0],"sum_hessian":[2.3867616E2,1.19632324E2,1.1904384E2],"tree_param":{"num_deleted":"0","num_feature":"44","num_nodes":"3","size_leaf_vector":"1"}},{"base_weights":[-2.4799805E-3,1.5737972E-1,-1.0384716E0,-9.9395335E-1,2.8899843E-1,-3.2280764E-1,-5.5187624E-2,-5.499055E-2,2.462135E-2,4.257234E-1,-2.5953233E-1,-3.8090866E-2,2.3289798E-2,-5.4802444E-2,5.015975E-1,1.0292232E-2,-8.652248E-1,-4.5321286E-1,6.269229E-1,5.30995E-1,-2.0874113E-1,2.4017642E-1,-4.7050297E-2,-4.29582E-3,-5.2228373E-2,1.3740008E-2,-3.359053E-2,4.06712E-2,2.9341686E-3,1.6047137E-2,3.0212505E-2,-4.2698268E-2,2.4446366E-2,-3.9481785E-2,1.907364E-2],"categories":[],"categories_nodes":[],"categories_segments":[],"categories_sizes":[],"default_left":[0,0,0,0,0,0,0,0,0,0,0,0,0,0,0,0,0,0,0,0,0,0,0,0,0,0,0,0,0,0,0,0,0,0,0],"id":29,"left_children":[1,3,5,7,9,11,-1,-1,-1,13,15,-1,-1,17,19,21,23,25,27,29,31,33,-1,-1,-1,-1,-1,-1,-1,-1,-1,-1,-1,-1,-1],"loss_changes":[3.8332047E1,3.0674658E1,1.0892067E0,3.8139572E0,1.3664884E1,1.7395735E0,0E0,0E0,0E0,5.3159084E0,6.00376E0,0E0,0E0,5.9013047E0,2.7287903E0,5.9916835E0,1.49189E0,2.3542547E0,8.0516386E-1,1.6628342E0,2.9833965E0,3.506825E0,0E0,0E0,0E0,0E0,0E0,0E0,0E0,0E0,0E0,0E0,0E0,0E0,0E0],"parents":[2147483647,0,0,1,1,2,2,3,3,4,4,5,5,9,9,10,10,13,13,14,14,15,15,16,16,17,17,18,18,19,19,20,20,21,21],"right_children":[2,4,6,8,10,12,-1,-1,-1,14,16,-1,-1,18,20,22,24,26,28,30,32,34,-1,-1,-1,-1,-1,-1,-1,-1,-1,-1,-1,-1,-1],"split_conditions":[2.333333E0,-3.033333E0,4.89786E1,2.9E1,8.33333E-1,4.89782E1,-5.5187624E-2,-5.499055E-2,2.462135E-2,-1.966667E0,4.89961E1,-3.8090866E-2,2.3289798E-2,1.225652E0,2.6E0,1.83E1,1E0,3.9E1,3.01E1,4.8989E1,4.89961E1,-1.486E1,-4.7050297E-2,-4.29582E-3,-5.2228373E-2,1.3740008E-2,-3.359053E-2,4.06712E-2,2.9341686E-3,1.6047137E-2,3.0212505E-2,-4.2698268E-2,2.4446366E-2,-3.9481785E-2,1.907364E-2],"split_indices":[15,15,28,5,15,28,0,0,0,15,28,0,0,12,40,38,32,24,8,28,28,25,0,0,0,0,0,0,0,0,0,0,0,0,0],"split_type":[0,0,0,0,0,0,0,0,0,0,0,0,0,0,0,0,0,0,0,0,0,0,0,0,0,0,0,0,0,0,0,0,0,0,0],"sum_hessian":[2.2946829E2,1.9952802E2,2.9940279E1,1.9797537E1,1.7973048E2,2.999723E0,2.6940557E1,1.8724112E1,1.0734255E0,1.4404915E2,3.568133E1,1.9488047E0,1.0509181E0,1.9681301E1,1.2436784E2,2.53648E1,1.0316532E1,1.2633369E1,7.0479317E0,1.1966785E2,4.699999E0,2.103029E1,4.3345084E0,2.2066982E0,8.109834E0,2.8580108E0,9.775359E0,4.981485E0,2.0664468E0,3.2334045E1,8.73338E1,2.325386E0,2.3746128E0,1.983732E0,1.9046558E1],"tree_param":{"num_deleted":"0","num_feature":"44","num_nodes":"35","size_leaf_vector":"1"}},{"base_weights":[3.9068025E-2,1.9888145E-1,-1.0303769E0,-5.3273983E-2,3.0184972E-1,-2.8202876E-1,-5.4813325E-2,4.2813832E-1,-1.7193587E-1,-3.493684E-2,1.6153874E-2,1.5004842E-1,5.460174E-1,-7.7287103E-3,-4.9339738E-2,-5.435736E-1,4.03531E-1,5.7589597E-1,-1.0564616E-1,1.8525921E-1,-4.8217688E-2,-5.0223906E-2,-2.7045363E-3,2.561233E-2,-4.0132694E-2,1.9209873E-2,3.3642076E-2,-3.7756667E-2,1.962637E-2,-4.323029E-2,1.5769443E-2],"categories":[],"categories_nodes":[],"categories_segments":[],"categories_sizes":[],"default_left":[0,0,0,0,0,0,0,0,0,0,0,0,0,0,0,0,0,0,0,0,0,0,0,0,0,0,0,0,0,0,0],"id":30,"left_children":[1,3,5,-1,7,9,-1,11,13,-1,-1,15,17,19,-1,21,23,25,27,29,-1,-1,-1,-1,-1,-1,-1,-1,-1,-1,-1],"loss_changes":[3.9661747E1,2.6578846E1,1.1787262E0,0E0,1.1279058E1,1.1809593E0,0E0,4.7745647E0,5.361559E0,0E0,0E0,8.216181E0,2.079319E0,6.530341E0,0E0,2.7880743E0,4.8543673E0,1.5864944E0,2.0402915E0,4.2985516E0,0E0,0E0,0E0,0E0,0E0,0E0,0E0,0E0,0E0,0E0,0E0],"parents":[2147483647,0,0,1,1,2,2,4,4,5,5,7,7,8,8,11,11,12,12,13,13,15,15,16,16,17,17,18,18,19,19],"right_children":[2,4,6,-1,8,10,-1,12,14,-1,-1,16,18,20,-1,22,24,26,28,30,-1,-1,-1,-1,-1,-1,-1,-1,-1,-1,-1],"split_conditions":[2.333333E0,-3.6E0,4.89786E1,-5.3273983E-2,7E-1,4.89779E1,-5.4813325E-2,-1.333333E0,1.8166668E1,-3.493684E-2,1.6153874E-2,7.800006E-1,2.6E0,4.89988E1,-4.9339738E-2,-1.966667E0,4.89978E1,4.89941E1,1.9E1,2.3E0,-4.8217688E-2,-5.0223906E-2,-2.7045363E-3,2.561233E-2,-4.0132694E-2,1.9209873E-2,3.3642076E-2,-3.7756667E-2,1.962637E-2,-4.323029E-2,1.5769443E-2],"split_indices":[15,15,28,0,15,28,0,15,10,0,0,25,11,28,0,15,28,28,5,13,0,0,0,0,0,0,0,0,0,0,0],"split_type":[0,0,0,0,0,0,0,0,0,0,0,0,0,0,0,0,0,0,0,0,0,0,0,0,0,0,0,0,0,0,0],"sum_hessian":[2.2986092E2,2.0068535E2,2.9175556E1,1.4408898E1,1.8627646E2,2.7882338E0,2.6387323E1,1.4714972E2,3.9126743E1,1.559527E0,1.2287067E0,4.4482777E1,1.0266694E2,3.340465E1,5.72209E0,1.1599053E1,3.2883724E1,9.827722E1,4.389713E0,2.8467922E1,4.93673E0,5.4320416E0,6.1670117E0,3.0692656E1,2.1910682E0,3.4674816E1,6.3602406E1,1.6815763E0,2.7081363E0,2.5169978E0,2.5950924E1],"tree_param":{"num_deleted":"0","num_feature":"44","num_nodes":"31","size_leaf_vector":"1"}},{"base_weights":[3.6216346E-3,-5.8918547E-2,5.8541823E-2],"categories":[],"categories_nodes":[],"categories_segments":[],"categories_sizes":[],"default_left":[0,0,0],"id":31,"left_children":[1,-1,-1],"loss_changes":[3.0788464E2,0E0,0E0],"parents":[2147483647,0,0],"right_children":[2,-1,-1],"split_conditions":[1E0,-5.8918547E-2,5.8541823E-2],"split_indices":[6,0,0],"split_type":[0,0,0],"sum_hessian":[2.2116313E2,1.09881195E2,1.1128193E2],"tree_param":{"num_deleted":"0","num_feature":"44","num_nodes":"3","size_leaf_vector":"1"}},{"base_weights":[4.2909972E-2,-5.8295645E-2,5.7954807E-2],"categories":[],"categories_nodes":[],"categories_segments":[],"categories_sizes":[],"default_left":[0,0,0],"id":32,"left_children":[1,-1,-1],"loss_changes":[2.9347705E2,0E0,0E0],"parents":[2147483647,0,0],"right_children":[2,-1,-1],"split_conditions":[1E0,-5.8295645E-2,5.7954807E-2],"split_indices":[6,0,0],"split_type":[0,0,0],"sum_hessian":[2.1550626E2,1.0343847E2,1.1206779E2],"tree_param":{"num_deleted":"0","num_feature":"44","num_nodes":"3","size_leaf_vector":"1"}},{"base_weights":[-7.953455E-3,1.3780831E-1,-1.0052763E0,-5.185898E-2,2.3212762E-1,-3.3012813E-1,-5.3494453E-2,3.391207E-1,-1.11371435E-1,-3.519491E-2,1.464565E-2,8.731808E-2,4.6054694E-1,1.7562613E-1,-7.539074E-1,-3.7968057E-1,4.5959815E-1,6.686188E-1,3.9226502E-1,3.8903138E-1,-4.5864478E-2,8.487557E-2,-5.1573116E-2,1.5022323E-2,-3.2114226E-2,-7.1733035E-3,2.590096E-2,3.8628627E-2,-9.942E-3,-3.310674E-2,2.102167E-2,-4.3358885E-2,2.8872643E-2,-3.4024965E-2,3.3117242E-2],"categories":[],"categories_nodes":[],"categories_segments":[],"categories_sizes":[],"default_left":[0,0,0,0,0,0,0,0,0,0,0,0,0,0,0,0,0,0,0,0,0,0,0,0,0,0,0,0,0,0,0,0,0,0,0],"id":33,"left_children":[1,3,5,-1,7,9,-1,11,13,-1,-1,15,17,19,21,23,25,27,29,31,-1,33,-1,-1,-1,-1,-1,-1,-1,-1,-1,-1,-1,-1,-1],"loss_changes":[3.0765934E1,2.0709682E1,8.240223E-1,0E0,6.351403E0,1.0918727E0,0E0,3.9724092E0,7.7951117E0,0E0,0E0,7.812009E0,9.923401E-1,7.2453403E0,3.1184168E0,3.7711136E0,9.514656E-1,1.9931479E0,2.3249645E0,6.515684E0,0E0,2.2897243E0,0E0,0E0,0E0,0E0,0E0,0E0,0E0,0E0,0E0,0E0,0E0,0E0,0E0],"parents":[2147483647,0,0,1,1,2,2,4,4,5,5,7,7,8,8,11,11,12,12,13,13,14,14,15,15,16,16,17,17,18,18,19,19,21,21],"right_children":[2,4,6,-1,8,10,-1,12,14,-1,-1,16,18,20,22,24,26,28,30,32,-1,34,-1,-1,-1,-1,-1,-1,-1,-1,-1,-1,-1,-1,-1],"split_conditions":[2.333333E0,-3.6E0,6E0,-5.185898E-2,6.33333E-1,5E0,-5.3494453E-2,-1.333333E0,1.0334315E1,-3.519491E-2,1.464565E-2,2.67E1,3.452447E0,4.89988E1,4.4799995E0,3.9E1,6E0,2E-1,3.9E1,3.7E0,-4.5864478E-2,1.733333E0,-5.1573116E-2,1.5022323E-2,-3.2114226E-2,-7.1733035E-3,2.590096E-2,3.8628627E-2,-9.942E-3,-3.310674E-2,2.102167E-2,-4.3358885E-2,2.8872643E-2,-3.4024965E-2,3.3117242E-2],"split_indices":[15,15,5,0,15,5,0,15,41,0,0,10,42,28,26,24,5,15,24,13,0,15,0,0,0,0,0,0,0,0,0,0,0,0,0],"split_type":[0,0,0,0,0,0,0,0,0,0,0,0,0,0,0,0,0,0,0,0,0,0,0,0,0,0,0,0,0,0,0,0,0,0,0],"sum_hessian":[2.0968361E2,1.8369748E2,2.5986124E1,1.2907325E1,1.7079016E2,2.8033068E0,2.3182817E1,1.3023677E2,4.0553394E1,1.671047E0,1.1322597E0,4.293051E1,8.730625E1,2.853466E1,1.2018734E1,1.9033932E1,2.3896582E1,1.9399416E1,6.790684E1,2.4411966E1,4.1226945E0,3.1608162E0,8.857918E0,5.261886E0,1.3772045E1,1.9819312E0,2.191465E1,1.7421106E1,1.9783102E0,1.181318E0,6.672552E1,2.714177E0,2.169779E1,1.2825347E0,1.8782815E0],"tree_param":{"num_deleted":"0","num_feature":"44","num_nodes":"35","size_leaf_vector":"1"}},{"base_weights":[4.269602E-2,-5.7804067E-2,5.7392836E-2],"categories":[],"categories_nodes":[],"categories_segments":[],"categories_sizes":[],"default_left":[0,0,0],"id":34,"left_children":[1,-1,-1],"loss_changes":[2.7623453E2,0E0,0E0],"parents":[2147483647,0,0],"right_children":[2,-1,-1],"split_conditions":[1E0,-5.7804067E-2,5.7392836E-2],"split_indices":[6,0,0],"split_type":[0,0,0],"sum_hessian":[2.0650218E2,9.9033554E1,1.0746863E2],"tree_param":{"num_deleted":"0","num_feature":"44","num_nodes":"3","size_leaf_vector":"1"}},{"base_weights":[-1.798624E-2,-5.731668E-2,5.6864925E-2],"categories":[],"categories_nodes":[],"categories_segments":[],"categories_sizes":[],"default_left":[0,0,0],"id":35,"left_children":[1,-1,-1],"loss_changes":[2.5132863E2,0E0,0E0],"parents":[2147483647,0,0],"right_children":[2,-1,-1],"split_conditions":[1E0,-5.731668E-2,5.6864925E-2],"split_indices":[6,0,0],"split_type":[0,0,0],"sum_hessian":[1.9080125E2,9.652988E1,9.427138E1],"tree_param":{"num_deleted":"0","num_feature":"44","num_nodes":"3","size_leaf_vector":"1"}},{"base_weights":[1.5452752E-2,1.7419285E-1,-8.7941754E-1,-5.0562967E-2,2.7262473E-1,-3.258746E-1,-9.8022825E-1,3.4575912E-1,-8.314404E-2,-4.1128773E-2,1.9468965E-2,-3.0848378E-1,-5.2300062E-2,2.5766296E-2,4.0696916E-1,-4.6065673E-2,1.2089438E-1,-3.228338E-2,1.0972249E-2,-4.6682592E-2,3.462181E-1,4.289776E-1,-1.3670321E-1,2.8677344E-1,-4.070079E-2,2.2487674E-2,-2.8925186E-2,1.4866406E-2,2.5343558E-2,-3.5286676E-2,1.758655E-2,2.1982491E-2,-3.662182E-2],"categories":[],"categories_nodes":[],"categories_segments":[],"categories_sizes":[],"default_left":[0,0,0,0,0,0,0,0,0,0,0,0,0,0,0,0,0,0,0,0,0,0,0,0,0,0,0,0,0,0,0,0,0],"id":36,"left_children":[1,3,5,-1,7,9,11,13,15,-1,-1,17,-1,19,21,-1,23,-1,-1,-1,25,27,29,31,-1,-1,-1,-1,-1,-1,-1,-1,-1],"loss_changes":[2.6718048E1,1.890673E1,1.2620583E0,0E0,3.8851213E0,2.403651E0,7.14571E-1,2.4013348E0,4.5713563E0,0E0,0E0,7.6684403E-1,0E0,6.730299E0,1.2946167E0,0E0,3.6231077E0,0E0,0E0,0E0,1.8256747E0,8.6982155E-1,1.5759661E0,3.3296857E0,0E0,0E0,0E0,0E0,0E0,0E0,0E0,0E0,0E0],"parents":[2147483647,0,0,1,1,2,2,4,4,5,5,6,6,7,7,8,8,11,11,13,13,14,14,16,16,20,20,21,21,22,22,23,23],"right_children":[2,4,6,-1,8,10,12,14,16,-1,-1,18,-1,20,22,-1,24,-1,-1,-1,26,28,30,32,-1,-1,-1,-1,-1,-1,-1,-1,-1],"split_conditions":[2.066667E0,-3.6E0,2.333333E0,-5.0562967E-2,8.33333E-1,1.198E1,6E0,-1.966667E0,9E0,-4.1128773E-2,1.9468965E-2,5E0,-5.2300062E-2,5.7400007E0,2.6E0,-4.6065673E-2,1.396E1,-3.228338E-2,1.0972249E-2,-4.6682592E-2,4.89978E1,4.89949E1,1.9E1,4.89988E1,-4.070079E-2,2.2487674E-2,-2.8925186E-2,1.4866406E-2,2.5343558E-2,-3.5286676E-2,1.758655E-2,2.1982491E-2,-3.662182E-2],"split_indices":[15,15,15,0,15,26,5,15,5,0,0,5,0,25,11,0,26,0,0,0,28,28,5,28,0,0,0,0,0,0,0,0,0],"split_type":[0,0,0,0,0,0,0,0,0,0,0,0,0,0,0,0,0,0,0,0,0,0,0,0,0,0,0,0,0,0,0,0,0],"sum_hessian":[1.8600827E2,1.5866772E2,2.7340555E1,1.1453631E1,1.472141E2,4.8641977E0,2.2476357E1,1.2213522E2,2.5078863E1,2.7821293E0,2.0820682E0,2.511931E0,1.9964426E1,1.9839514E1,1.02295715E2,4.2215924E0,2.0857271E1,1.3967912E0,1.1151397E0,4.488275E0,1.5351239E1,9.851854E1,3.777172E0,1.830306E1,2.5542111E0,1.4267437E1,1.0838023E0,3.8413025E1,6.0105515E1,1.539154E0,2.238018E0,1.6410242E1,1.8928176E0],"tree_param":{"num_deleted":"0","num_feature":"44","num_nodes":"33","size_leaf_vector":"1"}},{"base_weights":[-5.6723165E-3,-5.6866225E-2,5.6256242E-2],"categories":[],"categories_nodes":[],"categories_segments":[],"categories_sizes":[],"default_left":[0,0,0],"id":37,"left_children":[1,-1,-1],"loss_changes":[2.3594817E2,0E0,0E0],"parents":[2147483647,0,0],"right_children":[2,-1,-1],"split_conditions":[1E0,-5.6866225E-2,5.6256242E-2],"split_indices":[6,0,0],"split_type":[0,0,0],"sum_hessian":[1.8238223E2,9.115377E1,9.122846E1],"tree_param":{"num_deleted":"0","num_feature":"44","num_nodes":"3","size_leaf_vector":"1"}},{"base_weights":[2.996557E-2,-5.643019E-2,5.5963017E-2],"categories":[],"categories_nodes":[],"categories_segments":[],"categories_sizes":[],"default_left":[0,0,0],"id":38,"left_children":[1,-1,-1],"loss_changes":[2.2669867E2,0E0,0E0],"parents":[2147483647,0,0],"right_children":[2,-1,-1],"split_conditions":[1E0,-5.643019E-2,5.5963017E-2],"split_indices":[6,0,0],"split_type":[0,0,0],"sum_hessian":[1.7763014E2,8.606048E1,9.156966E1],"tree_param":{"num_deleted":"0","num_feature":"44","num_nodes":"3","size_leaf_vector":"1"}},{"base_weights":[1.9698236E-2,1.6404298E-1,-9.677268E-1,-4.920065E-2,2.5044027E-1,-9.1281375E-3,-5.1583897E-2,3.305852E-1,-1.3382946E-1,1.4355725E-1,4.1334188E-1,1.5205823E-1,-5.4110175E-1,-4.3073335E-1,4.1619226E-1,5.3976244E-1,2.7784124E-1,5.95718E-1,-2.4528277E-1,-6.4056224E-1,1.0198376E-2,3.5205465E-3,-4.7360417E-2,2.4049722E-2,-2.8291324E-2,1.8834474E-2,3.4676123E-2,-3.7860867E-2,1.7286142E-2,5.516051E-4,3.7873466E-2,-4.4116072E-2,1.8941207E-2,-1.012526E-2,-4.5734778E-2],"categories":[],"categories_nodes":[],"categories_segments":[],"categories_sizes":[],"default_left":[0,0,0,0,0,0,0,0,0,0,0,0,0,0,0,0,0,0,0,0,0,0,0,0,0,0,0,0,0,0,0,0,0,0,0],"id":39,"left_children":[1,3,5,-1,7,-1,-1,9,11,13,15,17,19,21,23,25,27,29,31,33,-1,-1,-1,-1,-1,-1,-1,-1,-1,-1,-1,-1,-1,-1,-1],"loss_changes":[2.4629978E1,1.518923E1,9.184456E-1,0E0,4.3836784E0,0E0,0E0,1.7496386E0,2.9963665E0,6.0325084E0,1.228858E0,2.8760428E0,9.118576E-1,3.308696E0,1.9176888E0,7.562704E-1,3.1362824E0,7.1117616E-1,3.8638647E0,9.606128E-1,0E0,0E0,0E0,0E0,0E0,0E0,0E0,0E0,0E0,0E0,0E0,0E0,0E0,0E0,0E0],"parents":[2147483647,0,0,1,1,2,2,4,4,7,7,8,8,9,9,10,10,11,11,12,12,13,13,14,14,15,15,16,16,17,17,18,18,19,19],"right_children":[2,4,6,-1,8,-1,-1,10,12,14,16,18,20,22,24,26,28,30,32,34,-1,-1,-1,-1,-1,-1,-1,-1,-1,-1,-1,-1,-1,-1,-1],"split_conditions":[2.066667E0,-3.6E0,4.89786E1,-4.920065E-2,8.33333E-1,-9.1281375E-3,-5.1583897E-2,-1.333333E0,4.89938E1,5.7400007E0,2.6E-1,4.94E0,2.6E0,2E0,4.89978E1,-7.3E0,5.566667E0,1.266667E0,5E0,3.5799994E0,1.0198376E-2,3.5205465E-3,-4.7360417E-2,2.4049722E-2,-2.8291324E-2,1.8834474E-2,3.4676123E-2,-3.7860867E-2,1.7286142E-2,5.516051E-4,3.7873466E-2,-4.4116072E-2,1.8941207E-2,-1.012526E-2,-4.5734778E-2],"split_indices":[15,15,28,0,15,0,0,15,28,25,25,26,11,32,28,25,10,15,32,26,0,0,0,0,0,0,0,0,0,0,0,0,0,0,0],"split_type":[0,0,0,0,0,0,0,0,0,0,0,0,0,0,0,0,0,0,0,0,0,0,0,0,0,0,0,0,0,0,0,0,0,0,0],"sum_hessian":[1.7069221E2,1.4964983E2,2.104239E1,9.7466E0,1.3990323E2,1.8751248E0,1.9167267E1,1.1587545E2,2.4027777E1,3.6383766E1,7.9491684E1,1.4485923E1,9.541854E0,1.1525677E1,2.485809E1,3.9580273E1,3.9911415E1,6.6081676E0,7.877755E0,8.541853E0,1.000001E0,6.2879977E0,5.237679E0,2.3797895E1,1.0601941E0,2.0882647E1,1.8697626E1,1.8313911E0,3.808002E1,1.6634526E0,4.944715E0,3.6937423E0,4.1840124E0,3.9571517E0,4.5847015E0],"tree_param":{"num_deleted":"0","num_feature":"44","num_nodes":"35","size_leaf_vector":"1"}},{"base_weights":[-8.299484E-4,-5.5955566E-2,5.5417437E-2],"categories":[],"categories_nodes":[],"categories_segments":[],"categories_sizes":[],"default_left":[0,0,0],"id":40,"left_children":[1,-1,-1],"loss_changes":[2.0189078E2,0E0,0E0],"parents":[2147483647,0,0],"right_children":[2,-1,-1],"split_conditions":[1E0,-5.5955566E-2,5.5417437E-2],"split_indices":[6,0,0],"split_type":[0,0,0],"sum_hessian":[1.6076607E2,8.005008E1,8.071598E1],"tree_param":{"num_deleted":"0","num_feature":"44","num_nodes":"3","size_leaf_vector":"1"}},{"base_weights":[-6.847477E-3,1.1828934E-1,-9.406185E-1,-4.8330612E-2,1.9897006E-1,-1.0438467E-2,-5.05489E-2,2.833921E-1,-2.0266664E-1,-2.8613303E-2,2.971124E-1,3.3013497E-2,-7.3088646E-1,2.4267639E-1,5.1991904E-1,-6.3982356E-1,3.369537E-1,-2.2232141E-4,-4.5467637E-2,-2.445853E-2,1.46171665E-2,-3.715471E-3,2.8799403E-2,4.615787E-3,-4.344227E-2,2.8359806E-2,-3.4583785E-2],"categories":[],"categories_nodes":[],"categories_segments":[],"categories_sizes":[],"default_left":[0,0,0,0,0,0,0,0,0,0,0,0,0,0,0,0,0,0,0,0,0,0,0,0,0,0,0],"id":41,"left_children":[1,3,5,-1,7,-1,-1,9,11,-1,13,15,17,19,21,23,25,-1,-1,-1,-1,-1,-1,-1,-1,-1,-1],"loss_changes":[1.858208E1,1.2471289E1,7.565937E-1,0E0,4.5128465E0,0E0,0E0,1.4496183E0,2.9379225E0,0E0,1.1829214E0,3.721021E0,9.377487E-1,3.3640828E0,7.1972513E-1,1.0323985E0,3.3438675E0,0E0,0E0,0E0,0E0,0E0,0E0,0E0,0E0,0E0,0E0],"parents":[2147483647,0,0,1,1,2,2,4,4,7,7,8,8,10,10,11,11,12,12,13,13,14,14,15,15,16,16],"right_children":[2,4,6,-1,8,-1,-1,10,12,-1,14,16,18,20,22,24,26,-1,-1,-1,-1,-1,-1,-1,-1,-1,-1],"split_conditions":[2.333333E0,-3.6E0,4.89786E1,-4.8330612E-2,1E0,-1.0438467E-2,-5.05489E-2,-9E-1,4.89961E1,-2.8613303E-2,3.15E1,1.5E1,1E0,-2.3E0,6E0,-1.24E1,1.81E1,-2.2232141E-4,-4.5467637E-2,-2.445853E-2,1.46171665E-2,-3.715471E-3,2.8799403E-2,4.615787E-3,-4.344227E-2,2.8359806E-2,-3.4583785E-2],"split_indices":[15,15,28,0,15,0,0,8,28,0,1,5,32,15,5,25,13,0,0,0,0,0,0,0,0,0,0],"split_type":[0,0,0,0,0,0,0,0,0,0,0,0,0,0,0,0,0,0,0,0,0,0,0,0,0,0,0],"sum_hessian":[1.5707405E2,1.3928188E2,1.7792166E1,8.88091E0,1.3040097E2,1.9084499E0,1.5883716E1,1.079953E2,2.240567E1,1.0618876E0,1.0693342E2,1.6141281E1,6.264387E0,8.761624E1,1.9317177E1,4.678755E0,1.1462527E1,1.4376014E0,4.826786E0,5.0058312E0,8.2610405E1,1.6374884E0,1.7679688E1,1.2570664E0,3.4216883E0,9.732624E0,1.7299037E0],"tree_param":{"num_deleted":"0","num_feature":"44","num_nodes":"27","size_leaf_vector":"1"}},{"base_weights":[3.762663E-2,-5.563561E-2,5.4971166E-2],"categories":[],"categories_nodes":[],"categories_segments":[],"categories_sizes":[],"default_left":[0,0,0],"id":42,"left_children":[1,-1,-1],"loss_changes":[1.9467082E2,0E0,0E0],"parents":[2147483647,0,0],"right_children":[2,-1,-1],"split_conditions":[1E0,-5.563561E-2,5.4971166E-2],"split_indices":[6,0,0],"split_type":[0,0,0],"sum_hessian":[1.573784E2,7.55166E1,8.186181E1],"tree_param":{"num_deleted":"0","num_feature":"44","num_nodes":"3","size_leaf_vector":"1"}},{"base_weights":[-2.6341373E-2,9.437387E-2,-5.01256E-2,-7.839406E-1,1.898979E-1,-4.7738425E-2,-2.730786E-1,2.7833593E-1,-1.5757893E-1,1.2171417E-2,-3.6124673E-2,1.8800935E-1,4.5964763E-1,7.717248E-2,-6.0806584E-1,3.0327175E-4,3.5022828E-1,-9.6488506E-2,6.285437E-1,-4.2883366E-1,4.5628798E-1,-1.58129E-1,-4.3902095E-2,-8.813915E-3,1.5181656E-2,2.1196637E-2,-3.6308203E-2,2.6369143E-2,-4.229119E-2,3.4743883E-2,-1.0753125E-2,-3.2128006E-2,2.7279214E-3,-9.329924E-3,3.0643225E-2,1.3245813E-2,-3.208777E-2],"categories":[],"categories_nodes":[],"categories_segments":[],"categories_sizes":[],"default_left":[0,0,0,0,0,0,0,0,0,0,0,0,0,0,0,0,0,0,0,0,0,0,0,0,0,0,0,0,0,0,0,0,0,0,0,0,0],"id":43,"left_children":[1,3,-1,5,7,-1,9,11,13,-1,-1,15,17,19,21,23,25,27,29,31,33,35,-1,-1,-1,-1,-1,-1,-1,-1,-1,-1,-1,-1,-1,-1,-1],"loss_changes":[1.7359118E1,1.1164945E1,0E0,8.8025475E-1,3.7076836E0,0E0,1.2615104E0,1.4759526E0,2.6724315E0,0E0,0E0,1.9903269E0,2.9753036E0,3.496955E0,9.079926E-1,1.7302682E0,3.0896358E0,4.2305965E0,1.4888344E0,8.498373E-1,1.1534348E0,1.080764E0,0E0,0E0,0E0,0E0,0E0,0E0,0E0,0E0,0E0,0E0,0E0,0E0,0E0,0E0,0E0],"parents":[2147483647,0,0,1,1,3,3,4,4,6,6,7,7,8,8,11,11,12,12,13,13,14,14,15,15,16,16,17,17,18,18,19,19,20,20,21,21],"right_children":[2,4,-1,6,8,-1,10,12,14,-1,-1,16,18,20,22,24,26,28,30,32,34,36,-1,-1,-1,-1,-1,-1,-1,-1,-1,-1,-1,-1,-1,-1,-1],"split_conditions":[2.333333E0,-3.033333E0,-5.01256E-2,-3.6E0,8.33333E-1,-4.7738425E-2,-3.366667E0,4.89972E1,4.89955E1,1.2171417E-2,-3.6124673E-2,1E0,-9.66667E-1,4.89877E1,1.266667E0,3.3333E-2,4.33333E-1,4.89978E1,1.5E0,1.933333E0,5.266667E0,1.4E1,-4.3902095E-2,-8.813915E-3,1.5181656E-2,2.1196637E-2,-3.6308203E-2,2.6369143E-2,-4.229119E-2,3.4743883E-2,-1.0753125E-2,-3.2128006E-2,2.7279214E-3,-9.329924E-3,3.0643225E-2,1.3245813E-2,-3.208777E-2],"split_indices":[15,15,0,15,15,0,15,28,28,0,0,27,15,28,15,15,15,28,11,15,10,5,0,0,0,0,0,0,0,0,0,0,0,0,0,0,0],"split_type":[0,0,0,0,0,0,0,0,0,0,0,0,0,0,0,0,0,0,0,0,0,0,0,0,0,0,0,0,0,0,0,0,0,0,0,0,0],"sum_hessian":[1.4550969E2,1.3029987E2,1.5209823E1,1.2074231E1,1.1822563E2,8.397307E0,3.6769238E0,9.439873E1,2.3826906E1,1.924018E0,1.7529057E0,6.436837E1,3.0030355E1,1.6208994E1,7.6179123E0,3.0304468E1,3.4063904E1,7.095432E0,2.2934925E1,6.8864684E0,9.322525E0,3.4514716E0,4.1664405E0,1.9418795E1,1.0885673E1,3.244821E1,1.6156914E0,4.033486E0,3.0619457E0,2.1426434E1,1.5084903E0,4.546854E0,2.3396144E0,1.7882838E0,7.534241E0,2.0822675E0,1.369204E0],"tree_param":{"num_deleted":"0","num_feature":"44","num_nodes":"37","size_leaf_vector":"1"}},{"base_weights":[-2.1725362E-2,8.7303996E-2,-9.068261E-1,-4.7272954E-2,1.6036542E-1,-8.601335E-3,-4.942837E-2,2.186893E-1,-2.3307876E-1,-3.0889837E-2,2.3434769E-1,-4.5570925E-2,1.3853216E-1,2.577706E-1,-2.3992614E-1,4.233476E-1,-3.696593E-2,5.338859E-3,1.583972E-2,1.21745765E-2,-2.6022589E-2,3.110968E-2,-2.7980035E-2],"categories":[],"categories_nodes":[],"categories_segments":[],"categories_sizes":[],"default_left":[0,0,0,0,0,0,0,0,0,0,0,0,0,0,0,0,0,0,0,0,0,0,0],"id":44,"left_children":[1,3,5,-1,7,-1,-1,9,11,-1,13,-1,15,17,19,21,-1,-1,-1,-1,-1,-1,-1],"loss_changes":[1.4054802E1,9.94957E0,7.8920937E-1,0E0,2.8534448E0,0E0,0E0,1.5446467E0,4.2227497E0,0E0,1.2353578E0,0E0,3.1550815E0,8.676243E-1,8.71162E-1,2.149984E0,0E0,0E0,0E0,0E0,0E0,0E0,0E0],"parents":[2147483647,0,0,1,1,2,2,4,4,7,7,8,8,10,10,12,12,13,13,14,14,15,15],"right_children":[2,4,6,-1,8,-1,-1,10,12,-1,14,-1,16,18,20,22,-1,-1,-1,-1,-1,-1,-1],"split_conditions":[2.333333E0,-3.433333E0,4.89786E1,-4.7272954E-2,1.3E0,-8.601335E-3,-4.942837E-2,-1.33333E-1,1.5E1,-3.0889837E-2,3.1370998E1,-4.5570925E-2,4.89961E1,-1.166667E0,3E-1,1.55E1,-3.696593E-2,5.338859E-3,1.583972E-2,1.21745765E-2,-2.6022589E-2,3.110968E-2,-2.7980035E-2],"split_indices":[15,15,28,0,15,0,0,10,5,0,41,0,28,15,11,0,0,0,0,0,0,0,0],"split_type":[0,0,0,0,0,0,0,0,0,0,0,0,0,0,0,0,0,0,0,0,0,0,0],"sum_hessian":[1.4382227E2,1.2885133E2,1.4970931E1,7.72425E0,1.2112708E2,1.8094766E0,1.3161454E1,1.05876236E2,1.5250849E1,1.2388897E0,1.04637344E2,4.8836336E0,1.0367215E1,1.0014785E2,4.4894958E0,8.218499E0,2.1487162E0,2.8935286E1,7.121256E1,1.6970538E0,2.792442E0,7.1409335E0,1.0775652E0],"tree_param":{"num_deleted":"0","num_feature":"44","num_nodes":"23","size_leaf_vector":"1"}},{"base_weights":[9.301158E-3,-5.5222988E-2,5.452908E-2],"categories":[],"categories_nodes":[],"categories_segments":[],"categories_sizes":[],"default_left":[0,0,0],"id":45,"left_children":[1,-1,-1],"loss_changes":[1.7262848E2,0E0,0E0],"parents":[2147483647,0,0],"right_children":[2,-1,-1],"split_conditions":[1E0,-5.5222988E-2,5.452908E-2],"split_indices":[6,0,0],"split_type":[0,0,0],"sum_hessian":[1.413447E2,6.9616035E1,7.172867E1],"tree_param":{"num_deleted":"0","num_feature":"44","num_nodes":"3","size_leaf_vector":"1"}},{"base_weights":[9.37673E-3,-5.4915298E-2,5.418855E-2],"categories":[],"categories_nodes":[],"categories_segments":[],"categories_sizes":[],"default_left":[0,0,0],"id":46,"left_children":[1,-1,-1],"loss_changes":[1.6666728E2,0E0,0E0],"parents":[2147483647,0,0],"right_children":[2,-1,-1],"split_conditions":[1E0,-5.4915298E-2,5.418855E-2],"split_indices":[6,0,0],"split_type":[0,0,0],"sum_hessian":[1.3804599E2,6.795906E1,7.008692E1],"tree_param":{"num_deleted":"0","num_feature":"44","num_nodes":"3","size_leaf_vector":"1"}},{"base_weights":[-3.871372E-2,-5.475346E-2,5.389854E-2],"categories":[],"categories_nodes":[],"categories_segments":[],"categories_sizes":[],"default_left":[0,0,0],"id":47,"left_children":[1,-1,-1],"loss_changes":[1.5642105E2,0E0,0E0],"parents":[2147483647,0,0],"right_children":[2,-1,-1],"split_conditions":[1E0,-5.475346E-2,5.389854E-2],"split_indices":[6,0,0],"split_type":[0,0,0],"sum_hessian":[1.3060269E2,6.712422E1,6.347847E1],"tree_param":{"num_deleted":"0","num_feature":"44","num_nodes":"3","size_leaf_vector":"1"}},{"base_weights":[3.9122566E-3,-5.4340284E-2,5.35764E-2],"categories":[],"categories_nodes":[],"categories_segments":[],"categories_sizes":[],"default_left":[0,0,0],"id":48,"left_children":[1,-1,-1],"loss_changes":[1.5353032E2,0E0,0E0],"parents":[2147483647,0,0],"right_children":[2,-1,-1],"split_conditions":[1E0,-5.4340284E-2,5.35764E-2],"split_indices":[6,0,0],"split_type":[0,0,0],"sum_hessian":[1.2984587E2,6.4219124E1,6.562675E1],"tree_param":{"num_deleted":"0","num_feature":"44","num_nodes":"3","size_leaf_vector":"1"}},{"base_weights":[1.42451795E-2,-5.405217E-2,5.3462364E-2],"categories":[],"categories_nodes":[],"categories_segments":[],"categories_sizes":[],"default_left":[0,0,0],"id":49,"left_children":[1,-1,-1],"loss_changes":[1.4629045E2,0E0,0E0],"parents":[2147483647,0,0],"right_children":[2,-1,-1],"split_conditions":[1E0,-5.405217E-2,5.3462364E-2],"split_indices":[6,0,0],"split_type":[0,0,0],"sum_hessian":[1.245998E2,6.1120575E1,6.3479225E1],"tree_param":{"num_deleted":"0","num_feature":"44","num_nodes":"3","size_leaf_vector":"1"}},{"base_weights":[-4.3008302E-4,-5.372066E-2,5.3122044E-2],"categories":[],"categories_nodes":[],"categories_segments":[],"categories_sizes":[],"default_left":[0,0,0],"id":50,"left_children":[1,-1,-1],"loss_changes":[1.3434386E2,0E0,0E0],"parents":[2147483647,0,0],"right_children":[2,-1,-1],"split_conditions":[1E0,-5.372066E-2,5.3122044E-2],"split_indices":[6,0,0],"split_type":[0,0,0],"sum_hessian":[1.1569006E2,5.7538822E1,5.815124E1],"tree_param":{"num_deleted":"0","num_feature":"44","num_nodes":"3","size_leaf_vector":"1"}},{"base_weights":[8.627626E-3,1.2667443E-1,-7.6493317E-1,-4.4367515E-2,1.984359E-1,-2.734806E-1,-8.646713E-1,2.6564038E-1,-1.19002886E-1,-3.295698E-2,1.4205338E-2,-8.210231E-3,-4.721528E-2,8.645626E-2,3.4952545E-1,1.0467055E-1,-4.0586058E-2,-4.1332507E-1,3.439107E-1,4.9858287E-1,1.9632824E-1,2.5499305E-1,-3.23703E-2,-1.9431728E-3,-4.1348938E-2,1.2895986E-5,2.1960443E-2,-3.968646E-3,2.7447242E-2,-3.8289689E-3,2.32587E-2,-2.9452851E-2,2.0034278E-2],"categories":[],"categories_nodes":[],"categories_segments":[],"categories_sizes":[],"default_left":[0,0,0,0,0,0,0,0,0,0,0,0,0,0,0,0,0,0,0,0,0,0,0,0,0,0,0,0,0,0,0,0,0],"id":51,"left_children":[1,3,5,-1,7,9,11,13,15,-1,-1,-1,-1,17,19,21,-1,23,25,27,29,31,-1,-1,-1,-1,-1,-1,-1,-1,-1,-1,-1],"loss_changes":[1.0278531E1,7.277811E0,4.940834E-1,0E0,1.9934506E0,1.0424833E0,5.10252E-1,1.1151838E0,2.6814926E0,0E0,0E0,0E0,0E0,3.439681E0,1.0798535E0,1.697359E0,0E0,1.3878634E0,5.717015E-1,7.855525E-1,2.022789E0,1.7133055E0,0E0,0E0,0E0,0E0,0E0,0E0,0E0,0E0,0E0,0E0,0E0],"parents":[2147483647,0,0,1,1,2,2,4,4,5,5,6,6,7,7,8,8,13,13,14,14,15,15,17,17,18,18,19,19,20,20,21,21],"right_children":[2,4,6,-1,8,10,12,14,16,-1,-1,-1,-1,18,20,22,-1,24,26,28,30,32,-1,-1,-1,-1,-1,-1,-1,-1,-1,-1,-1],"split_conditions":[2E0,-3.6E0,2.333333E0,-4.4367515E-2,7E-1,1.198E1,4.89786E1,-1.333333E0,5.1000004E0,-3.295698E-2,1.4205338E-2,-8.210231E-3,-4.721528E-2,6.5000005E0,3.199994E-1,4.89983E1,-4.0586058E-2,2E0,1.2E0,-1.1E0,4.89969E1,-1.396E1,-3.23703E-2,-1.9431728E-3,-4.1348938E-2,1.2895986E-5,2.1960443E-2,-3.968646E-3,2.7447242E-2,-3.8289689E-3,2.32587E-2,-2.9452851E-2,2.0034278E-2],"split_indices":[15,15,15,0,15,26,28,15,25,0,0,0,0,25,25,28,0,32,11,15,28,25,0,0,0,0,0,0,0,0,0,0,0],"split_type":[0,0,0,0,0,0,0,0,0,0,0,0,0,0,0,0,0,0,0,0,0,0,0,0,0,0,0,0,0,0,0,0,0],"sum_hessian":[1.1049845E2,9.659424E1,1.3904214E1,5.6329293E0,9.096131E1,2.977042E0,1.0927172E1,7.520331E1,1.5758E1,1.6521758E0,1.324866E0,1.4280415E0,9.499131E0,2.4627655E1,5.0575657E1,1.2553477E1,3.204523E0,8.167375E0,1.646028E1,2.4491486E1,2.608417E1,1.1013153E1,1.5403236E0,4.8609405E0,3.3064342E0,3.7912903E0,1.266899E1,1.91691E0,2.2574575E1,1.3299196E1,1.2784974E1,1.1732037E0,9.83995E0],"tree_param":{"num_deleted":"0","num_feature":"44","num_nodes":"33","size_leaf_vector":"1"}},{"base_weights":[1.4747757E-2,-5.35325E-2,5.2820962E-2],"categories":[],"categories_nodes":[],"categories_segments":[],"categories_sizes":[],"default_left":[0,0,0],"id":52,"left_children":[1,-1,-1],"loss_changes":[1.2832701E2,0E0,0E0],"parents":[2147483647,0,0],"right_children":[2,-1,-1],"split_conditions":[1E0,-5.35325E-2,5.2820962E-2],"split_indices":[6,0,0],"split_type":[0,0,0],"sum_hessian":[1.11500275E2,5.4590458E1,5.690982E1],"tree_param":{"num_deleted":"0","num_feature":"44","num_nodes":"3","size_leaf_vector":"1"}},{"base_weights":[3.362755E-2,-5.3187486E-2,5.2549165E-2],"categories":[],"categories_nodes":[],"categories_segments":[],"categories_sizes":[],"default_left":[0,0,0],"id":53,"left_children":[1,-1,-1],"loss_changes":[1.2003845E2,0E0,0E0],"parents":[2147483647,0,0],"right_children":[2,-1,-1],"split_conditions":[1E0,-5.3187486E-2,5.2549165E-2],"split_indices":[6,0,0],"split_type":[0,0,0],"sum_hessian":[1.0551918E2,5.074123E1,5.4777954E1],"tree_param":{"num_deleted":"0","num_feature":"44","num_nodes":"3","size_leaf_vector":"1"}},{"base_weights":[-7.4228006E-3,-5.3003836E-2,5.2351296E-2],"categories":[],"categories_nodes":[],"categories_segments":[],"categories_sizes":[],"default_left":[0,0,0],"id":54,"left_children":[1,-1,-1],"loss_changes":[1.13077835E2,0E0,0E0],"parents":[2147483647,0,0],"right_children":[2,-1,-1],"split_conditions":[1E0,-5.3003836E-2,5.2351296E-2],"split_indices":[6,0,0],"split_type":[0,0,0],"sum_hessian":[9.9874756E1,4.9977245E1,4.9897514E1],"tree_param":{"num_deleted":"0","num_feature":"44","num_nodes":"3","size_leaf_vector":"1"}},{"base_weights":[-8.247845E-3,-5.2685834E-2,5.2123077E-2],"categories":[],"categories_nodes":[],"categories_segments":[],"categories_sizes":[],"default_left":[0,0,0],"id":55,"left_children":[1,-1,-1],"loss_changes":[1.06353516E2,0E0,0E0],"parents":[2147483647,0,0],"right_children":[2,-1,-1],"split_conditions":[1E0,-5.2685834E-2,5.2123077E-2],"split_indices":[6,0,0],"split_type":[0,0,0],"sum_hessian":[9.481848E1,4.7526333E1,4.7292152E1],"tree_param":{"num_deleted":"0","num_feature":"44","num_nodes":"3","size_leaf_vector":"1"}},{"base_weights":[3.3283018E-2,-5.2544165E-2,5.19781E-2],"categories":[],"categories_nodes":[],"categories_segments":[],"categories_sizes":[],"default_left":[0,0,0],"id":56,"left_children":[1,-1,-1],"loss_changes":[1.0521653E2,0E0,0E0],"parents":[2147483647,0,0],"right_children":[2,-1,-1],"split_conditions":[1E0,-5.2544165E-2,5.19781E-2],"split_indices":[6,0,0],"split_type":[0,0,0],"sum_hessian":[9.444141E1,4.5439983E1,4.9001427E1],"tree_param":{"num_deleted":"0","num_feature":"44","num_nodes":"3","size_leaf_vector":"1"}},{"base_weights":[-2.5095437E-2,-5.2258935E-2,5.168208E-2],"categories":[],"categories_nodes":[],"categories_segments":[],"categories_sizes":[],"default_left":[0,0,0],"id":57,"left_children":[1,-1,-1],"loss_changes":[9.596447E1,0E0,0E0],"parents":[2147483647,0,0],"right_children":[2,-1,-1],"split_conditions":[1E0,-5.2258935E-2,5.168208E-2],"split_indices":[6,0,0],"split_type":[0,0,0],"sum_hessian":[8.68557E1,4.4241875E1,4.2613823E1],"tree_param":{"num_deleted":"0","num_feature":"44","num_nodes":"3","size_leaf_vector":"1"}},{"base_weights":[5.746661E-3,-5.2024502E-2,5.147109E-2],"categories":[],"categories_nodes":[],"categories_segments":[],"categories_sizes":[],"default_left":[0,0,0],"id":58,"left_children":[1,-1,-1],"loss_changes":[8.934347E1,0E0,0E0],"parents":[2147483647,0,0],"right_children":[2,-1,-1],"split_conditions":[1E0,-5.2024502E-2,5.147109E-2],"split_indices":[6,0,0],"split_type":[0,0,0],"sum_hessian":[8.1420006E1,4.0258152E1,4.1161858E1],"tree_param":{"num_deleted":"0","num_feature":"44","num_nodes":"3","size_leaf_vector":"1"}},{"base_weights":[-1.5106724E-2,-5.174714E-2,5.1259965E-2],"categories":[],"categories_nodes":[],"categories_segments":[],"categories_sizes":[],"default_left":[0,0,0],"id":59,"left_children":[1,-1,-1],"loss_changes":[8.4341606E1,0E0,0E0],"parents":[2147483647,0,0],"right_children":[2,-1,-1],"split_conditions":[1E0,-5.174714E-2,5.1259965E-2],"split_indices":[6,0,0],"split_type":[0,0,0],"sum_hessian":[7.7496864E1,3.9136047E1,3.8360817E1],"tree_param":{"num_deleted":"0","num_feature":"44","num_nodes":"3","size_leaf_vector":"1"}},{"base_weights":[1.6144613E-2,-5.169155E-2,5.1224925E-2],"categories":[],"categories_nodes":[],"categories_segments":[],"categories_sizes":[],"default_left":[0,0,0],"id":60,"left_children":[1,-1,-1],"loss_changes":[8.700678E1,0E0,0E0],"parents":[2147483647,0,0],"right_children":[2,-1,-1],"split_conditions":[1E0,-5.169155E-2,5.1224925E-2],"split_indices":[6,0,0],"split_type":[0,0,0],"sum_hessian":[8.017862E1,3.926628E1,4.0912334E1],"tree_param":{"num_deleted":"0","num_feature":"44","num_nodes":"3","size_leaf_vector":"1"}}]},"name":"gbtree"},"learner_model_param":{"base_score":"5E-1","boost_from_average":"1","num_class":"0","num_feature":"44","num_target":"1"},"objective":{"name":"binary:logistic","reg_loss_param":{"scale_pos_weight":"6.75609779"}}},"version":[2,1,2]}