{"learner":{"attributes":{"best_iteration":"0","best_score":"1.0"},"feature_names":["temp_range_low","temp_range_high","range_width","range_center","target_month","target_day","first_yes_price","forecast_available","forecast_temp_max","model_count_available","temp_max_mean","temp_max_spread","temp_max_std","gfs_seamless_temp_max","icon_seamless_temp_max","temp_max_bucket_gap","temp_max_in_bucket","forecast_shift_mean","forecast_shift_max","forecast_shift_direction","forecast_consensus_shift","forecast_stability","models_changed_count","prob_shift","climatology_normal","climatology_anomaly","climatology_anomaly_abs","is_extreme_forecast","hours_to_resolution","is_same_day","is_next_day","season","day_of_week","market_price_change_1h","market_price_change_3h","market_price_velocity","market_price_vs_model","market_volume_signal","ensemble_mean","ensemble_std","ensemble_spread","ensemble_p10","ensemble_p90","ensemble_skew"],"feature_types":["float","float","float","float","int","int","float","float","float","int","float","float","float","float","float","float","float","float","float","float","float","float","float","float","int","float","float","float","float","float","float","int","int","float","float","float","float","float","float","float","float","float","float","float"],"gradient_booster":{"model":{"gbtree_model_param":{"num_parallel_tree":"1","num_trees":"61"},"iteration_indptr":[0,1,2,3,4,5,6,7,8,9,10,11,12,13,14,15,16,17,18,19,20,21,22,23,24,25,26,27,28,29,30,31,32,33,34,35,36,37,38,39,40,41,42,43,44,45,46,47,48,49,50,51,52,53,54,55,56,57,58,59,60,61],"tree_info":[0,0,0,0,0,0,0,0,0,0,0,0,0,0,0,0,0,0,0,0,0,0,0,0,0,0,0,0,0,0,0,0,0,0,0,0,0,0,0,0,0,0,0,0,0,0,0,0,0,0,0,0,0,0,0,0,0,0,0,0,0],"trees":[{"base_weights":[-3.1586226E-2,-9.985851E-2,9.985397E-2],"categories":[],"categories_nodes":[],"categories_segments":[],"categories_sizes":[],"default_left":[0,0,0],"id":0,"left_children":[1,-1,-1],"loss_changes":[5.548781E3,0E0,0E0],"parents":[2147483647,0,0],"right_children":[2,-1,-1],"split_conditions":[1E0,-9.985851E-2,9.985397E-2],"split_indices":[6,0,0],"split_type":[0,0,0],"sum_hessian":[1.3895391E3,7.0575E2,6.8378906E2],"tree_param":{"num_deleted":"0","num_feature":"44","num_nodes":"3","size_leaf_vector":"1"}},{"base_weights":[1.210213E-2,-9.5110625E-2,9.5112585E-2],"categories":[],"categories_nodes":[],"categories_segments":[],"categories_sizes":[],"default_left":[0,0,0],"id":1,"left_children":[1,-1,-1],"loss_changes":[5.039961E3,0E0,0E0],"parents":[2147483647,0,0],"right_children":[2,-1,-1],"split_conditions":[1E0,-9.5110625E-2,9.5112585E-2],"split_indices":[6,0,0],"split_type":[0,0,0],"sum_hessian":[1.3908928E3,6.9102594E2,6.9986694E2],"tree_param":{"num_deleted":"0","num_feature":"44","num_nodes":"3","size_leaf_vector":"1"}},{"base_weights":[1.079762E-2,-9.10117E-2,9.1013335E-2],"categories":[],"categories_nodes":[],"categories_segments":[],"categories_sizes":[],"default_left":[0,0,0],"id":2,"left_children":[1,-1,-1],"loss_changes":[4.6270425E3,0E0,0E0],"parents":[2147483647,0,0],"right_children":[2,-1,-1],"split_conditions":[1E0,-9.10117E-2,9.1013335E-2],"split_indices":[6,0,0],"split_type":[0,0,0],"sum_hessian":[1.3945498E3,6.93142E2,7.014078E2],"tree_param":{"num_deleted":"0","num_feature":"44","num_nodes":"3","size_leaf_vector":"1"}},{"base_weights":[-1.4854793E-4,-2.5285608E-1,9.8067504E-1,-1.1426018E0,-1.7693959E-1,-7.581299E-1,1.1831341E0,-1.3456932E0,6.24422E-2,2.2746216E-1,-2.6074266E-1,6.659221E-2,-1.0578631E0,9.645468E-1,7.76869E-2,-8.541151E-2,-8.607509E-1,6.3741165E-1,-6.663781E-2,2.973567E-1,-7.483465E-2,-1.8718047E-1,-6.86651E-1,-8.267257E-2,1.5260203E-1,6.045115E-1,1.437875E0,-8.082967E-2,-3.5622934E-1,-1.4326082E-1,1.0856442E0,6.0942948E-2,4.9865144E-1,-7.775905E-2,-4.647089E-1,-5.460438E-1,-8.180592E-2,-6.023956E-2,7.139131E-1,1.1190935E-1,1.1228473E0,1.5077468E0,-5.210922E-2,-7.483465E-2,8.977985E-3,-5.7978053E-2,5.3724993E-2,2.247506E-2,6.659221E-2,-5.0768908E-2,1.0781507E-2,1.2383752E-2,4.491586E-2,-1.8399497E-2,3.9035429E-3,-7.126328E-2,-1.7079242E-2,-3.319304E-2,3.485585E-2,5.983901E-2,-4.8205536E-2,3.364357E-2,-8.042629E-2,3.3986386E-2,6.447682E-2,2.247506E-2,7.693791E-2],"categories":[],"categories_nodes":[],"categories_segments":[],"categories_sizes":[],"default_left":[0,0,0,0,0,0,0,0,0,0,0,0,0,0,0,0,0,0,0,0,0,0,0,0,0,0,0,0,0,0,0,0,0,0,0,0,0,0,0,0,0,0,0,0,0,0,0,0,0,0,0,0,0,0,0,0,0,0,0,0,0,0,0,0,0,0,0],"id":3,"left_children":[1,3,5,7,9,11,13,15,17,19,21,-1,23,25,-1,-1,27,29,-1,31,-1,33,35,-1,37,39,41,-1,43,45,47,49,51,53,55,57,-1,-1,59,61,63,65,-1,-1,-1,-1,-1,-1,-1,-1,-1,-1,-1,-1,-1,-1,-1,-1,-1,-1,-1,-1,-1,-1,-1,-1,-1],"loss_changes":[3.381666E2,7.3074265E1,9.929309E1,2.091137E1,3.3974136E1,2.0051426E1,1.8814056E1,1.1341248E1,1.14622965E1,2.1210545E1,2.5857647E1,0E0,1.9418032E1,2.6458008E1,0E0,0E0,1.2080421E1,3.6705794E0,0E0,7.8901033E0,0E0,2.148331E1,1.5364704E1,0E0,8.237272E0,2.3570278E1,1.3450653E1,0E0,1.3214537E1,6.8737683E0,4.1902065E-1,1.3152178E1,8.780596E0,2.3069317E1,2.318866E1,1.6218685E1,0E0,0E0,7.212736E0,4.8076683E1,2.4554367E0,1.5098724E0,0E0,0E0,0E0,0E0,0E0,0E0,0E0,0E0,0E0,0E0,0E0,0E0,0E0,0E0,0E0,0E0,0E0,0E0,0E0,0E0,0E0,0E0,0E0,0E0,0E0],"parents":[2147483647,0,0,1,1,2,2,3,3,4,4,5,5,6,6,7,7,8,8,9,9,10,10,12,12,13,13,16,16,17,17,19,19,21,21,22,22,24,24,25,25,26,26,28,28,29,29,30,30,31,31,32,32,33,33,34,34,35,35,38,38,39,39,40,40,41,41],"right_children":[2,4,6,8,10,12,14,16,18,20,22,-1,24,26,-1,-1,28,30,-1,32,-1,34,36,-1,38,40,42,-1,44,46,48,50,52,54,56,58,-1,-1,60,62,64,66,-1,-1,-1,-1,-1,-1,-1,-1,-1,-1,-1,-1,-1,-1,-1,-1,-1,-1,-1,-1,-1,-1,-1,-1,-1],"split_conditions":[1E0,-5E-1,1.5E0,2.134E1,-3E-1,-1.08E1,7.5E1,4.15E1,6.79869E-1,3.05E1,4.89971E1,6.659221E-2,-7.3E0,4.89968E1,7.76869E-2,-8.541151E-2,1.2E1,2.85E1,-6.663781E-2,-3.5E0,-7.483465E-2,5.0966667E1,3.5E1,-8.267257E-2,-3E-1,2.89E1,1.4E1,-8.082967E-2,4.89884E1,4.02768E-1,5E0,4.8989E1,2.25E1,1.95E1,5.2E1,3.07E1,-8.180592E-2,-6.023956E-2,1.66667E-1,2.05E1,4.89921E1,3.7E0,-5.210922E-2,-7.483465E-2,8.977985E-3,-5.7978053E-2,5.3724993E-2,2.247506E-2,6.659221E-2,-5.0768908E-2,1.0781507E-2,1.2383752E-2,4.491586E-2,-1.8399497E-2,3.9035429E-3,-7.126328E-2,-1.7079242E-2,-3.319304E-2,3.485585E-2,5.983901E-2,-4.8205536E-2,3.364357E-2,-8.042629E-2,3.3986386E-2,6.447682E-2,2.247506E-2,7.693791E-2],"split_indices":[16,0,10,26,14,8,1,1,12,0,28,0,25,28,0,0,5,1,0,8,0,10,0,0,14,10,0,0,28,12,32,28,0,0,0,8,0,0,10,1,28,14,0,0,0,0,0,0,0,0,0,0,0,0,0,0,0,0,0,0,0,0,0,0,0,0,0],"split_type":[0,0,0,0,0,0,0,0,0,0,0,0,0,0,0,0,0,0,0,0,0,0,0,0,0,0,0,0,0,0,0,0,0,0,0,0,0,0,0,0,0,0,0,0,0,0,0,0,0,0,0,0,0,0,0,0,0,0,0,0,0,0,0,0,0,0,0],"sum_hessian":[1.3623365E3,1.0838314E3,2.7850513E2,8.410186E1,9.9972955E2,2.875972E1,2.497454E2,7.18722E1,1.2229654E1,1.7131487E2,8.2841473E2,3.1753395E0,2.558438E1,1.5935704E2,9.038835E1,3.9683083E1,3.218912E1,9.045209E0,3.184445E0,1.654359E2,5.878975E0,7.07633E2,1.20781715E2,1.6902054E1,8.682326E0,9.180391E1,6.755314E1,1.2002908E1,2.0186214E1,3.547328E0,5.497881E0,7.66803E1,8.87556E1,5.0844717E2,1.9918582E2,1.0657419E2,1.4207523E1,2.2046156E0,6.4777102E0,4.769383E1,4.411008E1,6.60834E1,1.4697437E0,5.878975E0,1.4307239E1,1.9596584E0,1.5876697E0,2.3225417E0,3.1753395E0,8.936389E0,6.7743904E1,5.551425E1,3.324135E1,1.7714876E2,3.312984E2,2.142921E1,1.777566E2,9.777394E1,8.800252E0,5.252924E0,1.2247865E0,3.6425793E1,1.1268036E1,1.3445335E1,3.0664745E1,2.3225417E0,6.3760853E1],"tree_param":{"num_deleted":"0","num_feature":"44","num_nodes":"67","size_leaf_vector":"1"}},{"base_weights":[1.7311214E-2,-8.670773E-2,8.67828E-2],"categories":[],"categories_nodes":[],"categories_segments":[],"categories_sizes":[],"default_left":[0,0,0],"id":4,"left_children":[1,-1,-1],"loss_changes":[4.1206445E3,0E0,0E0],"parents":[2147483647,0,0],"right_children":[2,-1,-1],"split_conditions":[1E0,-8.670773E-2,8.67828E-2],"split_indices":[6,0,0],"split_type":[0,0,0],"sum_hessian":[1.3671567E3,6.770487E2,6.9010803E2],"tree_param":{"num_deleted":"0","num_feature":"44","num_nodes":"3","size_leaf_vector":"1"}},{"base_weights":[-2.8372427E-2,-8.366772E-2,8.373173E-2],"categories":[],"categories_nodes":[],"categories_segments":[],"categories_sizes":[],"default_left":[0,0,0],"id":5,"left_children":[1,-1,-1],"loss_changes":[3.7135317E3,0E0,0E0],"parents":[2147483647,0,0],"right_children":[2,-1,-1],"split_conditions":[1E0,-8.366772E-2,8.373173E-2],"split_indices":[6,0,0],"split_type":[0,0,0],"sum_hessian":[1.3235908E3,6.7327405E2,6.503168E2],"tree_param":{"num_deleted":"0","num_feature":"44","num_nodes":"3","size_leaf_vector":"1"}},{"base_weights":[-1.1126277E-2,-8.095496E-2,8.097938E-2],"categories":[],"categories_nodes":[],"categories_segments":[],"categories_sizes":[],"default_left":[0,0,0],"id":6,"left_children":[1,-1,-1],"loss_changes":[3.459093E3,0E0,0E0],"parents":[2147483647,0,0],"right_children":[2,-1,-1],"split_conditions":[1E0,-8.095496E-2,8.097938E-2],"split_indices":[6,0,0],"split_type":[0,0,0],"sum_hessian":[1.317185E3,6.632205E2,6.5396454E2],"tree_param":{"num_deleted":"0","num_feature":"44","num_nodes":"3","size_leaf_vector":"1"}},{"base_weights":[1.2405841E-2,-7.855313E-2,7.857137E-2],"categories":[],"categories_nodes":[],"categories_segments":[],"categories_sizes":[],"default_left":[0,0,0],"id":7,"left_children":[1,-1,-1],"loss_changes":[3.2030608E3,0E0,0E0],"parents":[2147483647,0,0],"right_children":[2,-1,-1],"split_conditions":[1E0,-7.855313E-2,7.857137E-2],"split_indices":[6,0,0],"split_type":[0,0,0],"sum_hessian":[1.2954886E3,6.427014E2,6.5278723E2],"tree_param":{"num_deleted":"0","num_feature":"44","num_nodes":"3","size_leaf_vector":"1"}},{"base_weights":[-2.0085905E-2,-7.638233E-2,7.642207E-2],"categories":[],"categories_nodes":[],"categories_segments":[],"categories_sizes":[],"default_left":[0,0,0],"id":8,"left_children":[1,-1,-1],"loss_changes":[2.9281042E3,0E0,0E0],"parents":[2147483647,0,0],"right_children":[2,-1,-1],"split_conditions":[1E0,-7.638233E-2,7.642207E-2],"split_indices":[6,0,0],"split_type":[0,0,0],"sum_hessian":[1.2522749E3,6.345376E2,6.177373E2],"tree_param":{"num_deleted":"0","num_feature":"44","num_nodes":"3","size_leaf_vector":"1"}},{"base_weights":[1.1067704E-2,2.7477044E-1,-7.937491E-1,8.41667E-2,1.0160881E0,-9.4864815E-1,8.210971E-1,-1.7771971E-1,3.686892E-1,1.3377925E0,8.4117365E-1,-1.0604658E0,-3.4607443E-1,-5.633545E-1,1.1661072E0,1.2365437E-1,-9.622889E-1,5.431108E-1,-1.8337506E-1,7.010377E-2,8.119017E-1,9.2052865E-1,1.21461235E-1,-2.4237522E-1,-1.1825461E0,-1.0144048E0,1.0309029E0,-5.536157E-2,1.207631E-2,1.1119991E-2,1.2625326E0,-9.410177E-3,7.3648244E-1,-4.2065743E-1,-7.323879E-2,3.7487984E-1,9.2735225E-1,7.01902E-2,-6.981935E-2,5.744117E-2,-1.4620814E-2,2.1467781E-1,1.0022476E0,6.809573E-1,-5.8566313E-2,3.9747238E-1,-6.022091E-1,-1.3528193E0,-9.7028756E-1,6.134739E-1,-7.048932E-2,1.1989778E0,1.1567956E-1,6.57203E-2,2.427421E-2,5.939128E-3,-3.9813515E-2,-3.8681954E-2,4.97703E-2,-6.945342E-2,-3.8398223E-3,4.7631203E-3,2.671432E-2,-4.543799E-2,4.8673186E-2,-6.656355E-2,1.3587943E-2,-4.4492405E-2,4.269426E-2,4.2864915E-2,-3.0037789E-2,4.2039357E-2,6.0046792E-2,4.6110395E-2,6.6051097E-4,-5.138121E-2,4.0802855E-2,-6.6403165E-2,-3.7815736E-3,-1.9003237E-2,-7.128064E-2,-6.1442506E-2,-2.8553316E-2,5.4995757E-2,-4.1220564E-2,2.4752403E-2,6.367384E-2,4.270927E-2,-3.914851E-2],"categories":[],"categories_nodes":[],"categories_segments":[],"categories_sizes":[],"default_left":[0,0,0,0,0,0,0,0,0,0,0,0,0,0,0,0,0,0,0,0,0,0,0,0,0,0,0,0,0,0,0,0,0,0,0,0,0,0,0,0,0,0,0,0,0,0,0,0,0,0,0,0,0,0,0,0,0,0,0,0,0,0,0,0,0,0,0,0,0,0,0,0,0,0,0,0,0,0,0,0,0,0,0,0,0,0,0,0,0],"id":9,"left_children":[1,3,5,7,9,11,13,15,17,19,21,23,25,27,29,31,33,35,37,-1,39,41,43,45,47,49,51,-1,-1,-1,53,55,57,59,-1,61,63,65,-1,-1,67,69,71,73,-1,75,77,79,81,83,-1,85,87,-1,-1,-1,-1,-1,-1,-1,-1,-1,-1,-1,-1,-1,-1,-1,-1,-1,-1,-1,-1,-1,-1,-1,-1,-1,-1,-1,-1,-1,-1,-1,-1,-1,-1,-1,-1],"loss_changes":[2.6635318E2,1.3347626E2,7.825423E1,5.6174248E1,9.748413E0,1.8706772E1,1.3861807E1,9.299072E1,3.4883385E1,1.1052475E0,7.191307E0,2.3512207E1,4.3188175E1,2.9768124E0,1.7626724E0,2.3219627E1,2.9081825E1,1.7413025E1,2.7003607E1,0E0,2.6914043E0,6.4194336E0,1.0816133E1,7.6529884E0,6.1720886E0,2.103231E1,2.239378E0,0E0,0E0,0E0,1.7451477E-1,2.378526E1,2.0631119E1,1.7847519E1,0E0,8.541435E0,7.9107666E0,2.1069391E1,0E0,0E0,3.6246512E0,7.435837E0,2.2885742E0,1.6470122E0,0E0,8.1118E0,7.9288507E0,7.4154053E0,9.178543E0,5.6769886E0,0E0,4.891014E-2,2.9951513E0,0E0,0E0,0E0,0E0,0E0,0E0,0E0,0E0,0E0,0E0,0E0,0E0,0E0,0E0,0E0,0E0,0E0,0E0,0E0,0E0,0E0,0E0,0E0,0E0,0E0,0E0,0E0,0E0,0E0,0E0,0E0,0E0,0E0,0E0,0E0,0E0],"parents":[2147483647,0,0,1,1,2,2,3,3,4,4,5,5,6,6,7,7,8,8,9,9,10,10,11,11,12,12,13,13,14,14,15,15,16,16,17,17,18,18,20,20,21,21,22,22,23,23,24,24,25,25,26,26,30,30,31,31,32,32,33,33,35,35,36,36,37,37,40,40,41,41,42,42,43,43,45,45,46,46,47,47,48,48,49,49,51,51,52,52],"right_children":[2,4,6,8,10,12,14,16,18,20,22,24,26,28,30,32,34,36,38,-1,40,42,44,46,48,50,52,-1,-1,-1,54,56,58,60,-1,62,64,66,-1,-1,68,70,72,74,-1,76,78,80,82,84,-1,86,88,-1,-1,-1,-1,-1,-1,-1,-1,-1,-1,-1,-1,-1,-1,-1,-1,-1,-1,-1,-1,-1,-1,-1,-1,-1,-1,-1,-1,-1,-1,-1,-1,-1,-1,-1,-1],"split_conditions":[2E0,1E0,2.4439999E1,-3.5E0,-3.8166668E1,1E0,9E-1,2.21E1,7E-1,1.2219999E1,8.95669E-1,-1.40199995E1,1.33E1,3.23E1,-9E0,7E1,4.89923E1,4.467279E1,5.1000004E0,7.010377E-2,4E-1,4.89832E1,6.233333E0,3.066667E0,5.12E1,9.666667E0,1.6733334E1,-5.536157E-2,1.207631E-2,1.1119991E-2,4.4E0,8.5E0,-8.9E1,-5.29E1,-7.323879E-2,-1.766667E0,-3.366667E0,3.7E0,-6.981935E-2,5.744117E-2,7.61E1,4.9599996E0,4.89968E1,4.89866E1,-5.8566313E-2,-1.8766666E1,8.8E0,2.233333E0,4.8991E1,4.89898E1,-7.048932E-2,-1.894E1,3.8066666E1,6.57203E-2,2.427421E-2,5.939128E-3,-3.9813515E-2,-3.8681954E-2,4.97703E-2,-6.945342E-2,-3.8398223E-3,4.7631203E-3,2.671432E-2,-4.543799E-2,4.8673186E-2,-6.656355E-2,1.3587943E-2,-4.4492405E-2,4.269426E-2,4.2864915E-2,-3.0037789E-2,4.2039357E-2,6.0046792E-2,4.6110395E-2,6.6051097E-4,-5.138121E-2,4.0802855E-2,-6.6403165E-2,-3.7815736E-3,-1.9003237E-2,-7.128064E-2,-6.1442506E-2,-2.8553316E-2,5.4995757E-2,-4.1220564E-2,2.4752403E-2,6.367384E-2,4.270927E-2,-3.914851E-2],"split_indices":[15,16,25,15,15,16,11,8,15,26,39,25,8,8,3,3,28,42,25,0,11,28,26,15,14,15,25,0,0,0,11,8,15,15,0,15,15,13,0,0,8,26,28,28,0,25,15,15,28,28,0,25,15,0,0,0,0,0,0,0,0,0,0,0,0,0,0,0,0,0,0,0,0,0,0,0,0,0,0,0,0,0,0,0,0,0,0,0,0],"split_type":[0,0,0,0,0,0,0,0,0,0,0,0,0,0,0,0,0,0,0,0,0,0,0,0,0,0,0,0,0,0,0,0,0,0,0,0,0,0,0,0,0,0,0,0,0,0,0,0,0,0,0,0,0,0,0,0,0,0,0,0,0,0,0,0,0,0,0,0,0,0,0,0,0,0,0,0,0,0,0,0,0,0,0,0,0,0,0,0,0],"sum_hessian":[1.2529795E3,9.442495E2,3.0873004E2,7.520101E2,1.922394E2,2.820845E2,2.6645521E1,3.917773E2,3.602328E2,6.5367165E1,1.2687222E2,2.3729126E2,4.4793255E1,5.1892614E0,2.1456259E1,2.8365875E2,1.08118546E2,2.7375705E2,8.647576E1,5.6762627E1,8.604536E0,1.140213E2,1.2850928E1,3.119972E1,2.0609154E2,3.0333757E1,1.44594965E1,2.8725588E0,2.3167026E0,2.295626E0,1.9160633E1,2.3386404E2,4.979471E1,5.2916702E1,5.5201847E1,1.9177052E2,8.198652E1,7.2303696E1,1.4172065E1,5.835726E0,2.7688096E0,1.2207292E1,1.01814E2,9.299521E0,3.5514076E0,1.1192643E1,2.0007076E1,1.1137414E2,9.47174E1,5.8199706E0,2.4513786E1,1.1954153E1,2.5053434E0,1.7313314E1,1.8473183E0,2.0183136E2,3.203268E1,6.9971685E0,4.2797543E1,1.3069534E1,3.9847168E1,7.021062E1,1.21559906E2,1.5502254E0,8.043629E1,8.386904E0,6.3916794E1,1.3668293E0,1.4019803E0,6.798356E0,5.4089355E0,5.905541E1,4.27586E1,6.5514665E0,2.7480547E0,2.2108102E0,8.9818325E0,7.771916E0,1.2235161E1,8.187256E0,1.0318688E2,5.6224506E1,3.8492893E1,4.5243983E0,1.2955723E0,1.8757235E0,1.0078429E1,1.4023657E0,1.1029779E0],"tree_param":{"num_deleted":"0","num_feature":"44","num_nodes":"89","size_leaf_vector":"1"}},{"base_weights":[-9.169782E-3,-7.381519E-2,7.383593E-2],"categories":[],"categories_nodes":[],"categories_segments":[],"categories_sizes":[],"default_left":[0,0,0],"id":10,"left_children":[1,-1,-1],"loss_changes":[2.6222773E3,0E0,0E0],"parents":[2147483647,0,0],"right_children":[2,-1,-1],"split_conditions":[1E0,-7.381519E-2,7.383593E-2],"split_indices":[6,0,0],"split_type":[0,0,0],"sum_hessian":[1.2008807E3,6.0425696E2,5.966238E2],"tree_param":{"num_deleted":"0","num_feature":"44","num_nodes":"3","size_leaf_vector":"1"}},{"base_weights":[2.3361294E-2,-7.208483E-2,7.216049E-2],"categories":[],"categories_nodes":[],"categories_segments":[],"categories_sizes":[],"default_left":[0,0,0],"id":11,"left_children":[1,-1,-1],"loss_changes":[2.4963027E3,0E0,0E0],"parents":[2147483647,0,0],"right_children":[2,-1,-1],"split_conditions":[1E0,-7.208483E-2,7.216049E-2],"split_indices":[6,0,0],"split_type":[0,0,0],"sum_hessian":[1.1980529E3,5.8963153E2,6.084214E2],"tree_param":{"num_deleted":"0","num_feature":"44","num_nodes":"3","size_leaf_vector":"1"}},{"base_weights":[3.762917E-3,-7.0566945E-2,7.059017E-2],"categories":[],"categories_nodes":[],"categories_segments":[],"categories_sizes":[],"default_left":[0,0,0],"id":12,"left_children":[1,-1,-1],"loss_changes":[2.33152E3,0E0,0E0],"parents":[2147483647,0,0],"right_children":[2,-1,-1],"split_conditions":[1E0,-7.0566945E-2,7.059017E-2],"split_indices":[6,0,0],"split_type":[0,0,0],"sum_hessian":[1.168136E3,5.8260596E2,5.8553E2],"tree_param":{"num_deleted":"0","num_feature":"44","num_nodes":"3","size_leaf_vector":"1"}},{"base_weights":[1.06865475E-4,2.4000998E-1,-7.022232E-1,6.79277E-2,9.3264186E-1,-8.6879236E-1,8.699693E-1,-1.8666284E-1,3.436088E-1,7.566581E-1,1.2081223E0,-1.180092E0,-6.385298E-1,-5.181971E-2,1.1399043E0,6.512714E-2,-8.330662E-1,4.9942997E-1,-1.4562382E-1,9.44228E-1,2.6459038E-1,5.9268393E-2,6.251069E-2,2.9975E-2,-1.2108339E0,-7.727088E-1,8.93551E-1,1.1931416E0,1.6414821E-2,-4.4250015E-2,5.8196884E-1,-3.0402258E-1,-6.697774E-2,1.18060246E-1,6.741485E-1,5.4372232E-2,-1.0340816E0,9.77068E-1,-3.60346E-2,4.5901862E-1,-5.392447E-2,3.75295E-2,-3.6456298E-2,-2.472015E-1,-1.2411981E0,-2.085727E-1,-8.939285E-1,5.7827663E-2,-5.3506527E-2,6.1762143E-2,2.0771703E-2,3.0827334E-3,-6.4947814E-2,-3.2815784E-3,5.985669E-2,-4.3424036E-2,1.07529955E-2,1.7614968E-2,-5.3703333E-3,2.513733E-2,4.3275595E-2,2.065909E-2,-2.4436371E-2,-6.919026E-3,-6.331134E-2,5.6996522E-3,5.018725E-2,3.5057858E-2,-2.6395533E-2,4.070815E-2,-4.7458805E-2,-6.4875506E-2,-4.8622724E-2,-5.7207674E-2,3.7060385E-3,-5.446149E-2,-2.7574016E-2,-4.0988203E-2,3.890837E-2],"categories":[],"categories_nodes":[],"categories_segments":[],"categories_sizes":[],"default_left":[0,0,0,0,0,0,0,0,0,0,0,0,0,0,0,0,0,0,0,0,0,0,0,0,0,0,0,0,0,0,0,0,0,0,0,0,0,0,0,0,0,0,0,0,0,0,0,0,0,0,0,0,0,0,0,0,0,0,0,0,0,0,0,0,0,0,0,0,0,0,0,0,0,0,0,0,0,0,0],"id":13,"left_children":[1,3,5,7,9,11,13,15,17,19,21,23,25,-1,27,29,31,33,35,37,39,41,-1,-1,43,45,47,49,-1,51,53,55,-1,57,59,61,63,65,-1,67,-1,-1,-1,69,71,73,75,-1,77,-1,-1,-1,-1,-1,-1,-1,-1,-1,-1,-1,-1,-1,-1,-1,-1,-1,-1,-1,-1,-1,-1,-1,-1,-1,-1,-1,-1,-1,-1],"loss_changes":[1.9005107E2,1.0014743E2,7.596506E1,4.740651E1,7.1935883E0,1.789627E1,1.5596128E1,5.7235443E1,2.478759E1,9.415855E0,2.997284E0,6.7134094E0,3.1883015E1,0E0,6.890831E-1,1.4371374E1,2.6002266E1,1.63195E1,1.4109501E1,4.8284836E0,8.405141E0,2.3429222E0,0E0,0E0,2.8507996E0,9.390938E0,3.2208128E0,2.4300003E-1,0E0,2.8034252E1,1.7764425E1,1.4690309E1,0E0,4.1857357E0,5.094101E0,1.2967329E1,2.856883E0,1.5985413E0,0E0,6.8612385E0,0E0,0E0,0E0,4.159255E0,3.1774902E-1,6.9813275E0,7.08902E0,0E0,3.0036588E0,0E0,0E0,0E0,0E0,0E0,0E0,0E0,0E0,0E0,0E0,0E0,0E0,0E0,0E0,0E0,0E0,0E0,0E0,0E0,0E0,0E0,0E0,0E0,0E0,0E0,0E0,0E0,0E0,0E0,0E0],"parents":[2147483647,0,0,1,1,2,2,3,3,4,4,5,5,6,6,7,7,8,8,9,9,10,10,11,11,12,12,14,14,15,15,16,16,17,17,18,18,19,19,20,20,21,21,24,24,25,25,26,26,27,27,29,29,30,30,31,31,33,33,34,34,35,35,36,36,37,37,39,39,43,43,44,44,45,45,46,46,48,48],"right_children":[2,4,6,8,10,12,14,16,18,20,22,24,26,-1,28,30,32,34,36,38,40,42,-1,-1,44,46,48,50,-1,52,54,56,-1,58,60,62,64,66,-1,68,-1,-1,-1,70,72,74,76,-1,78,-1,-1,-1,-1,-1,-1,-1,-1,-1,-1,-1,-1,-1,-1,-1,-1,-1,-1,-1,-1,-1,-1,-1,-1,-1,-1,-1,-1,-1,-1],"split_conditions":[2E0,1E0,2.4439999E1,-3.5E0,8.7E1,2.2010456E1,7.9E1,2.21E1,7E-1,1.1E0,-1.32E1,-1.08E1,1E0,-5.181971E-2,4.18E1,1.2E2,4.89923E1,8E-1,4.89962E1,4.66667E-1,2.66667E-1,1E-1,6.251069E-2,2.9975E-2,2.066667E0,-1.32E1,1.66E1,4.4E0,1.6414821E-2,9.9E0,6.7200007E0,1.43E2,-6.697774E-2,1.3E1,-1.4E0,9E-1,1E0,1E-1,-3.60346E-2,1.1833333E1,-5.392447E-2,3.75295E-2,-3.6456298E-2,4.6E1,2.2E1,-2.5E0,5E0,5.7827663E-2,4.15E1,6.1762143E-2,2.0771703E-2,3.0827334E-3,-6.4947814E-2,-3.2815784E-3,5.985669E-2,-4.3424036E-2,1.07529955E-2,1.7614968E-2,-5.3703333E-3,2.513733E-2,4.3275595E-2,2.065909E-2,-2.4436371E-2,-6.919026E-3,-6.331134E-2,5.6996522E-3,5.018725E-2,3.5057858E-2,-2.6395533E-2,4.070815E-2,-4.7458805E-2,-6.4875506E-2,-4.8622724E-2,-5.7207674E-2,3.7060385E-3,-5.446149E-2,-2.7574016E-2,-4.0988203E-2,3.890837E-2],"split_indices":[15,16,25,15,1,42,2,8,15,11,25,8,16,0,15,1,28,11,28,15,15,11,0,0,15,25,26,11,0,14,25,1,0,5,15,11,32,11,0,26,0,0,0,24,5,3,32,0,1,0,0,0,0,0,0,0,0,0,0,0,0,0,0,0,0,0,0,0,0,0,0,0,0,0,0,0,0,0,0],"split_type":[0,0,0,0,0,0,0,0,0,0,0,0,0,0,0,0,0,0,0,0,0,0,0,0,0,0,0,0,0,0,0,0,0,0,0,0,0,0,0,0,0,0,0,0,0,0,0,0,0,0,0,0,0,0,0,0,0,0,0,0,0,0,0,0,0,0,0,0,0,0,0,0,0,0,0,0,0,0,0],"sum_hessian":[1.1259584E3,8.397674E2,2.8619095E2,6.7352924E2,1.662382E2,2.5917908E2,2.7011862E1,3.5032666E2,3.2320255E2,1.0372362E2,6.2514584E1,1.08444435E2,1.5073463E2,2.9982038E0,2.4013657E1,2.5276698E2,9.755969E1,2.4511296E2,7.80896E1,7.443213E1,2.9291483E1,2.2945604E0,6.0220024E1,1.52736E0,1.06917076E2,1.3905215E2,1.1682482E1,2.2094286E1,1.9193707E0,2.0937267E2,4.3394318E1,4.850007E1,4.9059624E1,7.7539055E1,1.675739E2,6.450746E1,1.3582134E1,7.339754E1,1.0345976E0,2.6162373E1,3.129109E0,1.2480929E0,1.0464675E0,3.5452878E0,1.0337179E2,2.5075525E1,1.1397663E2,8.970207E0,2.7122748E0,2.0401537E1,1.6927497E0,1.9395276E2,1.5419906E1,2.1575026E1,2.1819292E1,2.2912054E1,2.5588017E1,3.775382E1,3.9785233E1,9.031078E1,7.726312E1,3.8988293E1,2.5519173E1,3.1241431E0,1.0457991E1,2.3587432E0,7.103879E1,2.1240639E1,4.9217353E0,1.3477348E0,2.1975532E0,8.229896E1,2.1072832E1,5.111515E0,1.996401E1,7.119357E1,4.2783054E1,1.4191083E0,1.2931664E0],"tree_param":{"num_deleted":"0","num_feature":"44","num_nodes":"79","size_leaf_vector":"1"}},{"base_weights":[-8.063897E-3,-2.002658E-1,7.495191E-1,2.7223933E-2,-8.71504E-1,-5.804265E-1,9.055573E-1,-2.1884274E-1,3.2195625E-1,-1.0608298E0,-4.4753966E-1,-9.245041E-1,4.3974858E-2,7.6026845E-1,1.200194E0,1.8575026E-2,-7.502744E-1,4.954891E-1,-1.5703942E-1,-1.277051E0,-7.944337E-1,1.8859893E-1,-6.4424086E-1,4.307484E-2,-6.290516E-2,5.662434E-1,1.0952178E0,5.26775E-1,6.1442357E-2,-3.631051E-2,9.4148576E-1,-9.650836E-1,-2.3144667E-1,1.406331E-1,7.504328E-1,-6.1314404E-2,-2.482892E-2,-5.974358E-1,-6.61914E-2,-1.0527135E0,-3.7984854E-1,-6.025048E-1,6.4710397E-1,-1.1305227E0,-2.8159732E-1,6.249061E-1,-4.85556E-2,5.695942E-2,7.2595016E-3,3.820066E-2,9.13407E-3,-5.871255E-2,-2.1161836E-4,6.1065048E-2,1.1205929E-2,-5.818799E-2,9.77189E-3,-6.438863E-2,4.496333E-2,-8.292643E-3,2.5146324E-2,4.6753373E-2,2.7441636E-2,5.796357E-3,-5.9660144E-2,-5.3529747E-2,1.671766E-2,-5.6119084E-2,-1.151198E-2,-9.243571E-3,-5.599141E-2,4.1966848E-2,-5.5870146E-2,5.8026917E-2,1.8331275E-3,-1.4143379E-2,-6.455147E-2,5.3434895E-4,-5.8973234E-2,1.9736905E-2,4.031337E-2],"categories":[],"categories_nodes":[],"categories_segments":[],"categories_sizes":[],"default_left":[0,0,0,0,0,0,0,0,0,0,0,0,0,0,0,0,0,0,0,0,0,0,0,0,0,0,0,0,0,0,0,0,0,0,0,0,0,0,0,0,0,0,0,0,0,0,0,0,0,0,0,0,0,0,0,0,0,0,0,0,0,0,0,0,0,0,0,0,0,0,0,0,0,0,0,0,0,0,0,0,0],"id":14,"left_children":[1,3,5,7,9,11,13,15,17,19,21,23,-1,25,27,29,31,33,35,37,39,41,43,-1,-1,45,47,49,-1,51,53,55,57,59,61,-1,63,65,-1,67,69,71,73,75,77,79,-1,-1,-1,-1,-1,-1,-1,-1,-1,-1,-1,-1,-1,-1,-1,-1,-1,-1,-1,-1,-1,-1,-1,-1,-1,-1,-1,-1,-1,-1,-1,-1,-1,-1,-1],"loss_changes":[1.5994675E2,1.3381091E2,4.6656197E1,4.7598305E1,1.7328842E1,1.2844615E1,7.6207886E0,4.5152054E1,2.4896954E1,7.775421E0,8.905784E0,1.2923037E1,0E0,8.233559E0,5.896301E-1,1.2609447E1,1.2091389E1,1.9745289E1,1.1302259E1,1.8345947E0,7.2043E0,6.684567E0,9.177547E0,0E0,0E0,8.573408E0,1.8773079E0,2.1688437E-1,0E0,8.5835905E0,2.5309248E0,1.817205E1,4.137234E1,1.0406212E1,4.2310333E0,0E0,1.2039142E1,3.5062249E0,0E0,2.216446E0,3.9516096E0,6.0495405E0,3.551947E0,2.7192936E0,8.456854E0,3.2590256E0,0E0,0E0,0E0,0E0,0E0,0E0,0E0,0E0,0E0,0E0,0E0,0E0,0E0,0E0,0E0,0E0,0E0,0E0,0E0,0E0,0E0,0E0,0E0,0E0,0E0,0E0,0E0,0E0,0E0,0E0,0E0,0E0,0E0,0E0,0E0],"parents":[2147483647,0,0,1,1,2,2,3,3,4,4,5,5,6,6,7,7,8,8,9,9,10,10,11,11,13,13,14,14,15,15,16,16,17,17,18,18,19,19,20,20,21,21,22,22,25,25,26,26,27,27,29,29,30,30,31,31,32,32,33,33,34,34,36,36,37,37,39,39,40,40,41,41,42,42,43,43,44,44,45,45],"right_children":[2,4,6,8,10,12,14,16,18,20,22,24,-1,26,28,30,32,34,36,38,40,42,44,-1,-1,46,48,50,-1,52,54,56,58,60,62,-1,64,66,-1,68,70,72,74,76,78,80,-1,-1,-1,-1,-1,-1,-1,-1,-1,-1,-1,-1,-1,-1,-1,-1,-1,-1,-1,-1,-1,-1,-1,-1,-1,-1,-1,-1,-1,-1,-1,-1,-1,-1,-1],"split_conditions":[1E0,2.066667E0,-9E0,-3.166667E0,1.2700001E1,4.89972E1,9.5E1,2.21E1,7E-1,5.15E1,3.066667E0,8.8E0,4.3974858E-2,4.89968E1,-1.32E1,1.92E1,1.46E2,1.8017157E1,-1.6E1,4.89787E1,5E0,4.1266666E1,9.166667E0,4.307484E-2,-6.290516E-2,8.6E1,1.6E1,-5E-1,6.1442357E-2,-8.9E1,2.25E1,-3.5E0,-5.2433334E1,-1E0,4.89926E1,-6.1314404E-2,4.89988E1,4.8978E1,-6.61914E-2,1.11E2,9.5E1,1.2933333E1,4.48E1,4.89861E1,7.4E1,2.89E1,-4.85556E-2,5.695942E-2,7.2595016E-3,3.820066E-2,9.13407E-3,-5.871255E-2,-2.1161836E-4,6.1065048E-2,1.1205929E-2,-5.818799E-2,9.77189E-3,-6.438863E-2,4.496333E-2,-8.292643E-3,2.5146324E-2,4.6753373E-2,2.7441636E-2,5.796357E-3,-5.9660144E-2,-5.3529747E-2,1.671766E-2,-5.6119084E-2,-1.151198E-2,-9.243571E-3,-5.599141E-2,4.1966848E-2,-5.5870146E-2,5.8026917E-2,1.8331275E-3,-1.4143379E-2,-6.455147E-2,5.3434895E-4,-5.8973234E-2,1.9736905E-2,4.031337E-2],"split_indices":[16,15,3,15,26,28,2,8,15,14,15,15,0,28,25,8,1,41,25,28,32,10,15,0,0,2,0,0,0,15,0,15,15,15,28,0,28,28,0,2,2,26,8,28,8,10,0,0,0,0,0,0,0,0,0,0,0,0,0,0,0,0,0,0,0,0,0,0,0,0,0,0,0,0,0,0,0,0,0,0,0],"split_type":[0,0,0,0,0,0,0,0,0,0,0,0,0,0,0,0,0,0,0,0,0,0,0,0,0,0,0,0,0,0,0,0,0,0,0,0,0,0,0,0,0,0,0,0,0,0,0,0,0,0,0,0,0,0,0,0,0,0,0,0,0,0,0,0,0,0,0,0,0,0,0,0,0,0,0,0,0,0,0,0,0],"sum_hessian":[1.0964374E3,8.751452E2,2.2129225E2,6.543414E2,2.2080379E2,2.295156E1,1.983407E2,3.567526E2,2.975888E2,1.516021E2,6.920168E1,1.8870798E1,4.080761E0,1.3523508E2,6.3105614E1,2.472558E2,1.09496796E2,2.1842303E2,7.916577E1,8.1587494E1,7.001461E1,1.635387E1,5.2847813E1,2.7209775E0,1.6149822E1,8.733521E1,4.7899868E1,3.366605E0,5.973901E1,2.342836E2,1.2972198E1,7.682781E1,3.266898E1,9.196652E1,1.2645651E2,7.8009057E0,7.136487E1,6.1408014E0,7.544669E1,4.2191067E1,2.782354E1,5.885308E0,1.0468563E1,2.167097E1,3.1176842E1,8.4696846E1,2.6383617E0,4.5590664E1,2.3092043E0,1.2703718E0,2.0962331E0,5.4471006E0,2.288365E2,8.826766E0,4.1454315E0,6.5595375E1,1.1232434E1,1.6818258E1,1.5850723E1,5.011414E1,4.1852383E1,6.4106544E1,6.234997E1,6.4495735E1,6.869135E0,3.973901E0,2.1669002E0,3.8560165E1,3.6309018E0,2.3010374E1,4.8131666E0,1.3828589E0,4.502449E0,5.196613E0,5.2719502E0,3.8899617E0,1.778101E1,2.4265688E1,6.9111533E0,3.872586E1,4.597099E1],"tree_param":{"num_deleted":"0","num_feature":"44","num_nodes":"81","size_leaf_vector":"1"}},{"base_weights":[3.480846E-2,-6.8391286E-2,6.837555E-2],"categories":[],"categories_nodes":[],"categories_segments":[],"categories_sizes":[],"default_left":[0,0,0],"id":15,"left_children":[1,-1,-1],"loss_changes":[2.096459E3,0E0,0E0],"parents":[2147483647,0,0],"right_children":[2,-1,-1],"split_conditions":[1E0,-6.8391286E-2,6.837555E-2],"split_indices":[6,0,0],"split_type":[0,0,0],"sum_hessian":[1.1195236E3,5.4543805E2,5.740855E2],"tree_param":{"num_deleted":"0","num_feature":"44","num_nodes":"3","size_leaf_vector":"1"}},{"base_weights":[-3.5622936E-2,-6.713804E-2,6.720145E-2],"categories":[],"categories_nodes":[],"categories_segments":[],"categories_sizes":[],"default_left":[0,0,0],"id":16,"left_children":[1,-1,-1],"loss_changes":[1.8701602E3,0E0,0E0],"parents":[2147483647,0,0],"right_children":[2,-1,-1],"split_conditions":[1E0,-6.713804E-2,6.720145E-2],"split_indices":[6,0,0],"split_type":[0,0,0],"sum_hessian":[1.0350211E3,5.3149146E2,5.035297E2],"tree_param":{"num_deleted":"0","num_feature":"44","num_nodes":"3","size_leaf_vector":"1"}},{"base_weights":[1.0605803E-2,-6.605276E-2,6.608793E-2],"categories":[],"categories_nodes":[],"categories_segments":[],"categories_sizes":[],"default_left":[0,0,0],"id":17,"left_children":[1,-1,-1],"loss_changes":[1.8035504E3,0E0,0E0],"parents":[2147483647,0,0],"right_children":[2,-1,-1],"split_conditions":[1E0,-6.605276E-2,6.608793E-2],"split_indices":[6,0,0],"split_type":[0,0,0],"sum_hessian":[1.0309548E3,5.114736E2,5.1948126E2],"tree_param":{"num_deleted":"0","num_feature":"44","num_nodes":"3","size_leaf_vector":"1"}},{"base_weights":[-2.186287E-2,1.8790656E-1,-6.717929E-1,-1.0841019E-3,3.9992517E-1,-9.547286E-1,-2.1850888E-1,2.944222E-1,-4.6040127E-1,5.2794755E-1,-1.2800679E-1,-1.1943852E0,-7.510244E-1,-4.6482605E-1,9.067783E-1,-3.3233842E-1,6.691615E-1,1.058676E-2,-7.938521E-1,3.9274672E-1,7.1419495E-1,3.9759252E-2,-9.105936E-1,7.4443086E-3,-6.2038876E-2,3.5441466E-2,-8.078384E-1,-5.1903087E-1,4.517581E-2,-1.33037E-4,1.03471E0,-1.8989014E-2,-1.0076052E0,2.263651E-1,1.0115931E0,-1.5644872E-1,6.759515E-1,-1.0270983E0,-2.0789164E-1,4.937885E-2,5.240298E-1,7.354598E-1,-1.5126799E-1,3.7114275E-1,-4.381385E-1,3.0093882E-2,-5.776897E-2,-6.5707225E-1,-1.0944812E0,-7.039069E-1,4.9063587E-3,2.1342607E-2,5.4324336E-2,-1.014645E-2,5.0727542E-2,-6.1029583E-2,-6.0305884E-4,1.5160779E-2,-5.0231583E-2,3.4362047E-3,5.31422E-2,-3.2381404E-3,-5.2901506E-2,4.2359084E-3,3.9112184E-2,-5.7300976E-3,-5.537143E-2,-5.8209598E-2,1.2168212E-2,1.1449057E-2,-5.5929955E-2,-5.288749E-2,2.9158372E-2,-3.830516E-3,3.7739705E-2,1.8568803E-2,-3.5011742E-2,-4.893606E-2,2.6600892E-2,1.4608477E-2,-4.076575E-2,3.0183969E-2,-3.320251E-2,-3.7571024E-2,3.8689744E-2,-6.1250713E-2,2.0283535E-2,-5.516987E-2,-1.8565983E-2,2.2391196E-2,-2.6387243E-2],"categories":[],"categories_nodes":[],"categories_segments":[],"categories_sizes":[],"default_left":[0,0,0,0,0,0,0,0,0,0,0,0,0,0,0,0,0,0,0,0,0,0,0,0,0,0,0,0,0,0,0,0,0,0,0,0,0,0,0,0,0,0,0,0,0,0,0,0,0,0,0,0,0,0,0,0,0,0,0,0,0,0,0,0,0,0,0,0,0,0,0,0,0,0,0,0,0,0,0,0,0,0,0,0,0,0,0,0,0,0,0],"id":18,"left_children":[1,3,5,7,9,11,13,15,17,19,21,23,25,27,29,31,33,35,37,39,41,43,45,-1,-1,-1,47,49,-1,-1,51,53,55,57,59,61,63,65,67,69,71,73,75,77,79,81,-1,83,85,87,89,-1,-1,-1,-1,-1,-1,-1,-1,-1,-1,-1,-1,-1,-1,-1,-1,-1,-1,-1,-1,-1,-1,-1,-1,-1,-1,-1,-1,-1,-1,-1,-1,-1,-1,-1,-1,-1,-1,-1,-1],"loss_changes":[1.3302905E2,2.9561487E1,3.0324982E1,5.3213436E1,2.3567081E1,6.244522E0,2.6141455E1,5.625543E1,2.4113129E1,6.7708435E0,9.051178E0,4.267647E0,7.3544693E0,6.164486E0,1.9809685E0,1.9010672E1,2.2459541E1,7.286217E0,1.2070023E1,7.3881874E0,2.2563782E0,9.268854E0,2.8355236E0,0E0,0E0,0E0,2.702362E0,7.219652E0,0E0,0E0,5.4454803E-3,1.2077982E1,6.0254765E0,6.5996857E0,3.9904785E0,4.267537E0,7.602844E-1,4.566719E0,1.1867176E1,1.003038E1,1.1736809E1,1.846672E0,1.3000032E0,8.012005E0,6.8502164E0,1.7888839E0,0E0,7.9234734E0,5.546541E0,6.9077835E0,5.0548196E0,0E0,0E0,0E0,0E0,0E0,0E0,0E0,0E0,0E0,0E0,0E0,0E0,0E0,0E0,0E0,0E0,0E0,0E0,0E0,0E0,0E0,0E0,0E0,0E0,0E0,0E0,0E0,0E0,0E0,0E0,0E0,0E0,0E0,0E0,0E0,0E0,0E0,0E0,0E0,0E0],"parents":[2147483647,0,0,1,1,2,2,3,3,4,4,5,5,6,6,7,7,8,8,9,9,10,10,11,11,12,12,13,13,14,14,15,15,16,16,17,17,18,18,19,19,20,20,21,21,22,22,26,26,27,27,30,30,31,31,32,32,33,33,34,34,35,35,36,36,37,37,38,38,39,39,40,40,41,41,42,42,43,43,44,44,45,45,47,47,48,48,49,49,50,50],"right_children":[2,4,6,8,10,12,14,16,18,20,22,24,26,28,30,32,34,36,38,40,42,44,46,-1,-1,-1,48,50,-1,-1,52,54,56,58,60,62,64,66,68,70,72,74,76,78,80,82,-1,84,86,88,90,-1,-1,-1,-1,-1,-1,-1,-1,-1,-1,-1,-1,-1,-1,-1,-1,-1,-1,-1,-1,-1,-1,-1,-1,-1,-1,-1,-1,-1,-1,-1,-1,-1,-1,-1,-1,-1,-1,-1,-1],"split_conditions":[2E0,-2.966667E0,1.32E1,-3.16E1,7E-1,2.55E1,4.89965E1,-5.1766666E1,-1.9E0,3E1,4.89962E1,2.066667E0,2.95E1,7.6E1,6.79869E-1,2.18E1,5.1E1,2.25E1,-4.033333E0,-1.333333E0,3.194E1,4.02768E-1,1.24E0,7.4443086E-3,-6.2038876E-2,3.5441466E-2,6.75E1,2.2E1,4.517581E-2,-1.33037E-4,2.55E1,1.0333333E1,-5.29E1,2.2E1,-1.32E1,-1.1066667E1,-3.06E1,4.714E-2,6.79869E-1,4.89977E1,5E-1,4.714E-2,3.5E1,7.766667E0,4.6E1,1.033333E0,-5.776897E-2,6.5E1,2.7E1,3.2424263E1,4.89918E1,2.1342607E-2,5.4324336E-2,-1.014645E-2,5.0727542E-2,-6.1029583E-2,-6.0305884E-4,1.5160779E-2,-5.0231583E-2,3.4362047E-3,5.31422E-2,-3.2381404E-3,-5.2901506E-2,4.2359084E-3,3.9112184E-2,-5.7300976E-3,-5.537143E-2,-5.8209598E-2,1.2168212E-2,1.1449057E-2,-5.5929955E-2,-5.288749E-2,2.9158372E-2,-3.830516E-3,3.7739705E-2,1.8568803E-2,-3.5011742E-2,-4.893606E-2,2.6600892E-2,1.4608477E-2,-4.076575E-2,3.0183969E-2,-3.320251E-2,-3.7571024E-2,3.8689744E-2,-6.1250713E-2,2.0283535E-2,-5.516987E-2,-1.8565983E-2,2.2391196E-2,-2.6387243E-2],"split_indices":[15,15,26,15,15,1,28,15,13,0,28,15,1,24,12,8,3,0,15,15,25,12,26,0,0,0,8,5,0,0,1,25,15,5,25,25,15,12,12,28,1,12,0,10,24,15,0,1,5,42,28,0,0,0,0,0,0,0,0,0,0,0,0,0,0,0,0,0,0,0,0,0,0,0,0,0,0,0,0,0,0,0,0,0,0,0,0,0,0,0,0],"split_type":[0,0,0,0,0,0,0,0,0,0,0,0,0,0,0,0,0,0,0,0,0,0,0,0,0,0,0,0,0,0,0,0,0,0,0,0,0,0,0,0,0,0,0,0,0,0,0,0,0,0,0,0,0,0,0,0,0,0,0,0,0,0,0,0,0,0,0,0,0,0,0,0,0,0,0,0,0,0,0,0,0,0,0,0,0,0,0,0,0,0,0],"sum_hessian":[9.7382214E2,7.3674384E2,2.370783E2,3.9005167E2,3.4669217E2,1.4528592E2,9.1792366E1,2.3756856E2,1.5248311E2,2.7902835E2,6.76638E1,6.451784E1,8.076809E1,7.578952E1,1.6002848E1,8.893528E1,1.4863327E2,6.360767E1,8.887544E1,1.634705E2,1.1555785E2,5.6500732E1,1.1163075E1,2.0801044E0,6.243773E1,2.5956485E0,7.817244E1,7.349867E1,2.290852E0,2.0942783E0,1.3908569E1,6.1448814E1,2.7486465E1,6.5542145E1,8.3091125E1,5.145508E1,1.2152594E1,6.303215E1,2.5843294E1,4.559471E1,1.1787579E2,1.1293324E2,2.624612E0,3.3496796E1,2.3003937E1,2.4861412E0,8.676935E0,5.3385475E1,2.4786966E1,5.4074493E1,1.9424175E1,1.8173208E0,1.20912485E1,5.2847206E1,8.601607E0,2.2456146E1,5.030319E0,6.240022E1,3.1419299E0,4.4043703E0,7.868676E1,4.7678288E1,3.7767897E0,2.1257086E0,1.0026885E1,5.296318E0,5.7735832E1,7.7787313E0,1.8064562E1,4.021476E1,5.379952E0,3.6396008E0,1.1423619E2,2.557374E0,1.1037586E2,1.5102645E0,1.1143477E0,3.0256412E0,3.0471153E1,7.911218E0,1.5092718E1,1.4326438E0,1.0534973E0,5.0528584E1,2.8568933E0,2.2971544E1,1.8154213E0,2.3513454E1,3.056104E1,1.0692365E1,8.73181E0],"tree_param":{"num_deleted":"0","num_feature":"44","num_nodes":"91","size_leaf_vector":"1"}},{"base_weights":[-4.835319E-3,-6.474798E-2,6.471907E-2],"categories":[],"categories_nodes":[],"categories_segments":[],"categories_sizes":[],"default_left":[0,0,0],"id":19,"left_children":[1,-1,-1],"loss_changes":[1.62499E3,0E0,0E0],"parents":[2147483647,0,0],"right_children":[2,-1,-1],"split_conditions":[1E0,-6.474798E-2,6.471907E-2],"split_indices":[6,0,0],"split_type":[0,0,0],"sum_hessian":[9.6747705E2,4.8543878E2,4.8203827E2],"tree_param":{"num_deleted":"0","num_feature":"44","num_nodes":"3","size_leaf_vector":"1"}},{"base_weights":[3.5020842E-3,-1.4828973E-1,6.252884E-1,-5.801008E-2,-1.2192983E-1,-9.3293804E-1,7.5816584E-1,-7.6019496E-2,-5.0128394E-1,-1.1341884E-1,-5.6299534E-2,5.887219E-1,1.0881552E0,4.7920164E-2,-2.606394E-1,-3.4851947E-1,-1.0054318E0,-3.787378E-2,3.117594E-2,3.566992E-1,9.617884E-1,4.519116E-1,1.1140722E0,-8.966156E-2,2.1518321E-1,-1.7989506E-1,-5.900986E-1,-1.8983637E-1,-8.0614215E-1,-5.887405E-2,3.6715303E-2,-3.951502E-1,4.7810772E-1,5.0014656E-2,6.138602E-3,3.3411127E-2,6.3432665E-3,5.7404663E-2,5.236581E-1,1.3471224E-3,-2.2921557E-2,-5.1387556E-2,1.2392399E-2,3.493673E-3,-1.5423215E-2,-1.776194E-2,-5.0400652E-2,-2.6688283E-2,4.0424793E-4,6.648082E-3,-5.7138253E-2,-5.3257246E-2,3.7368525E-2,3.6485802E-2,1.0175805E-2,1.5005614E-3,4.0626287E-2],"categories":[],"categories_nodes":[],"categories_segments":[],"categories_sizes":[],"default_left":[0,0,0,0,0,0,0,0,0,0,0,0,0,0,0,0,0,0,0,0,0,0,0,0,0,0,0,0,0,0,0,0,0,0,0,0,0,0,0,0,0,0,0,0,0,0,0,0,0,0,0,0,0,0,0,0,0],"id":20,"left_children":[1,3,5,-1,7,9,11,13,15,17,-1,19,21,23,25,27,29,-1,-1,31,33,35,37,39,41,43,45,47,49,-1,-1,51,53,-1,-1,-1,-1,-1,55,-1,-1,-1,-1,-1,-1,-1,-1,-1,-1,-1,-1,-1,-1,-1,-1,-1,-1],"loss_changes":[8.816201E1,1.9886E1,3.865763E1,0E0,1.2725968E1,2.2217226E0,8.833427E0,1.4998669E1,5.7293053E0,2.343887E0,0E0,9.5360985E0,4.250183E-1,9.056569E0,6.8961887E0,4.357493E0,6.2006626E0,0E0,0E0,6.757202E0,1.2719879E0,1.8847775E-1,4.7182465E-1,9.308156E0,7.4625864E0,6.8567634E0,4.6844273E0,3.2328663E0,5.110265E0,0E0,0E0,8.873124E0,4.1630316E0,0E0,0E0,0E0,0E0,0E0,6.528313E-1,0E0,0E0,0E0,0E0,0E0,0E0,0E0,0E0,0E0,0E0,0E0,0E0,0E0,0E0,0E0,0E0,0E0,0E0],"parents":[2147483647,0,0,1,1,2,2,4,4,5,5,6,6,7,7,8,8,9,9,11,11,12,12,13,13,14,14,15,15,16,16,19,19,20,20,21,21,22,22,23,23,24,24,25,25,26,26,27,27,28,28,31,31,32,32,38,38],"right_children":[2,4,6,-1,8,10,12,14,16,18,-1,20,22,24,26,28,30,-1,-1,32,34,36,38,40,42,44,46,48,50,-1,-1,52,54,-1,-1,-1,-1,-1,56,-1,-1,-1,-1,-1,-1,-1,-1,-1,-1,-1,-1,-1,-1,-1,-1,-1,-1],"split_conditions":[1E0,-1.3E1,-1.2E1,-5.801008E-2,4.89971E1,2E-1,9.5E1,3.0297056E1,3.55E1,6E0,-5.6299534E-2,4.89968E1,-1.32E1,2E1,8.2E1,4.89991E1,2.9E1,-3.787378E-2,3.117594E-2,-5E-1,1.4E1,3.5E0,7.23E1,9.5E0,-4.7E0,-9.033333E0,4.89923E1,4.8998E1,3.5E0,-5.887405E-2,3.6715303E-2,2.528E1,8E-1,5.0014656E-2,6.138602E-3,3.3411127E-2,6.3432665E-3,5.7404663E-2,7.71E1,1.3471224E-3,-2.2921557E-2,-5.1387556E-2,1.2392399E-2,3.493673E-3,-1.5423215E-2,-1.776194E-2,-5.0400652E-2,-2.6688283E-2,4.0424793E-4,6.648082E-3,-5.7138253E-2,-5.3257246E-2,3.7368525E-2,3.6485802E-2,1.0175805E-2,1.5005614E-3,4.0626287E-2],"split_indices":[16,3,3,0,28,11,2,42,3,32,0,28,25,0,2,28,5,0,0,0,0,0,8,8,13,25,28,28,8,0,0,25,11,0,0,0,0,0,8,0,0,0,0,0,0,0,0,0,0,0,0,0,0,0,0,0,0],"split_type":[0,0,0,0,0,0,0,0,0,0,0,0,0,0,0,0,0,0,0,0,0,0,0,0,0,0,0,0,0,0,0,0,0,0,0,0,0,0,0,0,0,0,0,0,0,0,0,0,0,0,0,0,0,0,0,0,0],"sum_hessian":[9.3211456E2,7.498268E2,1.822878E2,1.794473E1,7.31882E2,1.3850051E1,1.6843774E2,6.539409E2,7.79411E1,2.9432578E0,1.0906794E1,1.13130974E2,5.5306778E1,3.9171436E2,2.622266E2,6.1113945E1,1.6827156E1,1.5557337E0,1.387524E0,7.095672E1,4.2174255E1,2.8863301E0,5.242045E1,2.1518146E2,1.765329E2,2.1185172E2,5.0374878E1,4.6429203E1,1.468474E1,1.56069145E1,1.2202412E0,9.551598E0,6.140512E1,4.0139904E1,2.0343504E0,1.0991162E0,1.7872139E0,4.8671337E1,3.749109E0,1.6419147E2,5.0989986E1,3.740452E0,1.7279245E2,7.2147995E1,1.3970372E2,3.343505E1,1.6939825E1,1.6339346E1,3.0089857E1,4.03447E0,1.065027E1,6.063548E0,3.48805E0,3.1178661E1,3.022646E1,1.7915004E0,1.9576085E0],"tree_param":{"num_deleted":"0","num_feature":"44","num_nodes":"57","size_leaf_vector":"1"}},{"base_weights":[1.1464921E-2,-1.4385515E-1,6.4819485E-1,-9.597371E-2,-5.462611E-1,-9.185286E-1,7.6672125E-1,-6.378265E-1,-5.9232835E-2,-5.7456183E-1,3.6079008E-2,2.6028398E-2,-5.5868812E-2,6.2182075E-1,1.0436727E0,-8.359609E-1,2.7462703E-1,7.075809E-2,-1.4782757E-1,-4.6706322E-1,-9.6490604E-1,4.3877196E-1,9.430845E-1,4.4218373E-1,5.3350527E-2,-5.8004618E-2,-4.61002E-1,-3.0596384E-1,7.6464E-1,8.834674E-2,-4.948264E-2,-6.009357E-1,-6.796298E-2,-7.162658E-1,-1.556411E-1,2.9435847E-2,-5.7616144E-2,2.242224E-1,7.07306E-1,9.735061E-1,9.911219E-3,3.2870963E-2,6.143415E-3,-5.346463E-2,-2.8647602E-4,3.5829373E-2,-4.3893974E-2,4.483758E-2,1.5091001E-2,5.3932634E-3,-2.4124166E-2,-1.8303616E-2,-5.1616933E-2,2.0151852E-2,-7.80059E-3,-2.575398E-2,-5.5677235E-2,-1.2748106E-2,3.215775E-2,3.0381972E-2,-3.621975E-2,-3.9011642E-2,3.976522E-2,1.4796999E-2,4.9528297E-2],"categories":[],"categories_nodes":[],"categories_segments":[],"categories_sizes":[],"default_left":[0,0,0,0,0,0,0,0,0,0,0,0,0,0,0,0,0,0,0,0,0,0,0,0,0,0,0,0,0,0,0,0,0,0,0,0,0,0,0,0,0,0,0,0,0,0,0,0,0,0,0,0,0,0,0,0,0,0,0,0,0,0,0,0,0],"id":21,"left_children":[1,3,5,7,9,11,13,15,17,19,-1,-1,-1,21,23,25,27,29,31,33,35,37,39,41,-1,-1,43,45,47,49,-1,51,53,55,57,-1,-1,59,61,63,-1,-1,-1,-1,-1,-1,-1,-1,-1,-1,-1,-1,-1,-1,-1,-1,-1,-1,-1,-1,-1,-1,-1,-1,-1],"loss_changes":[9.320709E1,1.454697E1,3.502375E1,1.3466959E1,3.2979183E0,4.431446E0,6.267914E0,7.99864E0,7.339329E0,2.8710117E0,0E0,0E0,0E0,6.386093E0,3.3855438E-1,3.7862682E0,2.629234E0,4.9107533E0,1.3665917E1,4.855811E0,5.3822737E0,4.193021E0,7.383499E-1,1.8478501E-1,0E0,0E0,5.0186043E0,3.3003473E0,2.5989294E-2,2.8965912E0,0E0,5.3599453E0,1.3463903E1,2.2460136E0,2.522569E0,0E0,0E0,1.6243546E1,4.9508476E0,1.6033173E-1,0E0,0E0,0E0,0E0,0E0,0E0,0E0,0E0,0E0,0E0,0E0,0E0,0E0,0E0,0E0,0E0,0E0,0E0,0E0,0E0,0E0,0E0,0E0,0E0,0E0],"parents":[2147483647,0,0,1,1,2,2,3,3,4,4,5,5,6,6,7,7,8,8,9,9,13,13,14,14,15,15,16,16,17,17,18,18,19,19,20,20,21,21,22,22,23,23,26,26,27,27,28,28,29,29,31,31,32,32,33,33,34,34,37,37,38,38,39,39],"right_children":[2,4,6,8,10,12,14,16,18,20,-1,-1,-1,22,24,26,28,30,32,34,36,38,40,42,-1,-1,44,46,48,50,-1,52,54,56,58,-1,-1,60,62,64,-1,-1,-1,-1,-1,-1,-1,-1,-1,-1,-1,-1,-1,-1,-1,-1,-1,-1,-1,-1,-1,-1,-1,-1,-1],"split_conditions":[1E0,4.89973E1,-1.2E1,-5E-1,2.9E1,-1.08E1,7.7E1,2.134E1,8.7E0,3.6E1,3.6079008E-2,2.6028398E-2,-5.5868812E-2,4.89972E1,-1.32E1,4.89916E1,2.85E1,1.37E2,1.95E1,1.05E1,9E-1,2.89E1,1.6E1,3.5E0,5.3350527E-2,-5.8004618E-2,4.15E1,2.7E0,5E0,2.8E1,-4.948264E-2,4.62E0,3.1E1,9.6E0,3.33E1,2.9435847E-2,-5.7616144E-2,1.9E1,1E0,3E0,9.911219E-3,3.2870963E-2,6.143415E-3,-5.346463E-2,-2.8647602E-4,3.5829373E-2,-4.3893974E-2,4.483758E-2,1.5091001E-2,5.3932634E-3,-2.4124166E-2,-1.8303616E-2,-5.1616933E-2,2.0151852E-2,-7.80059E-3,-2.575398E-2,-5.5677235E-2,-1.2748106E-2,3.215775E-2,3.0381972E-2,-3.621975E-2,-3.9011642E-2,3.976522E-2,1.4796999E-2,4.9528297E-2],"split_indices":[16,28,3,0,5,8,1,26,8,1,0,0,0,28,25,28,1,1,0,1,8,10,0,0,0,0,1,8,5,5,0,25,0,10,8,0,0,1,32,1,0,0,0,0,0,0,0,0,0,0,0,0,0,0,0,0,0,0,0,0,0,0,0,0,0],"split_type":[0,0,0,0,0,0,0,0,0,0,0,0,0,0,0,0,0,0,0,0,0,0,0,0,0,0,0,0,0,0,0,0,0,0,0,0,0,0,0,0,0,0,0,0,0,0,0,0,0,0,0,0,0,0,0,0,0,0,0,0,0,0,0,0,0],"sum_hessian":[9.4052405E2,7.5671063E2,1.8381339E2,6.773524E2,7.935825E1,1.2453191E1,1.7136018E2,4.1973213E1,6.353792E2,7.816037E1,1.1978784E0,1.3154087E0,1.1137782E1,1.1463078E2,5.6729404E1,3.455386E1,7.419356E0,2.576065E2,3.7777267E2,6.3005543E1,1.5154832E1,7.453068E1,4.0100105E1,2.86394E0,5.3865467E1,1.7409975E1,1.7143885E1,3.5677338E0,3.851622E0,2.5430513E2,3.3013806E0,5.5630592E1,3.221421E2,3.4276897E1,2.8728643E1,1.4008697E0,1.37539625E1,4.2449753E1,3.208092E1,3.823168E1,1.8684236E0,1.0782814E0,1.7856586E0,6.761347E0,1.0382538E1,1.1889684E0,2.3787653E0,2.266943E0,1.5846791E0,2.4668134E2,7.623793E0,3.721736E1,1.8413229E1,5.017315E1,2.7196893E2,2.4278522E1,9.998376E0,2.6157125E1,2.5715182E0,3.0486864E1,1.1962889E1,1.3524483E0,3.0728474E1,1.3895617E0,3.684212E1],"tree_param":{"num_deleted":"0","num_feature":"44","num_nodes":"65","size_leaf_vector":"1"}},{"base_weights":[-7.320421E-3,1.997633E-1,-5.1541775E-1,6.3634634E-2,7.501409E-1,-6.101776E-1,6.3454306E-1,-1.8289527E-1,4.2392823E-1,5.906155E-1,5.215604E-2,-1.0033969E0,-4.8308662E-1,-4.7370818E-2,9.5818996E-1,-4.6202363E-3,-6.306079E-1,2.2211057E-1,6.4118E-1,6.8270147E-1,-2.5773463E-1,-5.338108E-1,-5.9345663E-2,-3.871645E-2,-6.037913E-1,7.7198944E-3,1.0409571E0,-1.1864098E-1,5.769291E-1,-2.7381912E-1,-9.563197E-1,2.720744E-1,-5.1193554E-2,7.5749326E-1,5.201904E-2,2.8753918E-1,8.9230615E-1,9.260267E-2,-4.5851633E-2,2.8936785E-1,-9.179461E-1,-5.290219E-2,1.3016531E-1,-7.1225655E-1,6.817418E-2,5.458958E-2,1.3256274E-2,-2.4693748E-3,-5.797664E-2,-2.8198704E-2,3.8859636E-2,-2.4731005E-2,3.515963E-2,-5.9807986E-2,7.877533E-3,-9.336892E-3,1.94636E-2,6.490988E-3,3.932043E-2,-4.4008784E-2,1.1384047E-2,2.0848151E-2,-4.512653E-2,4.7760725E-2,2.1957878E-3,-4.156754E-2,2.7619546E-2,-3.5016835E-2,3.210136E-2,4.0459377E-3,-5.6646954E-2,-9.461646E-3,2.1741267E-2,-5.620273E-2,-2.5154663E-2,2.6130665E-2,-5.1179267E-2],"categories":[],"categories_nodes":[],"categories_segments":[],"categories_sizes":[],"default_left":[0,0,0,0,0,0,0,0,0,0,0,0,0,0,0,0,0,0,0,0,0,0,0,0,0,0,0,0,0,0,0,0,0,0,0,0,0,0,0,0,0,0,0,0,0,0,0,0,0,0,0,0,0,0,0,0,0,0,0,0,0,0,0,0,0,0,0,0,0,0,0,0,0,0,0,0,0],"id":22,"left_children":[1,3,5,7,9,11,13,15,17,19,-1,21,23,-1,25,27,29,31,33,35,37,39,-1,41,43,-1,45,47,49,51,53,55,-1,57,59,61,63,65,-1,67,69,-1,71,73,75,-1,-1,-1,-1,-1,-1,-1,-1,-1,-1,-1,-1,-1,-1,-1,-1,-1,-1,-1,-1,-1,-1,-1,-1,-1,-1,-1,-1,-1,-1,-1,-1],"loss_changes":[9.509159E1,4.8059208E1,2.890261E1,4.5898117E1,5.330307E0,1.1622589E1,1.1358589E1,2.449945E1,9.059719E0,6.7913437E0,0E0,4.386055E0,9.900703E0,0E0,9.9967194E-1,1.4693928E1,9.897137E0,7.147281E0,6.8505936E0,6.0932884E0,2.1678166E0,6.0158176E0,0E0,7.125213E0,1.0648251E1,0E0,3.2735443E-1,1.3295816E1,8.738304E0,9.64998E0,1.2290016E1,5.819265E0,0E0,1.420517E0,3.090713E0,4.696064E0,2.6061707E0,3.3467302E0,0E0,2.7344406E0,2.805766E0,0E0,3.5573237E0,1.0227455E1,1.1015742E1,0E0,0E0,0E0,0E0,0E0,0E0,0E0,0E0,0E0,0E0,0E0,0E0,0E0,0E0,0E0,0E0,0E0,0E0,0E0,0E0,0E0,0E0,0E0,0E0,0E0,0E0,0E0,0E0,0E0,0E0,0E0,0E0],"parents":[2147483647,0,0,1,1,2,2,3,3,4,4,5,5,6,6,7,7,8,8,9,9,11,11,12,12,14,14,15,15,16,16,17,17,18,18,19,19,20,20,21,21,23,23,24,24,26,26,27,27,28,28,29,29,30,30,31,31,33,33,34,34,35,35,36,36,37,37,39,39,40,40,42,42,43,43,44,44],"right_children":[2,4,6,8,10,12,14,16,18,20,-1,22,24,-1,26,28,30,32,34,36,38,40,-1,42,44,-1,46,48,50,52,54,56,-1,58,60,62,64,66,-1,68,70,-1,72,74,76,-1,-1,-1,-1,-1,-1,-1,-1,-1,-1,-1,-1,-1,-1,-1,-1,-1,-1,-1,-1,-1,-1,-1,-1,-1,-1,-1,-1,-1,-1,-1,-1],"split_conditions":[1.033333E0,1E0,2.4439999E1,-3.033333E0,8.1E1,8.5E0,9E-1,2.18E1,2.9E1,8.95669E-1,5.215604E-2,2.333333E0,2.3E0,-4.7370818E-2,3.2E1,1.21E2,4.89923E1,1.08423E0,-8E-1,4.89923E1,3.3333E-2,4.89898E1,-5.9345663E-2,1.233333E0,1E0,7.7198944E-3,3.3666668E1,1.05E1,-8.9E1,2.3E1,-3.5E0,-1.833333E0,-5.1193554E-2,2E-1,4.89897E1,1.1E0,2.66667E-1,-1.33333E-1,-4.5851633E-2,1E1,1.3E0,-5.290219E-2,8.666667E0,3E0,2.084E1,5.458958E-2,1.3256274E-2,-2.4693748E-3,-5.797664E-2,-2.8198704E-2,3.8859636E-2,-2.4731005E-2,3.515963E-2,-5.9807986E-2,7.877533E-3,-9.336892E-3,1.94636E-2,6.490988E-3,3.932043E-2,-4.4008784E-2,1.1384047E-2,2.0848151E-2,-4.512653E-2,4.7760725E-2,2.1957878E-3,-4.156754E-2,2.7619546E-2,-3.5016835E-2,3.210136E-2,4.0459377E-3,-5.6646954E-2,-9.461646E-3,2.1741267E-2,-5.620273E-2,-2.5154663E-2,2.6130665E-2,-5.1179267E-2],"split_indices":[15,16,25,15,1,1,11,8,1,12,0,15,15,0,1,1,28,12,15,28,15,28,0,15,16,0,10,14,15,5,15,15,0,11,28,11,15,15,0,5,15,0,26,32,26,0,0,0,0,0,0,0,0,0,0,0,0,0,0,0,0,0,0,0,0,0,0,0,0,0,0,0,0,0,0,0,0],"split_type":[0,0,0,0,0,0,0,0,0,0,0,0,0,0,0,0,0,0,0,0,0,0,0,0,0,0,0,0,0,0,0,0,0,0,0,0,0,0,0,0,0,0,0,0,0,0,0,0,0,0,0,0,0,0,0,0,0,0,0,0,0,0,0,0,0,0,0,0,0,0,0,0,0,0,0,0,0],"sum_hessian":[9.017733E2,6.4109216E2,2.6068118E2,5.1486316E2,1.2622902E2,2.4126933E2,1.9411839E1,3.0598566E2,2.0887749E2,8.368114E1,4.254788E1,5.724824E1,1.840211E2,2.96956E0,1.644228E1,2.1956659E2,8.641907E1,1.09333595E2,9.954389E1,7.566336E1,8.017781E0,1.7184616E1,4.0063625E1,3.9590553E1,1.4443054E2,1.802526E0,1.4639753E1,1.8423982E2,3.532676E1,4.212046E1,4.4298607E1,1.0586985E2,3.463741E0,8.2893234E1,1.6650656E1,2.7046017E1,4.861734E1,5.796947E0,2.2208338E0,5.5461836E0,1.16384325E1,4.8787384E0,3.4711815E1,1.2430577E2,2.0124767E1,1.3357295E1,1.282458E0,1.7372862E2,1.051121E1,5.0038166E0,3.0322943E1,3.475884E1,7.361625E0,3.638933E1,7.909278E0,2.1420036E1,8.4449814E1,3.8922668E0,7.900097E1,2.004205E0,1.4646451E1,2.4979094E1,2.0669234E0,4.514399E1,3.4733517E0,1.6576834E0,4.1392636E0,1.1980629E0,4.3481207E0,2.1717997E0,9.466633E0,1.713098E1,1.7580835E1,4.039754E1,8.390823E1,1.4578045E1,5.546723E0],"tree_param":{"num_deleted":"0","num_feature":"44","num_nodes":"77","size_leaf_vector":"1"}},{"base_weights":[-6.608513E-3,-1.290154E-1,5.486208E-1,2.7120981E-2,-2.4824983E-1,-7.5123227E-1,6.7778903E-1,-8.154451E-1,5.6189723E-2,-5.5256512E-2,-2.1707633E-1,3.8328566E-2,-5.5081863E-2,5.150729E-1,1.0275639E0,2.9533362E-2,-5.4270823E-2,7.046437E-2,-4.759019E-2,-1.947774E-1,-8.932021E-1,3.0436996E-1,8.8809705E-1,1.6196641E-4,5.368175E-2,-1.13947E-1,1.2365383E-1,-7.025854E-2,-2.870805E-1,-5.5233188E-2,1.2304606E-2,2.0787332E-2,5.90087E-1,9.277429E-1,6.2543787E-3,-2.877719E-3,-4.7668684E-2,1.5002005E-3,1.6451819E-2,-7.727602E-3,2.3219822E-2,-3.693935E-2,-5.9542223E-3,2.0206694E-2,-4.282388E-2,3.379056E-2,9.531081E-3,5.228719E-2,3.452053E-2],"categories":[],"categories_nodes":[],"categories_segments":[],"categories_sizes":[],"default_left":[0,0,0,0,0,0,0,0,0,0,0,0,0,0,0,0,0,0,0,0,0,0,0,0,0,0,0,0,0,0,0,0,0,0,0,0,0,0,0,0,0,0,0,0,0,0,0,0,0],"id":23,"left_children":[1,3,5,7,9,11,13,15,17,-1,19,-1,-1,21,23,-1,-1,25,-1,27,29,31,33,-1,-1,35,37,39,41,-1,-1,43,45,47,-1,-1,-1,-1,-1,-1,-1,-1,-1,-1,-1,-1,-1,-1,-1],"loss_changes":[6.066029E1,1.362061E1,2.757938E1,7.823046E0,1.0838348E1,8.847503E0,7.8473816E0,4.68557E0,4.4971204E0,0E0,5.878126E0,0E0,0E0,7.782444E0,2.1543617E0,0E0,0E0,3.0009964E0,0E0,4.4608917E0,3.2923002E0,5.4159365E0,9.8690796E-1,0E0,0E0,3.1967058E0,4.5452394E0,7.6115937E0,1.687835E1,0E0,0E0,1.2001978E1,1.012702E0,2.4431801E-1,0E0,0E0,0E0,0E0,0E0,0E0,0E0,0E0,0E0,0E0,0E0,0E0,0E0,0E0,0E0],"parents":[2147483647,0,0,1,1,2,2,3,3,4,4,5,5,6,6,7,7,8,8,10,10,13,13,14,14,17,17,19,19,20,20,21,21,22,22,25,25,26,26,27,27,28,28,31,31,32,32,33,33],"right_children":[2,4,6,8,10,12,14,16,18,-1,20,-1,-1,22,24,-1,-1,26,-1,28,30,32,34,-1,-1,36,38,40,42,-1,-1,44,46,48,-1,-1,-1,-1,-1,-1,-1,-1,-1,-1,-1,-1,-1,-1,-1],"split_conditions":[1E0,-8.44E0,-1.2E1,-2.5E0,-1.3E1,-1.08E1,8.1E1,2.7E0,1.54E2,-5.5256512E-2,4.89991E1,3.8328566E-2,-5.5081863E-2,4.89968E1,-1.32E1,2.9533362E-2,-5.4270823E-2,3E-1,-4.759019E-2,3.3E1,1.12E1,3.0266666E1,1.65E1,1.6196641E-4,5.368175E-2,-1.1066667E1,4.9E1,3.1E1,5.05E1,-5.5233188E-2,1.2304606E-2,1.9E1,6.5E1,4.89986E1,6.2543787E-3,-2.877719E-3,-4.7668684E-2,1.5002005E-3,1.6451819E-2,-7.727602E-3,2.3219822E-2,-3.693935E-2,-5.9542223E-3,2.0206694E-2,-4.282388E-2,3.379056E-2,9.531081E-3,5.228719E-2,3.452053E-2],"split_indices":[16,25,3,3,3,8,1,8,1,0,28,0,0,28,25,0,0,11,0,1,8,38,3,0,0,25,1,1,3,0,0,1,1,28,0,0,0,0,0,0,0,0,0,0,0,0,0,0,0],"split_type":[0,0,0,0,0,0,0,0,0,0,0,0,0,0,0,0,0,0,0,0,0,0,0,0,0,0,0,0,0,0,0,0,0,0,0,0,0,0,0,0,0,0,0,0,0,0,0,0,0],"sum_hessian":[8.9049554E2,7.3026715E2,1.6022841E2,3.1653714E2,4.1372998E2,1.4047626E1,1.4618079E2,9.654226E0,3.0688293E2,1.3313891E1,4.0041608E2,2.412039E0,1.1635586E1,1.0145586E2,4.4724934E1,1.3636954E0,8.290531E0,3.035148E2,3.368116E0,3.8887875E2,1.15373125E1,6.599468E1,3.5461178E1,1.9710796E0,4.2753853E1,6.768928E1,2.3582553E2,1.66299E2,2.2257977E2,9.756778E0,1.780535E0,3.365944E1,3.233524E1,3.3504395E1,1.9567822E0,6.4429474E1,3.2598033E0,1.6275775E2,7.306777E1,1.4426514E2,2.2033855E1,5.9418404E1,1.6316136E2,2.3799067E1,9.860372E0,2.6052628E1,6.282612E0,2.0103E1,1.3401394E1],"tree_param":{"num_deleted":"0","num_feature":"44","num_nodes":"49","size_leaf_vector":"1"}},{"base_weights":[-2.7426058E-2,-6.3226335E-2,6.327035E-2],"categories":[],"categories_nodes":[],"categories_segments":[],"categories_sizes":[],"default_left":[0,0,0],"id":24,"left_children":[1,-1,-1],"loss_changes":[1.418908E3,0E0,0E0],"parents":[2147483647,0,0],"right_children":[2,-1,-1],"split_conditions":[1E0,-6.3226335E-2,6.327035E-2],"split_indices":[6,0,0],"split_type":[0,0,0],"sum_hessian":[8.8516925E2,4.523456E2,4.3282364E2],"tree_param":{"num_deleted":"0","num_feature":"44","num_nodes":"3","size_leaf_vector":"1"}},{"base_weights":[1.1956015E-2,-6.2549055E-2,6.251331E-2],"categories":[],"categories_nodes":[],"categories_segments":[],"categories_sizes":[],"default_left":[0,0,0],"id":25,"left_children":[1,-1,-1],"loss_changes":[1.371957E3,0E0,0E0],"parents":[2147483647,0,0],"right_children":[2,-1,-1],"split_conditions":[1E0,-6.2549055E-2,6.251331E-2],"split_indices":[6,0,0],"split_type":[0,0,0],"sum_hessian":[8.752621E2,4.3331708E2,4.4194498E2],"tree_param":{"num_deleted":"0","num_feature":"44","num_nodes":"3","size_leaf_vector":"1"}},{"base_weights":[-2.291409E-2,-6.1753582E-2,6.173947E-2],"categories":[],"categories_nodes":[],"categories_segments":[],"categories_sizes":[],"default_left":[0,0,0],"id":26,"left_children":[1,-1,-1],"loss_changes":[1.259588E3,0E0,0E0],"parents":[2147483647,0,0],"right_children":[2,-1,-1],"split_conditions":[1E0,-6.1753582E-2,6.173947E-2],"split_indices":[6,0,0],"split_type":[0,0,0],"sum_hessian":[8.2421106E2,4.1971417E2,4.0449686E2],"tree_param":{"num_deleted":"0","num_feature":"44","num_nodes":"3","size_leaf_vector":"1"}},{"base_weights":[-4.9703326E-3,-6.1015576E-2,6.1074156E-2],"categories":[],"categories_nodes":[],"categories_segments":[],"categories_sizes":[],"default_left":[0,0,0],"id":27,"left_children":[1,-1,-1],"loss_changes":[1.1910681E3,0E0,0E0],"parents":[2147483647,0,0],"right_children":[2,-1,-1],"split_conditions":[1E0,-6.1015576E-2,6.1074156E-2],"split_indices":[6,0,0],"split_type":[0,0,0],"sum_hessian":[7.970746E2,4.0035352E2,3.967211E2],"tree_param":{"num_deleted":"0","num_feature":"44","num_nodes":"3","size_leaf_vector":"1"}},{"base_weights":[5.473814E-3,-6.0338825E-2,6.045149E-2],"categories":[],"categories_nodes":[],"categories_segments":[],"categories_sizes":[],"default_left":[0,0,0],"id":28,"left_children":[1,-1,-1],"loss_changes":[1.128291E3,0E0,0E0],"parents":[2147483647,0,0],"right_children":[2,-1,-1],"split_conditions":[1E0,-6.0338825E-2,6.045149E-2],"split_indices":[6,0,0],"split_type":[0,0,0],"sum_hessian":[7.713258E2,3.842736E2,3.8705222E2],"tree_param":{"num_deleted":"0","num_feature":"44","num_nodes":"3","size_leaf_vector":"1"}},{"base_weights":[6.9845137E-3,1.8029086E-1,-4.2732096E-1,-2.2538042E-2,4.028616E-1,-5.7431597E-1,6.57396E-2,-1.467681E-1,9.1036606E-1,2.9428527E-1,6.0312915E-1,-1.7950957E-1,-7.3325217E-1,-3.6910692E-1,7.08233E-1,2.4956018E-2,-6.087494E-1,-4.879275E-4,9.579872E-1,3.1511895E-2,4.0038353E-1,6.741962E-1,-1.0318007E-1,-1.0133093E-2,-8.0568725E-1,-5.878669E-1,-5.568806E-2,-6.52248E-1,1.601639E-1,1.4013358E-2,9.143986E-1,-6.529723E-2,5.099065E-1,-7.1874315E-1,1.8784334E-1,4.9529307E-2,4.317746E-1,2.1898504E-1,-6.8773025E-1,-6.576918E-1,4.5336324E-1,1.9733717E-1,7.1809554E-1,-4.4883665E-2,3.8166732E-1,-4.5069534E-2,9.45863E-2,2.8879629E-3,-5.1427245E-2,-2.773166E-1,-7.8388214E-1,-5.2907743E-2,-3.834596E-2,4.3814134E-2,-5.338057E-1,2.9684681E-2,-3.4896332E-1,4.7734372E-2,9.176027E-3,-3.6683116E-2,2.293941E-3,-1.5676772E-2,3.5189282E-2,-1.565893E-2,-5.5825114E-2,-4.384316E-2,3.6998305E-2,-1.9678737E-4,3.2987174E-2,-2.5567522E-3,2.7596936E-2,-5.2678358E-2,7.889228E-3,1.1452767E-2,-4.86057E-2,2.9123051E-2,5.2200463E-3,1.8900147E-2,-1.1879389E-2,3.8267367E-2,2.5808832E-2,3.308251E-2,-6.5532536E-3,-1.5615733E-2,2.274884E-2,-2.715714E-2,7.900353E-3,1.15977945E-2,-4.3052077E-2,-2.1518292E-2,1.4314743E-2,-4.3924715E-2,3.3183545E-3,-3.806859E-2,1.4353286E-2],"categories":[],"categories_nodes":[],"categories_segments":[],"categories_sizes":[],"default_left":[0,0,0,0,0,0,0,0,0,0,0,0,0,0,0,0,0,0,0,0,0,0,0,0,0,0,0,0,0,0,0,0,0,0,0,0,0,0,0,0,0,0,0,0,0,0,0,0,0,0,0,0,0,0,0,0,0,0,0,0,0,0,0,0,0,0,0,0,0,0,0,0,0,0,0,0,0,0,0,0,0,0,0,0,0,0,0,0,0,0,0,0,0,0,0],"id":29,"left_children":[1,3,5,7,9,11,13,15,17,19,21,23,25,27,29,31,33,-1,35,37,39,41,43,45,47,49,-1,51,53,55,57,59,61,63,65,-1,67,69,71,73,75,77,79,-1,81,-1,83,-1,-1,85,87,-1,89,-1,91,-1,93,-1,-1,-1,-1,-1,-1,-1,-1,-1,-1,-1,-1,-1,-1,-1,-1,-1,-1,-1,-1,-1,-1,-1,-1,-1,-1,-1,-1,-1,-1,-1,-1,-1,-1,-1,-1,-1,-1],"loss_changes":[5.648086E1,2.422135E1,1.5550629E1,3.2764996E1,5.3841934E0,1.0220978E1,1.4245533E1,1.9795677E1,1.4652519E0,4.6658726E0,4.5352974E0,5.1546407E0,5.834675E0,4.6762733E0,2.9277468E0,8.031042E0,6.058569E0,0E0,1.1438751E-1,6.805191E0,6.9945126E0,1.5532303E0,3.809704E0,3.7557445E0,2.0512156E0,5.0781784E0,0E0,4.9611616E0,6.1507106E0,1.4107186E0,2.9079628E-1,1.1546962E1,4.8161197E0,9.266405E0,5.9366226E0,0E0,3.6178684E-1,3.6173244E0,3.3972826E0,1.9246111E0,5.090807E0,7.344727E-1,3.08712E-1,0E0,9.8985815E-1,0E0,5.435519E0,0E0,0E0,4.1603146E0,4.337044E0,0E0,1.2720124E0,0E0,1.3882681E0,0E0,1.3064067E0,0E0,0E0,0E0,0E0,0E0,0E0,0E0,0E0,0E0,0E0,0E0,0E0,0E0,0E0,0E0,0E0,0E0,0E0,0E0,0E0,0E0,0E0,0E0,0E0,0E0,0E0,0E0,0E0,0E0,0E0,0E0,0E0,0E0,0E0,0E0,0E0,0E0,0E0],"parents":[2147483647,0,0,1,1,2,2,3,3,4,4,5,5,6,6,7,7,8,8,9,9,10,10,11,11,12,12,13,13,14,14,15,15,16,16,18,18,19,19,20,20,21,21,22,22,23,23,24,24,25,25,27,27,28,28,29,29,30,30,31,31,32,32,33,33,34,34,36,36,37,37,38,38,39,39,40,40,41,41,42,42,44,44,46,46,49,49,50,50,52,52,54,54,56,56],"right_children":[2,4,6,8,10,12,14,16,18,20,22,24,26,28,30,32,34,-1,36,38,40,42,44,46,48,50,-1,52,54,56,58,60,62,64,66,-1,68,70,72,74,76,78,80,-1,82,-1,84,-1,-1,86,88,-1,90,-1,92,-1,94,-1,-1,-1,-1,-1,-1,-1,-1,-1,-1,-1,-1,-1,-1,-1,-1,-1,-1,-1,-1,-1,-1,-1,-1,-1,-1,-1,-1,-1,-1,-1,-1,-1,-1,-1,-1,-1,-1],"split_conditions":[1.033333E0,-3.166667E0,7.4E1,1E0,3.33E1,2.3E0,4.8995E1,2.21E1,-1.32E1,-1.4E0,5.33333E-1,4.89961E1,4.89938E1,5.9E1,6.18241E-1,1.2E2,-3.5E0,-4.879275E-4,7E1,4.89968E1,5E-1,1.24722E-1,1.8E1,3.7E0,1E0,2E0,-5.568806E-2,5E0,6.5E1,2.65E1,2.072572E0,-5.1066666E1,6E-1,4.89923E1,1.108553E0,4.9529307E-2,7.61E1,5.35413E-1,2.458E1,-1.1E0,1.4E1,-8.66667E-1,-4E-1,-4.4883665E-2,6.18241E-1,-4.5069534E-2,4.89907E1,2.8879629E-3,-5.1427245E-2,4.89898E-1,4.714E-2,-5.2907743E-2,-7.66E0,4.3814134E-2,2E1,2.9684681E-2,2.948E1,4.7734372E-2,9.176027E-3,-3.6683116E-2,2.293941E-3,-1.5676772E-2,3.5189282E-2,-1.565893E-2,-5.5825114E-2,-4.384316E-2,3.6998305E-2,-1.9678737E-4,3.2987174E-2,-2.5567522E-3,2.7596936E-2,-5.2678358E-2,7.889228E-3,1.1452767E-2,-4.86057E-2,2.9123051E-2,5.2200463E-3,1.8900147E-2,-1.1879389E-2,3.8267367E-2,2.5808832E-2,3.308251E-2,-6.5532536E-3,-1.5615733E-2,2.274884E-2,-2.715714E-2,7.900353E-3,1.15977945E-2,-4.3052077E-2,-2.1518292E-2,1.4314743E-2,-4.3924715E-2,3.3183545E-3,-3.806859E-2,1.4353286E-2],"split_indices":[15,15,2,16,8,15,28,8,25,15,15,28,28,1,12,1,15,0,0,28,1,12,5,38,32,4,0,32,14,1,12,15,38,28,12,0,8,12,26,8,0,15,15,0,12,0,28,0,0,12,12,0,25,0,5,0,25,0,0,0,0,0,0,0,0,0,0,0,0,0,0,0,0,0,0,0,0,0,0,0,0,0,0,0,0,0,0,0,0,0,0,0,0,0,0],"split_type":[0,0,0,0,0,0,0,0,0,0,0,0,0,0,0,0,0,0,0,0,0,0,0,0,0,0,0,0,0,0,0,0,0,0,0,0,0,0,0,0,0,0,0,0,0,0,0,0,0,0,0,0,0,0,0,0,0,0,0,0,0,0,0,0,0,0,0,0,0,0,0,0,0,0,0,0,0,0,0,0,0,0,0,0,0,0,0,0,0,0,0,0,0,0,0],"sum_hessian":[7.483742E2,5.353369E2,2.1303731E2,2.8056055E2,2.5477635E2,1.6398425E2,4.905304E1,2.4833386E2,3.222667E1,1.6680917E2,8.796718E1,4.7678257E1,1.16306E2,2.9507532E1,1.954551E1,1.8172896E2,6.6604904E1,1.6249441E0,3.0601727E1,4.8352257E1,1.1845691E2,7.9966606E1,8.000571E0,3.832721E1,9.351047E0,8.59942E1,3.0311804E1,1.907222E1,1.0435312E1,4.7199697E0,1.482554E1,1.5394406E2,2.7784899E1,5.860978E1,7.995128E0,2.7985538E1,2.616188E0,3.890663E1,9.445624E0,5.104248E0,1.1335266E2,7.20433E0,7.2762276E1,2.7093883E0,5.2911835E0,3.229925E0,3.5097286E1,2.07037E0,7.280677E0,3.42098E1,5.1784397E1,1.1045424E1,8.026794E0,5.0064077E0,5.428905E0,1.5727057E0,3.147264E0,1.3760774E1,1.064766E0,2.1156559E1,1.327875E2,5.1775765E0,2.2607323E1,2.990515E1,2.870463E1,2.529365E0,5.465763E0,1.2362037E0,1.3799844E0,2.194744E1,1.6959192E1,6.4212255E0,3.0243988E0,1.4071751E0,3.6970732E0,8.225391E1,3.1098757E1,5.1824446E0,2.0218854E0,5.670269E1,1.6059587E1,3.234507E0,2.0566761E0,1.6547562E1,1.8549723E1,2.10861E1,1.3123701E1,3.5140588E0,4.827034E1,3.488541E0,4.538254E0,3.1538591E0,2.2750459E0,1.789719E0,1.3575449E0],"tree_param":{"num_deleted":"0","num_feature":"44","num_nodes":"95","size_leaf_vector":"1"}},{"base_weights":[-1.870353E-2,1.2739521E-1,-5.303854E-1,1.1228036E-2,6.2776357E-1,-7.8408384E-1,-4.3029834E-2,-1.7729375E-1,2.2939059E-1,4.5762855E-1,8.770823E-1,-5.5918254E-2,-5.240229E-1,-2.8180858E-1,7.250667E-1,1.1296419E-2,-7.20212E-1,3.5976586E-1,-1.21649995E-1,6.3282186E-1,1.1277584E-1,-1.01056425E-2,9.2556363E-1,5.046272E-1,-6.2791574E-1,7.094527E-1,-4.1874242E-1,8.0055285E-1,5.414752E-3,-2.8609423E-2,7.76189E-1,-3.9413065E-1,-9.93632E-1,7.435643E-2,4.1992772E-1,-2.9344425E-2,-4.888739E-2,-1.3713847E-1,7.0562065E-1,-1.0017302E-1,6.2326497E-1,4.89128E-2,5.753301E-1,4.512096E-2,-9.874909E-2,-8.296429E-1,-2.8461578E-1,4.6968427E-2,4.377009E-3,-6.77356E-1,2.0757668E-1,6.891859E-3,4.3842882E-2,-1.4120457E-2,2.3030997E-3,2.5382258E-3,4.5316026E-2,-5.1253438E-2,-8.474325E-3,-5.5472553E-2,-1.0671898E-2,-2.9609967E-2,1.0788843E-2,9.368852E-3,2.5081351E-2,3.737588E-3,-4.7551557E-2,1.4257209E-2,-3.484103E-2,3.690535E-2,-1.140771E-3,4.364485E-3,-4.4468906E-2,-3.2310062E-3,4.0825076E-2,-4.6836766E-3,3.8463045E-2,-3.0548269E-2,1.9959727E-2,-1.3839579E-2,-5.035441E-2,-5.2105345E-2,9.57506E-3,-4.1094042E-2,3.0829713E-2,3.7299674E-2,-4.458737E-2],"categories":[],"categories_nodes":[],"categories_segments":[],"categories_sizes":[],"default_left":[0,0,0,0,0,0,0,0,0,0,0,0,0,0,0,0,0,0,0,0,0,0,0,0,0,0,0,0,0,0,0,0,0,0,0,0,0,0,0,0,0,0,0,0,0,0,0,0,0,0,0,0,0,0,0,0,0,0,0,0,0,0,0,0,0,0,0,0,0,0,0,0,0,0,0,0,0,0,0,0,0,0,0,0,0,0,0],"id":30,"left_children":[1,3,5,7,9,11,13,15,17,19,21,-1,23,25,27,29,31,33,35,37,39,-1,41,43,45,47,49,51,-1,53,55,57,59,61,63,65,-1,67,69,71,73,-1,75,-1,77,79,81,-1,-1,83,85,-1,-1,-1,-1,-1,-1,-1,-1,-1,-1,-1,-1,-1,-1,-1,-1,-1,-1,-1,-1,-1,-1,-1,-1,-1,-1,-1,-1,-1,-1,-1,-1,-1,-1,-1,-1],"loss_changes":[5.4658466E1,3.3058983E1,2.0044304E1,1.9070677E1,4.1444054E0,8.693016E0,1.0594553E1,2.5479916E1,9.880156E0,3.9033804E0,2.404274E0,0E0,6.933691E0,6.2609644E0,5.518317E-1,5.688089E0,5.327984E0,2.6640873E0,4.6298485E0,2.529972E0,2.6040452E0,0E0,1.8891525E-1,1.5854238E0,3.689188E0,7.333658E-1,6.495357E0,4.8913383E-1,0E0,3.3746946E0,8.262162E-1,4.2081647E0,2.8568306E0,2.8183658E0,2.3650436E0,5.275605E0,0E0,1.2828194E0,9.5920944E-1,2.645922E0,9.859681E-1,0E0,1.0781817E0,0E0,1.1055634E0,3.1724129E0,8.314692E0,0E0,0E0,5.7433844E0,7.9046564E0,0E0,0E0,0E0,0E0,0E0,0E0,0E0,0E0,0E0,0E0,0E0,0E0,0E0,0E0,0E0,0E0,0E0,0E0,0E0,0E0,0E0,0E0,0E0,0E0,0E0,0E0,0E0,0E0,0E0,0E0,0E0,0E0,0E0,0E0,0E0,0E0],"parents":[2147483647,0,0,1,1,2,2,3,3,4,4,5,5,6,6,7,7,8,8,9,9,10,10,12,12,13,13,14,14,15,15,16,16,17,17,18,18,19,19,20,20,22,22,23,23,24,24,25,25,26,26,27,27,29,29,30,30,31,31,32,32,33,33,34,34,35,35,37,37,38,38,39,39,40,40,42,42,44,44,45,45,46,46,49,49,50,50],"right_children":[2,4,6,8,10,12,14,16,18,20,22,-1,24,26,28,30,32,34,36,38,40,-1,42,44,46,48,50,52,-1,54,56,58,60,62,64,66,-1,68,70,72,74,-1,76,-1,78,80,82,-1,-1,84,86,-1,-1,-1,-1,-1,-1,-1,-1,-1,-1,-1,-1,-1,-1,-1,-1,-1,-1,-1,-1,-1,-1,-1,-1,-1,-1,-1,-1,-1,-1,-1,-1,-1,-1,-1,-1],"split_conditions":[2.333333E0,1E0,6.1E1,-3.033333E0,7.1E1,4.1266666E1,2.4439999E1,2.21E1,8.33333E-1,1E0,-1.198E1,-5.5918254E-2,4.4E1,9.666667E0,4.18E1,1.93E1,4.89923E1,1.733333E0,2.006E1,4.89832E1,6E0,-1.01056425E-2,-4E-1,3.066667E0,5E0,4.89898E1,5.9E1,3.15E1,5.414752E-3,-5.1066666E1,-5.1766666E1,-5.29E1,-3.4E0,1E0,-1.833333E0,4.89988E1,-4.888739E-2,4.9599996E0,4.66667E-1,2.66667E-1,2.1E0,4.89128E-2,3.033333E0,4.512096E-2,8.8E0,5.06E1,6.1679897E1,4.6968427E-2,4.377009E-3,4.89972E1,6.56E1,6.891859E-3,4.3842882E-2,-1.4120457E-2,2.3030997E-3,2.5382258E-3,4.5316026E-2,-5.1253438E-2,-8.474325E-3,-5.5472553E-2,-1.0671898E-2,-2.9609967E-2,1.0788843E-2,9.368852E-3,2.5081351E-2,3.737588E-3,-4.7551557E-2,1.4257209E-2,-3.484103E-2,3.690535E-2,-1.140771E-3,4.364485E-3,-4.4468906E-2,-3.2310062E-3,4.0825076E-2,-4.6836766E-3,3.8463045E-2,-3.0548269E-2,1.9959727E-2,-1.3839579E-2,-5.035441E-2,-5.2105345E-2,9.57506E-3,-4.1094042E-2,3.0829713E-2,3.7299674E-2,-4.458737E-2],"split_indices":[15,16,2,15,1,10,25,8,15,11,25,0,42,15,15,10,28,10,26,28,32,0,15,15,32,28,1,1,0,15,15,15,15,32,15,28,0,26,15,15,11,0,25,0,15,8,42,0,0,28,15,0,0,0,0,0,0,0,0,0,0,0,0,0,0,0,0,0,0,0,0,0,0,0,0,0,0,0,0,0,0,0,0,0,0,0,0],"split_type":[0,0,0,0,0,0,0,0,0,0,0,0,0,0,0,0,0,0,0,0,0,0,0,0,0,0,0,0,0,0,0,0,0,0,0,0,0,0,0,0,0,0,0,0,0,0,0,0,0,0,0,0,0,0,0,0,0,0,0,0,0,0,0,0,0,0,0,0,0,0,0,0,0,0,0,0,0,0,0,0,0,0,0,0,0,0,0],"sum_hessian":[7.292537E2,5.678644E2,1.6138933E2,4.6169757E2,1.061668E2,1.0573757E2,5.5651756E1,2.4777446E2,2.1392311E2,6.478978E1,4.137702E1,4.4822514E1,6.0915062E1,4.2937008E1,1.2714751E1,1.8462248E2,6.3151978E1,1.5597112E2,5.7951992E1,4.2409637E1,2.2380144E1,1.6426554E0,3.9734367E1,5.2341547E0,5.5680904E1,4.7039833E0,3.8233025E1,1.1062811E1,1.65194E0,1.7638286E2,8.239619E0,2.9915804E1,3.3236176E1,2.7542877E1,1.2842824E2,5.3245293E1,4.7066994E0,3.5870636E0,3.8822575E1,1.6359573E1,6.020571E0,3.297948E1,6.7548857E0,2.8557858E0,2.3783689E0,3.4179787E1,2.150112E1,3.0616615E0,1.6423218E0,2.7002096E1,1.1230927E1,1.4320135E0,9.630797E0,3.9464718E1,1.3691815E2,1.4646964E0,6.7749224E0,6.9192476E0,2.2996557E1,2.8572584E1,4.66359E0,4.2629313E0,2.3279945E1,3.4245266E1,9.4182976E1,4.866762E1,4.577671E0,2.3240683E0,1.2629951E0,3.71524E1,1.6701757E0,1.3938182E1,2.4213912E0,1.4663249E0,4.5542464E0,1.6342353E0,5.1206503E0,1.0604973E0,1.3178715E0,8.926892E0,2.5252893E1,7.839652E0,1.3661468E1,2.4617344E1,2.3847508E0,7.754438E0,3.4764898E0],"tree_param":{"num_deleted":"0","num_feature":"44","num_nodes":"87","size_leaf_vector":"1"}},{"base_weights":[1.225412E-2,-5.958202E-2,5.961855E-2],"categories":[],"categories_nodes":[],"categories_segments":[],"categories_sizes":[],"default_left":[0,0,0],"id":31,"left_children":[1,-1,-1],"loss_changes":[1.0381929E3,0E0,0E0],"parents":[2147483647,0,0],"right_children":[2,-1,-1],"split_conditions":[1E0,-5.958202E-2,5.961855E-2],"split_indices":[6,0,0],"split_type":[0,0,0],"sum_hessian":[7.2874286E2,3.6073242E2,3.680104E2],"tree_param":{"num_deleted":"0","num_feature":"44","num_nodes":"3","size_leaf_vector":"1"}},{"base_weights":[3.6317518E-3,-5.8980253E-2,5.9065785E-2],"categories":[],"categories_nodes":[],"categories_segments":[],"categories_sizes":[],"default_left":[0,0,0],"id":32,"left_children":[1,-1,-1],"loss_changes":[9.716737E2,0E0,0E0],"parents":[2147483647,0,0],"right_children":[2,-1,-1],"split_conditions":[1E0,-5.8980253E-2,5.9065785E-2],"split_indices":[6,0,0],"split_type":[0,0,0],"sum_hessian":[6.953006E2,3.4683182E2,3.484688E2],"tree_param":{"num_deleted":"0","num_feature":"44","num_nodes":"3","size_leaf_vector":"1"}},{"base_weights":[2.3532145E-2,1.7330635E-1,-4.5154914E-1,7.983544E-2,6.100787E-1,-5.8563083E-1,1.6208999E-1,-7.577215E-2,2.6884437E-1,4.6186525E-1,9.0862733E-1,-7.1193326E-1,-2.7522084E-1,-6.100544E-1,8.4933764E-1,7.457187E-2,-5.1837325E-1,8.921376E-2,4.8184264E-1,1.5475331E-1,6.506544E-1,4.7732692E-2,2.7431622E-1,-8.8066673E-1,-3.7518543E-1,2.7546093E-1,-5.258615E-1,5.9549046E-1,-5.0899714E-2,9.059547E-1,2.0018413E-3,5.141543E-3,4.2331272E-1,-1.5177627E-1,-8.8462543E-1,2.0171124E-1,-1.6731961E-1,5.76938E-1,2.9389877E-2,-2.850432E-1,4.0342295E-1,7.757902E-1,1.8447861E-1,2.9272694E-2,-6.863866E-3,-1.6813962E-1,-9.6664536E-1,6.244706E-2,-7.869863E-1,7.461425E-1,-1.2219383E-1,-7.8819335E-1,7.217418E-2,4.007776E-2,5.619949E-3,4.962384E-3,4.8037227E-2,3.088165E-3,-5.0789423E-2,-2.7038574E-2,3.0235711E-2,-4.9080364E-2,4.009002E-3,-5.3954598E-2,7.084588E-3,-2.037057E-3,1.9472634E-2,-4.8269227E-2,8.0569815E-5,1.8207101E-2,3.2252148E-2,2.1739824E-2,-3.1863604E-2,2.7823398E-2,-3.1325962E-2,-3.1141682E-2,2.5561607E-2,2.6314197E-2,4.2920057E-2,3.5330735E-2,-9.8522315E-3,8.703991E-3,-3.8610335E-2,-1.4647017E-2,-5.040425E-2,1.6973125E-2,-2.7790988E-2,-5.2489158E-2,-2.4369135E-3,1.0717957E-2,4.216304E-2,-3.821828E-2,1.1128452E-2,2.1398205E-2,-4.3792013E-2,1.2665224E-2,-3.1496532E-2],"categories":[],"categories_nodes":[],"categories_segments":[],"categories_sizes":[],"default_left":[0,0,0,0,0,0,0,0,0,0,0,0,0,0,0,0,0,0,0,0,0,0,0,0,0,0,0,0,0,0,0,0,0,0,0,0,0,0,0,0,0,0,0,0,0,0,0,0,0,0,0,0,0,0,0,0,0,0,0,0,0,0,0,0,0,0,0,0,0,0,0,0,0,0,0,0,0,0,0,0,0,0,0,0,0,0,0,0,0,0,0,0,0,0,0,0,0],"id":33,"left_children":[1,3,5,7,9,11,13,15,17,19,21,23,25,27,29,31,33,35,37,39,41,-1,43,45,47,49,51,53,-1,55,-1,57,59,61,63,65,67,69,71,73,75,77,79,-1,-1,81,83,85,87,89,91,93,95,-1,-1,-1,-1,-1,-1,-1,-1,-1,-1,-1,-1,-1,-1,-1,-1,-1,-1,-1,-1,-1,-1,-1,-1,-1,-1,-1,-1,-1,-1,-1,-1,-1,-1,-1,-1,-1,-1,-1,-1,-1,-1,-1,-1],"loss_changes":[4.8903137E1,2.1279648E1,1.3650185E1,1.2710861E1,3.648693E0,5.113426E0,1.6610912E1,1.58380165E1,7.4198875E0,3.5795126E0,5.984497E-1,5.103195E0,5.7757015E0,7.915697E0,7.1807957E-1,4.310312E0,7.965786E0,3.1228945E0,3.8128185E0,2.901229E0,2.1318245E0,0E0,5.153712E-1,3.6947708E0,6.115871E0,2.6023583E0,4.5092006E0,3.4680057E-1,0E0,5.8269024E-1,0E0,8.707513E0,5.496483E0,6.1144238E0,6.134659E0,3.4235368E0,4.474503E0,8.302765E-1,4.739915E0,3.1612773E0,2.1648483E0,1.7551804E-1,2.0446162E0,0E0,0E0,1.7861822E0,1.2673721E0,3.1424458E0,3.3279047E0,1.4382863E-1,1.9704778E0,2.4864674E0,1.3765118E0,0E0,0E0,0E0,0E0,0E0,0E0,0E0,0E0,0E0,0E0,0E0,0E0,0E0,0E0,0E0,0E0,0E0,0E0,0E0,0E0,0E0,0E0,0E0,0E0,0E0,0E0,0E0,0E0,0E0,0E0,0E0,0E0,0E0,0E0,0E0,0E0,0E0,0E0,0E0,0E0,0E0,0E0,0E0,0E0],"parents":[2147483647,0,0,1,1,2,2,3,3,4,4,5,5,6,6,7,7,8,8,9,9,10,10,11,11,12,12,13,13,14,14,15,15,16,16,17,17,18,18,19,19,20,20,22,22,23,23,24,24,25,25,26,26,27,27,29,29,31,31,32,32,33,33,34,34,35,35,36,36,37,37,38,38,39,39,40,40,41,41,42,42,45,45,46,46,47,47,48,48,49,49,50,50,51,51,52,52],"right_children":[2,4,6,8,10,12,14,16,18,20,22,24,26,28,30,32,34,36,38,40,42,-1,44,46,48,50,52,54,-1,56,-1,58,60,62,64,66,68,70,72,74,76,78,80,-1,-1,82,84,86,88,90,92,94,96,-1,-1,-1,-1,-1,-1,-1,-1,-1,-1,-1,-1,-1,-1,-1,-1,-1,-1,-1,-1,-1,-1,-1,-1,-1,-1,-1,-1,-1,-1,-1,-1,-1,-1,-1,-1,-1,-1,-1,-1,-1,-1,-1,-1],"split_conditions":[1.9E0,1E0,1E0,-3.166667E0,8.1E1,1.342E1,1.8966667E1,2.2366667E1,2.8E1,4.89924E1,2.5E1,5.3E1,1.5266667E1,9.666667E0,4.4E0,1.2E2,4.89923E1,6E-1,7E-1,3.3333E-2,5.88784E-1,4.7732692E-2,9.5E0,2.233333E0,6.75E1,3.066667E0,2.2E1,1.3219999E1,-5.0899714E-2,8E-1,2.0018413E-3,1.08E2,-8.9E1,-5.29E1,-3.5E0,-1.4E0,3.8E0,9E-1,9E-1,-4.66667E-1,2E0,1.1E1,4.89936E1,2.9272694E-2,-6.863866E-3,1.7E1,4.89787E1,5.6E1,2.1E1,1.4000001E1,4.5733334E1,2E0,2.7666668E1,4.007776E-2,5.619949E-3,4.962384E-3,4.8037227E-2,3.088165E-3,-5.0789423E-2,-2.7038574E-2,3.0235711E-2,-4.9080364E-2,4.009002E-3,-5.3954598E-2,7.084588E-3,-2.037057E-3,1.9472634E-2,-4.8269227E-2,8.0569815E-5,1.8207101E-2,3.2252148E-2,2.1739824E-2,-3.1863604E-2,2.7823398E-2,-3.1325962E-2,-3.1141682E-2,2.5561607E-2,2.6314197E-2,4.2920057E-2,3.5330735E-2,-9.8522315E-3,8.703991E-3,-3.8610335E-2,-1.4647017E-2,-5.040425E-2,1.6973125E-2,-2.7790988E-2,-5.2489158E-2,-2.4369135E-3,1.0717957E-2,4.216304E-2,-3.821828E-2,1.1128452E-2,2.1398205E-2,-4.3792013E-2,1.2665224E-2,-3.1496532E-2],"split_indices":[15,16,16,15,1,26,10,10,0,28,5,1,26,15,11,1,28,15,15,15,12,0,0,15,13,15,5,26,0,11,0,1,15,15,15,15,13,11,11,15,4,5,28,0,0,5,28,0,5,26,10,5,15,0,0,0,0,0,0,0,0,0,0,0,0,0,0,0,0,0,0,0,0,0,0,0,0,0,0,0,0,0,0,0,0,0,0,0,0,0,0,0,0,0,0,0,0],"split_type":[0,0,0,0,0,0,0,0,0,0,0,0,0,0,0,0,0,0,0,0,0,0,0,0,0,0,0,0,0,0,0,0,0,0,0,0,0,0,0,0,0,0,0,0,0,0,0,0,0,0,0,0,0,0,0,0,0,0,0,0,0,0,0,0,0,0,0,0,0,0,0,0,0,0,0,0,0,0,0,0,0,0,0,0,0,0,0,0,0,0,0,0,0,0,0,0,0],"sum_hessian":[6.851771E2,5.214271E2,1.6375E2,4.304846E2,9.094253E1,1.3442372E2,2.9326277E1,2.3643286E2,1.9405173E2,6.2474377E1,2.8468151E1,9.462735E1,3.979637E1,1.3863039E1,1.5463239E1,1.7710487E2,5.9327984E1,1.0604134E2,8.801039E1,2.4476707E1,3.799767E1,2.607135E1,2.3967993E0,6.1963985E1,3.266337E1,1.2416685E1,2.7379686E1,3.3887749E0,1.0474264E1,1.4340571E1,1.1226677E0,1.4854584E2,2.8559038E1,3.0356903E1,2.897108E1,7.386365E1,3.2177692E1,7.249785E1,1.5512546E1,8.788E0,1.5688708E1,2.9432837E1,8.564831E0,1.124411E0,1.2723885E0,6.9901733E0,5.4973812E1,1.624631E1,1.6417057E1,5.284895E0,7.1317906E0,1.8810417E1,8.569269E0,1.9133894E0,1.4753853E0,1.0908395E0,1.3249732E1,1.4163039E2,6.915455E0,4.208941E0,2.4350098E1,5.925691E0,2.4431211E1,2.431286E1,4.658221E0,3.2576637E1,4.1287014E1,4.7977E0,2.7379992E1,1.9116035E1,5.3381813E1,9.8626995E0,5.649847E0,2.35497E0,6.4330297E0,1.0372962E0,1.4651412E1,9.154505E0,2.0278332E1,3.2563052E0,5.308525E0,4.916609E0,2.0735643E0,3.6530766E0,5.1320736E1,1.1530842E1,4.715467E0,1.1796E1,4.621058E0,1.3113935E0,3.9735014E0,2.0661693E0,5.0656214E0,1.0034914E0,1.7806925E1,7.3200502E0,1.2492193E0],"tree_param":{"num_deleted":"0","num_feature":"44","num_nodes":"97","size_leaf_vector":"1"}},{"base_weights":[3.202148E-2,-5.8443476E-2,5.8489855E-2],"categories":[],"categories_nodes":[],"categories_segments":[],"categories_sizes":[],"default_left":[0,0,0],"id":34,"left_children":[1,-1,-1],"loss_changes":[9.1762744E2,0E0,0E0],"parents":[2147483647,0,0],"right_children":[2,-1,-1],"split_conditions":[1E0,-5.8443476E-2,5.8489855E-2],"split_indices":[6,0,0],"split_type":[0,0,0],"sum_hessian":[6.6959235E2,3.257475E2,3.4384488E2],"tree_param":{"num_deleted":"0","num_feature":"44","num_nodes":"3","size_leaf_vector":"1"}},{"base_weights":[2.3205506E-2,-5.800083E-2,5.79049E-2],"categories":[],"categories_nodes":[],"categories_segments":[],"categories_sizes":[],"default_left":[0,0,0],"id":35,"left_children":[1,-1,-1],"loss_changes":[8.727277E2,0E0,0E0],"parents":[2147483647,0,0],"right_children":[2,-1,-1],"split_conditions":[1E0,-5.800083E-2,5.79049E-2],"split_indices":[6,0,0],"split_type":[0,0,0],"sum_hessian":[6.4791644E2,3.1719327E2,3.3072314E2],"tree_param":{"num_deleted":"0","num_feature":"44","num_nodes":"3","size_leaf_vector":"1"}},{"base_weights":[1.1703761E-2,1.5539269E-1,-4.853853E-1,6.806219E-2,5.6651163E-1,-7.140609E-1,-1.4436975E-1,-3.4816536E-1,1.281595E-1,6.307975E-1,1.5327914E-1,-9.104414E-1,-4.710354E-1,-3.38208E-1,7.391453E-1,-7.1617976E-2,-5.2022245E-2,8.982563E-2,9.0600395E-1,7.3118407E-1,4.087885E-1,6.067903E-1,-4.9986783E-1,-9.728344E-1,1.3360941E-1,-1.0861729E-1,-8.73747E-1,1.2051933E-1,-4.7602668E-1,3.3121628E-3,4.3356936E-2,-4.9378735E-1,2.724884E-1,-9.972159E-2,2.2888337E-1,4.9359217E-2,2.65632E-3,2.4572559E-1,7.7237207E-1,-9.224831E-2,5.3419274E-1,3.8024455E-2,5.0514964E-3,-4.4344284E-2,6.1956854E-3,-3.2603785E-1,-5.3685036E-2,1.8539922E-2,-6.31296E-3,1.6441357E-1,-4.609944E-2,-9.765677E-1,8.967298E-3,4.8617405E-1,-5.2872336E-1,4.1338688E-1,-5.794532E-1,-2.514152E-3,-5.001666E-2,-3.1592395E-2,2.734755E-2,5.3585037E-3,-3.87285E-2,1.5721377E-2,-1.827278E-3,3.3563893E-2,-3.2504983E-2,3.9439272E-2,9.35387E-3,-2.6435776E-2,2.9087951E-2,-3.1667065E-2,3.1671587E-2,5.7811155E-3,-4.009727E-2,2.4185076E-2,-2.6899962E-2,-8.949022E-3,-5.2426722E-2,3.3036653E-2,-3.94834E-3,-4.088023E-2,1.16523355E-2,2.0128533E-5,3.1903185E-2,-4.6346035E-2,-1.1289403E-2],"categories":[],"categories_nodes":[],"categories_segments":[],"categories_sizes":[],"default_left":[0,0,0,0,0,0,0,0,0,0,0,0,0,0,0,0,0,0,0,0,0,0,0,0,0,0,0,0,0,0,0,0,0,0,0,0,0,0,0,0,0,0,0,0,0,0,0,0,0,0,0,0,0,0,0,0,0,0,0,0,0,0,0,0,0,0,0,0,0,0,0,0,0,0,0,0,0,0,0,0,0,0,0,0,0,0,0],"id":36,"left_children":[1,3,5,7,9,11,13,15,17,19,21,23,25,27,29,31,-1,33,35,37,39,41,43,45,47,49,51,53,55,-1,-1,57,59,61,63,-1,-1,65,67,69,71,-1,-1,-1,-1,73,-1,-1,-1,75,-1,77,-1,79,81,83,85,-1,-1,-1,-1,-1,-1,-1,-1,-1,-1,-1,-1,-1,-1,-1,-1,-1,-1,-1,-1,-1,-1,-1,-1,-1,-1,-1,-1,-1,-1],"loss_changes":[4.388183E1,1.7070694E1,1.064064E1,9.904775E0,2.1176376E0,3.4949684E0,9.935619E0,9.498393E0,1.0211132E1,1.3015614E0,4.018566E0,3.0222702E0,5.570348E0,3.0329437E0,8.459816E-1,5.481042E0,0E0,8.72303E0,1.0624237E0,7.736454E-1,1.5967517E0,5.337224E-1,1.4831395E0,2.3911247E0,2.5533757E-1,4.9422536E0,2.1506176E0,3.0278587E0,3.587428E0,0E0,0E0,3.7424908E0,5.53827E0,1.9682623E1,4.3415165E0,0E0,0E0,2.4320605E0,2.7463531E-1,2.008852E0,2.7005925E0,0E0,0E0,0E0,0E0,1.5860245E0,0E0,0E0,0E0,4.072728E0,0E0,7.7529716E-1,0E0,8.4013534E-1,1.2213378E0,4.0568435E-1,3.8483953E0,0E0,0E0,0E0,0E0,0E0,0E0,0E0,0E0,0E0,0E0,0E0,0E0,0E0,0E0,0E0,0E0,0E0,0E0,0E0,0E0,0E0,0E0,0E0,0E0,0E0,0E0,0E0,0E0,0E0,0E0],"parents":[2147483647,0,0,1,1,2,2,3,3,4,4,5,5,6,6,7,7,8,8,9,9,10,10,11,11,12,12,13,13,14,14,15,15,17,17,18,18,19,19,20,20,21,21,22,22,23,23,24,24,25,25,26,26,27,27,28,28,31,31,32,32,33,33,34,34,37,37,38,38,39,39,40,40,45,45,49,49,51,51,53,53,54,54,55,55,56,56],"right_children":[2,4,6,8,10,12,14,16,18,20,22,24,26,28,30,32,-1,34,36,38,40,42,44,46,48,50,52,54,56,-1,-1,58,60,62,64,-1,-1,66,68,70,72,-1,-1,-1,-1,74,-1,-1,-1,76,-1,78,-1,80,82,84,86,-1,-1,-1,-1,-1,-1,-1,-1,-1,-1,-1,-1,-1,-1,-1,-1,-1,-1,-1,-1,-1,-1,-1,-1,-1,-1,-1,-1,-1,-1],"split_conditions":[1.9E0,1E0,1.2700001E1,-5.1933334E1,2.66667E-1,4.7E1,4.89968E1,1.984379E1,1.2E2,1.0866667E1,7E-1,1.09E1,1.3E0,3.066667E0,1E0,1.2E2,-5.2022245E-2,-3.4E0,4.89906E1,4.89826E1,4.89902E1,4.89876E1,3.2E1,4.89816E1,2.933333E0,4.89928E1,4.89937E1,1.6833332E1,-6.227614E0,3.3121628E-3,4.3356936E-2,2E-1,5.33333E-1,1.0966667E1,6.66667E-1,4.9359217E-2,2.65632E-3,1.5E0,2.7E1,7.6833336E1,1E1,3.8024455E-2,5.0514964E-3,-4.4344284E-2,6.1956854E-3,4E0,-5.3685036E-2,1.8539922E-2,-6.31296E-3,6.513333E1,-4.609944E-2,5.57E1,8.967298E-3,1.9E1,6E0,6E0,1.1E0,-2.514152E-3,-5.001666E-2,-3.1592395E-2,2.734755E-2,5.3585037E-3,-3.87285E-2,1.5721377E-2,-1.827278E-3,3.3563893E-2,-3.2504983E-2,3.9439272E-2,9.35387E-3,-2.6435776E-2,2.9087951E-2,-3.1667065E-2,3.1671587E-2,5.7811155E-3,-4.009727E-2,2.4185076E-2,-2.6899962E-2,-8.949022E-3,-5.2426722E-2,3.3036653E-2,-3.94834E-3,-4.088023E-2,1.16523355E-2,2.0128533E-5,3.1903185E-2,-4.6346035E-2,-1.1289403E-2],"split_indices":[15,16,26,15,15,1,28,42,1,26,11,25,11,15,16,1,0,15,28,28,28,28,0,28,15,28,28,26,41,0,0,14,10,10,15,0,0,25,5,10,5,0,0,0,0,32,0,0,0,10,0,14,0,5,32,32,11,0,0,0,0,0,0,0,0,0,0,0,0,0,0,0,0,0,0,0,0,0,0,0,0,0,0,0,0,0,0],"split_type":[0,0,0,0,0,0,0,0,0,0,0,0,0,0,0,0,0,0,0,0,0,0,0,0,0,0,0,0,0,0,0,0,0,0,0,0,0,0,0,0,0,0,0,0,0,0,0,0,0,0,0,0,0,0,0,0,0,0,0,0,0,0,0,0,0,0,0,0,0,0,0,0,0,0,0,0,0,0,0,0,0,0,0,0,0,0,0],"sum_hessian":[6.1231006E2,4.755381E2,1.3677199E2,3.931831E2,8.235498E1,8.121651E1,5.555548E1,4.9002636E1,3.4418048E2,7.081233E1,1.1542647E1,4.3400112E1,3.7816395E1,4.606605E1,9.48943E0,3.5803524E1,1.319911E1,3.2907825E2,1.510221E1,4.7183647E1,2.3628687E1,6.8543315E0,4.688316E0,4.101712E1,2.3829927E0,2.0572239E1,1.7244158E1,1.0671537E1,3.5394512E1,1.7590581E0,7.7303724E0,1.5882715E1,1.9920809E1,1.3937775E2,1.8970052E2,1.3645865E1,1.4563452E0,4.234933E0,4.294871E1,4.783041E0,1.8845646E1,4.8705378E0,1.9837942E0,2.6329467E0,2.0553694E0,6.104553E0,3.4912567E1,1.0226886E0,1.3603041E0,1.599944E1,4.5727973E0,1.5776461E1,1.4676971E0,6.987392E0,3.684145E0,3.3749332E0,3.201958E1,9.054419E0,6.8282967E0,4.335033E0,1.5585775E1,1.0731794E2,3.2059803E1,1.433244E2,4.637611E1,3.0409987E0,1.1939341E0,4.143897E1,1.5097424E0,3.033925E0,1.7491158E0,1.0547441E0,1.7790903E1,3.5588524E0,2.5457008E0,1.121358E1,4.7858605E0,1.594297E0,1.4182164E1,5.2092323E0,1.7781595E0,2.6180303E0,1.0661147E0,1.5421176E0,1.8328155E0,1.5333693E1,1.6685886E1],"tree_param":{"num_deleted":"0","num_feature":"44","num_nodes":"87","size_leaf_vector":"1"}},{"base_weights":[1.2223889E-3,-5.749468E-2,5.7355195E-2],"categories":[],"categories_nodes":[],"categories_segments":[],"categories_sizes":[],"default_left":[0,0,0],"id":37,"left_children":[1,-1,-1],"loss_changes":[7.881032E2,0E0,0E0],"parents":[2147483647,0,0],"right_children":[2,-1,-1],"split_conditions":[1E0,-5.749468E-2,5.7355195E-2],"split_indices":[6,0,0],"split_type":[0,0,0],"sum_hessian":[5.9548126E2,2.9706036E2,2.9842087E2],"tree_param":{"num_deleted":"0","num_feature":"44","num_nodes":"3","size_leaf_vector":"1"}},{"base_weights":[1.3776557E-2,-5.707447E-2,5.7056855E-2],"categories":[],"categories_nodes":[],"categories_segments":[],"categories_sizes":[],"default_left":[0,0,0],"id":38,"left_children":[1,-1,-1],"loss_changes":[7.610222E2,0E0,0E0],"parents":[2147483647,0,0],"right_children":[2,-1,-1],"split_conditions":[1E0,-5.707447E-2,5.7056855E-2],"split_indices":[6,0,0],"split_type":[0,0,0],"sum_hessian":[5.8232227E2,2.8759546E2,2.9472678E2],"tree_param":{"num_deleted":"0","num_feature":"44","num_nodes":"3","size_leaf_vector":"1"}},{"base_weights":[2.3870315E-2,1.5160972E-1,-4.0621552E-1,6.7937054E-2,5.437668E-1,-5.854457E-1,7.550084E-2,-5.112691E-2,2.1388672E-1,3.835987E-1,8.696552E-1,-4.323652E-1,-5.2145302E-2,-2.6034024E-1,6.559241E-1,8.99051E-2,-4.646669E-1,9.44226E-2,4.30634E-1,8.797875E-2,5.303943E-1,1.3481284E-2,4.5207437E-2,7.623593E-2,-5.921705E-1,1.586686E-1,-5.938326E-1,1.305717E-1,8.016127E-1,5.274603E-3,5.0546354E-1,-7.0054394E-1,2.442061E-2,1.3515744E-1,-4.52135E-2,5.546796E-1,7.58335E-2,2.5836208E-1,-2.870836E-1,6.1891645E-1,-1.2935214E-1,3.7360358E-1,-3.519208E-1,-8.903569E-1,-3.7261197E-1,-3.9975688E-1,6.7744404E-1,-4.8664827E-2,1.7527246E-1,2.3747522E-2,-7.530226E-3,1.3768959E-2,4.439423E-2,-2.074152E-2,4.1258093E-3,-2.2628587E-2,3.335408E-2,-4.840158E-2,-3.4827031E-3,-4.7366377E-2,3.2740857E-2,1.1493892E-2,-6.588207E-3,-9.105793E-3,2.9516568E-2,2.8934052E-2,-2.1482985E-2,-1.1354178E-5,3.1855907E-2,2.3009732E-2,-3.1836666E-2,3.4587216E-2,2.0745916E-3,-3.977142E-2,2.7899658E-2,-1.5130837E-3,2.571638E-2,-4.1683376E-2,7.1012764E-3,1.0697083E-2,-5.1917803E-2,7.6637543E-3,-3.341048E-2,1.6570007E-2,-4.15903E-2,4.6473728E-3,3.9147332E-2,-3.1491358E-2,3.0880881E-2],"categories":[],"categories_nodes":[],"categories_segments":[],"categories_sizes":[],"default_left":[0,0,0,0,0,0,0,0,0,0,0,0,0,0,0,0,0,0,0,0,0,0,0,0,0,0,0,0,0,0,0,0,0,0,0,0,0,0,0,0,0,0,0,0,0,0,0,0,0,0,0,0,0,0,0,0,0,0,0,0,0,0,0,0,0,0,0,0,0,0,0,0,0,0,0,0,0,0,0,0,0,0,0,0,0,0,0,0,0],"id":39,"left_children":[1,3,5,7,9,11,13,15,17,19,21,23,-1,25,27,29,31,33,35,37,39,-1,-1,41,43,45,47,49,51,53,55,57,59,61,-1,63,65,67,69,71,73,75,77,79,81,83,85,-1,87,-1,-1,-1,-1,-1,-1,-1,-1,-1,-1,-1,-1,-1,-1,-1,-1,-1,-1,-1,-1,-1,-1,-1,-1,-1,-1,-1,-1,-1,-1,-1,-1,-1,-1,-1,-1,-1,-1,-1,-1],"loss_changes":[3.0856646E1,1.4167786E1,1.1149975E1,6.2306433E0,3.6323814E0,6.1222343E0,7.1428137E0,1.1585107E1,4.1281314E0,2.2417064E0,2.580948E-1,5.900179E0,0E0,3.3602853E0,9.2047215E-1,5.217365E0,5.84249E0,4.3967156E0,2.4633112E0,1.2689148E0,2.1262836E0,0E0,0E0,2.437123E0,3.2643986E0,3.5002377E0,4.030414E0,4.6877998E-1,2.2271585E-1,4.0685067E0,4.1887364E0,5.687088E0,1.1276696E1,2.6047044E0,0E0,1.2113085E0,4.291461E0,1.3108106E0,1.9427162E0,1.2776518E0,2.720183E0,6.50499E-1,2.0071204E0,3.9115067E0,5.2874904E0,2.1702514E0,3.0647612E-1,0E0,2.2468708E0,0E0,0E0,0E0,0E0,0E0,0E0,0E0,0E0,0E0,0E0,0E0,0E0,0E0,0E0,0E0,0E0,0E0,0E0,0E0,0E0,0E0,0E0,0E0,0E0,0E0,0E0,0E0,0E0,0E0,0E0,0E0,0E0,0E0,0E0,0E0,0E0,0E0,0E0,0E0,0E0],"parents":[2147483647,0,0,1,1,2,2,3,3,4,4,5,5,6,6,7,7,8,8,9,9,10,10,11,11,13,13,14,14,15,15,16,16,17,17,18,18,19,19,20,20,23,23,24,24,25,25,26,26,27,27,28,28,29,29,30,30,31,31,32,32,33,33,35,35,36,36,37,37,38,38,39,39,40,40,41,41,42,42,43,43,44,44,45,45,46,46,48,48],"right_children":[2,4,6,8,10,12,14,16,18,20,22,24,-1,26,28,30,32,34,36,38,40,-1,-1,42,44,46,48,50,52,54,56,58,60,62,-1,64,66,68,70,72,74,76,78,80,82,84,86,-1,88,-1,-1,-1,-1,-1,-1,-1,-1,-1,-1,-1,-1,-1,-1,-1,-1,-1,-1,-1,-1,-1,-1,-1,-1,-1,-1,-1,-1,-1,-1,-1,-1,-1,-1,-1,-1,-1,-1,-1,-1],"split_conditions":[1.9E0,1E0,7.4E1,-3.166667E0,8.1E1,4.89939E1,4.8995E1,2.1633333E1,3.3233334E1,4.8992E1,-1.32E1,-1.32E1,-5.2145302E-2,6.68E0,1.4E0,1.2E2,1.46E2,3.1E1,-5.33333E-1,1E0,2.66667E-1,1.3481284E-2,4.5207437E-2,2E0,4.6E1,4.3000007E0,2.05E1,2.65E1,2E0,-5.1066666E1,-8.9E1,-4.033333E0,-5.29E1,6E-1,-4.52135E-2,2E-1,8E-1,4.6E1,1E0,1.3066667E1,3.236667E1,3E0,6.5E0,2.066667E0,6.12E1,5.6266666E1,4.89824E1,-4.8664827E-2,2.97E1,2.3747522E-2,-7.530226E-3,1.3768959E-2,4.439423E-2,-2.074152E-2,4.1258093E-3,-2.2628587E-2,3.335408E-2,-4.840158E-2,-3.4827031E-3,-4.7366377E-2,3.2740857E-2,1.1493892E-2,-6.588207E-3,-9.105793E-3,2.9516568E-2,2.8934052E-2,-2.1482985E-2,-1.1354178E-5,3.1855907E-2,2.3009732E-2,-3.1836666E-2,3.4587216E-2,2.0745916E-3,-3.977142E-2,2.7899658E-2,-1.5130837E-3,2.571638E-2,-4.1683376E-2,7.1012764E-3,1.0697083E-2,-5.1917803E-2,7.6637543E-3,-3.341048E-2,1.6570007E-2,-4.15903E-2,4.6473728E-3,3.9147332E-2,-3.1491358E-2,3.0880881E-2],"split_indices":[15,16,2,15,1,28,28,10,10,28,25,25,0,26,11,1,1,0,15,11,15,0,0,4,0,26,26,1,32,15,15,15,15,15,0,11,11,0,32,25,10,32,1,15,13,15,28,0,10,0,0,0,0,0,0,0,0,0,0,0,0,0,0,0,0,0,0,0,0,0,0,0,0,0,0,0,0,0,0,0,0,0,0,0,0,0,0,0,0],"split_type":[0,0,0,0,0,0,0,0,0,0,0,0,0,0,0,0,0,0,0,0,0,0,0,0,0,0,0,0,0,0,0,0,0,0,0,0,0,0,0,0,0,0,0,0,0,0,0,0,0,0,0,0,0,0,0,0,0,0,0,0,0,0,0,0,0,0,0,0,0,0,0,0,0,0,0,0,0,0,0,0,0,0,0,0,0,0,0,0,0],"sum_hessian":[5.5953284E2,4.319016E2,1.2763121E2,3.5692044E2,7.498115E1,9.2864265E1,3.476695E1,1.9692287E2,1.5999757E2,5.1732613E1,2.3248537E1,7.103791E1,2.1826355E1,2.237305E1,1.2393898E1,1.4742741E2,4.9495453E1,1.04072044E2,5.5925533E1,1.7695797E1,3.403682E1,1.7431089E0,2.1505428E1,1.7109053E1,5.3928856E1,1.014758E1,1.22254715E1,3.1025074E0,9.29139E0,1.2332448E2,2.4102936E1,3.309976E1,1.6395695E1,1.0082427E2,3.2477722E0,4.1020546E1,1.4904984E1,1.2382034E1,5.313762E0,3.006474E1,3.972079E0,1.0171828E1,6.9372244E0,2.1573828E1,3.235503E1,4.9975204E0,5.150059E0,8.008645E0,4.2168274E0,1.0847601E0,2.0177472E0,1.8991461E0,7.3922443E0,1.8474419E1,1.0485006E2,3.219315E0,2.0883621E1,2.2869183E1,1.0230576E1,6.2534046E0,1.014229E1,7.451906E1,2.630522E1,1.7036676E0,3.931688E1,7.3994627E0,7.5055213E0,7.9522038E0,4.4298306E0,1.5930037E0,3.7207584E0,2.65217E1,3.5430381E0,1.937391E0,2.034688E0,2.8312771E0,7.3405514E0,3.1637979E0,3.7734265E0,2.4969826E0,1.9076845E1,1.181567E1,2.053936E1,1.942754E0,3.0547664E0,1.0750662E0,4.074993E0,1.3449982E0,2.871829E0],"tree_param":{"num_deleted":"0","num_feature":"44","num_nodes":"89","size_leaf_vector":"1"}},{"base_weights":[1.7538298E-3,-5.6664694E-2,5.6530595E-2],"categories":[],"categories_nodes":[],"categories_segments":[],"categories_sizes":[],"default_left":[0,0,0],"id":40,"left_children":[1,-1,-1],"loss_changes":[6.980701E2,0E0,0E0],"parents":[2147483647,0,0],"right_children":[2,-1,-1],"split_conditions":[1E0,-5.6664694E-2,5.6530595E-2],"split_indices":[6,0,0],"split_type":[0,0,0],"sum_hessian":[5.428106E2,2.7066135E2,2.721493E2],"tree_param":{"num_deleted":"0","num_feature":"44","num_nodes":"3","size_leaf_vector":"1"}},{"base_weights":[2.7972573E-2,1.7033501E-1,-3.5968488E-1,8.461723E-2,5.48159E-1,-4.5914948E-1,2.1096371E-1,-2.554747E-2,3.5199672E-1,3.405805E-1,7.893399E-1,-1.6162407E-1,-5.743519E-1,-3.9810333E-1,7.478596E-1,3.2185648E-2,-6.749539E-1,9.471091E-2,4.3899426E-1,-5.4431564E-1,4.0942052E-1,8.285202E-1,2.8964382E-1,8.241296E-5,-4.6189215E-2,-8.9953244E-1,-4.1325033E-1,6.341852E-1,-4.676917E-2,4.322719E-3,8.3556175E-1,-3.0411506E-1,9.094663E-2,1.9605303E-2,-7.5941324E-1,2.0615703E-1,-3.831731E-2,-3.7028545E-1,4.708886E-1,-3.5507873E-2,-3.9436836E-3,5.7239115E-1,-2.5250302E-3,5.4686844E-1,4.474915E-2,2.8872848E-2,-1.11883655E-2,-3.980012E-2,9.602664E-2,-9.551697E-1,1.5225688E-2,-6.877599E-1,-1.6260453E-1,4.9619726E-3,3.9713006E-2,4.3846514E-2,1.2395017E-2,1.2583395E-3,-4.9531933E-2,8.7878015E-4,3.987005E-2,-4.2071145E-2,1.0836927E-2,1.3489477E-2,-2.9493213E-2,-3.1455908E-2,4.618562E-3,2.539126E-2,-1.0310703E-2,-8.702082E-4,3.134918E-2,-4.1841578E-2,1.6818522E-2,9.290812E-3,3.9188694E-2,1.1990809E-2,-2.9521702E-2,-1.3407528E-2,-5.169141E-2,-2.6425E-3,-4.3690067E-2,-1.280538E-3,-4.4525526E-2],"categories":[],"categories_nodes":[],"categories_segments":[],"categories_sizes":[],"default_left":[0,0,0,0,0,0,0,0,0,0,0,0,0,0,0,0,0,0,0,0,0,0,0,0,0,0,0,0,0,0,0,0,0,0,0,0,0,0,0,0,0,0,0,0,0,0,0,0,0,0,0,0,0,0,0,0,0,0,0,0,0,0,0,0,0,0,0,0,0,0,0,0,0,0,0,0,0,0,0,0,0,0,0],"id":41,"left_children":[1,3,5,7,9,11,13,15,17,19,21,23,25,27,29,31,33,35,37,39,41,43,45,47,-1,49,51,53,-1,-1,55,57,59,-1,61,63,-1,65,67,-1,-1,69,71,73,-1,-1,-1,-1,75,77,-1,79,81,-1,-1,-1,-1,-1,-1,-1,-1,-1,-1,-1,-1,-1,-1,-1,-1,-1,-1,-1,-1,-1,-1,-1,-1,-1,-1,-1,-1,-1,-1],"loss_changes":[2.9635056E1,1.2669048E1,8.284761E0,9.4701395E0,3.3568058E0,4.128538E0,7.523601E0,8.585227E0,2.0577679E0,2.7009501E0,4.0101242E-1,4.4083962E0,4.258816E0,6.6970716E0,6.291647E-1,4.1916504E0,1.98248E0,2.5546553E0,1.9764099E0,2.037741E-1,2.5737104E0,6.88076E-2,7.081529E-1,2.4066062E0,0E0,2.1956158E0,4.082329E0,2.948041E-1,0E0,0E0,3.934717E-2,7.1619825E0,9.323353E0,0E0,1.5963469E0,1.3191514E0,0E0,4.4214886E-1,1.7956057E0,0E0,0E0,8.950205E-1,3.6338665E0,5.612762E-1,0E0,0E0,0E0,0E0,2.9170766E0,1.2045155E0,0E0,3.3537874E0,3.2851958E0,0E0,0E0,0E0,0E0,0E0,0E0,0E0,0E0,0E0,0E0,0E0,0E0,0E0,0E0,0E0,0E0,0E0,0E0,0E0,0E0,0E0,0E0,0E0,0E0,0E0,0E0,0E0,0E0,0E0,0E0],"parents":[2147483647,0,0,1,1,2,2,3,3,4,4,5,5,6,6,7,7,8,8,9,9,10,10,11,11,12,12,13,13,14,14,15,15,16,16,17,17,18,18,19,19,20,20,21,21,22,22,23,23,25,25,26,26,27,27,30,30,31,31,32,32,34,34,35,35,37,37,38,38,41,41,42,42,43,43,48,48,49,49,51,51,52,52],"right_children":[2,4,6,8,10,12,14,16,18,20,22,24,26,28,30,32,34,36,38,40,42,44,46,48,-1,50,52,54,-1,-1,56,58,60,-1,62,64,-1,66,68,-1,-1,70,72,74,-1,-1,-1,-1,76,78,-1,80,82,-1,-1,-1,-1,-1,-1,-1,-1,-1,-1,-1,-1,-1,-1,-1,-1,-1,-1,-1,-1,-1,-1,-1,-1,-1,-1,-1,-1,-1,-1],"split_conditions":[1.033333E0,1E0,1E0,-1.833333E0,5.7E1,2.333333E0,1.9E1,4.89969E1,6.1E0,-4E-1,2.4E1,4.89962E1,2.61E1,9.666667E0,3.15E1,-5.26E1,3.600006E-1,6E-1,6.8E-1,4.02768E-1,1.85E1,7.9E1,2.0548E-1,4.89814E1,-4.6189215E-2,2.1980001E1,4E0,-2.3800001E1,-4.676917E-2,4.322719E-3,6E0,1.72E1,1.17E2,1.9605303E-2,2.8E1,5E0,-3.831731E-2,1.8E1,1.461354E0,-3.5507873E-2,-3.9436836E-3,1.6E0,3.01E1,4.89926E1,4.474915E-2,2.8872848E-2,-1.11883655E-2,-3.980012E-2,5.5E1,6E0,1.5225688E-2,-1.32E1,7.5E1,4.9619726E-3,3.9713006E-2,4.3846514E-2,1.2395017E-2,1.2583395E-3,-4.9531933E-2,8.7878015E-4,3.987005E-2,-4.2071145E-2,1.0836927E-2,1.3489477E-2,-2.9493213E-2,-3.1455908E-2,4.618562E-3,2.539126E-2,-1.0310703E-2,-8.702082E-4,3.134918E-2,-4.1841578E-2,1.6818522E-2,9.290812E-3,3.9188694E-2,1.1990809E-2,-2.9521702E-2,-1.3407528E-2,-5.169141E-2,-2.6425E-3,-4.3690067E-2,-1.280538E-3,-4.4525526E-2],"split_indices":[15,16,16,15,1,15,8,28,8,15,5,28,13,15,1,15,26,15,26,12,8,1,12,28,0,26,32,25,0,0,32,14,1,0,5,8,0,1,12,0,0,13,8,28,0,0,0,0,1,5,0,25,8,0,0,0,0,0,0,0,0,0,0,0,0,0,0,0,0,0,0,0,0,0,0,0,0,0,0,0,0,0,0],"split_type":[0,0,0,0,0,0,0,0,0,0,0,0,0,0,0,0,0,0,0,0,0,0,0,0,0,0,0,0,0,0,0,0,0,0,0,0,0,0,0,0,0,0,0,0,0,0,0,0,0,0,0,0,0,0,0,0,0,0,0,0,0,0,0,0,0,0,0,0,0,0,0,0,0,0,0,0,0,0,0,0,0,0,0],"sum_hessian":[5.348749E2,3.9161844E2,1.4325645E2,3.201983E2,7.142015E1,1.22159355E2,2.10971E1,2.2740726E2,9.279104E1,3.9680374E1,3.1739779E1,3.476839E1,8.739096E1,1.0005331E1,1.1091768E1,2.0971385E2,1.7693409E1,2.3975311E1,6.881573E1,2.3655617E0,3.731481E1,2.8821861E1,2.9179182E0,2.9507679E1,5.260712E0,2.7433443E1,5.9957516E1,3.3631911E0,6.6421394E0,1.5310609E0,9.560708E0,3.0571524E1,1.7914232E2,1.0305754E0,1.6662834E1,2.1901226E1,2.074086E0,2.2069666E0,6.660876E1,1.3564681E0,1.0090938E0,2.6458162E1,1.085665E1,7.264595E0,2.1557266E1,1.7898183E0,1.1280999E0,2.388973E0,2.7118708E1,2.6419342E1,1.0141001E0,2.7784134E1,3.217338E1,1.1477025E0,2.2154887E0,8.472077E0,1.0886306E0,2.1312574E1,9.258949E0,1.6321591E2,1.592642E1,1.54987545E1,1.1640792E0,2.0892218E1,1.0090094E0,1.1845031E0,1.0224636E0,6.340022E1,3.2085373E0,2.2992423E0,2.415892E1,2.7116673E0,8.144982E0,3.5851102E0,3.6794848E0,2.296003E1,4.158676E0,3.167016E0,2.3252327E1,6.5873475E0,2.1196787E1,2.7948574E1,4.2248087E0],"tree_param":{"num_deleted":"0","num_feature":"44","num_nodes":"83","size_leaf_vector":"1"}},{"base_weights":[2.8355964E-3,-5.6256004E-2,5.6150466E-2],"categories":[],"categories_nodes":[],"categories_segments":[],"categories_sizes":[],"default_left":[0,0,0],"id":42,"left_children":[1,-1,-1],"loss_changes":[6.580545E2,0E0,0E0],"parents":[2147483647,0,0],"right_children":[2,-1,-1],"split_conditions":[1E0,-5.6256004E-2,5.6150466E-2],"split_indices":[6,0,0],"split_type":[0,0,0],"sum_hessian":[5.1881616E2,2.5850793E2,2.6030823E2],"tree_param":{"num_deleted":"0","num_feature":"44","num_nodes":"3","size_leaf_vector":"1"}},{"base_weights":[2.4699159E-2,1.4202826E-1,-3.6770838E-1,5.6928802E-2,5.3714013E-1,-5.644905E-1,1.19706E-1,-1.1396649E-1,2.3263967E-1,4.0084156E-1,8.06663E-1,-1.19116046E-1,-6.942061E-1,-1.6214791E-1,7.438165E-1,7.6863905E-3,-5.08003E-1,1.05467364E-1,3.809934E-1,1.2447907E-1,5.490228E-1,-1.1693974E-2,4.3811996E-2,5.876755E-2,-4.08145E-2,-8.8014024E-1,-4.5696554E-1,-5.413116E-1,1.7523594E-2,1.5241864E-2,4.042682E-2,-5.9348352E-2,3.384255E-1,-8.8096464E-1,7.082376E-2,1.2867525E-1,-3.4886755E-2,4.652567E-1,1.2406352E-1,2.373946E-1,-3.464465E-2,6.291302E-1,-8.289008E-2,-5.3611505E-1,2.8392735E-1,-2.5428596E-1,-9.6285564E-1,-7.207394E-2,-6.4737654E-1,-4.398841E-2,1.4908053E-1,2.1504456E-1,-3.912461E-2,-2.5300166E-2,9.416879E-4,-1.9666357E-2,3.3633426E-2,-5.130992E-2,-1.2455608E-2,-4.532787E-2,3.167796E-2,9.737997E-3,-3.5559416E-3,7.1064117E-3,2.8885929E-2,2.179649E-2,-1.25703355E-2,2.3575839E-2,-4.751103E-3,3.36269E-2,-4.132293E-3,-3.669491E-2,2.948369E-2,1.22229E-2,-4.035447E-2,2.083485E-2,-2.8742403E-2,-3.4165222E-2,6.06007E-3,-9.473332E-3,-5.1629018E-2,-3.747607E-2,8.797345E-3,-3.630412E-2,8.158181E-3,-1.0353889E-3,1.3912424E-2,3.5928983E-2,1.7608138E-3],"categories":[],"categories_nodes":[],"categories_segments":[],"categories_sizes":[],"default_left":[0,0,0,0,0,0,0,0,0,0,0,0,0,0,0,0,0,0,0,0,0,0,0,0,0,0,0,0,0,0,0,0,0,0,0,0,0,0,0,0,0,0,0,0,0,0,0,0,0,0,0,0,0,0,0,0,0,0,0,0,0,0,0,0,0,0,0,0,0,0,0,0,0,0,0,0,0,0,0,0,0,0,0,0,0,0,0,0,0],"id":43,"left_children":[1,3,5,7,9,11,13,15,17,19,21,23,25,27,29,31,33,35,37,39,41,-1,-1,43,-1,45,47,49,51,-1,-1,53,55,57,59,61,-1,63,65,67,-1,69,71,73,75,77,79,81,83,-1,85,87,-1,-1,-1,-1,-1,-1,-1,-1,-1,-1,-1,-1,-1,-1,-1,-1,-1,-1,-1,-1,-1,-1,-1,-1,-1,-1,-1,-1,-1,-1,-1,-1,-1,-1,-1,-1,-1],"loss_changes":[2.3092606E1,1.2947111E1,1.11424675E1,9.596115E0,2.1849499E0,4.679573E0,6.10753E0,7.780453E0,2.9305105E0,1.8701124E0,1.7936707E0,2.503515E0,2.4046764E0,1.6626732E0,5.943775E-2,2.7902114E0,8.327418E0,1.695944E0,1.5074301E0,1.8086956E0,1.5971088E0,0E0,0E0,2.390155E0,0E0,1.5459824E0,2.154778E0,1.9615829E0,2.9231174E0,0E0,0E0,3.6670365E0,5.451038E0,1.8877869E0,9.334758E0,1.1307089E0,0E0,1.8830032E0,2.3599396E0,1.3209487E0,0E0,8.9606094E-1,2.3230789E0,1.2408694E0,1.6960511E0,9.5225203E-1,1.4326744E0,1.9914031E0,1.3925104E0,0E0,8.103075E-2,1.3117511E0,0E0,0E0,0E0,0E0,0E0,0E0,0E0,0E0,0E0,0E0,0E0,0E0,0E0,0E0,0E0,0E0,0E0,0E0,0E0,0E0,0E0,0E0,0E0,0E0,0E0,0E0,0E0,0E0,0E0,0E0,0E0,0E0,0E0,0E0,0E0,0E0,0E0],"parents":[2147483647,0,0,1,1,2,2,3,3,4,4,5,5,6,6,7,7,8,8,9,9,10,10,11,11,12,12,13,13,14,14,15,15,16,16,17,17,18,18,19,19,20,20,23,23,25,25,26,26,27,27,28,28,31,31,32,32,33,33,34,34,35,35,37,37,38,38,39,39,41,41,42,42,43,43,44,44,45,45,46,46,47,47,48,48,50,50,51,51],"right_children":[2,4,6,8,10,12,14,16,18,20,22,24,26,28,30,32,34,36,38,40,42,-1,-1,44,-1,46,48,50,52,-1,-1,54,56,58,60,62,-1,64,66,68,-1,70,72,74,76,78,80,82,84,-1,86,88,-1,-1,-1,-1,-1,-1,-1,-1,-1,-1,-1,-1,-1,-1,-1,-1,-1,-1,-1,-1,-1,-1,-1,-1,-1,-1,-1,-1,-1,-1,-1,-1,-1,-1,-1,-1,-1],"split_conditions":[1.9E0,1E0,7.4E1,-3.5E0,8.1E1,-1.3000001E1,4.89964E1,2.21E1,2.49E1,4.89924E1,-1.198E1,4.89939E1,4.6E1,-6.76E0,1E0,1.2E2,1.46E2,1E1,-8E-1,4.89907E1,2.66667E-1,-1.1693974E-2,4.3811996E-2,6.5E0,-4.08145E-2,2.233333E0,6.12E1,4.35E1,6.56E1,1.5241864E-2,4.042682E-2,-5.1066666E1,5.9E0,-4.033333E0,-5.29E1,4.89969E1,-3.4886755E-2,-2.566667E0,9E-1,2.66667E-1,-3.464465E-2,2.3E0,3.236667E1,-2.35E1,1.0533333E1,4E0,4.89787E1,4.3E0,2.7E1,-4.398841E-2,2E1,-5.180001E0,-3.912461E-2,-2.5300166E-2,9.416879E-4,-1.9666357E-2,3.3633426E-2,-5.130992E-2,-1.2455608E-2,-4.532787E-2,3.167796E-2,9.737997E-3,-3.5559416E-3,7.1064117E-3,2.8885929E-2,2.179649E-2,-1.25703355E-2,2.3575839E-2,-4.751103E-3,3.36269E-2,-4.132293E-3,-3.669491E-2,2.948369E-2,1.22229E-2,-4.035447E-2,2.083485E-2,-2.8742403E-2,-3.4165222E-2,6.06007E-3,-9.473332E-3,-5.1629018E-2,-3.747607E-2,8.797345E-3,-3.630412E-2,8.158181E-3,-1.0353889E-3,1.3912424E-2,3.5928983E-2,1.7608138E-3],"split_indices":[15,16,2,15,1,25,28,8,8,28,25,28,0,25,16,1,1,25,15,28,15,0,0,1,0,15,8,1,15,0,0,15,8,15,15,28,0,15,11,25,0,11,10,3,15,32,28,15,5,0,5,25,0,0,0,0,0,0,0,0,0,0,0,0,0,0,0,0,0,0,0,0,0,0,0,0,0,0,0,0,0,0,0,0,0,0,0,0,0],"split_type":[0,0,0,0,0,0,0,0,0,0,0,0,0,0,0,0,0,0,0,0,0,0,0,0,0,0,0,0,0,0,0,0,0,0,0,0,0,0,0,0,0,0,0,0,0,0,0,0,0,0,0,0,0,0,0,0,0,0,0,0,0,0,0,0,0,0,0,0,0,0,0,0,0,0,0,0,0,0,0,0,0,0,0,0,0,0,0,0,0],"sum_hessian":[4.994337E2,3.849673E2,1.1446641E2,3.1768762E2,6.727968E1,8.1432014E1,3.3034397E1,1.6122885E2,1.5645876E2,4.63351E1,2.094458E1,1.8800245E1,6.263177E1,2.3267002E1,9.767393E0,1.239436E2,3.728524E1,8.516458E1,7.1294174E1,1.6814878E1,2.9520218E1,1.1647005E0,1.977988E1,1.570805E1,3.092195E0,3.3593445E1,2.9038324E1,6.833458E0,1.6433544E1,1.9886918E0,7.778702E0,1.0373831E2,2.0205292E1,2.2357445E1,1.4927795E1,8.358914E1,1.5754443E0,5.3076317E1,1.8217861E1,1.5397377E1,1.4175009E0,2.620289E1,3.3173285E0,3.9337795E0,1.177427E1,4.3971634E0,2.9196283E1,1.0067225E1,1.8971098E1,4.401415E0,2.4320433E0,1.3765975E1,2.6675692E0,1.4638179E1,8.9100136E1,6.2799454E0,1.3925347E1,1.7671476E1,4.6859684E0,5.2311482E0,9.696648E0,6.2831833E1,2.0757307E1,1.4287854E1,3.8788464E1,9.863881E0,8.353981E0,8.788885E0,6.6084924E0,2.474871E1,1.4541785E0,1.6393375E0,1.677991E0,1.0389161E0,2.8948631E0,1.0643522E1,1.1307479E0,1.6696738E0,2.7274897E0,2.7219272E0,2.6474356E1,2.1560771E0,7.9111485E0,1.7386972E1,1.584127E0,1.4135921E0,1.0184512E0,2.8341584E0,1.0931816E1],"tree_param":{"num_deleted":"0","num_feature":"44","num_nodes":"89","size_leaf_vector":"1"}},{"base_weights":[1.2694144E-2,1.16973095E-1,-4.0724206E-1,4.8920624E-2,4.5422113E-1,-8.662166E-1,-1.8904394E-1,-7.907183E-2,1.8704425E-1,3.107878E-1,7.4623704E-1,2.2737933E-2,-9.55711E-1,-3.34472E-1,4.4797367E-1,4.3795336E-2,-4.5181802E-1,2.9472888E-1,-8.027481E-2,3.6282116E-1,-4.5659637E-1,8.11443E-1,2.2782023E-1,-2.443894E-1,-5.1324505E-2,-2.3361714E-1,-4.7017302E-2,-3.3113144E-2,6.554386E-1,7.9445345E-3,7.6248133E-1,-6.5576756E-1,1.5285565E-2,1.3398437E-1,4.5157945E-1,-4.2195093E-2,-2.2352752E-3,4.4030008E-1,2.9576924E-2,3.1366746E-4,-3.3036422E-2,1.4850773E-2,4.2612456E-2,2.7056856E-2,-1.3142685E-2,-3.329542E-2,1.6363218E-2,-3.6030495E-1,4.0883824E-1,-9.271055E-6,3.723831E-2,-2.7828375E-3,2.0529283E-2,4.286459E-2,1.2784252E-2,-4.6202537E-2,-4.781631E-3,-4.5139667E-2,3.3488292E-2,1.0096676E-2,-4.2071335E-2,-3.7503783E-2,2.5332117E-2,2.212195E-2,-1.2565883E-2,-1.4637807E-2,2.4425782E-2,2.1190345E-2,-2.9984076E-2,-1.1998043E-2,-4.6228107E-2,2.8111988E-3,3.1508576E-2],"categories":[],"categories_nodes":[],"categories_segments":[],"categories_sizes":[],"default_left":[0,0,0,0,0,0,0,0,0,0,0,0,0,0,0,0,0,0,0,0,0,0,0,0,0,0,0,0,0,0,0,0,0,0,0,0,0,0,0,0,0,0,0,0,0,0,0,0,0,0,0,0,0,0,0,0,0,0,0,0,0,0,0,0,0,0,0,0,0,0,0,0,0],"id":44,"left_children":[1,3,5,7,9,11,13,15,17,19,21,-1,23,25,27,29,31,33,35,37,39,41,43,45,-1,47,-1,-1,49,51,53,55,57,59,61,-1,63,65,67,-1,-1,-1,-1,-1,-1,-1,-1,69,71,-1,-1,-1,-1,-1,-1,-1,-1,-1,-1,-1,-1,-1,-1,-1,-1,-1,-1,-1,-1,-1,-1,-1,-1],"loss_changes":[2.1506674E1,9.005038E0,9.621E0,5.8207197E0,2.5292368E0,4.123411E0,6.403119E0,7.8586392E0,4.5791216E0,1.9993105E0,5.250416E-1,0E0,1.2366524E0,3.1733356E0,3.4223003E0,3.3341732E0,4.0607767E0,2.7891273E0,2.7530391E0,1.1117525E0,3.215109E-1,1.3026333E-1,7.167037E-1,1.1784785E0,0E0,4.1300898E0,0E0,0E0,6.697378E-1,3.21087E0,7.626653E-2,4.3628206E0,8.956848E0,3.963716E0,4.137125E0,0E0,4.8678293E0,1.3897443E0,2.5586884E0,0E0,0E0,0E0,0E0,0E0,0E0,0E0,0E0,2.5897694E0,6.3017666E-1,0E0,0E0,0E0,0E0,0E0,0E0,0E0,0E0,0E0,0E0,0E0,0E0,0E0,0E0,0E0,0E0,0E0,0E0,0E0,0E0,0E0,0E0,0E0,0E0],"parents":[2147483647,0,0,1,1,2,2,3,3,4,4,5,5,6,6,7,7,8,8,9,9,10,10,12,12,13,13,14,14,15,15,16,16,17,17,18,18,19,19,20,20,21,21,22,22,23,23,25,25,28,28,29,29,30,30,31,31,32,32,33,33,34,34,36,36,37,37,38,38,47,47,48,48],"right_children":[2,4,6,8,10,12,14,16,18,20,22,-1,24,26,28,30,32,34,36,38,40,42,44,46,-1,48,-1,-1,50,52,54,56,58,60,62,-1,64,66,68,-1,-1,-1,-1,-1,-1,-1,-1,70,72,-1,-1,-1,-1,-1,-1,-1,-1,-1,-1,-1,-1,-1,-1,-1,-1,-1,-1,-1,-1,-1,-1,-1,-1],"split_conditions":[2.333333E0,1E0,2.6E1,-3.166667E0,8.1E1,3.4E1,1E0,2.18E1,7E-1,2.5E0,2.4E1,2.2737933E-2,4.89787E1,7.483905E1,8E-1,1.93E1,1.46E2,-1.333333E0,3.8E0,2.66667E-1,1.3E1,9.2E0,5E-1,4.8978E1,-5.1324505E-2,6.5E1,-4.7017302E-2,-3.3113144E-2,1.69E1,4.6E1,2.25E1,-4.033333E0,-5.29E1,4.89978E1,5E-1,-4.2195093E-2,9.5E0,4.89814E1,7E-1,3.1366746E-4,-3.3036422E-2,1.4850773E-2,4.2612456E-2,2.7056856E-2,-1.3142685E-2,-3.329542E-2,1.6363218E-2,6.3533333E1,4.89886E1,-9.271055E-6,3.723831E-2,-2.7828375E-3,2.0529283E-2,4.286459E-2,1.2784252E-2,-4.6202537E-2,-4.781631E-3,-4.5139667E-2,3.3488292E-2,1.0096676E-2,-4.2071335E-2,-3.7503783E-2,2.5332117E-2,2.212195E-2,-1.2565883E-2,-1.4637807E-2,2.4425782E-2,2.1190345E-2,-2.9984076E-2,-1.1998043E-2,-4.6228107E-2,2.8111988E-3,3.1508576E-2],"split_indices":[15,16,1,15,1,24,16,8,15,11,5,0,28,41,11,10,1,15,13,